-0.32345587,-1.2315212,-0.38502797,-1.8454311,-3.4449096,-0.7655399,2.7686758,-0.1021172,0.30929676,-0.23597828,2.8593664,1.5671066,3.8126795,-1.3992882,-2.9403613,-2.7712755,-1.9383144,0.7942121,-0.089364626,-3.1832497,-0.5479597,3.0522711,1.4393022,-1.096386,-0.71629626,1.788244,-0.26676157,0.44365254,0.39403927,0.24175344,0.15685645,0.0053799455,-0.4612737,0.5859015,0.25339463,0.31802243,-0.55095935,1.4353942,-0.47455576,1.9804182,0.9750966,-0.19401443,1.8643097,-3.6416183,-1.3686365,1.028306,-0.04561604,-0.36593184,0.60187316,-0.10832907,0.053339522,0.6510352,0.33178565,-0.07693647,1.35321,-0.021456528,-0.8484248,1.2498806,-1.0711446,1.1471871,1.625324,-0.9882179,-0.54388595,0.67921114,-0.62447673,-0.56430554,0.56641513,0.17271906,0.1386848,0.14322414,1.0404922,0.74745363,-0.22234999,-2.1213355,2.7948775,-3.8444617,4.540544,-0.8987927,-0.5444098,2.3429537,-1.8442488,-0.7554782,2.889155,-2.0069046,1.5272102,1.635768,-3.1398973,0.79819393,0.3980494,-1.2359278,1.0418587,-3.2190077,-2.2926865,-0.8140143,-1.6823143,5.038841,1.6219997,2.3349123,-1.8888417,0.15546933,-0.07678496,0.24618706,0.4658729,0.75072837,0.76041967,-0.30780306,0.32438356,-0.3209948,0.09310661,1.9818348,-1.9263345,-1.4216671,5.3813276,-3.4359202,0.28582945,-5.6626034,6.115203,-0.70137995,-0.88358593,1.3130444,-0.17871788,-0.9547361,-0.7321011,-0.68414795,-1.3986502,-1.019872,-0.38194072,2.2600842,-1.0593743,-0.13619198,1.1637635,2.6874104,-1.5346456,-0.7771238,-0.63653976,-2.0204532,2.3334308,0.7491385,2.195024,-1.2577323,-0.29541972,1.5576562,0.09390734,-1.0690606
