-0.012074465,0.058888968,0.005067087,-0.0068067363,0.029835625,0.0033409684,0.08622418,-0.015832538,0.044617724,-0.066968516,-0.08390356,-0.07970582,-0.07587102,0.011049109,-0.012647231,-0.07683518,-0.023156088,0.04319926,-0.036615632,0.027982246,0.016573014,0.039576802,0.00051610987,-0.015000847,0.0872672,-0.012700347,0.07280341,-0.03233168,0.030900508,-0.010369362,-0.049483426,0.011313061,-0.022511853,0.01668761,-0.01573578,-0.021750448,-0.025107853,0.0042866464,-0.048975825,0.0026384396,-0.06405613,-0.0025371565,0.026719492,-0.040159866,-0.04754219,0.01788371,-0.038805366,-0.005340151,-0.03705706,-0.020084858,0.0020927056,0.02924406,-0.01660985,0.029263025,-0.03782009,-0.005630852,-0.042409275,-0.08529505,-0.028430466,-0.018304132,-0.011587589,-0.011893525,-0.013423595,0.0024319075,-0.026399795,0.022548782,-0.030084165,-0.025216298,0.0668216,0.028172921,-0.0063867434,-0.011694458,-0.006373455,0.0047885794,-0.0122689465,-0.13619903,-0.059926186,-0.010703766,0.15456589,-0.08554796,0.076897874,0.017466038,0.024026114,0.0033872877,0.04600451,-0.028615512,-0.08530534,0.012097923,0.061906874,0.0009847824,-0.042932928,-0.029829463,0.0027150835,-0.060505684,0.003610581,0.05110869,-0.026038012,0.019777255,-0.046690803,0.017547848,0.010899141,0.007344639,-0.029557144,-0.02294169,0.026620174,0.02152174,-4.262546e-05,0.007369933,-0.018909588,-0.018405227,-0.017104177,-0.02771812,-0.008640422,-0.057572305,0.02077221,-0.030877765,0.1406175,-0.016532248,0.057741173,0.023270307,0.09286752,0.071709305,-0.013828814,-0.06457991,-0.045344204,0.04405033,-0.05040381,-0.033697236,-0.02834093,-0.046371788,-0.01378863,-0.052903354,0.061514344,-0.04207197,-0.005411134,-0.025618592,0.030408664,-0.008859452,0.024572005,0.017998377,-0.022793582,-0.043009892,0.019958748,0.057513986,-0.062158685,-0.04943786,-0.017888421,-0.040474635,-0.02951321,-0.016645312,-0.0010728901,0.015166503,-0.063351415,0.014985887,-0.053930666,0.025993975,-0.052050155,0.084012896,0.11196846,0.06586561,-0.027627343,-0.045441322,0.03919753,-0.01984338,0.033819083,0.037834175,-0.014178245,-0.1379077,-0.0036208155,0.029819777,-0.0077410177,-0.01835628,-0.026706195,0.013938447,0.004571251,-0.0037317052,-0.010976136,0.015742201,-0.0056946976,-0.03795079,0.0006584943,-0.009609985,0.01695834,-0.034354243,0.021212943,0.0014479832,0.017752502,-0.003366339,-0.016894402,0.020871434,-0.011220311,0.010606209,0.016391523,0.008854017,-0.03346153,0.0036103935,0.002940871,-0.048700273,-0.039488755,-0.0385243,-0.005538184,0.05097392,-0.026868349,-0.050573815,-0.0085498355,0.028310256,-0.05501105,0.00069489074,0.02728608,-0.0020486738,0.06956971,-0.007574214,-0.018164922,-0.054225404,-0.039965693,-0.045887947,0.034984402,-0.02423291,-0.08550103,0.09618477,-0.061039485,-0.036606874,-0.09173301,-0.11002982,0.09884012,-0.046018843,-0.10021758,0.012931825,-0.06275554,-0.034403432,0.053202163,0.005781609,-0.013393965,-0.099166974,0.029609753,0.019252686,0.050044794,0.028310547,-0.00034045274,-0.04359286,-0.06675085,-0.0279998,0.010284933,0.017258013,0.051252063,0.007111996,0.0017683073,0.030611707,-0.020600947,0.0032002123,-0.028431714,-0.040322598,0.08415095,0.061365895,0.016794547,0.060250275,0.034764916,0.024448069,-0.073713325,-0.040201925,0.024424031,-0.016164992,-0.052929595,-0.06506743,-0.05605351,-0.012490527,0.020660099,-0.020748464,0.017157245,0.016924242,-0.03923593,-0.012881961,0.02262867,0.047251698,-0.060789064,-0.04843003,-0.019893242,-0.03868962,-0.029930396,0.03935601,-0.024076857,-0.028140843,0.021719646,0.066032454,-0.01627737,0.057876747,0.009296972,0.021509552,-0.09331937,0.01926493,-0.0035777695,-0.05907127,-0.018352915,-0.103279874,0.0013217861,-0.008636481,-0.036834117,-0.038699433,0.04524251,-0.03538,0.037760865,0.009921278,-0.10608169,-0.093593255,0.08136784,-0.012460172,0.053092085,-0.0073439167,0.030665798,-0.018551512,-0.030760862,0.0059505193,0.068537,0.08724254,-0.074530944,-0.007895243,-0.010255859,-0.00754683,0.045786787,0.034146618,0.05749815,-0.036245592,0.026095416,0.01164652,-0.030022627,-0.05304113,0.00093652523,-0.01935386,-0.022258496,0.06046846,0.036052402,0.11435266,0.051975664,-0.018012445,-0.037430383,0.040391613,-0.056970786,0.03967932,-7.8637655e-05,0.0012770594,-0.013510744,0.013703714,0.0074327546,-0.034345303,0.001766838,-0.03253124,-0.041563943,0.065794826,-0.0031157443,0.034618385,-0.0155541515,-0.016392812,0.02081083,0.031020368,0.002120028,0.055089332,0.026039068,0.052618008,-0.03255146,-0.071550906,-0.10419005,-0.07748321,-0.11917403,0.0011449523,0.0352257,-0.09266671,0.061476808,0.07713508,-0.012838855,-0.103987075,-0.0966668,-0.11032682,-0.11642629,-0.039884873,-0.062086064,-0.11696953,0.107148476,-0.02194833,0.044779476,-0.022663819,0.022242974,-0.08698052,-0.031193212,-0.044047516,-0.034066074,0.004516867,-0.057662204,0.018750643,0.050666016,0.046332404,0.018212384,0.07973125,0.043008395,0.062560625,0.06566923,-0.0016322418,-0.0565154,0.0490071,-0.02548945,-0.0041524526,-0.07479678,-0.056372967,0.121428095,0.033887815,0.00917787,-0.028657414,-0.0073369467,-0.03627319,-0.0751484,0.017258188,0.017338416,-0.05047045,-0.06926612,-0.038626052,-0.03074617,0.025294207,-0.04965261,0.04700025,0.05081814,0.047408145,0.011557847,0.032691997,-0.06885184,0.012907584,-0.053150784,-0.05686811,-0.06509085,-0.018616173,-0.0006938625,-0.0024882634,0.029568547,-0.018203713,-0.055758897,0.022488968,0.05417176,0.08963861,0.09119079,-0.012089899,0.018476611,0.047528774,0.029956495,0.07948013,0.064467594,-0.036056373,-0.02381085,-0.010786112,-0.03039567,-0.00080888835,-0.07236364,-0.02163613,-0.038771726,-0.030592782,0.018929223,-0.0062243324,-0.03565169,-0.025600089,0.0577549,-0.041124955,-0.028465277,-0.025139421,-0.015483161,-0.028817445,0.025835047,-0.010765498,0.020560058,-0.030192286,0.037539024,0.032509986,-0.03585593,0.044236448,0.055364706,0.036763612,-0.0022389616,0.014792286,0.019651232,-0.03567384,0.100376114,-0.0019557122,-0.041808583,0.023028875,-0.039035983,0.036905576,0.00452132,0.01217952,-0.003924677,-0.0061744964,0.0073740156,0.00014416789,0.003170767,0.0054557673,0.037868332,0.049393166,0.006411971,0.0282202,0.034855366,-0.024324948,0.014641352,0.007698386,0.034263797,-0.015816107,-0.013683344,-0.010765268,-0.035975553,0.022165334,-0.03509377,-0.09782732,-0.014971154,-0.08180973,-0.086552374,0.08957414,-0.063251115,-0.0019304105,0.10817216,-0.08686326,0.01944911,0.008980312,-0.0063380427,-0.045984134,0.026531387,-0.024808945,-0.050563224,-0.076552145,-0.00481417,-0.06058658,-0.021476714,-0.0012637161,-0.034677073,-0.050103698,-0.0026548312,0.046266776,-0.01957792,0.011114412,0.020813132,-0.02195429,-0.0077563156,-0.031562015,-0.0052159294,0.0035943752,-0.03784793,-0.04389889,-0.04347865,0.035824213,0.018621866,0.011564802,-0.00301024,-0.050371304,0.000409817,-0.023361424,-0.06104102,0.006086679,0.08551831,0.037359174,0.06801011,0.10903187,0.06950765,0.020672366,0.07468802,-0.025601551,-0.02209167,0.06451632,0.009331129,0.048279904,0.016656065,-0.033453606,0.00031571262,-0.033177078,-0.029998336,0.022966592,-0.0407915,-0.01913017,-0.028293239,0.051331922,0.08471311,-0.008120476,-0.0068293083,0.04649074,-0.025203006,-0.06326411,0.05775477,0.025370058,-0.0925911,-0.007954856,0.0008223169,-0.054818578,-0.017590532,-0.038495574,-0.11327453,-0.045530353,-0.0207348,-0.03963572,0.009081113,-0.057642505,0.011145067,0.029892623,0.055663295,0.0035524552,0.025874998,-0.059626985,-0.024756944,-0.012886872,-0.060224663,-0.07874311,-0.025851358,0.03498479,0.04390014,-0.018874008,-0.018810563,0.051077995,-0.023695255,-0.020795718,0.05815268,-0.028964302,-0.04166773,-0.047449335,0.118826166,-0.033847816,-0.05859137,0.006715638,-0.05351329,0.011852685,0.08442769,0.030988306,-0.0042735445,-0.03365099,0.025590878,-0.019119643,-0.014541166,-0.022586172,0.02221626,-0.0046430323,0.011799109,-0.0054695387,-0.0047501223,-0.034046628,-0.036595732,-0.023916489,0.023040535,0.03476133,-0.025149472,-0.02010307,0.059194785,-0.016674483,-0.011872977,0.058783118,-0.05761942,-0.022607585,0.046648547,-0.01759754,-0.016189234,-0.033907276,-0.0041359533,-0.01341408,-0.016376061,-0.026138328,-0.051750597,-0.018227285,0.0006645237,-0.08070599,-0.051755864,0.059000622,-0.066123195,-0.015547857,0.021182574,-0.03892972,0.1292702,0.027483683,0.033412285,-0.017208185,-0.062665105,-0.07479145,-0.0926789,-0.124239996,-0.08970594,-0.05829637,-0.09883654,-0.008311438,0.03147034,-0.046114,-0.0247147,-0.0072995173,0.01532476,-0.002922438,-0.0060399077,-0.006957912,0.0132836895,-0.03682136,0.003944006,0.015880398,0.0010406772,-0.016847812,-0.048148435,0.007103556,-0.017602667,0.018380981,-0.057454377,0.061243843,-0.00216886,-0.033917256,0.033067565,0.019446785,-0.04544357,0.08042203,0.0053865123,-0.007800306,-0.011547703,-0.013837167,-0.002842156,-0.0548675,-0.01754601,-0.008775074,-0.061920423,-0.021324107,0.019386135,-0.05977373,-0.047720566,0.010619116,-0.053546596,-0.034780696,0.034741804,-0.042493448,0.035679832,-0.038998898,0.033706363,0.006009116,-0.003578747,0.006261911,0.04586311,-0.010344633,0.021983601,-0.027220955,-0.019093052,-0.02119205,0.07378291,0.02331202,0.009510327,0.007263845,0.058760945,-0.029833509,0.038827103,-0.014877541,-0.062303897,-0.11025085,-0.08617784,0.021274213,-0.052412134,0.024532799,-0.03237984,-0.0012376277,0.008226287,0.05166037,0.004281331,-0.07119559,-0.011677543,-0.004201356,-0.062300783,-0.0335994,0.0022155868,-0.0618764,-0.06025902,0.017475018,0.06683805,0.021382859,-0.010126617,-0.029631427,-0.032361098,-0.017858705,0.013335466,-0.024917634,-0.034082063,-0.00878721,-0.043675795,-0.10629037,0.0011799459,0.025495792,-0.0591136,0.024455477,-0.016640866,-0.05034262,-0.027832184,0.009309644,0.023207167,-0.025433738,-0.041802097,-0.05932758,-0.008267649,0.021457126,-0.043158844,-0.044522803,-0.042246625,-0.05505276,-0.07935389,-0.009090674,-0.015732286,-0.06274733,0.0026930564,-0.012551262,0.041024193,-0.046243034,-0.009909938,-0.020839194,-0.06862109,0.055159792,-0.023485072,0.018512463,0.007618831,-0.024742967,-0.0050720954,0.07406598,0.10597319,0.037217,-0.047305893,-0.05575315,-0.030853067,-0.008199643,0.080792196,-0.08518699,0.04973088,-0.011650627,-0.0017503111,-0.056385417,-0.054996647,-0.0082832,0.017486984,-0.05739781,0.036232688,-0.08454615,0.0077847023,0.027284844,0.012928254,0.020137494,0.006226494,-0.00918354,0.025347406,-0.0074710464,-0.03126356,-0.0040422445,-0.005018293,-0.021390574,-0.032608487,0.055294614,0.02832095,-0.00086166384,0.027905995,-0.03353461,-0.027107656,0.011205431,-0.030174118,-0.045822125,-0.010677481,-0.072687514,-0.0050195055,0.03297583,-0.061759226,-0.030267842,0.015526393,-0.0057126964,0.030165803,-0.013712499,-0.06064246,-0.001460109,0.0054191034,-0.027194047,-0.03818112,-0.038185004,0.013612475,-0.022564534,0.00081793795,0.049610447,-0.0012645149,0.026118333,0.044938866,0.06511843,-0.006461048,-0.061380822,0.018597953,0.0058048116,-0.031418726,-0.002793225,-0.035376355,0.023288889,-0.025246626,-0.0049303235,0.0050929403,-0.012214205,-0.03268282,0.06528775,-0.03378856,-0.0022856395,-0.0064005917,0.0019685607,-0.00702464,-0.013771146,-0.03114264,-0.023457503,-0.03910254,-0.021535808,-0.03388668,0.0037029511,-0.042572793,-0.031193238,0.025527945,-0.017663587,-0.024976231,0.029787872,-0.035726126,-0.042448133,-0.0059003527,-0.007802326,-0.024197508,-0.010267514,0.025977891,-0.037381273,-0.0056270855,-0.028115995,-0.037629344,-0.06348566,-0.03722729,0.008064923,-0.06566703,0.0023312974,0.014704495,-0.0024450247,0.035904117,-0.024619602,-0.04432349,0.016491514,-0.03059541,-0.016205916,-0.008135727,0.032896567,-0.033452526,0.024793567,-0.015830463,-0.026379673,-0.0071444246,0.020937119,-0.043500178,-0.0016126421,-0.011355887,-0.05268253,-0.008826338,-0.010977975,-0.041107193,-0.047579974,-0.012347973,0.033200584,-0.02231762,0.017571157,-0.016298851,0.024921697,-0.00022887887,-0.030149695,-0.0013524133,-0.041595437,-0.033720333,-0.03525249,-0.047655333,-0.049619563,-0.043925,0.059794325,0.024697537,-0.01931615,-0.0055558686,-0.047750745,0.018177694,0.0025306188,0.015375058,-0.018797396,-0.032505196,-0.013139247,-0.016979791,-0.0486571,0.04615977,-0.008260683,-0.04494848,-0.041251678,0.0011543956,-0.0386678,-0.061204426,-0.0344096,-0.0077010235,0.020332597,0.038426086,0.032144416,0.045426875,-0.0131241325,0.028973984,-0.04618258,-0.025288334,-0.02746976,0.018021455,0.009696643,0.021483148,0.0295324,-0.0070604687,-0.031610638,0.0076011443,-0.0004383364,-0.009673559,-0.00482124,-0.01976911,-0.008659884,-0.035403438,0.022051854,-0.0076456987,-0.01296442,0.009369986,0.012559189,-0.03462485,-0.080169536,0.023387231,-0.0088916095,-0.03981532,0.05586794,-0.03641037,-0.016165236,-0.0029540018,0.015117254,0.013433977,0.018579341,0.06051257,0.014613573,0.07390765,0.044868324,0.010569579,-0.05813725,-0.0032625261,0.04870351,0.10880695,-0.039523687,0.04624,0.0063100946,-0.00012480316,-0.01828694,-0.023862185,-0.0039274087,0.07420056,0.032588564,0.019657621,0.037877534,-0.011793567,-0.0038961065,0.018929044,-0.013744976,0.0019852668,0.038237438,0.037658896,0.0890555,0.01943333,0.053400423,-0.005646554,-0.015755191,0.034871545,-0.05286604,0.040495966,0.02582819,-0.02396555,0.027562736,0.01903346,-0.04167274,0.03731588,0.002802622,-0.0975002,-0.021134041,-0.029980406,0.007369688,-0.028690966,0.0071448865,-0.014250838,-0.009130637,0.038820602,0.011994578,0.028580923,0.017031973,0.043266363,0.06065428,0.01426812,-0.011279979,0.0046906727,-0.028079042,0.051179603,-0.061189182,-0.13249937,-0.04613047,-0.19670266,-0.17321101,0.006308608,-0.05069086,-0.05818608,-0.19470276,-0.15724035,-0.06328454,-0.16477783,-0.19915655,-0.02447413,-0.030773439,-0.025616966,0.074060425,0.055394407,0.1494392,0.00431658,-0.025762985,-0.025479315,-0.043549165,-0.10408088,-0.04897282,-0.029795714,0.043346394,0.0497331,0.023843953,0.021088501,0.051139865,0.024722809,0.041271355,0.004474764,0.0047796993,-0.11191413,-0.056827545,-0.1236306,-0.08577854,-0.13565594,-0.05113501,0.008711328,-0.009564433,-0.031299144,-0.049872346,-0.082810745,-0.008600005,-0.08093965,-0.057124395,-0.02830586,0.002798066,-0.037916288,0.0069977525,0.04585338,0.04287726,-0.029971907,-0.04028968,-0.04911141,0.0070830937,-0.03102125,0.010772879,-0.0113629475,-0.030931763,0.07024892,-0.012937611,-0.032562412,-0.0029431125,-0.055782083,0.017260687,0.035374153,0.00879624,-0.05284118,0.0032030398,0.027880257,0.03361473,0.030726464,-0.01964687,-0.07249947,-0.039100878,0.012875681,-0.07241102,-0.028256904,-0.015481767,0.041782785,-0.0086029405,-0.03198318,-0.019846288,-0.040023595,-0.09080028,-0.038082514,0.009755111,0.049615312,-0.064013414,0.07678427,0.0013444162,0.004560209,0.050675485,-0.11222373,0.02249328,-3.3785287e-05,0.013044778,0.029031768,-3.5562516e-05,-0.023134714,-0.017292846,-0.016243733,0.041771583,0.025340011,-0.03284007,-0.048810102,0.035664946,0.06285945,-0.015221205,-0.057213195,0.0394158,-0.068683624,-0.05393188,0.083988436,0.05721904,-0.049272493,0.086617514,0.03710225,-0.03537482,0.028673982,-0.04356365,-0.04880557,0.043570295,0.011434515,-0.06604682,0.029712027,0.015553914,-0.052860808,0.0393937,-0.030422403,0.018823192,0.07968159,0.026311668,0.00052715326,0.039413337,0.034408443,-0.036081173,-0.014664704,0.04490273,-0.059605338,-0.012928977,-0.101686664,-0.045363255,0.051283106,-0.03823413,-0.055044666,-0.015574057,0.027241442,0.023180606,-0.016075218,0.048253424,-0.111593634,-0.022632128,0.033615764,-0.045219798,-0.041525126,-0.06571971,0.09446102,0.14302386,-0.15272872,-0.063626654,0.003249994,-0.003704877,0.03378255,-0.0065612774,-0.05405253,0.0292195,0.076146044,0.023546128,0.015769847,0.09756808,-0.0005425146,0.025166992,0.0626862,0.028891513,-0.010646271,0.027207071,0.0038632473,0.018823769,0.070056655,0.04378671,0.013232983,-0.012457063,0.016277362,0.0034990965,0.02743127,0.045408446,-0.07188309,0.01578369,0.023351623,-0.034032945,0.05334142,-0.0039109937,0.03529719,-0.012815122,-0.09007189,0.0048606433,0.024888683,0.019787043,0.04391214,0.03760909,-5.5793043e-05,-0.004504293,-0.006620938,0.013161592,-0.032754365,0.047337823,0.029321676,-0.050797127,0.04213369,0.013479305,0.037440814,-0.011333962,-0.04863058,0.03666983,0.015128315,0.023303054,0.01948164,0.0011036325,0.025175806,-0.020732526,-0.0013164099,-0.015081811,0.00916309,0.017753946,-0.006011845,-0.011660772,0.029666942,-0.004300867,0.02423025,-0.038571842,-0.036795247,-0.009936418,-0.001874571,-0.012505245,-0.030420333,-0.058311444,-0.056759324,-0.048390117,-0.026596066,-0.015029852,0.024587963,-0.014532115,0.036919244,0.024701752,-0.010504908,-0.037392687,0.00250379,-0.013831742,0.0042126467,-0.03618201,-0.042818274,0.020107273,-0.007179351,0.020769494,-0.045939382,-0.024107145,0.008295493,0.018545615,-0.034822475,-0.037475202,0.022144737,-0.017647935,0.032333214,-0.047238372,0.009106908,-0.019244155,-0.048229817,-0.052569095,-0.044514924,-0.016909124,0.011181769,0.028175142,-0.020076012,0.026386924,0.025825271,0.05424481,0.004389078,0.021494197,-0.023767373,-0.047350198,-0.051573604,-0.019132026,-0.036869854,0.04561641,-0.052508797,-0.05160308,-0.06340638,-0.059312906,-0.021691509,-0.03574794,-0.06669618,0.012041764,-0.0035567696,-0.0016061843,-0.05268932,-0.042762704,-0.058177877,-0.04553864,-0.021548325,0.038818482,0.01896405,0.044219125,-0.01113861,-0.01905928,0.03150252,-0.043180395,-0.040557176,-0.027758941,-0.027299402,-0.0048785945,0.0080653615,0.030997515,-0.050787903,-0.00039558526,0.026980205,-0.037654027,-0.0014283394,-0.008934932,0.0023261283,0.007074394,-0.030349799,0.016943935,0.008213543,-0.0064437324,-0.043208186,-0.018386805,-0.050597478,0.030951884,-0.010143815,0.021129817,0.025180409,0.037058007,-0.014872469,-0.008376676,-0.00619068,-0.010638046,-0.020307977,-0.030868422,-0.03804786,0.016780972,-0.005951105,0.028892197,-0.024297472,-0.008564304,-0.021344658,0.027067203,0.03428623,-0.003967734,0.015353501,-0.0014336329,-0.010484814,0.0064434684,-0.03103749,-0.03740743,-0.017641118,0.05541008,0.004185439,0.065606974,0.0743237,-0.13366215,0.018580405,0.08007406,-0.07242421,0.0048998776,0.046737734,-0.0070902146,-0.049155537,-0.0027143771,0.046157923,-0.08137935,-0.029553045,0.16165258,-0.06829583,-0.008351328,0.032285236,-0.0049853986,-0.07310571,-0.14664248,0.055023015,-0.058172967,-0.056547113,0.030699259,-0.010056261,-0.071644194,0.052405138,0.0063580154,0.009201436,0.04377757,0.012744668,-0.10150209,-0.002680898,-0.06856956,-0.106517725,0.03247806,-0.0426864,0.0040852297,-0.004091907,-0.030313132,0.14929537,0.006531426,0.023460982,0.021998437,0.011420296,0.060217973,-0.1066298,0.008116184,0.005310909,-0.12765993,0.0240462,0.022373376,0.035769593,0.0028550085,0.06564774,-0.025131049,-0.00031421694,-0.009626648,-0.0065262155,0.054222196,0.017065128,-0.07174404,0.06450086,-0.012039406,-0.10984812,0.017438807,0.01183541,-0.03881243,-0.08064355,-0.03126574,0.074605465,-0.046445213,-0.02512865,0.053992793,-0.04585741,0.040695705,0.040252563,-0.10121773,0.022906663,0.00905881,-0.0487032,-0.0441688,-0.089654684,-0.052917834,-0.127209,-0.039171137,-0.050278667,-0.09566669,-0.006221353,-0.032003567,0.030187262,0.11230857,-0.026370231,0.041247826,0.09113021,0.066498816,0.024440132,-0.056483917,-0.0019395606,0.007729955,-0.09757416,0.031347398,0.018621286,-0.022527864,-0.078923486,0.058438145,-0.022658492,0.0063678958,-0.015420883,-0.00015183855,0.025010295,-0.03591788,-0.087867446,-0.019708157,0.06376588,-0.051498223,0.08043302,0.17652798,0.04148718,0.0221113,0.00027662472,-0.01761524,0.035365585,0.10449317,0.049132735,0.04666963,0.023600819,0.008497026,0.032541048,0.006027547,-0.04761724,0.012830393,-0.035615016,-0.085520476,0.042039935,0.06487943,-0.0008977448,0.035502803,0.07742409,-0.014651209,0.053655215,-0.03854605,-0.022331964,0.029853707,0.038885213,-0.015038782,0.022708608,0.011794107,0.04203038,-0.054848492,-0.03165272,0.113684304,-0.037878048,-0.032401107,-0.0020437029,-0.020346662,-0.064719684,0.036416255,-0.023758197,-0.0252407,0.050681915,0.03692285,-0.04128433,0.057114344,0.014856948,-0.045093514,-0.00060378754,-0.036612622,-0.06369266,0.014901507,-0.009373412,-0.024921814,-0.021048123,0.0011646118,-0.03820147,0.009978165,0.01702461,-0.050650213,0.03191146,-0.05354794,-0.049031395,-0.014894627,0.015613731,-0.06979328,0.02424971,-0.029449064,-0.031624366,0.032532375,0.006560844,-0.05162018,0.03451272,-0.03840391,-0.012688151,-0.031375866,-0.008053473,-0.07354577,0.01650875,0.0016274294,-0.037540063,-0.033389553,-0.0127977,-0.045404542,-0.016133122,-0.002847738,-0.015759505,-0.006074763,-0.03300144,-0.05437058,-0.021214165,-0.0012918628,-0.021090662,-0.026525212,-0.0563221,-0.011718296,0.046524603,-0.070508555,-0.010053419,-0.03607834,-0.07507254,-0.07706583,-0.018041998,0.07513185,-0.022884382,0.09177747,0.01310638,-0.06410468,0.06890617,0.02928681,-0.057005364,0.021218365,-0.03439783,0.010573468,0.011574041,-0.022654511,-0.036465798,0.04523732,-0.026261043,0.020524707,0.02889051,0.010393168,0.028532445,-0.0118590845,-0.03855302,-0.012658246,0.017524747,0.017049631,-0.030347222,-0.03116203,-0.038493432,-0.046039954,-0.0028905245,-0.03480228,-0.057527646,0.056885287,-0.027025284,-0.004119401,0.012395241,-0.019095974,-0.008010631,-0.0056917095,0.017978424,0.022093702,0.0059183636,-0.011361791,-0.01411126,0.00016693283,-0.025295636,0.018484011,-0.030288573,-0.029812098,-0.01803313,0.018432241,-0.0050572846,-0.04603999,-0.003497141,-0.027530553,0.0018873478,0.003668454,0.00038184234,-0.00450046,-0.013229963,-0.034756456,0.005177974,-0.012936033,0.0052265236,-0.037913263,0.026403196,-0.070959225,-0.019879932,-0.036711127,-0.056504752,-0.07945021,-0.025363933,-0.086289756,-0.061530747,-0.025402673,0.06266791,-0.020819206,-0.0071664248,-0.09530433,0.1252258,0.015432025,0.03274147,0.01733532,0.0067144893,-0.064384826,0.031418934,-0.028739199,0.06901114,0.01993132,-0.061690252,-0.0034516766,0.0012168107,-0.009204206,0.022425609,0.030212583,-0.026578858,0.08926395,0.045123704,0.018930705,-0.07537511,-0.059334103,0.0026332429,0.009437902,0.003388931,-0.01781437,0.100020945,0.08346376,0.03801501,-0.049269788,-0.0007607981,-0.010273537,0.009094859,0.036808375,-0.0032620863,0.07354921,0.06777539,0.00078576745,-0.051373232,-0.011566256,-0.055756066,-0.002224628,-0.033953857,-0.0017018256,0.009640154,-0.0061571253,-0.03605856,-0.06572322,-0.007248383,-0.013561114,0.018310234,0.02805029,0.015788255,0.04209647,0.04039174,0.04067644,-0.028333751,-0.09776918,-0.14256233,-0.00971005,-0.096412055,-0.10480319,0.08010025,-0.045820978,-0.033711072,-0.055502787,-0.08023541,0.02917684,-0.14754483,-0.1411133,-0.12905009,0.055342827,0.030665208,-0.08737971,-0.009234399,-0.017400064,0.006139927,0.023296155,-0.05306035,-0.016932348,-0.101457976,0.032187793,-0.0035200808,-0.011640643,-0.007551988,-0.030363042,0.009499322,0.008987226,-0.0077340305,0.014928122,0.040795118,-0.012674454,-0.06527936,-0.09739891,-0.08280227,-0.035635453,-0.06522869,-0.10011242,-0.008745763,0.13548444,-0.116047226,0.022900503,-0.05042842,0.042019695,-0.096236266,-0.12653953,-0.08668396,-0.07417107,-0.054792203,-0.03946346,-0.030273287,-0.009004079,-0.047458246,0.0055479663,0.06292842,0.018711757,0.0138448,-0.0060748495,-0.06786982,-0.06513954,-0.04387376,-0.078493915,-0.05082245,-0.028107323,-0.07761157,0.06805696,-0.0043311175,-0.019654838,0.043032054,0.0022877364,-0.034933664,0.072043315,0.031543367,-0.0055674324,-0.071086675,0.045258783,0.06662862,-0.03936734,0.054449502,0.084520034,-0.010386817,0.048720628,-0.05453433,-0.020883588,-0.01851134,0.023920024,0.05701232,-0.008854827,-0.0728498,0.04867028,-0.03847063,0.050877146,-0.025661122,-0.023986338,-0.051255852,0.00066889,-0.0055797347,-0.04651272,-0.012769561,-0.036998667,-0.053888217,-0.007281394,0.04178334,0.015803771,-0.058292318,-0.07901295,-0.059044365,0.0042187413,-0.016784664,0.0066653835,0.06907542,0.018351488,-0.099467516,-0.0525646,-0.04781957,-0.04103834,-0.06631696,0.03333068,-0.0023828926,-0.020805992,-0.034021813,0.023839472,0.00682782,-0.028407635,-0.04327142,-0.083463065,-0.048200477,-0.07370245,-0.012724741,0.011625856,-0.03391397,-0.00026472742,-0.031588327,0.03690368,-0.010493876,-0.030733012,0.022865681,-0.014434456,-0.044799384,-0.0120392265,0.010242694,0.1263518,-0.04511961,-0.0021883463,-0.07843148,0.052077953,0.07379959,-0.008223022,0.007849999,-0.07006736,-0.07372549,0.040082283,-0.07805181,-0.075155236,-0.036806744,0.09123587,-0.03369556,-0.08271317,0.051666554,-0.047645476,-0.0008720912,0.044941954,0.04423956,-0.080036595,-0.043715928,-0.07998752,-0.015245149,0.022906598,-0.045443684,-0.018411903,0.010763819,-0.06166205,0.055781696,0.007573411,-0.03720815,-0.065830715,0.039632488,0.15626468,0.011569416,-0.03188278,0.037674326,0.061266758,0.019449947,0.00787576,0.033273675,0.089288935,0.029587476,0.03752938,0.016090022,0.12244344,-0.045454647,0.012523935,0.05415193,0.10728769,0.008736734,-0.05622097,-0.038815755,-0.043066565,0.051655356,0.043119274,-0.026180843,-0.017263846,-0.012187686,-0.034011807,0.0046275742,0.009675354,-0.08809783,-0.001163689,-0.013918403,0.025941323,-0.006765565,-0.04022787,-0.017334674,-0.027185299,0.10871638,0.03704148,0.051579725,-0.089197114,0.016374674,0.013980782,0.0074900696,0.0048119435,0.02296382,-0.0014182916,0.092838936,0.11575841,0.1028674,0.11644322,-0.037653577,-0.002480638,-0.017243786,-0.07984545,-0.105877005,0.057896234,-0.0273282,0.065101884,-0.057214085,-0.041697472,-0.013776148,-0.018839488,0.06041086,-0.028249077,0.0047649904,-0.03270971,-0.0871259,-0.09425067,-0.01481362,0.038526237,0.027100231,-0.03221799,-0.11319049,0.04461529,0.02114113,-0.04256805,0.023896866,0.059083465,0.09722309,-0.054010708,0.038725365,-0.05388792,-0.028326442,-0.07847816,-0.06838988,-0.03600297,-0.02125626,-0.054091785,0.01858112,0.025175927,-0.013242494,0.03271328,-0.068616815,-0.020603547,-0.09439919,-0.007456582,0.031617697,-0.076763146,0.056364086,-0.055680223,-0.105826,-0.055110272,-0.07887835,-0.046591446,-0.06083466,-0.072129756,0.019432042,-0.1690506,0.04711781,0.048072197,-0.057889502,-0.05193135,0.13017261,-0.04856965,0.14467649,-0.00032905128,-0.09103254,0.17934157,-0.10100171,-0.10649547,0.12543513,0.11589866,0.066617824,-0.0068330853,-0.13402362,-0.09068371,0.26280805,0.08958832,0.08851921,-0.21554352,-0.11946001,-0.09093669,-0.011666445,0.008803527,0.050633017,-0.02959574,-0.043841507,0.005470612,-0.057412304,-0.06647733,0.032542873,-0.009383409,0.006482682,0.0048633,-0.08641934,0.0014458804,-0.009302767,0.004049834,0.05224469,-0.008324517,0.015131644,0.08254815,0.11471819,0.12896429,0.03844157,0.08532047,0.08530254,-0.047451846,0.08049911,0.03265037,-0.012120079,0.05307926,-0.010165532,-0.015694449,0.010746474,0.014522931,-0.0524106,0.087992996,-0.057456937,0.0069760284,0.035187382,-0.05362688,-0.05494875,0.036700405,-0.060270254,-0.08055072,-0.031761087,-0.0012880571,-0.14028686,-0.0090404935,0.062162068,-0.10062446,-0.08014207,-0.012958824,0.0129339835,-0.027622879,-0.082876526,-0.10941193,-0.0052705305,0.0053866706,-0.006487992,-0.031479757,0.015854651,0.07650999,0.073725715,-0.048628524,-0.05002537,0.0337922,0.069533415,-0.06747831,0.0041601937,0.14498203,-0.010164914,-0.010365136,-0.02836402,0.06311035,0.027101163,-0.032406032,0.043898508,0.00039516843,-0.021186253,0.016852293,-0.03190398,-0.05548365,-0.034777746,-0.044043723,-0.013881709,0.0029424839,-0.024849525,-0.10760041,0.07600457,-0.03320245,-0.031945646,0.08547572,0.024839288,-0.02394641,0.04819923,0.015042861,-0.033368282,0.021742804,-0.048642565,-0.098369814,0.026321054,-0.05939359,-0.047253452,0.015465944,-0.02711268,-0.028108202,-0.04982256,-0.098787665,-0.10991944,0.07357265,0.051224943,0.016062826,0.029485187,-0.019896494,-0.050251734,0.03336364,-0.038447317,-0.0355108,0.06597599,0.032991957,-0.055641178,-0.02676173,-0.1251247,-0.048384514,0.12332819,-0.060807157,0.021701863,0.087324545,0.10247535,0.09377906,-0.11212219,-0.12369299,0.01912404,-0.110454746,-0.17470704,0.0006211576,-0.04439555,-0.04590394,0.07792886,0.011104739,-0.0049830205,0.09685748,-0.023246022,-0.024599276,-0.04731611,0.013242928,-0.0061213817,-0.031481985,0.0058542187,-0.027756516,-0.059715036,0.0019625744,-0.050470825,-0.022973936,0.024062645,0.037513305,0.040012132,-0.024404095,0.021095052,-0.023595935,0.0064571914,0.035791766,-0.06767991,-0.114168204,-0.046630505,0.0034087708,-0.004836235,-0.07820381,-0.08954544,-0.028618775,-0.08824644,-0.019736746,-0.02475818,-0.029131427,0.008627821,0.0388646,0.002375199,-0.045434825,-0.02172935,-0.05073569,-0.06268322,0.0034858088,0.03864826,-0.027743135,0.083446294,0.02778107,-0.10341396,0.039688163,-0.037315197,-0.059010413,-0.027935866,0.04083454,-0.03923828,0.026755825,0.08375754,0.019213088,0.059949696,0.08059499,0.06399279,0.018846927,0.11373934,-0.030167803,0.00847654,-0.1145726,-0.053052403,-0.088242516,-0.13531642,-0.029366784,-0.03258443,-0.030904183,0.013497129,-0.13444197,-0.007412982,-0.07104621,-0.0349148,0.06008206,0.010475253,-0.015354567,-0.013938627,0.054650355,-0.018358918,0.0044879685,-0.004817691,0.045887027,0.052947972,0.020792892,0.045299534,0.025665069,-0.095040604,0.0670485,-0.07117498,-0.09876481,-0.09315119,-0.017694764,-0.020365937,-0.06051193,-0.0006666784,0.010835533,-0.025966566,0.04890959,0.01232176,0.037483264,-0.008413082,0.011783959,-0.09428417,-0.032642424,0.057692446,0.05649243,0.0065685455,0.030067662,0.009088023,0.038420863,-0.007647019,0.0015822741,-0.012577786,-0.012493712,-0.010201435,0.08014717,0.058639538,0.015307108,0.08178076,-0.055916768,-0.0018587474,-0.07216205,0.09025882,-0.01132063,-0.12829077,0.023735562,0.14667645,-0.13560636,-0.02644907,0.10562519,0.09137277,-0.031369176,0.088538505,0.040735494,-0.009296208,-0.13821214,-0.045766234,-0.019058865,0.018366933,-0.110482596,-0.09982519,-0.13664976,0.0107419845,0.030360479,0.13430344,0.090594836,0.04652919,-0.052387424,0.015658919,0.0010036398,0.0037582368,-0.035691038,-0.0052410476,0.0055798553,0.00764304,-0.012264337,0.031119697,-0.014773305,0.05573642,0.07649876,0.009749949,-0.010111309,0.031174283,-0.012901037,-0.11938319,0.0020004483,0.08725905,0.01934331,0.0322141,0.01595235,0.09759028,0.037130345,0.0128555205,0.04566422,-0.13835259,-0.0032350894,0.01886406,0.012372202,0.048616838,0.00972805,0.04506403,0.016060036,-0.08564737,-0.032016035,0.041191075,0.007558755,0.029650198,-0.02098673,-0.017323172,0.030288093,-0.003832956,-0.026557053,0.03487139,-0.03331581,0.00924772,0.03264611,-0.10292891,0.046192873,-0.020666134,-0.010784334,-0.07006176,-0.049647752,-0.12934491,0.023815865,0.0012224864,0.25537294,-0.049167547,0.092767365,0.06338016,-0.058207445,-0.01625763,-0.026796712,-0.0811135,-0.012276515,-0.10698235,0.047779705,0.017838297,-0.096273586,-0.039020598,-0.03394431,0.029501809,-0.016952904,0.0009824516,0.019719673,-0.033533268,-0.06554255,-0.06251874,0.047329776,-0.06823049,-0.068423666,0.049293805,-0.003841316,0.20935307,-0.017754234,0.043292657,0.047311448,-0.009887761,-0.0557262,0.03796042,0.008603618,-0.06974966,-0.015774706,-0.03591233,-0.04872536,-0.068617515,0.055797927,0.018514564,-0.008698271,0.05500624,-0.056591388,0.040307812,-0.03227079,-0.02222976,-0.04765518,0.0047174376,-0.05354997,0.07414078,0.020624831,-0.13093995,-0.07260924,-0.03683554,-0.04049042,-0.031428415,0.06557235,0.1103671,-0.08171838,0.03136671,0.011882315,0.018599814,-0.026681192,-0.098563686,0.14040518,0.008964536,0.043915436,-0.124057315,-0.08815748,0.035840403,0.0024142968,0.015123153,-0.04015373,-0.06305579,-0.020073673,-0.09993438,0.06862151,0.113240495,0.17742641,0.16391838,-0.21042666,0.056606907,-0.12358915,-0.020458445,0.0045453534,0.011196471,-0.0119411545,-0.02961694,0.02130526,-0.035013553,-0.01074503,0.0591109,0.026885891,0.0038403028,0.032925997,0.021908943,-0.08687895,0.06236303,0.051397357,-0.0981431,-0.037000667,-0.026605409,-0.022974715,0.009117941,0.05619741,-0.053596742,-0.10160891,0.025322042,0.08825048,0.03262735,0.05992115,0.020111486,-0.08780362,0.010818254,-0.13049453,-0.08891704,-0.08974245,-0.04770191,-0.01643773,9.323748e-05,-0.02422998,-0.0071796775,0.032874037,-0.043329954,0.0033052843,-0.042333655,-0.09926511,0.06883676,-2.4976393e-05,0.06088902,0.08977655,0.019431233,0.0051526045,-0.007757724,-0.028411932,-0.017289458,-0.060937714,-0.10173853,0.03822281,-0.041576467,0.07706228,-0.04746485,-0.006151755,-0.0038390413,-0.16358742,-0.031165771,0.18717003,0.06371571,-0.07365672,0.092922434,0.0026775468,-0.037986998,0.018513897,0.029672993,0.08695889,0.20488007,0.08365383,-0.0472827,-0.0038777988,0.007860271,-0.06557326,0.03508968,0.06819932,0.0014462947,-0.021912362,0.010596264,-0.016347844,0.08431628,-0.15268262,0.005036262,-0.053181235,-0.011270164,0.016548255,0.08631305,0.062422886,0.005171856,0.02482257,-0.004614756,-0.029167386,0.0363145,-0.0047061923,-0.022404047,0.025117392,0.064415865,0.005752507,-0.0641379,-0.025316795,-0.020393051,-0.08497025,0.05026083,0.010349972,-0.011497621,0.043804117,-0.078134626,0.04067108,0.06245903,-0.086784296,0.009698415,0.03124977,-0.019458191,-0.03133367,-0.17275721,0.027467102,0.058385193,-0.17109036,0.11534845,-0.077232294,0.058135934,0.14214332,-0.014401092,0.028438058,-0.017759923,-0.0010239667,-0.09998085,0.030635145,-0.21696335,-0.054144908,-0.05780934,-0.18877417,-0.037131853,0.044319574,-0.0760982,-0.020912284,-0.03531278,-0.04338936,0.017296428,0.0016291304,0.06631922,0.016783005,-0.08770217,-0.01404985,0.02788619,-0.04517664,-0.033334136,0.019276867,-0.062247217,0.0341495,-0.025308892,-0.12452705,-0.061997633,0.009826428,-0.085076354,-0.09453031,0.04753148,-0.0268462,-0.047889408,0.09471319,0.03653886,-0.06981316,0.061310735,-0.033565808,-0.14269786,0.0120972935,0.072701864,-0.08725035,-0.010360167,-0.059067,0.023638768,-0.044739988,-0.1552853,0.01575366,0.009227356,-0.05715551,0.013793858,0.036001332,-0.037176102,0.04167292,0.019531267,0.035654154,-0.034498673,0.0053606806,0.056588188,-0.11656008,-0.06484456,-0.027282353,-0.015934536,0.029095719,0.08279638,-0.063912414,0.04211405,0.022537762,-0.056515478,-0.0058450936,0.00890945,-0.014804657,-0.025465954,-0.07572777,-0.028958274,0.08865958,0.0031792335,0.018257748,-0.0826507,-0.010730475,0.004684105,0.04901365,0.0039224033,-0.05763577,0.077776864,-0.008377886,0.0391725,-0.020303365,0.036094442,0.01229665,-0.017716791,-0.022537798,-0.010435536,-0.015676377,-0.047303725,0.032697637,-0.011532886,-0.012257604,-0.008236492,0.018892694,-0.065372504,0.008509286,0.03082986,0.0039042565,-0.0052846903,-0.008749674,0.047135793,0.015626129,0.026902063,-0.011007463,-0.03922882,0.010324058,-0.011088598,-0.012781928,-0.028357245,-0.005625597,0.031613152,0.015366058,-0.0035221812,-0.04171003,-0.007359554,0.010054821,-0.026573928,-0.0039660963,0.025104623,-0.002653485,-0.006962941,-0.02032062,0.010276363,-0.01770708,-0.035216518,0.037633173,0.019548599,-0.045285653,-0.06638186,-0.019318214,0.019200116,0.076406494,-0.04754858,0.07067668,0.093882926,-0.06806502,-0.018997498,0.058706626,0.0950825,-0.0018915478,-0.0053860215,0.11761716,0.0033481498,0.0065442566,-0.09993775,-0.071822025,0.038705427,-0.0026342706,-0.010333521,0.0046962225,0.012727096,0.028037643,-0.05639698,-0.0066426448,0.022928314,-0.008108141,0.0019983386,-0.036482077,0.012731907,0.0032292425,0.0050606104,0.0032150035,0.0003702686,-0.0134391235,0.01834596,-0.013252501,0.03798144,-0.014693011,0.014187498,0.029386183,0.053836916,-0.030675696,-0.019981848,-0.018917395,0.03346507,0.016321586,-0.026655015,-0.0019675395,-0.006564937,-0.046843886,0.013752742,0.050994378,-0.0052654245,-0.048303604,-0.01890622,-0.04227777,0.0010605996,-0.009975395,-0.013421628,0.011310386,0.013280558,0.0014103542,-0.0019068518,-0.0004930298,0.024608197,-0.042901468,-0.0047040274,0.05555369,-0.06751869,-0.11714389,-0.04196363,0.011987995,0.09737285,0.07759356,-0.00084538164,0.02587545,0.009351064,-0.036011234,0.10961031,0.1257062,-0.0046184915,-0.0048849843,-0.06832745,-0.072781146,-0.08971985,-0.14068048,-0.009945052,-0.02885597,0.0725349,0.0068399813,-0.0029111432,-0.02404519,0.00024949908,0.008575207,0.04781997,0.014689389,-0.0044269096,0.0026076213,-0.010329142,0.018758317,-0.00069299707,0.052024506,0.031908616,-0.013899949,-0.011265539,0.08891932,0.12291819,-0.007828133,0.00960272,-0.071923554,-0.015114527,-0.08075249,-0.026889728,-0.0049428744,-0.039683495,-0.031218922,-0.0029313122,-0.040243875,-0.017726675,0.029254625,0.025536567,-0.013229912,-0.0024395597,-0.043314572,-0.03152063,-0.005981678,-0.026685353,-0.025404293,0.018122982,-0.0051628067,0.0092450315,0.044616133,0.0084250355,0.033099603,-0.017225174,0.029676504,-0.024280986,0.028822495,0.03270505,0.0057864934,0.06745935,-0.02943869,-0.019453622,-0.004626082,-0.09331515,0.048477475,-0.053352505,-0.1278647,0.005514801,-0.031330418,0.020879332,-0.007128644,-0.029258268,0.053072825,-0.061049573,-0.046825495,-0.065454856,-0.08671228,-0.045345448,0.020490278,-0.09049623,0.026886232,0.02735878,0.0803749,-0.0016833295,0.031394884,0.004654842,-0.02999751,-0.02089846,0.012390036,0.008791738,-0.018697144,0.0062614563,-0.0064901453,-0.008322132,-0.0063241594,0.00776543,-0.02649511,0.107192166,0.047433205,-0.01289736,-0.00023801887,-0.039655533,-0.07389484,-0.032181248,0.030416295,0.035371374,0.028366707,-0.019779319,0.0365447,0.0086234035,0.015841976,-0.015331228,-0.046559677,-0.023607053,0.02243699,-0.01018194,0.0024339182,-0.016967228,-0.013856479,-0.055990905,0.020780269,-0.06722335,0.04368741,-0.036150552,-0.04518422,0.034026396,0.022114964,-0.051535267,0.024663659,0.023515448,-0.008623578,0.01732677,0.06266062,0.0039880476,0.04956616,0.046553418,-0.0740016,-0.041003946,0.018698016,0.041386623,-0.027347105,-0.11471391,-0.053426027,-0.113817856,0.01284004,0.055986162,0.19146608,0.17490652,0.009782802,0.016404876,0.028514456,0.0070599644,0.06568503,0.072884366,0.000536915,0.033941492,-0.103830256,-0.14995606,0.009110808,-0.015913509,-0.0020125122,0.0026984324,-0.009584892,-0.04590202,0.0007792101,-0.017615756,-0.01963495,-0.021858318,-0.046284672,-0.018588511,-0.09449328,0.040303376,0.030963209,-0.016332202,0.099548556,0.07097096,-0.016037853,0.003960073,-0.027905334,-0.03049757,0.014226972,0.013861897,0.021607578,-0.01362445,-0.008003308,-0.007179,0.045305543,-0.00243124,-0.042398077,-0.0070306747,-0.038428217,-0.0604499,-0.023923071,-0.02172632,0.0065487362,-0.02199109,-0.020290736,-0.010976325,0.0003962109,-0.04063006,0.037089717,-0.014968338,0.024582848,-0.07008439,-0.08764686,0.047364745,-0.15077364,0.09092719,0.07293571,-0.15376672,-0.04663082,-0.064243205,0.10414835,-0.008683266,-0.0409716,-0.053157315,-0.04221735,0.016124956,-0.0480036,-0.060832996,-0.052592576,0.010473134,-0.036220912,0.029389262,0.121834695,0.11554741,0.020070484,-0.06685485,-0.027226198,0.05119995,-0.028082484,-0.020152383,-0.015206261,-0.0029404487,-0.010592533,-0.043385934,0.019141223,-0.024994701,-0.022219786,-0.040600665,0.025666222,0.04937853,-0.024542017,-0.0551244,0.040281083,0.040736355,-0.04721778,0.03694105,-0.000914889,0.012646576,-0.0210135,-0.012416653,0.005139068,-0.02142034,0.016457837,0.039300106,0.10100315,-0.0030378993,0.003776015,0.0043930607,-0.06698539,-0.037973978,-0.073761545,-0.040877525,-0.0031235958,-0.033920813,0.0094847055,-0.003254795,0.020029886,0.009560432,-0.020645466,-0.0011370289,-0.02297164,-0.040283807,0.0039860466,0.061353624,-0.031788096,-0.031929385,0.047746975,-0.028127478,-0.035827547,-0.05614192,-0.0672926,0.064990416,0.093772955,0.08380732,-0.002843584,-0.19294016,-0.08055255,-0.04420401,-0.047241755,-0.10013705,0.081982456,-0.048699483,-0.009929594,-0.022544442,0.15393518,-0.062453575,-0.11131339,-0.03407632,0.024668025,0.136993,0.011885028,0.03136606,-0.01960052,0.011741278,-0.0026138031,-0.006745037,-0.00817626,0.042319607,-0.023962805,-0.0003437529,0.01893713,-0.12142774,0.0027374532,-0.08453729,-0.10899907,0.020870388,0.070792995,-0.099329025,-0.00860741,0.014870415,-0.009865653,0.0015446378,0.029964464,-0.036593597,0.07453024,0.035520148,-0.058099557,-0.042047255,0.012414128,-0.0697543,-0.02154397,-0.045409486,-0.026989888,0.07031321,0.025842506,-0.109709755,0.035379104,0.06315412,0.029705616,0.08368664,0.025071908,0.03250402,0.051581413,-0.0048224544,-0.029284561,-0.0067091757,-0.08442821,-0.059879642,0.030878494,-0.030359987,-0.006946828,0.0073065227,-0.2034427,-0.02348148,-0.1798954,-0.041829962,-0.09592817,0.10917649,-0.16375382,-0.05833438,0.0036978277,-0.13766855,0.044526394,-0.019299543,-0.024562236,-0.09849904,-0.10375949,0.04809461,-0.05806875,0.09795257,-0.066305935,0.049972694,-0.005907092,0.004858695,0.004289233,0.0092062075,0.0069418577,0.052062657,0.03361978,0.005336302,0.02239963,0.027959876,0.037711382,0.040643275,0.05469151,-0.062722795,-0.014187225,-0.12523119,-0.1349864,-0.038265184,0.04617395,-0.08719624,0.012577653,0.029731061,-0.04544662,0.020648347,-0.07643233,-0.100804284,-0.030380115,-0.01997532,-0.015182326,0.034546863,-0.041070886,-0.050337896,0.07280789,0.06237716,-0.054496422,0.010160643,0.07064099,0.018281829,-0.02120851,0.0085302405,0.046320155,-0.016211,-0.024743365,-0.008960011,-0.067133285,-0.028006742,0.00025801698,-0.05783352,0.01863429,-0.02226109,0.01343978,0.021391682,0.005265421,0.021020161,-0.043653168,-0.010721195,-0.025557358,-0.010915698,-0.030588204,0.061944723,-0.039147276,0.015573168,0.096740894,0.08392213,0.042452004,0.12796581,-0.025153946,0.01771435,-0.04068569,0.0001310998,-0.043634646,-0.045904573,-0.009143434,-0.061832137,-0.008796549,-0.05323498,-0.047122583,-0.04350561,-0.06122895,-0.045815144,-0.02962407,0.041312095,0.0538056,0.06640264,-0.013108049,0.056176096,0.027908184,0.093008295,0.029649004,0.011311089,-0.004387634,-0.011008536,-0.041510563,-0.061577074,0.009105801,-0.01645089,-0.023550758,-0.051053483,-0.0119237825,-0.012465635,-0.040807784,-0.052865803,-0.018286219,-0.026424922,-0.013705522,-0.014769647,-0.012524234,-0.013491131,-0.049403757,-0.08108907,-0.07927194,-0.035828497,0.02752839,0.01062112,0.0055259536,-0.027755622,0.013594433,-0.008829273,-0.047140565,0.096795365,-0.11141845,-0.074939206,0.007987253,0.025364162,-0.04968116,-0.0052929525,-0.060563624,0.09637028,-0.036133904,-0.030291416,0.013363283,0.03768749,0.059528414,0.025368221,0.013158209,-0.041035306,0.026805278,0.03137659,0.0104100285,-0.005437679,0.0020176917,-0.08920594,-0.078460865,-0.023019763,-0.020476447,0.0020999215,-0.100933716,-0.015045968,0.025744587,-0.00028968442,0.00010065883,-0.019157289,0.024060763,-0.027147429,-0.036562115,0.009939018,-0.031368855,-0.04555094,-0.07477983,0.0431031,-0.081135206,-0.055145923,0.0027808151,0.027728925,0.027611686,0.037355404,0.043119367,0.05577346,0.040989846,0.058002908,0.069763325,-0.0787225,-0.034507792,-0.06975242,-0.014681459,-0.014485792,-0.031802487,-0.022453753,0.018205376,-0.08826879,-0.021417743,-0.0070997137,-0.051674865,0.00023401885,-0.014443583,-0.054629996,-0.029882355,-0.018156625,0.031767983,0.01607294,0.08304054,-0.01840801,-0.0068873772,0.09543447,0.02892757,-0.05730036,0.0991394,0.009546569,-0.012512939,0.038047455,0.06784001,0.020860441,-0.016647223,-0.06906999,-0.044646606,0.09943338,0.06673419,0.010003763,-0.02857983,0.0053568897,-0.06764366,0.032694798,-0.08830474,0.087882645,0.086850695,-0.07960938,-0.0042575956,0.0142832305,-0.054068714,-0.0073303855,-0.009352066,0.034836452,-0.048757996,-0.0833954,-0.026126781,-0.006609084,-0.046631802,0.038715012,-0.03639483,0.021113433,-0.014171449,0.028467786,0.15032965,0.029535362,-0.054466695,0.028748943,0.02638354,-0.0067083137,-0.020347515,0.01888608,-0.014872555,-0.04015435,-0.009595382,-0.048029393,0.029262533,0.0106079,0.00089185924,-0.04302099,0.043270327,-0.0710731,-0.07333935,-0.023431234,-0.00024581415,0.005403871,0.035583597,-0.017079426,-0.016281728,-0.031291127,-0.05688963,-0.022140957,0.029158982,-0.098789036,0.0022995032,-0.074471675,-0.13948393,-0.09258638,0.08673748,-0.07362591,-0.03670054,-0.0697037,0.23799269,-0.099047825,-0.012416713,-0.14242953,0.05703874,-0.013525385,-0.063928485,0.1111321,-0.08210041,0.0033047074,-0.056969322,0.09150817,0.05194309,0.04741271,0.07323727,-0.029429974,0.0382483,0.006690804,-0.028675435,-0.007500176,-0.023218788,0.018163774,0.01193661,-0.018446732,0.019603044,-0.034114625,-0.029037816,-0.027149267,0.00070271996,0.022741787,0.059642818,0.04640966,-0.038207315,0.05106896,-0.10223701,-0.057652343,0.048773997,0.09787549,0.055952884,-0.005579182,0.0116910795,-0.009073185,-0.036142826,0.027680317,0.060263086,-0.14137654,0.028918747,-0.019423405,0.026177408,0.035185277,0.037435777,0.022439213,-0.071681395,-0.014529816,-0.03128092,-0.051051132,-0.0480619,-0.046039615,-0.08202343,-0.028488206,-0.038360856,-0.08627046,-0.013052138,-0.0306713,-0.06607896,0.040089116,-0.0051722885,-0.11558611,-0.019379485,0.032645553,0.031910952,0.047654096,0.091571644,-0.010344009,0.025713703,0.06699731,-0.06361141,0.089725584,-0.016880067,-0.0063957544,-0.048784938,-0.05252734,-0.005357394,0.10680724,0.011571664,0.039450746,-0.0024506324,0.086846225,0.11484491,0.041668605,0.0333016,0.047762062,0.023637796,0.05536549,-0.036045667,-0.010213334,-0.0023196896,-0.0052711507,-0.015816147,0.10891256,0.02279716,0.003833012,0.046337962,-0.042865973,0.029841071,-0.08807546,-0.029202553,-0.034769706,0.059162408,0.007526267,-0.031050386,0.023917824,-0.039516248,-0.020225892,0.05799928,-0.012882662,-0.004695741,0.019970322,0.0046660714,-0.051413238,-0.006038542,0.027400648,0.03693456,-0.011428899,-0.052046493,-0.065158516,0.018341336,0.01639662,0.0077445647,0.062391657,0.033059962,-0.06820331,0.068095095,0.036419775,0.005053274,0.027972367,0.052193448,0.08157055,0.009902853,0.08231045,0.06465133,-0.047929693,-0.06385176,-0.017639345,0.078173175,0.045051713,0.046200898,0.0077829524,-7.8527446e-05,-0.096452706,-0.044267766,-0.059918016,-0.036268614,-0.044582587,0.078285,0.062126778,-0.029093204,-0.023014318,0.036235534,0.056946266,0.04837435,-0.02367809,0.0018223086,-0.026745051,-0.017775109,0.04116675,-3.66415e-05,0.018467128,-0.011615427,-0.023422401,-0.015930159,-0.08153585,-0.038697425,0.040007148,0.047332454,-0.01280001,0.004220792,0.051605858,0.09289643,-0.019348392,-0.023300316,-0.01468965,-0.02124984,0.023885159,-0.06902302,-0.0023039808,-0.014895572,0.029258266,-0.030891968,-0.07100635,-0.031020114,0.036781255,-0.013185455,0.03365828,0.03691414,0.0912008,-0.021534367,0.015297686,-0.01944556,-0.06621191,-0.032888778,0.03470359,-0.032812476,0.014513815,-0.031573508,0.05621457,-0.03278561,-0.0014373778,0.008187202,-0.050288327,-0.02673846,-0.01602073,-0.0145081105,0.06294396,-0.001161591,0.040014148,-0.010204702,0.0061031533,-0.021405535,-0.018770806,-0.037546586,-0.007940971,0.06546463,0.069768414,-0.053129308,0.07875902,0.11696093,0.024949301,0.02270985,-0.009239392,0.102924585,-0.038526647,-0.05495777,-0.051446903,0.0041858414,-0.054985035,0.050629016,-0.038192045,-0.004505853,0.02597165,-0.021600151,0.00512473,-0.041014567,0.06586049,0.019933268,0.04989909,-0.06349999,-0.009270926,0.026959678,-0.032164272,0.038829524,0.019189315,-0.09187285,-0.07013237,0.0005538031,-0.03449892,-0.06608183,-0.0027768798,-0.04275517,-0.072014034,0.05899759,-0.11474507,-0.017943358,-0.047529176,-0.00059972506,-0.04731817,-0.054137323,-0.058390886,-0.073293805,-0.05284526,-0.041996334,-0.023070307,-0.033752814,-0.039390232,0.014095716,0.04021799,-0.024228735,-0.021157565,0.034555666,0.06526934,0.061669957,0.070310876,-0.039497457,0.015639707,-0.0014048258,0.051162235,-0.019350812,-0.098010235,-0.028776094,0.1813466,-0.016859796,0.0069242576,-0.026162827,-0.04168657,-0.059551258,0.06343034,-0.0030776365,-0.13050947,-0.036766153,-0.07233931,-0.076212965,-0.027736476,-0.04974901,-0.10272703,0.017110296,-0.08160537,0.02902623,-0.0038747217,-0.04248488,-0.0714404,-0.041289035,0.045935478,-0.0059242807,0.011419058,0.003552031,-0.054375548,0.030429807,-0.10121348,-0.039393105,-0.08155066,-0.08155138,-0.014136076,0.005092227,0.033295732,0.001693082,-0.0051960694,-0.009376986,-0.034964383,-0.022040488,0.070698835,0.06727034,-0.005280622,0.06409335,0.023666143,-0.044776186,-0.06574043,-0.017818933,0.03161526,0.012550635,-0.073707014,-0.10687649,-0.038637217,-0.09648909,0.012910349,-0.081676446,-0.052332208,-0.049666025,-0.021530315,-0.06335732,-0.05873339,0.0062583196,0.012596809,-0.055785503,-0.030770408,0.007037125,-0.1157292,-0.11007793,-0.0026116304,-0.010957623,0.05449495,0.016030964,0.07095323,0.067386046,0.33262208,0.16501525,-0.012120015,-0.05257533,-0.08320651,-0.03315413,-0.09709459,0.034668636,-0.01632269,-0.12589467,-0.10331798,0.06451119,0.037098635,0.0649578,-0.039465852,0.038080495,-0.071405604,-0.0071343565,0.008819424,-0.008904747,0.046335302,0.05509418,0.08570852,0.020131033,-0.07275892,0.025395062,0.037475843,0.08675415,0.12953112,-0.20378415,0.05071609,-0.063518606,-0.039482318,-0.059884414,-0.030279618,0.060540695,-0.119332485,-0.09456321,0.005685121,-0.0195981,0.053766094,0.02904405,0.017899036,-0.021079991,-0.04104076,-0.053683817,-0.018472916,0.0059479955,-0.014335703,0.13220312,0.028110053,-0.065051965,-0.05922397,0.012564043,-0.051361628,0.015770627,0.101842724,-0.030258173,0.0871798,0.023620188,-0.18427713,-0.16157246,0.014111278,-0.13543527,0.022896428,0.038006354,-0.038278375,-0.090877436,-0.12109891,-0.02892478,-0.08837785,-0.13790907,-0.027449083,-0.08894556,-0.12250633,-0.104288496,0.022447074,-0.010647899,-0.022830086,0.18370172,-0.107789606,0.18323053,0.09274557,-0.032819122,0.007997166,-0.06235353,0.019317942,-0.048279554,-0.037918728,-0.022103587,0.05922176,0.0116171995,-0.055043444,0.020975651,0.020923689,-0.032561194,-0.075057246,-0.025557473,-0.032633577,-0.12875845,-0.050212648,0.12185331,-0.054420788,0.047268994,-0.022997016,-0.017081851,-0.0057886075,0.049877677,-0.08398173,-0.055368517,0.08221163,0.08778314,-0.0023080555,0.09866731,-0.10449678,-0.12056445,0.036376044,-0.020318216,-0.117994465,0.036430676,0.02864071,0.04621014,0.029359888,0.03723619,-0.12814595,-0.110855654,-0.019860031,-0.022571594,0.054410066,0.036456022,0.040824357,-0.031671308,-0.036736086,0.021066839,-0.008397992,0.0062467833,0.034352038,0.018766643,-0.009669964,0.06330811,-0.095331095,-0.0012207199,0.0035337124,-0.011192964,-0.048967447,-0.023075916,-0.030906258,-0.06990972,-0.05605744,-0.09701521,-0.06718283,0.0015224254,-0.033243377,0.009714434,0.004724027,0.019028908,0.052225977,0.013488152,-0.04810929,0.024056284,0.0011545689,0.019525142,-0.039097857,0.008289257,0.008681484,-0.018256217,-0.028418345,0.0044896407,0.010731875,-0.019852959,-0.057950143,-0.03415849,-0.00199923,-0.0079549905,-0.06268147,0.025994046,-0.10279442,0.019789752,-0.010526784,-0.025383743,-0.020448329,0.0139066195,-0.0037797664,-0.002289897,-0.04143435,-0.0135472035,-0.06517779,-0.05299782,-0.0045444896,-0.06481471,-0.01264481,-0.056940686,-0.029421462,-0.0077805878,-0.03978904,-0.02617815,-0.049715754,0.041876562,0.011571548,-0.033767775,-0.0010037415,0.03917205,-0.037772406,-0.027359094,-0.06483987,-0.06148668,-0.03748332,-0.015320426,-0.058469113,0.03403001,-0.051261257,-0.15492383,0.12195072,0.020576786,0.065046124,0.10053974,-0.044827316,0.10954318,0.076503664,-0.0073680542,0.08534849,0.079238705,-0.02209576,-0.022884395,0.0010482362,-0.032541584,-0.026635582,-0.022179175,-0.049215257,0.037503194,-0.052311443,-0.026612917,0.015054473,-0.0020357468,-0.015186952,-0.02151963,-0.0068431864,0.027247164,-0.023195026,-0.008393046,-0.034474123,-0.031818617,-0.03436345,0.009509249,0.06834717,0.006518168,0.04978402,0.021986587,0.074483715,-0.015069185,0.053864803,0.033277534,0.0242369,0.0523308,0.017713852,-0.014706532,0.045906883,-0.02349217,-0.031101327,-0.05144491,0.0035723292,-0.0018278877,-0.039515026,0.038766704,0.0028879738,-0.02918983,-0.022186698,-0.010288029,-0.050137956,-0.017739924,0.01625273,0.022511872,-0.012153281,0.01969507,0.024368431,0.01901804,-0.0012046118,-0.13650995,-0.04811696,-0.060640384,-0.08250367,-0.085815586,0.0034057344,-0.099847466,-0.047475353,0.012463062,-0.089012615,0.017772926,0.024293598,-0.07504056,-0.020369517,0.048692968,0.015971715,-0.101064876,0.05690143,-0.10284592,0.06435742,0.089482665,-0.053096924,0.030180719,-0.046430018,0.096202575,-0.061740745,0.007093979,-0.059057835,-0.017742276,0.02771386,-0.04502638,0.021319456,0.019594286,0.0445143,-0.021025082,-0.021950128,-0.1224088,0.017828187,-0.040872436,-0.0007876958,0.036609285,-0.09518344,0.037035383,0.008198613,-0.01609394,-0.08483496,0.0073386077,0.05749421,-0.03858632,-0.032577436,0.0017054892,0.07527048,-0.012491616,-0.052975725,-0.0639749,0.039728668,-0.009902856,0.0015372441,-0.044567604,-0.048351977,0.043470334,0.0058905883,0.016173556,-0.043015163,-0.04276221,0.06136033,-0.036135755,0.02295875,0.062509075,0.029149916,-0.047805868,0.044519655,0.054518227,-0.036794357,-0.049296435,0.07132526,0.093299665,-0.02021839,0.016393285,0.024433907,-0.0054671746,-0.028455606,-0.040251795,-0.044606004,0.03468326,0.03125784,-0.11283518,0.15998821,-0.031297203,0.051993053,-0.02493498,0.10075706,-0.054390896,-0.048099823,-0.06407969,0.0012211162,-0.09807593,0.037622344,-0.0075075952,-0.03895593,0.019901093,0.0008070541,0.0073236986,-0.009124357,0.021834476,0.048807677,-0.001054705,0.035464197,-0.03582368,-0.0063093314,0.00792541,-0.027440805,-0.03278961,0.06954006,0.07719395,-0.08570568,0.008968454,-0.06675113,-0.03314234,-0.015451689,-0.03391183,-0.048864327,-0.04404612,-0.0763104,-0.034206364,0.002238994,-0.08804953,0.03310501,0.0069939345,-0.024459044,-0.048978496,0.055826023,-0.038572095,0.0026979172,0.02126183,-0.04055072,-0.08575547,-0.009617274,-0.010167947,-0.05846173,0.06009994,0.04811287,-0.025890566,0.0330607,-0.079769656,-0.006164273,0.009820076,0.0018954141,-0.060608495,0.06349606,0.16191311,-0.042598113,-0.05591174,-0.07758109,0.0021180992,-0.029793803,-0.004302123,0.042163964,-0.07592336,-0.02385268,0.002593923,0.0028144782,0.06115517,0.03493636,-0.017892085,-0.067694314,0.20906714,0.04778958,-0.05392443,0.10857064,0.019500373,-0.019681418,-0.03184476,-0.024304273,-0.0038118619,0.08191811,-0.0075191767,-0.042704944,-0.06125196,-0.056807846,-0.027354153,0.07771771,0.03597427,-0.07166477,0.03880688,-0.06512726,-0.051197357,0.10538124,0.032309227,-0.051234193,0.017049337,0.022639658,-0.0015187907,0.08295774,-0.01983372,-0.061659325,0.01968689,-0.02981128,-0.014209593,-0.023147278,-0.04133305,-0.019231517,-0.018022794,-0.0058951345,-0.033472758,-0.038117215,0.010639399,0.016487038,0.04655307,0.050810672,-0.106527805,-0.02575808,0.025281494,-0.04986648,-0.05264127,-0.08044055,0.089548744,-0.14116351,-0.11709194,-0.07232914,0.06721122,-0.11119379,-0.036928434,-0.04983047,0.008062238,0.08323042,-0.0800405,-0.02044889,-0.0044232327,0.06267949,-0.021114493,-0.027658146,-0.016557287,-0.10219004,-0.006107727,0.07515262,-0.04112416,-0.03233961,0.05713602,0.021557309,0.039965894,-0.08354106,-0.026331726,-0.031651493,-0.017311275,0.04505242,-0.009870913,-0.07768195,0.031353813,-0.061588436,0.026864342,-0.119055085,0.11162607,-0.010045776,-0.059578776,0.0406669,0.017411059,-0.08344438,0.0066949185,0.14938273,-0.031187499,0.029321635,-0.0050403583,0.03797584,0.060776193,-0.058723077,0.013108427,0.051885314,-0.0600281,-0.014904892,0.055406194,-0.022399483,-0.050311204,-0.03190478,-0.003758611,0.027498612,-0.058614917,0.05855553,-0.04353777,-0.0071050446,-0.0172675,0.027651867,-0.09393568,0.050946467,-0.019672636,-0.03708812,-0.14024542,0.08005439,-0.008308608,0.018215062,0.0716046,0.028153788,0.081282414,0.0029074645,0.017692544,0.06879743,-0.095083155,-0.045104492,0.14662209,0.015935814,0.00991729,0.08079217,0.09227102,-0.05530141,0.071737394,-0.09166104,0.019741701,0.03719445,0.047004092,-0.01728057,0.03642925,-0.067240365,-0.06997499,0.085373856,-0.00076231966,0.017586794,0.001044788,0.00094012456,-0.033808254,0.00209292,-0.021402046,-0.016728718,0.03196172,-0.06586939,-0.018769277,0.07453592,0.009532034,-0.061222028,0.026422368,0.13131738,-0.017251253,0.038199052,-0.043687504,-0.031334687,0.026073216,0.0029745065,-0.041342054,0.015807351,-0.060804635,-0.04529428,0.039261345,-0.019343268,-0.06777098,0.0035009019,-0.025187837,-0.076321416,-0.007589831,-0.0032467227,-0.10416418,0.024931578,-0.04252837,0.010191747,-0.002725725,0.0028292187,-0.08171013,-0.014488971,-0.04797335,-0.08968769,-0.035786554,-0.077815555,-0.016771153,-0.045745157,-0.06692168,0.07141364,-0.06806383,-0.07676882,0.062976636,0.019970475,-0.064420454,0.03132214,0.05280918,0.06660433,-0.010155525,0.09616105,0.10619365,0.06162899,0.01645526,-0.019959101,-0.11154515,-4.572778e-05,0.01106415,0.049625304,0.17063528,-0.09575525,-0.07392462,0.0053476095,0.0046894187,0.025602771,-0.0033875715,-0.026240485,-0.022020679,-0.027038576,-0.050060704,-0.038930465,-0.041167684,-0.0063673514,-0.052587036,-0.032141514,0.031086825,-0.05318017,-0.0324645,-0.07030214,-0.05838955,-0.05969973,0.0029758855,0.046369158,0.0025568139,0.016204068,0.04545293,0.01568217,-0.0011054991,0.06123388,0.044914298,-0.050668262,0.032620594,-0.0075522778,-0.026693704,0.040346332,-0.020345265,-0.043090623,0.0032875184,-0.050498236,-0.028316595,0.018737957,0.024598515,0.0041024005,-0.04416624,-0.019827086,-0.02488573,-0.10186492,-0.05195089,0.07356147,-0.07179306,-0.04839164,-0.040921293,-0.14799914,0.0038858356,-0.043095786,0.02460506,-0.01118567,0.03048739,-0.011383814,-0.0006985915,-0.034340058,0.10754077,-0.019329323,0.01124238,0.043801744,-0.013774538,-0.009870626,-0.016175956,0.022047551,0.052083466,-0.021877065,-0.04552016,-0.0006414997,-0.10811474,-0.06676257,-0.00065565616,-0.05940544,-0.03399698,-0.0020415918,-0.009303493,-0.030321991,-0.040327236,-0.017611664,-0.026155842,0.021358076,0.033821605,0.00094140356,-0.059035346,0.20454359,0.01402406,0.0046019205,0.073251024,-0.08754606,-0.0051944167,-0.0071370103,-0.037096966,-0.00073615194,-0.037349734,0.00044292051,-0.02771771,-0.067697406,0.0059056734,-0.006501135,-0.009649302,-0.039335724,0.0077848188,-0.003204258,-0.0012025959,-0.024182709,-0.03923709,0.02619542,-0.013396594,-0.031775087,-0.017170953,0.010416889,-0.06069785,-4.9675604e-05,0.003923269,-0.05743532,0.021352185,0.02293109,0.07737218,-0.026486296,0.01699252,0.042796925,0.07175963,0.0471757,-0.043085407,0.015040354,-0.038836945,-0.046425607,-0.044961303,0.0160381,0.17500871,-0.06572962,0.09258601,0.027257353,-0.12303757,0.047564168,-0.0053288843,-0.07215889,0.0056017414,-0.07859497,0.05742504,-0.057839222,-0.13828553,0.0073136273,0.0014690956,0.023293978,0.012417493,-0.037756767,-0.02460241,-0.022765076,0.0070410315,-0.0068247197,-0.009462995,-0.08024795,-0.05124499,0.028857082,-0.02945705,-0.02005858,0.036423955,-0.07496985,-0.04826721,0.017904492,0.029733744,-0.06262529,0.02310648,-0.035137095,-0.0022939746,0.08919476,-0.01949396,0.028682796,0.009671417,-0.04205029,0.011473793,0.0099904025,-0.0332204,-0.09453599,0.03390847,-0.047650788,-0.052326053,0.001588782,0.029561544,-0.017006226,-0.0066944463,-0.039784305,0.024626391,0.030412987,0.004690978,-0.015682293,0.017035626,0.055999678,0.03854889,0.033506863,-0.050693166,0.032717265,-0.02634171,-0.010094364,-0.050692253,-0.029234422,-0.063853756,0.008110737,0.021171218,-0.101605274,-0.024428438,-0.10058366,0.0010981981,0.03466674,0.10312452,0.067288324,-0.003371988,0.007977571,0.062592685,0.044305023,-0.089086406,0.0740557,0.05500429,0.0593519,0.006303287,0.02811136,-0.044367094,0.03731651,0.030413311,-0.010167264,0.06745359,0.043757826,0.019170184,0.012497431,-0.083593525,-0.063504435,-0.0038653754,-0.06502385,-0.03200098,0.032396257,0.06307397,0.07656413,-0.05019771,-0.039243508,-0.0041055204,-0.010539074,-0.061924998,-0.075029045,0.07746743,0.030216197,-0.018174142,-0.039836295,-0.028677786,-0.028520197,0.011491528,-0.03966669,-0.08310109,0.016207028,-0.092086844,-0.04841837,-0.004713841,0.01740843,0.00423641,0.043940604,0.031642545,0.023580959,0.07997529,0.05375552,-0.0065089604,-0.028463699,-0.07267341,0.07561513,-0.060222417,-0.15022187,0.007381367,-0.058730826,-0.054708164,-0.022706483,-0.016241947,-0.105598696,-0.026487568,-0.07345925,-0.1851092,-0.10317834,-0.12395132,-0.06159679,-0.148057,-0.050739672,0.039329603,0.08157119,0.06734573,0.046303738,-0.014983414,0.06883088,0.07164694,-0.012162791,0.017752597,-0.0439539,-0.040404048,0.0024861635,0.024825158,0.038053904,0.052052267,-0.0073860367,0.007021492,-0.0617825,0.048325967,0.047786452,0.06479277,-0.11447793,-0.031772263,-0.0024845898,-0.022208942,-0.049389783,-0.021066587,0.018911656,-0.029238693,-0.058562215,-0.06885789,-0.10249914,-0.1020451,-0.091859944,-0.052443888,-0.010430855,-0.028157188,-0.022850076,0.018753514,-0.013507812,-0.036472194,-0.058594484,0.0062167873,-0.06264448,-0.0599128,-0.06312241,-0.042455286,-0.035341,-0.041133054,-0.0077575925,0.035991784,0.0004514242,0.012638065,0.056670904,0.0818605,-0.08394277,-0.081121944,-0.027169835,-0.08157638,-0.083867356,-0.09313678,-0.0024598038,0.15780483,0.13872619,0.08436921,0.00391409,-0.07297156,0.009056049,0.09034565,0.13443293,-0.01221491,-0.02916795,0.009274096,-0.042301435,0.05505308,0.045752518,0.019883817,-0.018443968,-0.012557842,-0.01827538,-0.035065625,-0.01106753,-0.019818652,0.04748037,0.0120045915,0.033723243,0.064396076,0.0032461183,-0.00051109394,0.024926633,-0.009142639,0.030151932,0.01701564,-0.038696315,0.10374656,0.029767254,0.072818,0.107019216,-0.052435886,-0.07212643,-0.033738337,0.026166065,-0.004106205,0.00803399,0.05168709,-0.02322831,0.02809696,-0.024417471,-0.050281562,-0.03608212,-0.06486718,-0.09072682,0.0029995162,0.001350997,-0.08333729,0.00729539,-0.040056303,0.012888849,-0.06769591,0.009273143,0.04120143,-0.02111493,0.018072195,-0.046632994,-0.016434645,-0.06137805,-0.050227784,-0.10143492,-0.019529086,0.0131706875,-0.14526996,0.07664396,-0.009179681,-0.041065514,-0.048705094,-0.18187536,-0.06459177,-0.19472355,-0.045444887,-0.027689654,-0.029961249,0.07410837,0.0019154476,0.011263531,0.036683094,-0.12523638,-0.046956025,0.09202309,-0.032441996,-0.0018623356,-0.015928155,0.08183334,-0.019813592,-0.008901181,-0.038398083,-0.0047274227,0.011942369,-0.006497946,0.0024058784,0.046463892,0.012146081,-0.028189126,-0.09329679,-0.14373979,-0.036507968,-0.10102091,-0.01624154,0.032973826,0.005744912,0.002052666,-0.017835565,-0.039049637,0.014179188,-0.14746879,-0.1319149,-0.113608904,-0.06371999,-0.03594982,-0.013410635,0.038280424,-0.08949634,-0.065527886,-0.01222286,0.0059216716,0.013094008,-0.0450411,0.028017897,-0.068712585,-0.07795668,-0.09310207,-0.053869527,-0.01427246,-0.062161077,0.027731797,0.018651536,-0.068446696,-0.013324009,0.010504947,0.040358998,-0.031620063,-0.0038152905,0.034973748,-0.029681023,0.021383775,0.037865862,-0.0047043962,-0.013091678,-0.07282467,0.030399388,-0.09703615,0.032795016,0.018647049,-0.03909718,0.0720621,-0.08571785,0.07635349,0.04216694,-0.065243974,-0.08627339,-0.05128577,0.028729843,0.052674524,0.047524624,-0.020451192,0.0092786085,0.07505554,0.053871166,0.049271572,0.04049639,0.06286333,0.028878754,-0.02108857,0.02392623,-0.067148,0.0419481,0.10437888,-0.04534005,0.14615123,-0.017239574,-0.018073935,-0.046984546,-0.020685906,0.04218113,0.03452751,0.03571913,-0.04128422,0.07594591,0.03995396,-0.034563843,0.011295689,0.04497134,-0.059195276,-0.038620707,-0.0038119808,-0.008173808,0.040754937,0.009035485,0.009084821,-0.040953044,-0.01889132,-0.0071189944,0.04220157,0.007295786,0.027559115,0.10292044,0.03769822,-0.040557638,-0.018212732,-0.021098914,-0.06899487,-0.033628967,-0.025805507,-0.037518553,-0.032502178,-0.048167232,-0.043642066,0.0285791,-0.04738188,-0.10260863,-0.15528,-0.07926426,-0.036974993,-0.06314165,-0.03268885,0.07307872,-0.06124603,-0.057786006,-0.043092526,0.16600749,0.02248877,-0.09311306,-0.12198611,0.02006283,-0.037480168,0.043723047,-0.031532474,0.09218723,0.07762064,-0.0074222176,0.0582087,0.045990422,-0.03727833,-0.02500551,0.024459926,-0.041491058,0.0641663,0.13052382,-0.047503583,0.008703931,0.13814858,0.042310923,-0.030915676,-0.05867194,-0.023858953,0.030613609,-0.016985035,0.032836836,0.009434537,-0.024666265,0.015211861,-0.010520508,0.02350562,-0.0726857,0.016035443,0.011150964,-0.03630943,0.05139797,0.014951885,-0.095291555,0.002230364,0.012680001,-0.021800583,-0.03645157,0.062428743,0.07782382,-0.016486935,0.10628387,0.030034013,-0.097974576,0.013116931,0.024415735,0.0012855878,-0.007724667,-0.008337061,0.011758373,0.054528028,0.023252353,-0.023484534,-0.044777937,0.021029633,-0.06428304,-0.0066045364,-0.005706763,-0.015646642,-0.047889255,-0.049453944,-0.061605435,-0.037677296,-0.02949907,-0.008491371,-0.0021138052,-0.070387855,0.062146727,0.022349685,-0.067430206,-0.015102391,0.045858856,-0.0033835142,0.01855048,-0.010054488,0.016827974,0.01563569,0.013320073,0.002889496,0.04945035,-0.041154604,-0.01629636,-0.01892161,0.011848405,-0.031969607,0.020615945,-0.051933214,-0.03954865,0.098892,-0.005012582,-0.03093247,0.010844427,-0.004122339,-0.027326616,0.06520791,-0.027725512,-0.0064157117,0.0370629,-0.00935884,-0.028422441,-0.031142656,-0.0010740564,-0.020157708,0.02597149,-0.03536456,-0.0059803715,0.015815638,0.012506803,-0.03674735,0.029983811,-0.025636775,-0.013751299,0.04584599,0.006966966,-0.024904752,0.010543853,-0.024036642,0.007904848,-0.09629891,-0.017737068,0.033580706,-0.05655384,-0.100996025,-0.024042122,0.015078004,-0.066155426,0.0075942175,0.04425259,-0.05506706,-0.077858336,0.08307634,-0.020953745,-0.073410116,-0.03254785,-0.006121031,0.008206831,-0.015538854,-0.009919989,-0.012312077,-0.123532675,-0.03885616,0.004576283,0.03049503,-0.08656889,0.008549174,-0.0054651583,-0.010800367,0.026284007,0.032945085,-0.013585233,-0.014975576,0.05435844,0.02143917,-0.02194407,-0.003876241,-0.02760421,0.029980363,-0.033907466,0.0007340086,0.028289827,-0.026962271,-0.007441395,-0.026952473,-0.037135005,-0.025527664,0.00477622,-0.064926386,-0.021937748,0.008514747,-0.03137227,-0.0749142,-0.035069004,-0.030401401,-0.04841331,0.058061592,-0.0024226215,-0.020051258,-0.021483049,-0.0034668974,-0.0009274419,0.022785984,-0.0021007888,-0.017120093,0.02091281,0.034937754,-0.018181158,0.009044493,0.013604584,-0.004210654,-0.0022222397,0.0020667275,0.037124634,-0.03242608,-0.037702627,0.008074205,0.04407122,0.009553991,-0.020515481,0.017128332,0.113495305,-0.07200916,0.073371366,0.02775093,-0.11080748,0.028009975,-0.05334989,-0.011736466,-0.009415852,-0.13288765,-0.06599345,0.044166565,0.0023968709,0.0057151285,-0.09954389,-0.016777663,0.065056324,-0.019755341,0.0012549512,-0.037245654,-0.047489993,-0.00016319755,0.034398187,0.060874104,-0.010088273,-0.026265,0.028863143,0.07937579,-0.056496475,-0.07442693,-0.0025906356,-0.0380762,0.022814913,-0.028705074,0.11422221,0.1263954,-0.010438513,-0.07314531,-0.0755365,0.005049974,-0.07037918,0.030132493,-0.028913368,-0.05311017,0.07124147,-0.050051462,0.006719952,-0.08652873,0.06684795,-0.016513512,-0.06700772,0.0018705501,0.026137527,0.08958055,-0.0499847,-0.063516825,0.011116125,-0.0015976619,-0.016323334,-0.007266605,-0.012140378,-0.06380049,0.015383326,-0.0451369,-0.022230474,-0.014850187,0.005986319,0.04743394,0.13617826,0.08192874,0.038465913,-0.019741284,0.11648093,-0.06230423,-0.021746019,0.058483645,-0.030625386,0.009351959,-0.17554668,0.20225142,-0.018191181,-0.035238635,0.089761786,-0.10990661,-0.0527273,-0.03784983,-0.12228968,0.043191455,-0.044534836,0.0023019796,-0.014872537,-0.07655883,-0.069704235,-0.07296608,-0.041791365,-0.008717301,-0.021686738,-0.061306432,-0.01840057,-0.047462877,0.024732739,0.19203123,-0.14753662,0.083529785,-0.06275797,-0.097186595,0.00075561414,-0.12883145,0.031098483,0.12663524,0.064787306,0.014932076,0.06335978,0.05936023,-0.039685834,0.027890276,0.007340538,-0.05426546,-0.056648634,0.0039792215,0.0149282245,-0.06006667,0.035639133,-0.015017591,-0.027267674,-0.0065896898,-0.028611762,-0.03811579,0.009058928,0.08442313,0.023245657,-0.036040377,-0.027361248,-0.017480988,-0.012341782,0.080088705,-0.07843666,-0.073598795,-0.09780973,0.08830855,0.034117997,0.061777312,0.038291994,0.021924809,-0.1147672,-0.009062356,0.11631252,0.020503344,0.1143649,-0.04687233,-0.0048626917,-0.016893798,-0.030961998,-0.038460515,-0.06065024,-0.018301902,0.041011065,-0.14881675,-0.045042895,-0.11982626,-0.076105796,0.014360191,-0.09578698,-0.031856354,-0.07444232,-0.049592644,-0.07150127,-0.07782467,-0.039552864,0.030953884,-0.006969711,-0.17337772,0.19433475,0.039631143,-0.0007326719,0.09089788,0.012046744,0.083096325,-0.09319628,-0.04667292,-0.018657902,-0.110878095,-0.010541193,0.029907892,-0.039679646,-0.017730927,-0.016884455,-0.048346873,0.043694,-0.08736647,-0.052886277,-0.05796734,0.035785157,-0.09961158,0.004008985,0.029976811,-0.008018941,0.007911955,-0.13100402,-0.11696313,-0.026549263,0.03388043,-0.017701235,-0.036027405,-0.025101194,0.0017263555,-0.02196281,-0.022269191,0.12831761,-0.07304982,0.21291387,0.11920738,0.13095574,0.048887677,-0.02288562,-0.119240254,-0.057975482,0.055546436,-0.19297652,0.19895086,0.06709636,0.049079083,0.075680465,-0.091362394,0.09930245,-0.07475064,-0.0019698006,-0.064425424,-0.029483281,-0.013602915,0.11193424,-0.084529266,0.028715849,0.040557604,-0.11486579,-0.008032585,0.033262838,0.00040029132,0.004257458,-0.015896207,-0.019451434,0.042336866,0.014952339,0.0155155165,0.013262734,0.1385718,-0.09383024,-0.03691204,-0.08667083,-0.0637992,-0.055591293,-0.09961305,0.10819895,-0.02649298,-0.0050410656,-0.020130813,0.050748367,0.13225566,0.018674998,0.036531072,0.058020283,-0.07425525,-0.07693629,0.07944342,-0.13833469,-0.15337837,-0.038746927,0.01252803,0.09067993,0.008842671,-0.06880648,-0.06340882,-0.044493634,-0.09012765,0.00034231067,-0.06295024,0.08220643,0.028001,0.008751079,-0.019051285,0.0075056143,0.019436676,-0.0014455918,-0.035686176,-0.0020445234,0.020738045,0.0047964244,0.012210805,-0.033849306,-0.018027611,0.0014432772,-0.0045506875,-0.026783276,-0.008239332,-0.042773332,-0.019671539,-0.042650852,-0.055030406,-0.029255223,0.007044624,-0.0008799591,0.020368397,-0.012357462,-0.008935847,-0.021299636,-0.035640653,-0.0017225249,-0.0025722582,0.025870321,0.013388993,-0.0107973935,-0.006779666,-0.016871482,-0.009825686,0.006602388,-0.055826228,-0.045046225,0.0063434322,-0.04300703,-0.002956055,-0.042116232,-0.019635478,0.014680171,0.0043454757,0.0046343743,-0.040396802,-0.009775773,-0.011772622,0.0131404465,4.5047338e-05,-0.0019085658,0.0077534905,-0.023553638,-0.035659816,-0.019553872,-0.029861664,-0.029660651,-0.031536523,-0.024991943,-0.043921277,-0.022006081,-0.02509482,0.019726515,0.0073124357,0.0012616633,0.0044816313,-0.03174412,0.011360187,-0.015803037,0.011137577,0.019133486,-0.05948737,-0.058816526,-0.009357862,-0.0025977336,-0.04564684,-0.042180367,-0.0020681715,-0.007488511,-0.036708284,-0.028506372,-0.017958447,-0.0064222855,-0.006435542,-0.03103387,-0.014342768,0.020732343,-0.012906937,-0.017538682,-0.02310694,-0.0163066,-0.036877766,-0.054403357,-0.033271007,0.0024929438,-0.027948642,-0.02005017,-0.030655852,-0.0071181003,-0.036693532,0.019536277,0.0023711917,0.022480587,0.009688751,-0.0045199036,-0.019020693,-0.032705452,0.0017562568,-0.0050659664,-0.008953085,0.0014048644,0.012887294,0.023457622,-0.005420692,0.008225763,0.01637406,0.019454269,-0.03390257,0.005366961,0.031154148,-0.03655501,0.014094065,-0.020528657,0.016133023,0.026340717,-0.008267102,-0.0059225485,-0.01553603,0.009761439,-0.035217594,-0.031755783,0.019546615,0.023226602,-0.03191594,-0.03605528,-0.00870409,-0.007483732,0.0018965852,0.0025255966,0.017758427,-0.029658178,-0.03564961,0.008651298,0.08244069,0.047982484,0.014722242,-0.054106977,-0.067486376,-0.0053619635,0.030273534,-0.006105094,0.004555836,0.048289694,0.1409666,0.054301187,0.022144694,0.11600041,-0.0021443556,-0.038300056,0.03604951,0.0628227,-0.041969445,0.032907438,-0.011172755,-0.023184123,-0.08304575,0.03036452,0.07589042,-0.010642906,-0.06676342,-0.021951936,0.022063408,-0.029161844,0.015674964,-0.010043887,0.03085169,0.018535405,0.0048732343,0.013778555,0.013180361,0.05092636,0.05456,-0.039657846,-0.020287968,0.078843355,-0.059603162,0.018223492,0.020307528,-0.06255175,0.01776004,0.034346953,-0.0026929541,0.00093937933,-0.012001665,0.04777394,-0.008393125,0.025184913,-0.046201408,-0.039286595,-0.019849837,-0.010113524,-0.016624497,0.028576221,-0.028831372,0.0108059,0.0045572165,0.0025680747,0.065531865,0.0007659149,0.014527467,-0.0155578265,0.0128061315,0.029710453,0.017517515,-0.055016328,0.079336375,0.04391801,-0.036760088,0.048373897,0.10193302,0.027670292,-0.0071058366,-0.031286787,0.029434748,-0.06404875,-0.057127256,-0.0768955,-0.018619524,-0.031185467,0.029345112,0.009542199,0.08130267,-0.0074140183,0.05998101,0.05057409,-0.027380113,-0.048978176,0.010639906,-0.031798437,0.052480698,0.10995706,-0.0060428344,-0.019080266,0.050738435,0.05834808,-0.027941972,0.02140705,-0.011068917,0.056815337,0.05166167,-0.012636323,-0.041359954,0.053891473,0.034697834,-0.023886593,-0.06094574,-0.0069106454,0.1074021,0.04613792,-0.0035788692,0.012152713,0.018618274,-0.039532058,-0.013352163,0.016608613,-0.009069271,-0.0026961577,0.003711203,0.0066260714,-0.015380229,-0.007816416,-0.02939952,0.023130726,-0.04815492,0.011296907,0.042584408,-0.0016251074,0.021260448,-0.100478,-0.04342097,0.0033852349,0.010767677,0.0026707547,0.038091626,0.009190062,-0.030654702,0.021224745,-0.0037271508,-0.004087026,0.044744167,-0.045737732,-0.015034329,-0.058350664,-0.007620777,0.0044623874,-0.008384154,0.0011764059,-0.009567484,-0.011034288,-0.0045592464,0.051143233,-0.054164547,0.15091543,0.07033573,-0.096273296,-0.028432231,-0.044374235,-0.04690418,-0.10102855,0.00803154,0.06960137,-0.01934527,-0.12814851,0.045656938,-0.002640717,0.034654107,-0.015260307,0.03151501,0.00069432054,0.03353842,0.029301384,-0.025241185,-0.016341005,0.037585188,-0.01120079,0.010095916,-0.066460915,0.15059999,0.020701012,-0.009937774,0.009813668,-0.027399935,0.01828183,0.05472922,0.031460732,0.010465944,0.0037485147,0.01696697,0.029514877,-0.017921006,0.038813632,0.029107522,0.032127216,-0.0125629585,0.014214616,0.060065962,0.07544825,0.007828247,0.029051285,-0.05969128,0.025931284,0.031575147,-0.017483525,0.062263712,-0.01256014,-0.013676421,-0.017545793,0.00085288106,0.05815994,-0.0060238456,-0.008835404,-0.11813162,0.028141476,0.038591057,-0.05871867,-0.00490022,0.07053122,0.06527034,-0.033875696,-0.030664327,-0.03683151,-0.011416344,-0.036997907,-0.027741356,0.051334158,0.0058585345,0.037914198,-0.035035398,0.042828653,0.11929707,-0.085433975,0.03914477,-0.00091495167,-0.062101357,0.05027333,0.0041718646,0.032380085,0.041241147,0.025659714,-0.0017209827,0.07134046,0.05237912,0.021957936,-0.018282278,0.005334841,-0.010659184,-0.05333602,-0.056110896,0.01401876,0.08849813,-0.0068603437,-0.0005403652,0.032362323,0.10472097,-0.017757367,0.052839775,-0.022531146,-0.011072789,0.0045436877,0.023976548,-0.0058256965,0.030368013,0.04343732,0.008690032,0.029893102,-0.033428717,0.016369063,0.039681766,-0.004195879,0.061096728,-0.011344254,-0.0012378144,0.04082475,-0.020209493,-0.015076712,0.0071659037,0.052920803,-0.011504025,0.004587403,0.03911602,0.058613386,0.034122467,-0.030800262,0.023188207,0.021523252,-0.039660916,0.013840452,0.008651582,0.002279218,-0.046484083,-0.07419921,-0.05971075,-0.0019079106,-0.096397705,-0.080876455,-0.02446738,-0.03488853,-0.010711642,-0.015527672,-0.0066488474,-0.027424516,0.020967634,0.054937307,-0.040130068,-0.008146022,-0.030676994,-0.0008992256,-0.0026865255,0.025895203,-0.03910937,0.012622255,-0.032116096,0.016456075,-0.020558638,0.0342666,0.02562797,0.014327517,-0.010923966,0.005102835,-0.02849365,-0.029371586,-0.038907725,-0.030128341,-0.004759956,-0.003816082,-0.0038684634,-0.034789566,-0.026295334,-0.036773477,-0.005652894,0.0038061575,-0.004050743,-0.01649571,0.01927952,-0.03229498,-0.04402206,0.026711095,-0.02844021,0.0023936043,-0.04384757,0.021798704,-0.01998683,-0.010132173,0.011560598,0.015903836,0.030693915,0.017569607,0.0112292385,-0.021734117,-0.035847124,0.00030382813,0.01555662,-0.020729246,-0.04450993,-0.032302663,-0.039691344,-0.013292286,-0.06738882,-0.021297082,0.014781903,-0.006494472,-0.007181588,-0.052868452,-0.055579986,0.014799478,-0.046055447,0.0038940443,-0.018158916,0.021864697,-0.0062537286,0.0066688573,0.016424123,-0.046665262,-0.054031473,-0.036088325,-0.0656818,-0.018462703,-0.010512096,-0.0065765455,-0.05521334,-0.041422565,-0.010278825,-0.0031874445,0.016270325,-0.0439722,0.01620534,0.022578834,-0.019086724,0.021536013,-7.442808e-05,-0.03886536,-0.03966493,-0.027090162,0.01012137,0.0028645317,0.013501416,-0.007246568,0.0057615833,0.03382518,-0.032266647,-0.017572798,0.0011600158,-0.046998687,0.02839618,0.014168714,-0.033566825,-0.013198682,0.01735722,0.014063823,-0.029708905,-0.036759026,-0.052155465,-0.018764084,-0.042305537,-0.008025495,-0.030376315,-0.013907476,-0.027229259,-0.041563276,-0.020772293,-0.0057189,0.033047248,0.018708594,-0.013970745,0.020496137,-0.09437989,0.15213837,0.054546896,0.035055503,-0.03511072,-0.028664598,0.14847027,-0.048766926,0.030918565,-0.17377,-0.070353046,-0.20180258,0.20060383,-0.007863424,-0.06952242,0.036419157,-0.037814833,0.07123851,0.040877663,0.23345146,0.046280008,-0.1233576,0.013896938,0.024159603,0.0046433695,-0.048547614,-0.0022185124,-0.043484457,-0.0897437,-0.012296129,0.0038589656,-0.0882395,0.029414982,0.031063948,-0.01936594,0.027703732,-0.0016318859,-0.043184884,-0.0905978,0.051957536,0.027930971,-0.02312825,0.0004177249,-0.07205332,0.08004764,-0.041497026,0.001305448,-0.020746859,-0.09804259,-0.009887641,-0.041094664,-0.014266335,0.00060356024,0.014236525,-0.024996893,-0.059209637,-0.008847054,-0.011455274,-0.0036263622,-0.0135753695,-0.020157743,-0.033932544,-0.009960854,-0.0058323224,0.0131211225,0.0065350905,-0.017547753,-0.025066191,-0.0005194926,0.014335784,-0.03784053,0.039789885,-0.07477564,-0.07677884,0.12084818,0.0025865373,0.0018512374,-0.088848025,0.013604051,0.007897094,-0.033256672,0.08356741,0.061212182,-0.066261634,-0.17102529,0.100296415,-0.18799193,0.013684076,-0.101186894,-0.14926821,-0.036870915,0.15574051,-0.043410655,-0.0004744477,-0.14210764,-0.007974752,0.05297557,-0.039551858,-0.062189445,-0.055340532,-0.07427179,-0.042654745,-0.009075087,-0.07777013,-0.0012219931,-0.0064643268,0.009937789,0.035147764,0.047062915,-0.021286417,-0.012281768,-0.030372182,0.08825887,0.0536488,-0.0746903,-0.015930397,0.054258104,-0.048326585,-0.025259588,-0.0423165,-0.066546194,-0.029613443,0.085743725,0.0563941,0.009353363,0.07601989,0.047316127,-0.09035737,-0.013819831,0.0023197767,-0.035695553,0.010411428,-0.08934103,-0.013805157,0.081260905,-0.020214412,-0.12563418,0.037832048,-0.019307695,-0.13544987,0.0015421519,0.05320443,0.02349407,0.0720004,0.05320266,0.015563648,0.082331374,-0.009040228,-0.01985103,0.030632375,0.036759753,-0.034349237,0.08585828,-0.037062723,-0.029944608,-0.04215946,-0.07420766,-0.036187038,-0.063841365,-0.050740335,0.05641334,0.11866509,-0.10312434,-0.01997711,-0.006459993,-0.025751371,0.06981848,-0.07866675,-0.052415065,0.06648318,0.028662775,0.006160279,-0.0063670366,-0.0004913137,-0.020359343,-0.0660052,-0.04770645,-0.0042951806,0.047831424,-0.046757963,-0.070225306,-0.017561821,-0.10368648,-0.00075111666,-0.035542294,0.04349486,0.014756359,0.044270813,0.042537693,-0.0049564335,-0.0123336455,0.002230791,0.030010108,-0.026114188,-0.05166277,0.016965875,-0.006165995,-0.0059702923,-0.0149150845,-0.009467338,-0.074820705,0.037953943,-0.054496925,-0.096228994,0.003396738,-0.009623743,-0.04163938,-0.001963796,-0.00093349564,0.012275616,0.02939195,-0.043581303,-0.048088904,0.01625862,0.011368927,-0.016534815,-0.06493852,-0.054486915,-0.022799904,-0.083148114,-0.010967129,-0.08881895,0.013409865,0.06876913,0.026452951,-0.10645467,0.045449473,0.082651675,0.0030968864,0.0124735935,0.050914127,0.09118774,0.06023389,0.10784496,-0.01113879,-0.055903785,0.048482403,-0.11748989,-0.03740029,0.029118994,-0.056391478,0.017531851,0.021632303,-0.020210482,-0.020350141,-0.053295676,0.023815984,-0.008802411,-0.023844115,0.010547801,0.0071138167,-0.014441344,-0.09651459,-0.027361754,-0.085730106,-0.018492356,0.08460367,0.0062125814,-0.0023819136,0.11126942,-0.05235704,0.016852707,0.00089720474,0.05229539,0.000685649,-0.025110155,0.046107113,0.011920165,-0.026704568,0.036356214,-0.016216202,-0.057588663,-0.006615766,-0.091100045,-0.019698294,-0.0013247653,-0.051045757,0.040272277,-0.008350168,0.0069993497,-0.030842422,-0.03293361,-0.008112161,-0.034570485,0.0054381443,0.0046290085,0.02143973,0.022623515,0.05854501,-0.019840106,-0.13277781,0.07843685,0.059893545,0.07824345,-0.004716122,0.02481923,0.04560728,0.026496546,-0.037136562,-0.05985919,-0.0996977,-0.11515162,-0.03240536,0.029842563,-0.052696127,0.07454017,-0.00088935747,-0.031288248,0.0760726,0.05660857,0.052645776,0.012035504,0.11760675,-0.02363913,0.0030629535,0.009789208,-0.06944439,0.08225805,0.0021503896,-0.08090369,0.04979355,0.029880192,0.007401593,0.042810082,0.09864627,-0.063408144,-0.012174478,-0.022670757,-0.020436263,-0.041217644,-0.021573082,-0.02602198,0.018437445,-0.016348958,-0.0068686013,0.06778979,0.047691416,-0.045944314,-0.0027372541,-0.039748568,-0.051928617,-0.01942067,0.002545795,-0.03363755,0.012098281,0.011058627,-0.06295206,-0.047703944,0.014270454,-0.03604847,-0.06569951,0.03254134,-0.0134440055,0.07811904,-0.0031230832,-0.038393587,0.054722276,-0.010971169,-0.07103035,0.08381439,-0.02083043,0.114657685,-0.02093076,-0.0577597,0.06672224,0.04610746,-0.06931365,-0.013972314,-0.050616607,0.021956775,-0.05478029,-0.004225814,0.047137905,-0.066287935,-0.14958863,-0.1103502,-0.11350977,-0.12613879,-0.0493257,-0.06818321,0.042956986,0.06544619,0.081436545,-0.04383343,0.048278358,0.023938634,0.07830985,-0.010347802,-0.0058505586,-0.0033330782,0.021169938,-0.062282983,0.039618384,0.0029215564,-0.10889369,-0.015981052,-0.051798075,0.09243962,-0.016117759,0.04698929,-0.06677435,-0.05549381,-0.021799099,-0.110396534,0.054996606,0.039088532,0.09425943,0.0072007193,0.019994397,0.06331049,-0.010224278,-0.009205849,0.080421075,-0.009434371,0.06661988,0.026471505,-0.05055185,0.079445064,-0.005356929,-0.011242631,0.060564958,-0.12082762,0.005659108,0.04633825,-0.04169758,0.06716873,-0.045704227,-0.052423835,-0.00079109694,-0.072396666,-0.027699651,-0.08126629,-0.022472866,0.026557196,0.057622753,0.00028200084,-0.016270805,-0.013563954,0.046132546,0.012971439,-0.043926362,-0.030335704,0.030082118,-0.055534583,-0.0078414455,0.009535244,-0.01526379,-0.036797874,-0.026437242,0.014200723,-0.010250311,0.025589721,0.015546433,-0.041676447,0.063761525,0.0022639008,0.01328084,0.0070126625,-0.009215605,0.057541825,0.047849823,0.01997756,0.01617414,0.010268536,0.033963915,-0.039843094,-0.0014032184,0.041985836,0.0031225574,0.001113036,-0.029586155,-0.055735424,-0.030406369,0.02219125,-0.023887195,-0.057725947,0.038137354,0.049662802,0.005373579,0.05324348,0.00092978333,0.07993454,-0.008166843,-0.037242554,0.040594615,-0.024530126,-0.006462303,0.043760274,0.023557154,0.013609367,0.032255903,0.05743592,0.014039877,0.011335613,-0.0060234442,0.056716084,0.009869999,0.06010285,0.01176651,0.048682544,0.0133187,0.011912305,0.036865477,-0.01669055,-0.061173342,-0.0054406794,-0.08464052,0.018716928,0.032650143,-0.051241517,0.029757394,-0.0539841,0.042077918,0.031392645,0.009717773,-0.0010701799,-0.016317453,-0.014540738,-0.051739424,0.018168444,-0.048685394,-0.024650158,-0.035866514,0.0016687872,-0.02676536,0.030022455,0.059002668,-0.043545917,-0.004938157,-0.051708978,-0.053095274,0.019939436,0.06838888,0.02924083,0.04762372,0.022025863,0.04612615,0.016115364,0.043680903,0.019281015,-0.033633098,0.01206312,0.015175708,0.058092926,0.03581923,-0.01776579,-0.0001652073,0.026685003,0.02001192,0.031539284,0.06592588,0.034090344,0.044513654,0.00831498,-0.021550229,0.035488706,-0.008915327,-0.037816487,0.055622783,0.07316625,0.061878484,-0.014325302,0.060966272,0.011641911,0.035778407,0.019260952,0.015237485,0.046399765,0.036254134,-0.019510759,0.028930278,0.01826163,0.028228505,0.033644058,0.070467114,0.05301774,-0.07220894,0.08507559,-0.025126055,0.075462684,-0.0041220686,0.009145824,0.07006245,-0.101358645,0.1033926,0.25069895,-0.04880958,-0.23756641,0.023705764,-0.068165466,0.08666409,-0.15580836,-0.07535548,-0.021612456,-0.079494745,0.11202025,0.1264802,-0.19862072,0.022405371,-0.06738005,0.022326116,-0.013680542,0.005704547,0.020771934,-0.041638296,0.034680888,-0.02561128,0.0027142484,0.073310375,0.020133026,0.008595086,-0.04131795,0.13743809,-0.021522272,-0.15884176,-0.07413323,-0.047176708,0.023642939,0.037138935,-0.067138985,0.08084856,-0.02815653,-0.027063247,-0.041179284,-0.07333129,-0.021441665,0.027330393,0.03475459,0.02918731,0.031920273,0.028923666,-0.07063637,0.010785543,-0.012431447,0.005842555,0.02425112,0.0006571329,0.027762191,-0.012265339,-0.008625146,0.0070674177,0.0792439,0.034615375,-0.011179064,-0.040134627,-0.03585057,0.038844723,-0.020884622,0.0099357655,0.024651753,0.027702736,-0.13426317,0.12501948,-0.115601316,-0.043210287,0.021650676,-0.053990643,0.05342411,-0.16724493,-0.018662084,-0.07573896,0.032829035,0.07677192,-0.055273198,-0.011817411,-0.07339043,-0.027489465,0.042253558,-0.1515924,-0.038654972,-0.00763099,-0.038459316,0.084918454,-0.084251985,0.031394098,0.07885766,0.019256407,-0.0075523495,0.04153345,-0.0017558103,0.021804705,-0.026816119,0.038807005,0.024877928,0.027416233,0.0784901,0.05253446,-0.046656374,-0.016943524,-0.0309213,-0.07057935,-0.01792994,-0.09405279,0.03535042,0.063675,0.09740046,0.055693515,0.012950826,0.04863037,0.074058205,0.019214023,0.09416061,0.064440176,-0.04795841,-0.017203497,-0.008243094,-0.063792214,-0.00396152,-0.026207732,-0.037661187,-0.042465985,0.014646224,0.0006949504,-0.0030558784,-0.021282688,0.0034635426,-0.05315964,0.044954203,-0.01766781,-0.031635948,-0.022237692,0.078594476,0.010511924,-0.0019469275,0.054765444,0.05727952,0.00075748406,0.044337805,0.12846012,0.1096188,-0.0043917364,-0.02635876,-0.071545206,-0.08756829,0.09837239,-0.085782275,-0.043391343,-0.0070735095,-0.026389353,0.02393197,-0.098156765,-0.03121282,0.01111099,-0.059225462,-0.08180028,0.037864994,0.10279198,-0.0033930065,0.017544458,-0.04625604,-0.05748771,0.037384834,-0.011208082,-0.03316316,-0.020831928,0.03307575,0.0507985,-0.08575566,-0.008501022,-0.10691814,-0.046333786,0.021278203,-0.009530275,0.19928613,-0.021225642,0.019042784,-0.031970665,-0.0053723,0.027131574,-0.058843408,-0.07945336,-0.021380093,-0.0405055,0.030032864,0.017761571,-0.053075667,0.043166306,-0.054448016,0.018424029,0.010601592,0.030337097,0.043322355,0.028396158,0.04311286,-0.001975754,-0.026727306,-0.038309302,-0.06608546,-0.03425529,-0.013908082,0.009763967,0.03836113,-0.03433875,0.13569735,0.12443978,-0.077005036,-0.07706334,-0.06609782,0.08017636,0.021247838,-0.055179827,0.120866224,-0.053848553,-0.058837876,-0.12466233,-0.0052003176,0.07715403,-0.082037225,0.09631218,-0.09349336,-0.14656237,0.0029809312,-0.0075560533,0.055975374,-0.025858918,0.033082265,-0.0022899667,-0.10448932,0.022754602,-0.02884608,0.003365509,-0.023820937,-0.03834242,0.042449504,-0.007753049,-0.034757935,-0.004652053,0.043443125,0.03890108,0.024564477,-0.038858786,-0.03411714,0.021558344,-0.023196371,0.06885682,0.012421838,-0.023487762,0.077561565,0.1464336,0.066313855,0.07071188,-0.019029597,0.090951346,-0.075805,-0.033602063,-0.0317724,-0.0610049,0.028670931,0.0019231507,-0.06203434,0.017497951,-0.08865881,0.002425686,-0.061885484,0.027949456,-0.018555786,-0.022128984,0.033019736,-0.031354386,-0.012729579,0.03293048,-0.035850406,0.046371672,-0.041113693,0.11133003,0.019570379,0.057033304,0.15028858,0.0131386155,0.043323323,0.020660114,0.12499023,-0.062042117,0.003059383,0.038478244,-0.017293554,-9.5138574e-05,-0.0707463,-0.093684904,-0.102521434,-0.112520404,-0.013174979,-0.09821847,0.007637238,0.003048518,0.010491426,-0.04472217,-0.029026452,0.18965282,-0.12242556,-0.011408551,-0.014953328,-0.026121149,-0.0054831496,-0.055986527,0.06319083,0.03709889,-0.02760475,-0.019167973,0.043329857,0.032598525,0.0627616,0.015852006,0.005253589,-0.033588924,-0.05806883,-0.06650555,0.033145778,0.06180098,-0.004191276,0.046697907,0.010261684,-0.07213184,0.034791797,0.01854939,-0.023894792,-0.052397043,-0.012340171,-0.028706823,0.003761293,-0.006007051,-0.056394536,-0.0049464107,-0.017030181,-0.02745996,-0.05192743,-0.017935468,0.005552616,0.06292929,-0.0048706313,-0.035826538,0.040194128,0.028557578,0.04073492,0.017232202,-0.000118776275,-0.040262874,-0.10955074,0.09970943,0.020419147,-0.00065817253,-0.09293571,0.038153466,-0.06908876,0.038783018,-0.0097920885,0.008950147,0.042667568,-0.00018051092,-0.0060663596,0.009256738,0.027161626,-0.009272357,-0.03536206,-0.037392754,0.0025442867,-0.037517406,0.012219538,-0.02725082,-0.049251333,0.04380669,-0.052098084,-0.0064229905,0.01866561,-0.00018678098,-0.018721137,0.023327533,0.01323553,0.055065863,-0.00065817847,-0.029545976,0.05858213,0.004991101,0.05698229,0.055994183,-0.019354487,-0.021920394,0.051097255,0.028088525,0.0032628335,-0.027538601,0.028975293,0.123518385,0.027774429,0.026877634,0.0713734,0.09558501,-0.007582718,0.10862058,0.10714018,0.013987661,0.01138834,0.009417445,0.057340574,-0.04355704,0.07540923,-0.004275485,0.015096913,-0.025574202,0.026280256,0.0011500777,0.031394746,0.004949951,0.059206642,0.022094436,-0.056899134,-0.0051940815,-0.027928017,-0.004183484,-0.059308838,-0.03771168,-0.039507095,-0.07974861,-0.010372104,0.12686244,0.021853795,0.013689327,0.024556857,-0.015138524,0.08335097,-0.047825027,-0.03413721,0.016575212,-0.077452704,0.01409665,0.0592542,-0.029477356,-0.027694503,0.003203981,-0.09353418,0.038308285,-0.10473787,-0.031361636,0.039364178,0.07950371,-0.043100227,-0.026960926,-0.034798607,-0.0154220285,0.014181049,-0.02490783,-0.0060100583,0.005442975,-0.0130868,-0.047979593,-0.0028104442,0.035984483,-0.109971985,0.031458363,0.10062643,-0.08581413,0.012280905,0.017805493,-0.016644,-0.022720737,-0.0732948,-0.059433546,0.049654957,-0.011228425,-0.044753395,-0.0068684826,-0.019896155,-0.026108984,0.024805628,-0.06493143,-0.06790447,0.028152848,-0.031088928,-0.025934823,-0.026423972,0.0027496682,-0.04189003,-0.026454601,-0.029652964,-0.039190523,0.06801922,-0.039030302,-0.022838484,-0.010414443,0.02394576,0.046003148,-0.046113975,0.06250553,0.047499545,-0.006603136,-0.04391215,0.0455288,-0.048672687,0.0058729504,-0.07749918,-0.02939898,0.038080886,-0.14976515,-0.049696416,0.105117366,-0.13952065,0.016627228,0.14642374,-0.021055693,-0.011667339,-0.01297878,0.016838452,0.052837618,-0.022409508,0.022751192,-0.007037083,-0.010252997,-0.021233661,-0.023044547,-0.024737542,-0.023132408,0.023484008,-0.0030713482,-0.0329854,0.0020600955,0.021196064,-0.024581118,-0.005985407,-0.06306087,0.021481624,0.014494446,-0.058822136,0.0370251,-0.0066670724,-0.07452912,0.013383511,-0.026282035,0.021843845,0.022435809,-0.030000044,0.006218883,0.070256434,-0.047554296,-0.015156651,-0.010094562,-0.051743895,-0.014563858,-0.048380446,0.009357458,-0.07617088,-0.023163851,0.0010826131,-0.053247698,-0.032305963,0.006527541,-0.006756289,-0.037800908,-0.026691722,-0.019912343,-0.013643812,0.011381039,-0.05040048,0.041695934,-0.00064426527,0.22684714,-0.018173968,0.01276597,0.10093227,-0.003201211,0.061220463,0.0047262716,0.035486583,0.009353826,-0.07028717,0.027316945,0.13276258,-0.07320141,-0.03672585,-0.067898884,-0.14502071,0.008028978,-0.09352635,0.10709868,-0.108939216,-0.10864753,0.16517058,-0.04419478,0.045639377,0.07892809,-0.01758072,-0.07333254,-0.018462412,-0.039884873,-0.07618812,-0.0057160696,-0.023861116,0.009931985,0.04236167,-0.0052505825,-0.03662479,0.10651039,-0.01386008,0.036797073,-0.013001739,-0.049329594,-0.026966197,-0.048140142,-0.032196745,-0.11143069,-0.035464086,0.007328158,-0.057094138,-0.016380321,-0.0068685305,-0.026839761,0.028749272,-0.022640463,-0.03891816,-0.048218396,-0.019009173,-0.034685723,0.0021085953,-0.06004172,-0.027946912,0.00091543724,-0.061065674,-0.118331864,-0.09528785,-0.023806376,-0.06397625,-0.00609244,-0.014958321,0.0038441403,-0.008328295,0.0933086,0.15740654,-0.11440561,0.018609604,0.16527285,0.14082634,-0.041254655,-0.124120496,0.019495802,0.063520215,0.08875182,-0.021571025,0.11511136,0.1336583,0.0047272453,0.06407126,-0.08939886,0.12982747,-0.075073704,0.08954485,0.044079795,-0.0039191865,0.023257067,-0.059421185,0.09834184,-0.01460677,0.0019526377,-0.06808623,-0.12481169,-0.030016074,-0.064086586,-0.081928246,-0.02509757,-0.0067668757,-0.021021126,-0.012145563,0.039108187,0.061890766,-0.04346694,-0.06934876,0.006708023,0.0024414163,-0.0039236117,-0.033807352,0.06187928,-0.044610806,-0.028091913,-0.010716864,-0.008978225,0.054814953,0.087064534,0.016094932,0.016353732,-0.0200484,-0.10266713,-0.07353856,-0.0024358248,-0.14687599,-0.16840294,-0.067974515,0.042742476,-0.00880641,0.020313673,-0.037195284,-0.06763836,-0.04504526,-0.037875913,0.00453553,-0.059166383,0.004204857,-0.064381346,0.06162226,-0.060662255,0.10962303,0.122924335,0.10668555,0.10076416,0.06735097,-0.03950164,0.04094611,-0.07113218,0.104807615,0.022931615,-0.011178723,-0.028688544,0.0075386604,-0.10698436,-0.22264273,-0.02441407,-0.028004687,-0.009056998,0.10764231,0.080996074,0.004072139,-0.06066719,-0.0904553,0.03402823,-0.0729527,-0.007544089,0.018270578,0.05200624,-0.0323191,-0.018192848,-0.048019115,-0.060470577,0.05312558,0.08044988,-0.057510987,0.0069382517,0.08916515,-0.020099534,-0.060399868,-0.062368274,0.044143528,-0.011316362,-0.029770674,-0.010789736,-0.045514025,0.045470793,0.024543108,0.022736896,-0.013118934,-0.04951868,0.085809804,-0.012916687,0.046604365,-0.040031478,-0.01727759,0.069877505,0.015988268,-0.019839661,-0.011653415,0.026915597,0.04189289,0.03625569,-0.058212355,0.012175883,-0.0030587872,-0.01087209,0.0760011,-0.09557595,0.046647362,-0.025476765,-0.04389627,0.08175393,0.024239387,-0.16086623,0.25462615,-0.1432508,0.16339315,-0.14863531,-0.018310476,-0.01528906,-0.11328215,0.15920997,-0.004329754,-0.024684101,-0.0677119,-0.14387912,0.13256621,-0.08294393,0.03891857,-0.012993905,-0.08665566,0.04115735,0.050109882,0.0593307,0.22286507,-0.0439025,-0.08774003,-0.07404385,-0.03423262,0.0084286155,-0.012554249,-0.028208511,0.03910251,0.02082797,0.001754249,-0.00031465333,-0.079077415,-0.0313352,0.04865848,-0.1106573,-0.1854641,-0.04313703,0.042652145,0.06469958,-0.09276418,-0.014397209,0.11341158,0.0069448953,0.0007903727,0.03935366,-0.017565098,0.015314191,-0.01231257,0.090896204,-0.033018317,-0.021269606,-0.021644035,-0.1130153,-0.018046444,-0.046039023,-0.04861503,-0.044680074,0.0033424573,-0.05733496,-0.011465243,-0.08423073,-0.018735167,-0.03950438,-0.04890219,0.014275182,-0.04288267,0.053262133,-0.07657702,-0.026078943,-0.04452107,-0.14369032,-0.22042145,-0.17892481,-0.05265386,0.03648144,0.04698885,0.14330427,-0.056840714,0.08944892,-0.12000697,-0.016453302,0.10655978,0.11878976,-0.020613927,0.05400625,0.037020925,-0.12867492,-0.042826395,0.1411114,0.07474227,-0.01468414,-0.11935481,-0.2000448,0.04429212,0.10073531,-0.0046452815,-0.006597454,-0.036780965,0.068428464,0.067246385,0.008560852,0.028887466,0.025230486,0.034897164,0.018675415,0.061143205,-0.028299132,-0.0057083466,-0.010534315,0.09674124,-0.057580516,-0.06554609,0.06375537,-0.06788764,-0.026229547,-0.032249365,0.11565579,-0.041561875,0.016472923,0.024436954,0.005420791,0.052357722,0.008833952,-0.10434001,-0.057460237,0.089580975,-0.036212727,-0.054181963,-0.00049079646,-0.100583985,-0.014283023,-0.04291297,0.0018792092,-0.010796252,0.08829105,0.02365016,-0.034666527,-0.0101604005,0.089081846,0.01265603,0.05736727,-0.07985332,-0.08043548,0.020398341,-0.10889252,-0.0017219109,0.019479051,-0.038573097,-0.17334913,-0.06271632,0.0162157,-0.09876483,0.089800484,-0.03022133,0.08525732,-0.09843613,-0.1368546,-0.15168644,-0.021820758,-0.051028483,0.02979761,0.024210516,0.1789903,-0.05016008,-0.029985402,0.037311606,0.04757291,-0.02588936,-0.032527383,-0.069400795,0.013576212,0.00060651946,-0.06425271,-0.032892335,0.022782255,0.072423786,0.06071427,0.11016086,-0.040687438,-0.05611919,-0.017605374,0.025876448,-0.059233237,0.082640365,0.05797425,-0.016354555,-0.07884572,-0.049249314,-0.049568,-0.06726653,0.04055477,-0.0376104,-0.011275435,0.06353818,-0.01887864,0.031373955,-0.012887044,0.033933803,-0.07885725,-0.10884769,-0.019386929,0.023548756,0.09628482,0.002156651,-0.042150173,-0.10624103,0.050097506,-0.01855251,0.0747322,-0.09941309,0.07644261,0.02339301,0.04932113,0.04254899,0.029587822,-0.019831283,-0.0024235996,0.037214775,0.042249676,0.014753411,-0.05355175,0.0033337204,-0.01648169,-0.025506062,-0.012839072,0.046991322,-0.058625028,0.031023005,0.025303634,-0.0032311203,-0.093256705,-0.026801797,0.031856358,-0.00017488128,0.0051580644,0.0021995455,-0.028066264,0.032469723,-0.0045492924,-0.0068825693,0.041624844,0.046317093,-0.0036794855,0.05543906,0.033823013,-0.009534164,0.036798276,0.024924375,0.017178534,-0.010241756,-0.04656437,-0.00997781,0.040867254,-0.044030495,-0.020235656,0.024505923,0.028126694,-0.0074245213,0.033026386,0.024865171,0.004989795,0.05578064,-0.018883387,0.014239464,0.026218178,0.03616666,-0.030992035,0.02326137,-0.015277632,-0.0043718796,0.03121685,-0.04560124,0.0015852042,0.034482274,0.017453762,0.00020681559,0.044705614,0.038921505,0.07712107,0.06043005,-0.016152965,0.06086198,0.064414516,0.05840365,-0.017963583,-0.013566565,-0.029326828,0.010644045,-0.007235948,-0.057023134,0.028271537,-0.016106367,-0.008819161,-0.035160813,-0.036613025,-0.042292487,0.04413184,-0.044111732,-0.0044491296,-0.021265095,0.07141529,-0.07514932,0.023599999,0.07560032,0.012362883,0.0030130518,0.0034413482,-0.06334055,-0.050911672,0.0011982693,0.08157236,0.046464518,0.003270235,-0.011623263,0.083152585,0.047685996,0.023361096,0.045613803,0.029999424,0.029611083,-0.02625445,-0.04503575,-0.021342002,0.009329507,-0.044451147,0.0493331,0.025951497,0.0032135977,-0.013563997,-0.0177493,0.018833147,-0.009221905,0.029593749,0.01722313,0.02452365,0.017745888,-0.017177964,-0.006217806,-0.038008574,-0.02090441,0.03580161,0.034247756,0.0030342212,-0.003710132,-0.0013328578,-0.007149369,-0.0137065975,-0.025033083,0.016648956,-0.017506596,0.049696162,0.07874007,0.034690008,0.0016014486,0.047843855,0.03624009,-0.017481457,-0.01925264,0.035814345,0.010239508,-0.035152357,0.0053770095,-0.025519203,-0.044694018,-0.017219655,-0.019705458,-0.027892388,-0.07625871,-0.059304755,-0.0069743074,-0.049201924,-0.03469537,-0.051338784,-0.03947012,-0.035773918,0.017993135,0.01703735,-0.059218656,0.009135781,-0.016208654,-0.052785426,-0.044090774,-0.03906526,-0.015560179,-0.016756333,0.013193805,0.016639834,-0.037224106,0.028744046,0.0124176685,0.021009266,-0.024257718,-0.009974971,0.0093971975,-0.014776131,-0.037816904,-0.014343949,-0.05199586,0.03396085,-0.044562325,-0.014007215,-0.044989962,-0.040077895,0.0016348826,0.017801818,-0.0036390296,0.020977475,-0.002219888,-0.04588068,-0.036218137,0.0056431307,-0.032076407,-0.007417987,0.0072606327,0.023519715,0.003444436,-0.034552388,-0.020085184,0.0025795696,0.032871295,0.007617943,0.0014346474,0.0019490237,-0.042266767,0.034567736,0.0119982725,-0.031974453,-0.024558578,-0.005599752,-0.010506494,-0.00093183084,-0.04075281,-0.009886364,-0.04827867,0.017139386,-0.017889256,0.035408292,-0.040972613,-0.028784875,-0.006530784,-0.03458822,-0.06986285,-0.035528313,-0.010671886,0.00554511,0.030846585,0.020210726,0.011461716,-0.09220725,-0.061007585,-0.06232309,-0.07313372,-0.027275119,-0.058562927,-0.07575302,-0.014851506,0.0041653384,-0.0009585214,0.0048169172,-0.04615707,-0.027023109,-0.03220561,0.008836242,0.019495312,-0.0028902565,-0.009668158,-0.012976029,0.032352336,-0.00444783,-0.009044429,-0.010031544,-0.0046726353,0.011436983,0.039262306,-0.02954288,-0.017295245,0.010937645,-0.018498892,-0.001039505,0.026462765,-0.020294365,0.011297451,-0.009935371,-0.0134825865,0.024749983,-0.0455414,-0.0029568851,-0.0067458693,0.022900632,-0.01275073,-0.05029455,0.0005297103,0.01907678,-0.008792207,0.015842637,0.006063488,-0.014142719,0.01401798,-0.006178684,-0.05133224,-0.049077258,0.04230214,0.07521992,0.035515837,0.047642592,0.07580642,-0.011452859,0.0224016,0.050115388,-0.035920713,0.026463801,0.104788646,-0.0506564,0.006906492,0.025196444,-0.037119888,0.023445802,-0.030979708,-0.046451177,-0.0015812286,-0.034387533,-0.030647391,0.013502918,0.013654109,0.049941693,-0.03577492,-0.012357929,0.0046967617,0.07615822,0.030022662,0.023396537,0.048503865,0.0808184,0.007526698,-0.0056037763,0.043120705,0.023192152,0.03487766,0.06643447,-0.0024238366,0.025940014,0.037397355,-0.035301432,0.040924307,-0.028555514,0.06940163,0.058442518,0.035383817,0.013241433,0.045187533,0.008158078,0.024619304,0.022584787,0.03339804,0.04563159,0.012691588,