0
-0.0
0.0
0.0
-0.0
0.0
0.0
0.0
-0.0
0.0
-0.0
-0.0
-0.0
-0.0
0.0
-0.0
-0.0
-0.0
0.0
-0.0
0.0
0.0
0.0
0.0
-0.0
0.0
-0.0
0.0
-0.0
0.0
-0.0
-0.0
0.0
-0.0
0.0
-0.0
-0.0
-0.0
0.0
-0.0
0.0
-0.0
-0.0
0.0
-0.0
-0.0
0.0
-0.0
-0.0
-0.0
-0.0
0.0
0.0
-0.0
0.0
-0.0
-0.0
-0.0
-0.0
-0.0
-0.0
-0.0
-0.0
-0.0
0.0
-0.0
0.0
-0.0
-0.0
0.0
0.0
-0.0
-0.0
-0.0
0.0
-0.0
-0.0
-0.0
-0.0
0.0
-0.0
0.0
0.0
0.0
0.0
0.0
-0.0
-0.0
0.0
0.0
0.0
-0.0
-0.0
0.0
-0.0
0.0
0.0
-0.0
0.0
-0.0
0.0
0.0
0.0
-0.0
-0.0
0.0
0.0
-0.0
0.0
-0.0
-0.0
-0.0
-0.0
-0.0
-0.0
0.0
-0.0
0.0
-0.0
0.0
0.0
0.0
0.0
-0.0
-0.0
-0.0
0.0
-0.0
-0.0
-0.0
-0.0
-0.0
-0.0
0.0
-0.0
-0.0
-0.0
0.0
-0.0
0.0
0.0
-0.0
-0.0
0.0
0.0
-0.15747206
-0.12524527
-0.04531831
-0.10253795
-0.07476841
-0.042169034
-0.0027180468
0.038422637
-0.16049372
0.037965067
-0.1366273
0.06585282
-0.13186324
0.21283725
0.28365955
0.16686314
-0.06999078
-0.11512049
0.09930255
-0.050270982
0.08567686
0.09584864
-0.035918996
-0.3493737
-0.00917293
0.075545065
-0.019611001
-0.0
-0.0
0.0
0.0
-0.0
-0.0
0.0
-0.0
-0.0
0.0016682216
-0.02434582
0.042962052
-0.08703262
0.053740613
0.0036683031
0.044973977
-0.008528243
-0.042800073
0.0
-0.0
0.0
0.0
0.0
-0.0
0.0
0.0
-0.0
-0.0
-0.0
-0.0
0.0
-0.0
-0.0
-0.0
0.0
-0.0
0.0
0.0
-0.0
0.0
-0.0
-0.0
-0.0
-0.0
-0.0
0.08862907
-0.06139136
-0.21660729
0.24367332
-0.1546367
-0.09273942
-0.2323953
-0.2787482
0.25040036
-0.116583586
-0.25389
0.032761328
-0.15898412
-0.08715724
0.13478172
0.014647059
-0.03393211
-0.25122842
0.07501299
0.04877452
0.12678288
0.0717216
-0.0008624989
-0.110437624
-0.1691058
-0.070934355
0.026055725
0.0
0.0
0.0
0.0
0.0
-0.0
0.0
-0.0
-0.0
0.213187
0.15546362
0.042547103
0.15263732
0.08807302
0.06193644
-0.18674445
-0.101847075
0.061875544
-0.0409522
-0.1340912
-0.16484106
-0.1420053
-0.03164335
0.052340046
-0.05256391
0.043465957
0.04287567
-0.099399835
-0.032635003
0.0573272
0.11970688
-0.15400228
-0.12269205
-0.0503973
-0.098015815
-0.075825304
0.0
-0.0
-0.0
0.0
0.0
-0.0
0.0
0.0
0.0
-0.18930364
0.039080005
-0.0072577083
-0.119829424
-0.03722993
-0.20950909
0.002681318
-0.017519591
-0.0747201
-0.078503996
0.091777
-0.07177033
0.07660006
0.020125875
-0.21519272
-0.18985923
0.16505928
-0.025276165
0.1077003
-0.014897551
0.06220731
-0.037632793
-0.062400155
0.012070966
0.13903119
0.17697644
-0.15119025
-0.0
-0.0
-0.0
0.0
0.0
0.0
-0.0
0.0
0.0
-0.060902603
-0.10759694
0.0018997946
-0.039260402
-0.045152623
0.12266371
0.07313434
0.23197086
0.10543558
-0.0
-0.0
0.0
-0.0
0.0
-0.0
0.0
-0.0
0.0
0.0
-0.0
0.0
-0.0
-0.0
0.0
-0.0
0.0
-0.0
-0.0
0.0
0.0
0.0
0.0
0.0
0.0
-0.0
-0.0
-0.21135543
-0.15717909
-0.24175128
0.0023226007
0.071457334
-0.18797967
0.1247092
0.15647288
-0.026044346
-0.21094368
-0.19609408
-0.2238042
-0.23617733
-0.08090873
-0.1259451
-0.23727934
0.21735676
-0.044523433
0.09083771
-0.045974843
0.045121137
-0.17644492
-0.0632772
-0.08935288
-0.06910496
0.009162721
-0.11697105
0.0
0.0
0.0
0.0
0.0
0.0
0.0
0.0
-0.0
-0.11464469
0.09941368
-0.051706795
-0.008423486
-0.15172951
-0.11435576
0.24632378
0.068743356
0.018617831
-0.05813319
-0.014883413
-0.073582225
-0.1524428
0.035009213
0.03517196
-0.10238217
-0.14051025
-0.07835514
-0.06237035
0.051310733
-0.10072314
0.09534267
0.103087485
0.09617011
0.02344575
0.06631757
-0.13966987
0.0
-0.0
-0.0
-0.0
-0.0
-0.0
-0.0
0.0
-0.0
-0.12755048
0.051444322
0.123919845
0.20505154
0.2086022
-0.027656078
0.04226591
0.108723775
0.06852656
0.18181364
0.14747193
-0.08248025
-0.054468174
-0.024673618
-0.06953119
-0.0018503611
-0.16553442
-0.049493425
-0.08869172
-0.06998209
0.043301277
-0.014238384
-0.081554525
-0.058561124
0.1321164
-0.09407481
-0.06511534
-0.0
-0.0
-0.0
0.0
-0.0
0.0
-0.0
0.0
0.0
-0.08202173
0.10119246
0.12664875
0.08409808
-0.005121705
0.033837885
0.0449529
-0.081605196
0.22961396
-0.0
-0.0
0.0
-0.0
0.0
0.0
0.0
-0.0
-0.0
0.0
0.0
0.0
0.0
0.0
0.0
0.0
0.0
0.0
-0.0
0.0
0.0
0.0
-0.0
-0.0
-0.0
-0.0
0.0
-0.080278255
-0.22378351
-0.034247052
-0.18714269
-0.19799165
0.20490406
-0.1446892
-0.004415883
0.2474477
-0.19870281
0.044490535
0.020542787
-0.0144985
-0.10519036
0.060691502
-0.05675135
-0.11566519
-0.17511578
-0.011012586
-0.13859397
-0.049128752
-0.002890796
-0.07932505
-0.11461401
-0.006073022
0.105836906
-0.044785194
0.0
0.0
-0.0
-0.0
-0.0
-0.0
0.0
-0.0
-0.0
-0.09945897
0.081949174
0.042598184
0.0264549
-0.006886032
-0.115226164
0.0009374711
-0.053440098
-0.13963352
0.013923497
0.1956262
0.085460454
0.15557556
0.24941432
0.15900125
0.04728878
0.17085153
-0.058564465
-0.05053549
0.1475834
0.021345291
0.11044201
0.038101345
-0.07652632
0.0007222039
-0.07589375
-0.06862227
0.0
-0.0
-0.0
-0.0
0.0
0.0
-0.0
-0.0
0.0
-0.05382365
-0.13510711
0.12334134
0.054180406
-0.19773796
-0.016988426
0.0017561435
-0.117070794
-0.037566416
-0.082211316
-0.24190958
-0.09723482
-0.04428133
-0.08464622
0.019393664
-0.123101585
0.023801455
0.06383882
0.11887477
0.007586639
0.05525876
-0.12733965
-0.052871037
-0.02752126
-0.12861605
-0.16816412
-0.055208273
0.0
0.0
-0.0
-0.0
0.0
-0.0
-0.0
0.0
-0.0
-0.088985786
-0.10133301
0.25376567
-0.07228554
-0.12512799
0.014341946
-0.11428321
0.025312647
0.18030415
0.0
-0.0
-0.0
0.0
-0.0
-0.0
-0.0
0.0
-0.0
0.0
-0.0
-0.0
-0.0
-0.0
-0.0
0.0
0.0
-0.0
-0.0
0.0
-0.0
-0.0
0.0
-0.0
-0.0
0.0
-0.0
-0.0345738
-0.07241253
-0.00883276
-0.028647168
-0.034972787
-0.05582113
-0.1105188
-0.03892627
0.0014191597
-0.17235607
-0.11053005
0.12600198
-0.14121298
-0.03320407
0.045237597
-0.08313848
0.27607
0.058694273
0.071355425
-0.036749873
-0.13382787
-0.15972494
-0.19792546
-0.26532748
-0.19157639
-0.12449799
-0.21107575
-0.0
0.0
-0.0
-0.0
-0.0
0.0
-0.0
-0.0
-0.0
0.028368706
-0.078635864
0.008422836
0.03391425
0.0022224747
-0.03598026
-0.10282601
0.015170385
-0.037592333
0.0392545
-0.12269982
0.13079262
-0.004631827
-0.07243384
0.07061924
0.04153064
-0.09704948
0.17174964
0.011503459
-0.016658368
-0.024661325
-0.029550714
-0.0060697207
-0.117175266
-0.037471335
-0.018740086
-0.13223752
-0.0
0.0
-0.0
-0.0
0.0
-0.0
-0.0
0.0
-0.0
0.0
-0.0
0.0
0.0
-0.0
0.0
0.0
-0.0
0.0
-0.0
-0.0
-0.0
0.0
0.0
0.0
0.0
0.0
-0.0
0.0
-0.0
-0.0
-0.0
-0.0
0.0
-0.0
0.0
-0.0
-0.0
0.0
0.0
0.0
-0.0
-0.0
-0.0
-0.0
-0.0
0.0
-0.0
-0.0
0.0
0.0
0.0
-0.0
-0.0
-0.0
-0.0
0.0
-0.0
-0.0
-0.0
-0.0
-0.0
0.0
0.0
-0.0
0.0
-0.0
-0.0
-0.0
0.0
0.0
-0.0
-0.0
-0.0
-0.0
0.0
-0.0
-0.0
-0.0
-0.0
-0.0
-0.0
-0.0
-0.0
0.0
-0.0
0.0
-0.0
-0.0
-0.0
-0.0
0.0
-0.0
0.0
0.0
-0.0
-0.0
0.0
0.0
0.0
-0.0
-0.0
-0.0
-0.0
0.0
-0.0
0.0
-0.0
-0.0
-0.0
-0.0
-0.0
0.0
-0.0
0.0
-0.0
0.0
0.0
0.0
0.0
0.0
-0.0
0.0
-0.0
-0.0
-0.0
-0.0
-0.0
-0.0
0.0
0.0
-0.0
0.0
-0.0
-0.0
0.0
-0.0
-0.0
-0.0
-0.0
-0.0
0.0
-0.0
-0.0
0.0
-0.0
0.0
-0.0
-0.0
-0.0
0.0
-0.0
-0.0
-0.0
0.0
-0.0
0.0
0.0
-0.0
0.0
0.0
0.0
-0.0
-0.0
0.0
0.0
-0.0
-0.0
-0.0
0.0
-0.0
-0.0
0.0
-0.0
-0.0
0.0
-0.0
-0.0
-0.0
0.0
-0.0
-0.0
-0.0
-0.0
-0.0
-0.0
-0.0
0.0
-0.0
-0.0
0.0
-0.0
-0.0
0.0
-0.0
-0.0
-0.0
-0.0
-0.0
-0.0
0.0
-0.0
-0.0
-0.0
-0.0
-0.0
-0.0
0.0
-0.0
0.0
0.0
-0.0
0.0
-0.0
-0.0
0.0
-0.0
-0.0
-0.0
0.0
-0.0
0.0
-0.0
-0.0
-0.0
0.0
-0.0
-0.0
-0.0
-0.0
-0.0
-0.0
-0.0
-0.0
-0.0
0.0
-0.0
0.0
-0.0
0.0
-0.0
-0.0
-0.0
-0.0
-0.0
-0.0
-0.0
-0.0
-0.0
0.0
0.0
-0.0
-0.0
-0.0
0.0
0.0
0.0
-0.0
-0.0
-0.0
-0.0
-0.0
0.0
-0.0
-0.0
-0.0
0.0
-0.0
-0.0
-0.0
-0.0
0.0
0.0
0.0
0.0
-0.0
0.0
-0.0
-0.0
-0.0
0.0
0.0
0.0
0.0
-0.0
-0.0
0.0
-0.0
-0.0
-0.0
-0.0
-0.0
-0.0
0.0
-0.0
-0.0
0.0
0.0
-0.076309405
-0.17668495
0.05154292
-0.019596143
-0.08774865
0.12312687
-0.0802445
-0.035626426
-0.006510299
0.033316787
0.029607026
0.040946852
0.13336313
0.03220673
0.16288444
0.09888491
0.023294205
-0.12812819
-0.007190253
0.10733725
0.23979871
-0.087105915
0.10190793
0.013906764
-0.00027505262
-0.04030243
-0.052589666
-0.0
0.0
0.0
0.0
0.0
-0.0
-0.0
0.0
-0.0
0.0043753125
0.08427116
0.082996115
0.19626865
0.04282895
0.11768874
-0.012444392
-0.03472273
0.0768531
-0.0
0.0
0.0
-0.0
0.0
0.0
-0.0
0.0
0.0
-0.0
-0.0
-0.0
0.0
-0.0
0.0
-0.0
-0.0
0.0
0.0
0.0
0.0
0.0
0.0
0.0
-0.0
0.0
-0.0
0.11279429
-0.13485432
-0.2920142
-0.10166655
-0.43351132
-0.38173825
0.0139034875
-0.11171715
-0.1282358
-0.42910373
-0.34654066
-0.13947225
-0.36315244
-0.43891943
-0.05393832
-0.06782132
-0.056457013
0.16322114
0.12208326
0.32934776
0.009513274
-0.056778822
-0.056153644
-0.095977634
-0.22938296
-0.10793078
-0.06566652
0.0
0.0
0.0
0.0
0.0
0.0
0.0
0.0
0.0
-0.24664658
-0.12524174
-0.27246842
-0.18904659
-0.29897097
-0.112696014
0.01919882
-0.021078972
-0.06897992
-0.10991324
-0.18250589
-0.018953478
-0.1783822
-0.12589596
-0.062383045
0.0061666337
-0.08356338
0.0154222865
0.10105587
0.094496824
-0.06605483
-0.08879408
-0.108236216
0.01561037
-0.06836747
0.023742257
-0.025042703
-0.0
0.0
-0.0
-0.0
-0.0
-0.0
0.0
0.0
0.0
-0.107443124
0.0065128105
0.056689534
0.06834956
0.06247679
-0.03994841
-0.14741476
-0.07950467
0.026180403
-0.14723492
-0.05745538
-0.031479415
0.08495785
-0.017492546
-0.0650321
-0.04035389
-0.08138085
-0.18462619
-0.07743401
0.01983528
0.1008839
-0.13015987
0.15612713
0.0027336308
0.009272372
0.10303957
-0.22818696
0.0
-0.0
0.0
0.0
-0.0
-0.0
-0.0
-0.0
0.0
0.051524397
-0.06677443
-0.09924664
0.07251831
0.1278135
-0.030949607
-0.11633284
0.080145
-0.13965592
-0.0
0.0
0.0
-0.0
0.0
0.0
-0.0
0.0
-0.0
-0.0
0.0
0.0
-0.0
0.0
0.0
-0.0
0.0
-0.0
0.0
0.0
0.0
0.0
0.0
0.0
-0.0
-0.0
0.0
-0.121196836
-0.02628877
-0.20676172
-0.0922381
0.10427506
-0.07774229
-0.11192352
-0.03166707
0.05539062
0.047133632
-0.032686092
0.098114744
-0.22690578
-0.0460184
0.06835167
-0.0919464
-0.08443394
-0.13362932
0.19206965
0.29081354
-0.31054664
-0.12937346
0.0066082836
-0.0075332075
0.06869079
-0.013341188
-0.10990619
0.0
0.0
0.0
0.0
0.0
-0.0
0.0
0.0
0.0
-0.021647295
0.055320732
0.007855225
0.03827478
0.14244772
0.08903247
0.026906913
-0.02532922
0.033097114
0.0071147894
0.0557766
0.09232999
-0.14616145
0.03209332
0.047481366
-0.06919993
0.10846027
-0.007952309
0.07177054
-0.026057266
-0.18314514
0.009883252
0.0506067
0.040233426
0.08928751
0.07647138
-0.00011344521
-0.0
-0.0
0.0
-0.0
0.0
0.0
-0.0
0.0
0.0
0.0
-0.0
-0.0
0.0
0.0
0.0
0.0
0.0
0.0
-0.0
-0.0
-0.0
0.0
0.0
-0.0
-0.0
0.0
-0.0
0.0
-0.0
-0.0
-0.0
-0.0
-0.0
-0.0
-0.0
-0.0
-0.0
-0.0
-0.0
0.0
-0.0
0.0
0.0
-0.0
-0.0
0.0
-0.0
0.0
-0.0
-0.0
0.0
-0.0
0.0
-0.0
-0.0
0.0
0.0
-0.0
-0.0
0.0
-0.0
0.0
-0.0
0.0
-0.0
-0.0
-0.0
-0.0
-0.0
0.0
0.0
-0.0
0.0
0.0
0.0
0.0
0.0
-0.0
-0.0
-0.0
-0.0
-0.0
0.0
-0.0
-0.0
-0.0
-0.0
-0.0
-0.0
-0.0
0.0
-0.0
-0.0
-0.0
-0.0
-0.0
-0.0
-0.0
0.0
0.0
0.0
-0.0
-0.0
0.0
-0.0
-0.0
-0.0
-0.0
-0.0
0.0
0.0
-0.0
-0.0
0.0
-0.0
-0.0
-0.0
0.0
0.0
-0.0
0.0
0.0
-0.0
-0.0
-0.0
-0.0
0.0
-0.0
0.0
0.0
0.0
-0.0
-0.0
-0.0
-0.0
-0.0
-0.0
-0.0
0.0
-0.0
0.0
-0.0
-0.0
-0.0
0.0
0.0
-0.0
0.0
-0.0
-0.0
0.0
-0.0
-0.0
-0.03461321
0.108718775
0.008212149
0.12872586
0.14582874
-0.26225528
0.036456164
0.15711138
-0.1421018
0.009613931
0.091702975
-0.013911539
-0.096446894
-0.005325814
0.090565346
-0.15967245
-0.057985313
0.3171746
-0.1340016
-0.016385939
0.06334608
-0.00978173
-0.14343894
-0.28772366
0.10795933
-0.11413977
-0.110949725
0.0
-0.0
-0.0
0.0
0.0
0.0
0.0
0.0
-0.0
-0.0052601253
-0.13453868
-0.20899585
0.06372442
-0.08375395
0.00801553
-0.008028631
-0.059476666
0.29292884
0.0
0.0
0.0
0.0
0.0
-0.0
0.0
0.0
-0.0
0.0
0.0
0.0
0.0
0.0
-0.0
-0.0
-0.0
-0.0
0.0
0.0
-0.0
0.0
-0.0
-0.0
0.0
0.0
-0.0
-0.15822875
-0.061345752
0.14638159
-0.09112903
-0.049304318
0.10593796
-0.089975715
0.07984806
0.07897858
-0.19859686
0.04494461
0.017774072
-0.09555937
-0.08666254
-0.1759093
-0.1038288
-0.24959369
-0.07685674
-0.09865056
-0.18770531
-0.012206767
-0.062793426
0.059229698
0.22035792
-0.051740393
0.080931365
0.17880438
0.0
0.0
-0.0
-0.0
0.0
-0.0
0.0
0.0
-0.0
-0.15485387
0.11466007
-0.044457678
0.012494294
-0.030256942
-0.00029791877
0.049072094
-0.070473604
-0.17240259
-0.038668897
0.1251135
-0.10104342
0.15781568
0.34636128
0.08140099
0.04338405
0.0005427587
-0.034562435
0.06938996
0.20502353
0.09640215
0.09156935
0.046306595
0.016671808
0.063848004
0.011826505
-0.09342864
0.0
-0.0
-0.0
0.0
0.0
-0.0
0.0
0.0
-0.0
0.1288211
-0.09254543
-0.053616937
0.071675934
0.09335972
-0.036106694
0.05452122
0.028316537
0.10091097
-0.13168605
-0.075995184
0.27294528
-0.090941615
-0.077792
-0.0049067377
-0.048850413
-0.15538585
0.08743199
-0.057041187
-0.060600538
0.121682495
0.088648275
-0.09911978
0.13712615
0.035670128
-0.10826527
-0.0014496369
-0.0
-0.0
0.0
-0.0
-0.0
-0.0
0.0
-0.0
0.0
0.04087448
-0.12160638
0.0766164
-0.12856355
-0.11771975
-0.035760593
0.037487093
-0.16756707
0.058221266
-0.0
-0.0
0.0
0.0
-0.0
0.0
-0.0
-0.0
-0.0
-0.0
-0.0
0.0
0.0
-0.0
-0.0
-0.0
-0.0
-0.0
-0.0
-0.0
-0.0
-0.0
-0.0
-0.0
-0.0
-0.0
-0.0
-0.13522404
-0.028134523
0.111701176
-0.16928439
-0.024137309
-0.08662069
-0.18024209
-0.1850278
-0.043317135
0.18038447
-0.05494324
0.22034904
0.03146718
-0.1539093
0.1654372
0.07031486
-0.1368645
0.05094329
-0.08258594
0.0253859
0.027788179
-0.054391343
-0.08755094
0.10861054
-0.063050285
0.049277883
0.069363385
0.0
0.0
-0.0
-0.0
-0.0
0.0
0.0
-0.0
-0.0
-0.092419095
-0.11053758
-0.0069398764
-0.08355699
-0.13811845
0.1365762
-0.064885154
-0.009890293
0.029759804
-0.04584763
-0.01923277
-0.013665257
0.0431645
0.053044893
0.014209432
-0.027278587
-0.0338798
0.00040078998
-0.06073243
0.044378366
-0.072720006
-0.07157603
-0.04329584
0.044254072
-0.012142063
-0.11053767
-0.008396305
-0.0
0.0
0.0
0.0
-0.0
-0.0
-0.0
0.0
-0.0
0.011983536
-0.08692872
0.060538072
-0.16269752
-0.04558133
-0.08417242
-0.12955587
-0.18216594
-0.05815522
-0.19784784
-0.14107962
-0.058244042
0.14368694
-0.047734927
-0.016431402
-0.21851675
0.28712162
0.03538303
0.075070664
0.039746962
0.015395191
-0.14762354
0.072038315
-0.065894134
0.15823089
0.045699153
-0.14144534
-0.0
0.0
-0.0
0.0
0.0
-0.0
0.0
0.0
0.0
-0.1728224
-0.13604309
0.0060375817
0.021639517
0.007770247
-0.040845346
0.22933115
0.19136831
0.08716201
-0.0
-0.0
-0.0
0.0
0.0
-0.0
0.0
0.0
0.0
-0.0
-0.0
-0.0
-0.0
-0.0
-0.0
0.0
-0.0
-0.0
-0.0
-0.0
-0.0
0.0
0.0
0.0
0.0
0.0
0.0
-0.06496451
-0.22416823
-0.32687137
-0.022263506
-0.22105657
-0.24029602
0.18365636
-0.10505977
-0.0772938
-0.12725852
-0.18396625
0.06689757
-0.3382954
-0.32354897
-0.2958901
0.12689176
0.070310146
-0.20034693
-0.021172918
-0.03989541
0.014077816
0.05341415
-0.12165843
-0.038823016
-0.23262602
0.07380118
-0.008070951
-0.0
-0.0
-0.0
0.0
0.0
-0.0
0.0
0.0
-0.0
-0.14967455
-0.22331926
-0.18985164
-0.08170608
-0.14955838
-0.22954088
-0.02005256
0.31064296
-0.2660767
0.05250699
-0.11562386
0.09634407
-0.22065352
-0.29013377
-0.19875169
-0.17006174
-0.12562928
-0.090483055
-0.06941154
-0.020644834
-0.10881375
0.01272055
0.14428425
0.0429029
0.03174379
-0.013928605
-0.15561405
-0.0
-0.0
-0.0
-0.0
-0.0
-0.0
0.0
-0.0
-0.0
0.07220381
0.0038386101
-0.058615457
0.12088202
0.05292685
-0.009341637
-0.11927687
0.07594005
0.11179666
-0.066054754
0.09136123
0.1418168
-0.017428119
0.08174871
-0.09150356
-0.03504073
-0.031060316
0.04013559
0.0956614
-0.01485758
-0.12223523
0.08166423
-0.06455016
0.08536714
-0.04305699
-0.040246855
-0.08600258
0.0
-0.0
-0.0
-0.0
-0.0
-0.0
-0.0
0.0
0.0
-0.09780912
-0.13257642
-0.09907098
0.0070786574
-0.028163113
0.011183897
0.11590217
0.0307921
-0.1668973
-0.0
-0.0
-0.0
-0.0
0.0
-0.0
-0.0
-0.0
0.0
0.0
-0.0
-0.0
-0.0
-0.0
-0.0
-0.0
0.0
-0.0
-0.0
-0.0
0.0
-0.0
-0.0
0.0
-0.0
-0.0
-0.0
0.017186293
0.21200664
-0.075706534
-0.0036718426
-0.13160077
0.08738199
0.12382889
-0.013797471
0.013171571
-0.117566556
-0.12370455
0.067254364
-0.13096373
-0.12610354
-0.061758313
0.15308535
-0.056538034
-0.13878505
0.0866917
-0.0799447
-0.0014632884
0.075408444
0.07422989
-0.134294
-0.07335129
-0.13421166
-0.02557995
0.0
-0.0
-0.0
0.0
-0.0
0.0
0.0
-0.0
-0.0
0.06649965
0.26219767
0.01941241
-0.053496357
0.063214034
0.10279995
0.032635212
0.013214797
0.05583015
0.14981857
0.049645048
0.062970825
0.02699757
0.20544876
-0.076268695
0.021014005
0.09086193
0.18001883
0.014659433
-0.09433359
-0.06512925
-0.07226171
0.08667291
0.07235015
-0.043929033
-0.028967137
-0.02044981
-0.0
0.0
0.0
-0.0
-0.0
-0.0
0.0
-0.0
-0.0
-0.028642235
-0.04491851
0.17963305
0.061203968
0.08522564
-0.14738119
0.02705602
0.02310057
0.012375909
0.007950817
0.037943326
-0.0023434558
0.1533986
0.19126865
0.16996872
0.19240017
-0.062215343
-0.0040987805
-0.028492061
-0.13192935
-0.17494152
0.09566247
-0.04515463
0.10756842
-0.09453534
-0.068897106
-0.022762451
-0.0
0.0
-0.0
0.0
-0.0
-0.0
-0.0
-0.0
0.0
0.044777956
-0.053234074
-0.18702565
0.07371824
0.03493168
-0.07033557
0.039485004
0.09762414
0.16064258
-0.0
0.0
-0.0
-0.0
-0.0
-0.0
-0.0
-0.0
-0.0
0.0
0.0
-0.0
0.0
-0.0
-0.0
-0.0
-0.0
0.0
-0.0
0.0
-0.0
-0.0
-0.0
-0.0
-0.0
-0.0
-0.0
0.032107737
-0.27932382
0.07785318
0.07943012
-0.09565134
-0.08580664
0.21508537
-0.080252066
0.23905027
-0.00054369436
-0.15041389
0.29632768
-0.16688603
-0.17596342
0.20725758
0.1915004
0.11007323
-0.011290368
-0.22144844
-0.14983751
0.4342401
0.14802758
0.14626108
-0.3561445
-0.19738483
-0.1502555
-0.01927657
0.0
0.0
-0.0
-0.0
0.0
-0.0
-0.0
0.0
-0.0
0.010711393
0.008035674
-0.14279144
0.002389041
-0.015371044
0.006691577
0.086324364
-0.013754673
0.02500215
0.13639504
0.1895499
0.21308884
0.06351735
0.14097577
0.14094615
-0.07840511
0.1330094
0.053948496
-0.020026116
0.08770333
-0.0167966
-0.025932077
0.017756496
0.023996368
-0.0865985
0.14539161
-0.09493661
0.0
0.0
-0.0
-0.0
0.0
-0.0
-0.0
-0.0
-0.0
-0.37146273
-0.023938138
0.16459768
-0.26644146
-0.21220657
-0.034313407
0.034247633
-0.07314206
-0.21944706
-0.28970963
-0.013955731
0.0142632555
-0.017179422
-0.08335461
0.04198121
0.20258926
0.19521683
-0.12876248
-0.13246116
0.08947769
0.18411613
-0.17867443
0.011015693
0.38389495
-0.026915468
-0.027445633
-0.07510451
0.0
0.0
-0.0
0.0
0.0
-0.0
0.0
-0.0
-0.0
-0.092087284
-0.116622485
-0.036757097
0.007791343
-0.06579855
-0.28491294
0.20125097
-0.0879161
-0.08458823
0.0
0.0
-0.0
0.0
0.0
-0.0
0.0
-0.0
-0.0
0.0
-0.0
-0.0
0.0
-0.0
-0.0
-0.0
-0.0
-0.0
0.0
0.0
0.0
0.0
-0.0
-0.0
0.0
-0.0
-0.0
0.17469648
0.087358736
-0.14733115
-0.07086184
-0.33131513
-0.12811637
0.3265582
-0.16101004
0.05746392
0.2312249
0.2713424
0.24831566
-0.2968861
-0.32752416
0.050638158
-0.29247087
-0.4626032
0.0016447505
-0.117554076
-0.12154811
0.20634626
0.029404012
-0.013194439
0.25646695
-0.06155267
-0.065135926
-0.12528737
0.0
-0.0
-0.0
0.0
-0.0
-0.0
0.0
-0.0
-0.0
0.06371499
0.099330716
0.105947316
-0.06461911
0.05585716
-0.062479194
0.017097866
0.09477229
-0.17920826
-0.30230367
-0.12347197
0.009026015
-0.012805769
-0.20707428
-0.23710556
-0.07577907
-0.23366596
-0.05226053
-0.06555668
-0.07713652
0.022845432
0.10290879
0.006289241
-0.12030595
-0.057536706
-0.134342
-0.16597761
0.0
0.0
-0.0
0.0
0.0
-0.0
0.0
-0.0
-0.0
-0.05648403
0.082564086
-0.07933658
0.05409808
0.16935088
0.038847286
0.12121337
0.16295645
0.12938817
0.03810694
0.22997162
-0.060996823
0.017138869
-0.2316564
-0.1072676
-0.17841913
-0.2735987
-0.059377227
-0.06588304
-0.06248572
0.027290087
-0.27183065
-0.014988442
-0.14364961
-0.07059486
0.121480994
0.0211801
-0.0
-0.0
0.0
-0.0
0.0
-0.0
0.0
0.0
0.0
0.09159194
0.051892664
-0.1921643
0.13556656
-0.14390996
-0.19969434
-0.18834406
-0.03577736
-0.041178253
-0.0
-0.0
0.0
-0.0
0.0
0.0
0.0
-0.0
0.0
-0.0
-0.0
0.0
0.0
0.0
0.0
0.0
0.0
-0.0
0.0
-0.0
-0.0
-0.0
0.0
0.0
0.0
0.0
-0.0
-0.003758235
-0.14590573
0.18249594
-0.022889385
-0.25939342
0.047991358
0.29656774
-0.27418494
-0.05347785
0.21356547
0.18474825
-0.0634259
0.17901759
0.08236383
-0.018796168
-0.2794536
-0.09253557
-0.03853546
0.03713643
-0.22338675
-0.20183834
-0.2762946
0.021719411
0.0613864
0.27155054
0.18317533
0.094078206
-0.0
0.0
0.0
0.0
-0.0
-0.0
0.0
0.0
-0.0
0.06292147
-0.02987041
0.112694465
0.15467422
0.019713597
-0.020444237
0.063031845
-0.026084838
-0.24138302
0.0040447423
0.17643063
0.039110582
0.06513427
0.032254346
0.19731954
0.07507451
0.025992807
0.09232931
-0.2797376
-0.0065410854
0.038141582
0.025015578
0.09829926
0.019669319
0.091115765
0.032472074
-0.17317195
-0.0
0.0
0.0
0.0
-0.0
-0.0
0.0
-0.0
-0.0
0.07913607
-0.07560589
0.020986497
0.07408609
-0.23358375
0.10482871
-0.0468991
-0.024473641
-0.15899603
-0.11266911
-0.29353142
0.054047003
0.0027742737
0.57953566
-0.11157934
0.21052346
0.14383301
-0.13209422
-0.036894575
-0.060811646
-0.18407653
-0.027859952
-0.24278252
0.10842982
0.040481694
-0.21848036
-0.08855216
-0.0
0.0
-0.0
0.0
0.0
-0.0
-0.0
-0.0
0.0
-0.1548402
-0.1552786
0.11186587
-0.0087173665
0.47509953
-0.040290922
0.09824705
0.10736717
-0.022438988
-0.0
0.0
0.0
-0.0
-0.0
-0.0
-0.0
-0.0
0.0
0.0
-0.0
0.0
-0.0
0.0
-0.0
-0.0
-0.0
0.0
-0.0
0.0
0.0
-0.0
-0.0
-0.0
-0.0
-0.0
0.0
0.25046375
-0.18544921
0.07118266
0.026965369
0.042209856
-0.06054949
-0.22367746
0.31863126
0.020343848
0.09966036
-0.28153193
-0.20006193
0.08133513
0.0054789325
0.034320027
-0.09112366
-0.14309691
-0.045554586
-0.22678806
0.15572758
0.25698456
0.40264615
0.37199143
-0.4775359
0.128462
-0.28046948
-0.046427775
0.0
0.0
-0.0
-0.0
0.0
-0.0
-0.0
0.0
0.0
0.008715067
0.07472126
0.049719494
-0.19716045
0.14152478
0.11663961
-0.22272299
-0.0839682
-0.060377512
-0.052138124
0.02069198
0.1275327
-0.121630825
-0.2305882
0.05746508
0.20027298
0.07404353
0.13598324
0.0456404
-0.19925888
0.024550619
-0.29614034
-0.20178564
-0.2036588
-0.10825327
-0.037303288
0.00021159033
-0.0
-0.0
0.0
-0.0
0.0
-0.0
-0.0
0.0
-0.0
0.11491398
0.16943254
0.03667197
0.0097243525
-0.014640913
-0.053620968
-0.032629862
-0.11500587
-0.19200799
0.07213673
-0.07846599
0.14543727
-0.08957896
-0.011610018
-0.0072453045
-0.30873352
-0.058818202
0.35324025
0.1202487
-0.13901007
0.17536965
0.005053252
-0.07169169
0.03494071
0.05600093
0.16411485
0.38666385
0.0
-0.0
-0.0
0.0
-0.0
0.0
0.0
0.0
-0.0
0.019998003
-0.030852783
0.15912753
-0.2881532
0.009504782
-0.10036731
-0.021269834
0.031231012
0.16289596
0.0
0.0
0.0
-0.0
-0.0
0.0
-0.0
-0.0
0.0
0.0
0.0
-0.0
-0.0
-0.0
-0.0
0.0
0.0
-0.0
0.0
-0.0
0.0
0.0
-0.0
0.0
0.0
-0.0
-0.0
-0.32603937
0.051837817
0.11018858
-0.3228936
0.21769358
-0.14575814
0.10971816
0.2682627
-0.027178738
0.053670272
-0.033517756
-0.001932501
-0.1886908
0.057816766
-0.40946826
-0.10218602
-0.109101795
-0.3562677
-0.07007781
0.08364297
-0.1436178
-0.03946711
-0.06664472
-0.08188741
0.032643016
0.0030746078
0.12516223
0.0
-0.0
-0.0
0.0
-0.0
-0.0
0.0
-0.0
0.0
-0.047764692
-0.23501608
-0.11700623
0.018545115
-0.160562
-0.17840414
0.08970471
-0.05066601
-0.09038021
0.1787493
0.06895867
-0.13175623
0.11570986
-0.06334772
-0.26930928
0.02283085
0.137208
-0.16466491
-0.019552425
-0.11147533
0.04461272
-0.0844364
-0.29306516
0.029731398
0.017414505
-0.10786784
0.026032723
0.0
-0.0
0.0
0.0
0.0
-0.0
0.0
0.0
-0.0
-0.2453528
-0.10322842
-0.060291607
0.11008966
0.3132772
-0.24182583
0.1593472
0.085276276
-0.21383798
-0.022116119
0.033710744
-0.056016475
-0.0963557
-0.28653166
-0.10956961
0.33546183
0.0120292865
0.06908196
-0.312726
-0.04060097
0.01772328
0.18545327
0.014841224
-0.21807684
0.29428482
-0.031699464
0.14821725
-0.0
0.0
0.0
-0.0
-0.0
-0.0
-0.0
-0.0
0.0
-0.043637056
-0.046379175
-0.03116447
0.07148441
-0.24735038
0.03219664
0.11665114
0.014772561
-0.019995717
-0.0
0.0
0.0
0.0
-0.0
-0.0
0.0
-0.0
-0.0
-0.0
-0.0
0.0
0.0
-0.0
-0.0
-0.0
0.0
-0.0
-0.0
0.0
-0.0
-0.0
-0.0
0.0
-0.0
-0.0
0.0
0.07396616
-0.17134762
-0.25116947
-0.07309445
0.07264761
0.28909975
-0.17990988
0.26741982
0.35522544
-0.25753805
-0.07188096
0.22212864
0.35976428
-0.0071570617
-0.020379124
0.4450288
0.012668417
0.024761546
-0.37813511
-0.27175346
0.14644998
-0.009967307
-0.03909901
0.017769128
0.048155595
0.10608622
-0.21338962
-0.0
0.0
-0.0
0.0
-0.0
0.0
0.0
0.0
0.0
0.0014009877
-0.0508497
0.069415726
-0.050143577
0.14371063
-0.055594042
0.05368133
0.111188695
0.20370309
-0.116067834
-0.07560545
-0.07157787
0.126622
0.061756093
-0.100854754
-0.007444592
-0.024839796
-0.17724352
0.052036338
0.19294776
-0.01992282
-0.18276666
-0.071535595
-0.15996666
0.0040129977
-0.037743967
-0.0507835
0.0
0.0
0.0
-0.0
-0.0
0.0
-0.0
-0.0
0.0
-0.21227522
-0.36829427
-0.13193145
0.03768963
0.30613515
0.24395008
-0.0026578356
0.08135106
0.029399257
-0.113217436
0.34460908
0.3952137
-0.014520296
-0.015358135
-0.21481791
-0.22882012
-0.2820745
-0.44229203
-0.031266723
-0.09072166
0.22804593
0.021504544
-0.009152482
-0.07559682
0.000784412
0.02696
0.15034348
0.0
-0.0
0.0
-0.0
0.0
-0.0
0.0
0.0
-0.0
-0.035418265
0.27955768
0.38644835
-0.024611242
0.030190447
-0.22612388
-0.04751928
-0.2538816
-0.0845399
-0.0
-0.0
-0.0
-0.0
-0.0
-0.0
0.0
0.0
-0.0
-0.0
-0.0
-0.0
-0.0
-0.0
-0.0
0.0
-0.0
0.0
0.0
0.0
0.0
-0.0
0.0
-0.0
0.0
0.0
0.0
0.21208867
-0.0925537
-0.06116117
-0.014544158
-0.29337794
0.15241064
-0.16773748
-0.40199995
0.017338246
-0.0985012
0.06564353
-0.022412082
-0.09198646
0.16685818
-0.19193666
-0.1472169
-0.20578665
-0.27261886
-0.14256372
0.06442036
-0.2845154
0.08452891
0.08601457
0.25269446
-0.0052922997
0.09870387
0.014634579
-0.0
-0.0
0.0
0.0
-0.0
0.0
-0.0
-0.0
-0.0
0.024414105
-0.08329924
0.33700657
0.14912751
-0.040548626
-0.00074831885
-0.12467492
-0.23232152
-0.10117616
0.09562724
0.11120575
0.08918344
-0.062185146
0.11489462
0.027111528
0.04980634
-0.048200577
-0.14638118
-0.07421934
0.07054072
-0.032011487
0.0076521114
-0.05334408
-0.043564044
-0.17603247
0.06533208
-0.21134669
0.0
-0.0
-0.0
0.0
0.0
-0.0
0.0
0.0
-0.0
0.046465114
0.16803667
0.010694727
0.13292132
0.12484207
-0.19844972
-0.10996008
0.050142374
0.1109863
-0.073336594
-0.3076277
-0.14327231
-0.30522478
0.03443307
0.15013781
0.5134536
0.46904594
0.02623449
0.043992877
0.076467074
0.01893267
0.17614721
0.19545363
0.0014398422
0.091020726
-0.27844107
-0.40213642
0.0
-0.0
-0.0
0.0
-0.0
-0.0
0.0
-0.0
-0.0
-0.05861734
-0.12412137
-0.049848717
-0.25340214
0.10808136
0.08303388
-0.043797985
0.26695886
0.19032246
-0.0
0.0
-0.0
-0.0
0.0
0.0
0.0
-0.0
-0.0
-0.0
0.0
-0.0
-0.0
-0.0
-0.0
-0.0
-0.0
-0.0
0.0
-0.0
-0.0
-0.0
0.0
-0.0
0.0
-0.0
0.0
-0.18794496
-0.23504212
0.1270178
-0.4043289
0.24383898
0.19559132
-0.41235542
-0.12504964
-0.17228068
0.2792941
-0.023285871
-0.10987333
-0.1425517
-0.11321406
0.043242212
-0.12873101
-0.16313554
-0.14103724
0.02808575
-0.097133435
0.07881304
0.3267235
0.3098629
0.053822916
-0.1792843
-0.07301236
0.13730265
-0.0
-0.0
-0.0
-0.0
-0.0
-0.0
0.0
-0.0
-0.0
-0.1088786
0.06882898
0.13241816
-0.065814205
-0.14782682
0.10802158
0.10924248
-0.12662368
0.09906463
-0.0024534531
0.03391426
-0.0563518
-0.033297677
0.0137814125
-0.057442818
0.0441349
0.1053909
0.27085963
-0.008146719
0.01012612
0.011780849
-0.17963438
-0.101834625
-0.19780596
-0.109621055
-0.008376531
-0.09096527
0.0
-0.0
0.0
0.0
-0.0
-0.0
-0.0
-0.0
0.0
0.1452586
-0.07526034
-0.07559485
0.113044
-0.066593595
-0.084823996
-0.13291956
-0.1593195
0.15386894
0.22201343
0.19841915
-0.0067323656
-0.4567981
-0.19071329
-0.10465581
-0.111847855
-0.23708083
0.19409868
-0.11529912
-0.023508944
-0.0533754
0.36445132
-0.1478628
-0.26354152
-0.08067785
0.058403116
0.32433966
0.0
0.0
-0.0
0.0
-0.0
-0.0
-0.0
0.0
-0.0
-0.00081385684
0.04483486
-0.2874879
0.0064810948
-0.2001474
-0.25806224
0.04941197
0.16760692
-0.23516777
-0.0
0.0
-0.0
0.0
0.0
-0.0
0.0
0.0
-0.0
-0.0
0.0
-0.0
-0.0
-0.0
-0.0
0.0
0.0
-0.0
0.0
0.0
0.0
0.0
0.0
0.0
0.0
-0.0
-0.0
-0.0158844
-0.19988917
-0.14176886
0.073106796
-0.0718792
-0.016447058
0.017298657
-0.4816635
-0.0555939
-0.4259138
-0.0990351
-0.22711603
0.25848228
-0.38769758
-0.13811035
0.008754842
-0.32593903
0.10541907
-0.045692895
-0.058152657
-0.23320274
-0.24565719
0.11386705
-0.13748145
0.23190893
-0.15698352
0.11831353
-0.0
0.0
0.0
0.0
0.0
0.0
0.0
0.0
0.0
0.066196784
0.08928409
0.09622554
0.12948562
-0.1485002
-0.03358916
-0.29649282
-0.3195889
-0.09059525
0.10931976
-0.20644264
0.029778393
0.07039018
-0.10759776
0.048886273
-0.1809584
-0.23866056
-0.071926855
-0.04729284
-0.03594512
0.08179189
-0.09723794
-0.11917817
0.17237732
0.14768189
-0.12902375
0.024055967
0.0
0.0
-0.0
0.0
0.0
-0.0
-0.0
-0.0
-0.0
-0.0
0.0
-0.0
0.0
-0.0
0.0
0.0
0.0
0.0
-0.0
-0.0
-0.0
-0.0
-0.0
0.0
-0.0
0.0
0.0
0.0
0.0
0.0
-0.0
0.0
-0.0
0.0
-0.0
-0.0
-0.0
-0.0
-0.0
-0.0
-0.0
-0.0
-0.0
-0.0
-0.0
0.0
0.0
0.0
-0.0
0.0
0.0
0.0
0.0
0.0
-0.0
-0.0
-0.0
-0.0
0.0
-0.0
-0.0
-0.0
-0.0
-0.0
-0.0
-0.0
-0.0
-0.0
-0.0
-0.0
-0.0
-0.0
-0.0
-0.0
-0.0
-0.0
0.0
0.0
0.0
-0.0
0.0
-0.0
-0.0
0.0
-0.0
-0.0
0.0
0.0
-0.0
-0.0
-0.0
0.0
-0.0
-0.0
0.0
0.0
0.0
0.0
0.0
-0.0
0.0
0.0
0.0
-0.0
0.0
-0.0
-0.0
-0.0
-0.0
0.0
-0.0
-0.0
0.0
-0.0
0.0
-0.0
0.0
-0.0
-0.0
0.0
-0.0
-0.0
-0.0
0.0
-0.0
-0.0
0.0
0.0
0.0
0.0
0.0
0.0
0.0
0.0
0.0
-0.0
-0.0
-0.0
-0.0
-0.0
-0.0
-0.0
0.0
-0.0
-0.0
-0.0
-0.0
0.0
-0.0
-0.0
-0.0
-0.0
0.0
0.031815615
0.16437477
-0.036437772
-0.013633233
0.18890797
0.057260737
-0.11342331
0.19624169
0.018896975
-0.024768762
0.07531311
0.13428605
0.041292243
-0.03295238
-0.13672073
-0.088375814
0.1968236
0.13209713
0.01980197
-0.0565724
0.010603706
-0.13389738
0.064717785
-0.174795
0.17395948
0.17191678
-0.15758295
-0.0
0.0
-0.0
-0.0
-0.0
0.0
-0.0
-0.0
-0.0
-0.013082365
-0.092305414
0.07663451
-0.072041824
0.04179303
-0.028051702
0.056350615
0.29757032
0.058463834
-0.0
0.0
0.0
-0.0
-0.0
0.0
-0.0
-0.0
-0.0
-0.0
0.0
0.0
0.0
-0.0
0.0
-0.0
-0.0
-0.0
-0.0
0.0
0.0
-0.0
-0.0
-0.0
-0.0
-0.0
0.0
-0.19554816
0.004551756
-0.1474131
-0.27610174
-0.1832703
0.17169267
-0.14573896
-0.07264696
-0.13797513
0.47109511
-0.19606042
-0.024578288
-0.2819324
0.11290545
-0.026772851
-0.12654337
0.21998066
-0.16251382
0.0065415096
-0.11276804
0.18113604
0.102818854
0.09385119
0.14496966
-0.05825522
0.07571068
0.013244125
-0.0
-0.0
-0.0
0.0
0.0
-0.0
0.0
-0.0
-0.0
-0.053740673
0.0013910005
0.045016278
0.1180601
0.091865696
-0.07562955
0.10108856
-0.20237325
-0.11412005
0.096545786
0.19373985
0.110756055
-0.011043723
0.023141932
-0.017959934
-0.07154299
0.05479186
0.119287886
-0.27984807
0.057243273
-0.038447697
0.051816925
0.06964757
0.07410233
0.044417348
-0.14188989
-0.028761074
-0.0
-0.0
-0.0
-0.0
-0.0
-0.0
-0.0
-0.0
-0.0
-0.06851503
-0.14761038
0.089553
-0.011554108
-0.25820184
-0.04329083
0.07292522
0.07128423
0.106452025
0.20455717
-0.023106946
0.057440512
0.14966184
-0.14209823
0.20043334
-0.037707508
-0.014287145
-0.10897815
-0.117338106
-0.011967606
0.23859116
0.025849342
0.08812698
-0.005474341
0.19400129
0.2565461
0.09308134
0.0
0.0
0.0
0.0
-0.0
-0.0
-0.0
-0.0
-0.0
0.24329413
0.050925396
0.008562367
0.10351198
-0.095756084
0.06666043
-0.19674721
-0.06523407
-0.07767025
0.0
0.0
-0.0
0.0
-0.0
-0.0
0.0
-0.0
-0.0
0.0
0.0
-0.0
-0.0
0.0
0.0
-0.0
-0.0
-0.0
0.0
0.0
0.0
0.0
0.0
-0.0
0.0
0.0
0.0
0.062486023
0.11659224
0.18221624
0.02212147
0.18386906
0.14442126
-0.10706767
-0.14263514
-0.03940362
0.17462702
0.10063869
0.1032058
0.017385935
-0.0001754184
-0.21546072
-0.09888747
-0.13384776
-0.08101858
-0.09959073
0.17487681
0.1387818
-0.064989805
-0.051410496
0.08094469
0.12720932
0.10806096
-0.052893262
0.0
-0.0
-0.0
0.0
-0.0
0.0
-0.0
-0.0
-0.0
-0.18213873
-0.08644418
0.0893699
0.10573352
-0.028593281
0.009428609
0.11527966
0.20751654
-0.043221373
-0.052049372
-0.03281445
-0.04746892
0.05335582
-0.15418695
-0.0051467433
-0.03327445
0.06535853
-0.06900797
-0.1586174
-0.06929423
0.08216374
-0.029454308
0.0751875
0.08246059
0.20372875
-0.04810451
0.03417271
-0.0
-0.0
-0.0
0.0
-0.0
0.0
-0.0
0.0
-0.0
-0.0
0.0
-0.0
-0.0
-0.0
-0.0
0.0
-0.0
0.0
-0.0
0.0
-0.0
-0.0
-0.0
-0.0
0.0
0.0
-0.0
0.0
0.0
0.0
0.0
-0.0
0.0
-0.0
-0.0
-0.0
0.0
-0.0
0.0
-0.0
-0.0
0.0
-0.0
0.0
-0.0
0.0
0.0
0.0
-0.0
-0.0
0.0
-0.0
0.0
0.0
-0.0
-0.0
0.0
-0.0
-0.0
-0.0
-0.0
-0.0
0.0
-0.0
-0.0
-0.0
-0.0
-0.0
-0.0
-0.0
-0.0
-0.0
-0.0
-0.0
-0.0
-0.0
0.0
0.0
-0.0
-0.0
0.0
0.0
0.0
0.0
-0.0
0.0
-0.0
0.0
-0.0
-0.0
-0.0
0.0
-0.0
0.0
-0.0
-0.0
-0.0
0.0
-0.0
-0.0
-0.0
-0.0
-0.0
-0.0
-0.0
-0.0
0.0
-0.0
0.0
-0.0
-0.0
-0.0
-0.0
0.0
-0.0
0.0
0.0
-0.0
0.0
-0.0
-0.0
-0.0
-0.0
-0.0
0.0
0.0
0.0
-0.0
-0.0
-0.0
-0.0
0.0
0.0
-0.0
0.0
0.0
-0.0
-0.0
-0.0
0.0
0.0
-0.0
-0.0
-0.0
-0.0
0.0
-0.0
-0.0
-0.0
-0.0
-0.0
-0.0
0.0
0.020142697
-0.089202784
-0.049202856
0.011252586
-0.18505464
-0.1760181
-0.0041760798
-0.017521586
0.08713915
0.025634017
0.11345646
0.10775242
0.5318732
0.2638646
-0.019380288
-0.08406962
-0.13304985
-0.053014506
-0.15525731
0.055436246
-0.026100496
-0.20130956
-0.16520873
0.103155434
0.05932189
0.10386957
-0.06310715
0.0
-0.0
-0.0
0.0
-0.0
0.0
0.0
0.0
0.0
-0.11634382
0.04060751
0.059925057
0.13872263
0.20712435
-0.3258573
0.081096634
-0.10156826
-0.06313348
-0.0
-0.0
0.0
-0.0
-0.0
0.0
-0.0
0.0
0.0
0.0
-0.0
-0.0
-0.0
-0.0
0.0
-0.0
0.0
0.0
-0.0
-0.0
0.0
-0.0
0.0
0.0
-0.0
0.0
0.0
-0.29466498
-0.25835946
0.02256438
-0.21656528
0.036612112
0.060773365
-0.061208334
-0.1453159
-0.19364099
-0.04625164
-0.14131898
-0.22052096
-0.04389195
-0.14222677
-0.1958915
-0.16676061
0.03589358
-0.017026328
-0.03650603
0.29374486
-0.17235899
0.29299143
0.1483031
-0.052478816
0.012787722
-0.099705264
0.030890001
-0.0
-0.0
-0.0
0.0
0.0
-0.0
0.0
0.0
-0.0
-0.120018914
-0.04086721
-0.05218212
-0.20588884
-0.080291614
0.1948473
-0.08702056
0.07558462
-0.036772955
-0.02731442
-0.009256166
0.079755984
-0.13428944
-0.08853601
0.131459
0.14036803
-0.0036906537
0.15777215
-0.16709365
-0.19278638
0.058166448
-0.03248947
-0.18867688
0.058253802
0.0457974
0.073891476
0.04694739
0.0
-0.0
-0.0
-0.0
-0.0
0.0
0.0
0.0
-0.0
-0.0
0.0
-0.0
0.0
0.0
0.0
-0.0
0.0
-0.0
-0.0
0.0
-0.0
-0.0
-0.0
-0.0
-0.0
-0.0
-0.0
-0.0
0.0
-0.0
0.0
0.0
0.0
0.0
0.0
-0.0
0.0
0.0
0.0
-0.0
0.0
0.0
-0.0
-0.0
0.0
0.0
-0.0
-0.0
-0.0
-0.0
-0.0
-0.0
0.0
-0.0
0.0
-0.0
-0.0
-0.0
0.0
-0.0
-0.0
-0.0
-0.0
-0.0
-0.0
-0.0
-0.0
-0.0
-0.0
-0.0
-0.0
-0.0
-0.0
-0.0
0.0
0.0
-0.0
-0.0
0.0
-0.0
-0.0
-0.0
-0.0
-0.0
-0.0
-0.0
0.0
-0.0
-0.0
0.0
0.0
0.0
0.0
-0.0
0.0
0.0
-0.0
0.0
0.0
-0.0
-0.0
0.0
-0.0
-0.0
-0.0
-0.0
0.0
-0.0
-0.0
0.0
-0.0
-0.0
-0.0
-0.0
0.0
-0.0
-0.0
-0.0
-0.0
-0.0
0.0
0.0
0.0
0.0
0.0
0.0
-0.0
0.0
0.0
0.0
0.0
0.0
-0.0
0.0
-0.0
-0.0
-0.0
0.0
-0.0
-0.0
0.0
0.0
-0.0
-0.0
-0.0
-0.0
-0.0
0.0
0.0
-0.0
0.0
0.0
0.0
-0.0031506151
-0.35703644
-0.12584803
-0.15860255
-0.21578512
-0.2244473
0.008907565
-0.26114714
-0.12416992
0.03259665
-0.232809
0.046484392
0.06353895
-0.19626564
-0.053275675
0.12735455
0.041773394
-0.26433122
0.14882345
-0.26898947
0.1683243
0.23403841
-0.13887292
0.07893649
-0.121435896
0.25161406
-0.1614805
0.0
-0.0
-0.0
0.0
-0.0
0.0
0.0
0.0
-0.0
-0.057409696
-0.3201554
0.046628922
-0.10690025
-0.0020601875
0.09575015
-0.24894856
0.096864596
0.021443153
-0.0
-0.0
0.0
0.0
-0.0
-0.0
0.0
0.0
-0.0
-0.0
-0.0
0.0
-0.0
0.0
-0.0
-0.0
0.0
0.0
0.0
-0.0
-0.0
0.0
-0.0
0.0
0.0
0.0
-0.0
0.11643942
0.14259028
-0.0962342
-0.1289329
0.18654841
0.24402162
-0.052880403
0.042875994
0.063905925
-0.014299181
-0.07442452
-0.105276994
-0.11666525
0.09071271
0.08175366
-0.29511598
0.4184429
-0.08185661
0.13598579
-0.06521646
0.26352614
-0.14225726
-0.1258032
-0.16759792
0.0031937815
-0.25651374
0.098399766
-0.0
-0.0
0.0
0.0
0.0
-0.0
0.0
0.0
-0.0
0.09275522
-0.09369543
-0.016501809
0.0207286
-0.07177035
-0.085759945
0.1818793
0.20189776
-0.22415985
0.02345664
-0.17458497
-0.08668249
-0.040413287
-0.088695064
-0.12780273
-0.1152009
-0.19958687
-0.0894654
0.0058560013
-0.2302901
0.08658485
0.018292362
-0.06397167
-0.12810133
0.14601077
-0.100883804
0.0070562963
0.0
-0.0
-0.0
-0.0
-0.0
-0.0
0.0
0.0
-0.0
0.05451319
-0.13153073
-0.0101641575
0.016192144
0.003125314
-0.09993625
0.1046975
0.26697558
-0.07023925
-0.09219185
-0.12792206
0.0034924953
-0.04912646
-0.0070936927
0.069523394
-0.12518865
-0.03933025
0.0042770724
0.004640742
0.10083765
0.05760593
-0.029501934
-0.11161993
0.344727
0.078799374
-0.08891501
0.17902017
0.0
-0.0
-0.0
-0.0
-0.0
0.0
-0.0
-0.0
-0.0
-0.09366942
-0.045103766
0.12814732
0.05931732
-0.118166745
0.06398796
-0.107387155
-0.08441839
0.17376122
0.0
-0.0
0.0
0.0
-0.0
0.0
-0.0
-0.0
0.0
-0.0
-0.0
-0.0
-0.0
-0.0
-0.0
-0.0
-0.0
-0.0
0.0
0.0
0.0
0.0
-0.0
-0.0
0.0
-0.0
-0.0
-0.13263696
0.1476553
-0.23276196
-0.19307077
-0.1192622
0.110823356
-0.18334542
-0.060890626
-0.082164556
0.013293678
0.13723713
-0.13197732
-0.033717804
-0.007293388
0.10335108
-0.034815304
-0.045605015
-0.027301012
-0.1684993
-0.01007092
0.12391779
-0.06780888
-0.053324193
0.09421055
0.035545453
0.06589904
-0.13774933
-0.0
-0.0
-0.0
0.0
-0.0
-0.0
0.0
-0.0
0.0
-0.19630776
0.1840582
-0.016564298
-0.098238364
0.06705491
0.028708778
-0.13758992
0.011039129
0.24631445
-0.0514245
0.048347913
-0.008310955
0.062617674
0.10021276
-0.09682742
0.021614246
0.08555275
-0.09897924
-0.024576405
0.09135827
-0.0369341
-0.08295723
-0.052607212
-0.006197505
0.04534196
-0.09664907
0.09655115
-0.0
-0.0
-0.0
0.0
-0.0
0.0
-0.0
-0.0
-0.0
0.20281309
-0.021049371
0.04614679
0.18140605
0.07132597
0.20592423
0.007365891
0.04482302
0.17429426
-0.2408876
-0.114269584
0.37145847
0.04037245
0.025124872
0.20468222
0.23376322
-0.14010288
0.18174247
-0.23221788
0.05001444
0.09422996
0.11908211
-0.043779306
0.09229136
-0.17034952
-0.17727752
0.21628965
-0.0
0.0
0.0
0.0
-0.0
0.0
-0.0
-0.0
0.0
-0.16687624
-0.047550865
0.18883239
0.02414885
-0.15510242
0.06693952
0.33268487
-0.043705035
0.096775055
-0.0
-0.0
0.0
0.0
-0.0
0.0
-0.0
-0.0
0.0
-0.0
-0.0
0.0
-0.0
-0.0
-0.0
-0.0
-0.0
0.0
-0.0
0.0
-0.0
0.0
-0.0
-0.0
-0.0
-0.0
-0.0
-0.19714114
-0.04248873
-0.11589267
-0.16954215
0.18092227
-0.17243573
-0.1944893
0.15954761
0.050594024
-0.16320544
0.0793528
0.13378896
0.16873816
-0.025728427
0.24361838
0.26903537
0.15613343
0.041688435
-0.050565213
-0.2825931
-0.00011584864
0.028030375
0.1257228
0.4322945
-0.24259031
-0.1872837
0.013547855
0.0
0.0
-0.0
-0.0
-0.0
-0.0
-0.0
-0.0
-0.0
-0.016131312
-0.13322617
-0.08142864
0.078756645
-0.13472883
-0.08224691
-0.17810635
-0.1479265
-0.15124576
0.0075392313
0.11747354
0.006477538
0.041052055
0.11515233
0.039729856
-0.002800717
0.15513244
0.11378773
-0.12836507
0.08264236
-0.019133253
-0.06762693
0.10221507
-0.051543534
-0.10916757
0.008328735
-0.12793432
-0.0
0.0
0.0
0.0
-0.0
-0.0
-0.0
-0.0
-0.0
0.2722828
-0.26573715
-0.17911838
-0.1514674
-0.5478088
0.014383158
-0.15951614
0.09107397
-0.041403003
0.112847015
-0.042136416
-0.0025857892
-0.1271074
0.3980549
-0.07154618
0.041612912
0.1621292
-0.050985523
-0.036535453
-0.059874203
0.08160752
0.19278343
-0.08097648
-0.1684898
-0.0023744677
-0.40017942
-0.24711712
-0.0
-0.0
-0.0
-0.0
-0.0
-0.0
-0.0
-0.0
-0.0
0.07905547
0.12518838
0.0034845416
-0.21851534
0.7571043
0.05190911
0.017033698
0.27113372
-0.3240458
-0.0
-0.0
-0.0
-0.0
-0.0
0.0
-0.0
-0.0
0.0
-0.0
-0.0
-0.0
0.0
-0.0
-0.0
-0.0
-0.0
0.0
-0.0
-0.0
-0.0
0.0
-0.0
-0.0
0.0
-0.0
0.0
0.08487788
0.2863879
-0.098037235
0.06289667
0.15840992
0.26561344
0.17461766
-0.15947773
0.055670854
-0.14375232
-0.17184125
-0.16642122
0.05936394
0.6477829
-0.24329375
0.34270087
0.10089125
-0.45541525
0.17605555
-0.019724505
-0.26709124
0.020734467
-0.29091397
0.2125549
-0.21408796
-0.5118545
0.027070897
0.0
0.0
0.0
-0.0
-0.0
-0.0
0.0
-0.0
-0.0
-0.2970324
-0.18967986
0.10681254
-0.10903328
-0.074245475
0.1348208
-0.27749583
-0.17865781
0.066272266
0.11005744
-0.23180327
0.08552707
-0.13005757
-0.008490992
0.33014837
-0.07215557
0.10616743
0.035798095
-0.15564631
0.042469468
0.0369788
-0.12296306
-0.34991857
0.12550992
-0.17637616
-0.19368134
0.005880769
0.0
-0.0
-0.0
-0.0
0.0
0.0
0.0
-0.0
0.0
0.12573628
0.08655397
0.07523309
-0.11382155
0.0734602
-0.05914514
-0.022664914
-0.1138195
-0.06564016
-0.14337108
0.018211069
0.047535814
-0.2281347
-0.054849263
-0.22584087
0.0024657883
0.07783736
0.23154588
0.15108272
-0.007571137
0.017912071
0.14053959
0.09947824
-0.20002604
0.16627754
0.12350134
0.13326304
0.0
0.0
-0.0
0.0
0.0
-0.0
0.0
0.0
0.0
0.028060528
-0.18769285
-0.14258674
-0.008678942
-0.14599828
-0.071851924
0.07273944
0.14162022
0.17190973
-0.0
-0.0
-0.0
-0.0
-0.0
-0.0
0.0
0.0
-0.0
-0.0
-0.0
-0.0
0.0
-0.0
-0.0
0.0
-0.0
-0.0
-0.0
0.0
0.0
0.0
0.0
0.0
0.0
0.0
-0.0
-0.06390965
-0.16317388
0.16977894
-0.13521762
-0.3372937
0.01657341
-0.13186854
-0.12283645
-0.05098295
-0.036468104
-0.23710114
-0.059472635
-0.16493833
-0.41562638
-0.2316667
-0.27830836
-0.1383035
-0.33243293
-0.11392598
0.088306904
0.18315211
0.15121162
0.10396595
-0.033642314
0.15454623
0.16086915
-0.027309159
0.0
-0.0
-0.0
0.0
0.0
0.0
0.0
-0.0
0.0
-0.13872048
0.10850648
0.107295096
0.14547944
-0.25703773
-0.071338385
-0.005578659
-0.04986582
-0.11089507
-0.047300886
0.042462412
-0.06564975
-0.13148996
-0.15460688
-0.23014171
-0.22912224
-0.20625348
-0.117752455
-0.023420438
-0.06322144
-0.05130536
0.042107332
-0.030329142
-0.08189115
-0.13156241
0.013958576
-0.14065589
-0.0
-0.0
-0.0
-0.0
-0.0
-0.0
0.0
0.0
0.0
0.12231289
0.17667963
-0.1811738
-0.1750856
-0.058640692
-0.17606641
-0.18101104
-0.20101725
-0.005308998
0.3405904
0.29941294
0.18209419
0.008447786
-0.15749462
0.019545684
0.19499314
0.29014677
-0.026363458
-0.062953226
0.020016294
-0.09129924
0.118821144
0.09874772
0.04291527
-0.039807644
-0.027103608
-0.03944378
-0.0
-0.0
-0.0
0.0
0.0
0.0
0.0
0.0
-0.0
0.053799186
-0.01973257
0.065076955
0.03672488
-0.08351831
0.22391635
0.06424671
0.1571632
0.23097973
-0.0
-0.0
-0.0
0.0
-0.0
0.0
0.0
-0.0
0.0
-0.0
-0.0
-0.0
-0.0
-0.0
0.0
0.0
-0.0
0.0
-0.0
0.0
-0.0
0.0
0.0
-0.0
0.0
-0.0
-0.0
-0.13247234
-0.10840669
-0.21892715
-0.04214965
0.028426314
-0.31353635
0.16542076
-0.019812517
-0.08863176
-0.10512027
-0.39254186
-0.13940851
-0.4202721
-0.098083764
-0.05976262
-0.06466541
0.1599482
0.0041341134
0.024310093
0.07917317
-0.27029786
-0.101345256
0.19861357
-0.0700196
-0.0040194816
-0.034377757
0.17662102
-0.0
-0.0
-0.0
-0.0
0.0
-0.0
0.0
0.0
0.0
-0.060840633
-0.2013626
-0.3102338
-0.0787952
-0.21803357
-0.035054136
0.071167454
0.0123992525
0.0044302717
-0.038494524
-0.084280886
0.030602962
-0.3182821
-0.2847121
-0.24520226
-0.13752694
-0.07759055
-0.028944192
0.082620695
-0.19316007
-0.14142893
-0.026380615
0.012780752
0.028260816
-0.09721227
0.060471065
-0.14830247
-0.0
-0.0
-0.0
-0.0
-0.0
0.0
0.0
-0.0
-0.0
0.017948475
0.068956316
-0.054025203
-0.0065187044
0.05975522
-0.05071221
0.03653575
0.06469661
-0.0080378065
-0.022368094
-0.1244263
0.051939588
-0.1657934
0.056032695
0.031859852
-0.0668004
0.123123385
-0.14645524
0.13045555
0.07204532
-0.11147413
-0.14740442
-0.0876255
0.049087048
0.0899983
0.08119931
-0.034942362
0.0
0.0
0.0
0.0
0.0
0.0
0.0
-0.0
0.0
-0.11472729
0.07167141
0.17833899
-0.07746681
0.24971011
-0.029455079
-0.030880647
-0.08027655
-0.03534339
0.0
0.0
0.0
-0.0
0.0
0.0
-0.0
0.0
0.0
-0.0
-0.0
-0.0
-0.0
0.0
0.0
0.0
-0.0
-0.0
-0.0
0.0
0.0
0.0
0.0
0.0
-0.0
-0.0
-0.0
-0.11788281
-0.057457563
-0.044090606
-0.06410321
-0.055532362
-0.08229726
-0.07456568
0.048829492
-0.08095542
-0.17531438
-0.26530728
-0.13542882
-0.06317449
-0.10788215
-0.0558513
0.12486037
-0.104643345
-0.09873164
-0.07362675
0.283636
0.038423713
-0.1590905
-0.20842224
0.03427882
-0.06403762
0.074704036
-0.053875547
0.0
0.0
-0.0
0.0
0.0
-0.0
-0.0
0.0
-0.0
0.10963284
0.22300953
-0.08116336
0.014871307
0.236037
0.07229132
-0.052821703
-0.10024532
-0.040764775
0.0523056
-0.029020179
0.056104146
0.0161196
-0.042144127
0.025990581
-0.01797506
0.04016108
-0.12418886
0.027397733
0.019052241
-0.062037326
0.087817214
0.025546394
-0.16281262
0.0038107405
0.021664713
-0.0372479
-0.0
0.0
0.0
-0.0
0.0
0.0
-0.0
0.0
0.0
0.0040292093
-0.02421017
-0.026129495
0.03685236
0.17089835
0.07287607
-0.073603764
-0.14034022
0.065909766
-0.20147191
-0.020699527
-0.01788578
-0.04903873
-0.15009151
-0.15499547
-0.19307992
-0.11808583
-0.09245415
-0.026613124
-0.006624956
-0.22060522
0.1947764
0.07004699
-0.21133554
-0.047332972
0.14372797
-0.010604399
0.0
-0.0
0.0
0.0
0.0
0.0
0.0
-0.0
-0.0
-0.05930293
0.037134532
-0.100197144
0.06461321
-0.16276585
-0.12395091
0.30994114
-0.015710123
-0.09694662
0.0
-0.0
-0.0
0.0
-0.0
-0.0
0.0
-0.0
-0.0
-0.0
-0.0
-0.0
0.0
-0.0
-0.0
0.0
0.0
-0.0
0.0
-0.0
-0.0
0.0
0.0
-0.0
0.0
-0.0
0.0
-0.30181405
-0.055590414
0.10524656
-0.17724752
-0.31653544
-0.07535132
0.04725654
-0.20734021
0.023801323
0.1386937
-0.17258774
-0.24401873
0.2603727
-0.06567192
-0.23007742
-0.10200944
-0.019184154
0.02572134
-0.048700906
-0.03109061
-0.038587745
-0.3871684
-0.12178056
0.014342701
0.09557562
-0.27131882
0.026794288
-0.0
-0.0
0.0
0.0
-0.0
-0.0
0.0
0.0
-0.0
-0.012148673
-0.08651539
0.09396259
-0.10627067
0.002300484
0.08866421
-0.08450347
-0.023322357
-0.08447276
-0.11638622
-0.08000721
0.014969331
-0.20348823
-0.068755925
0.026686389
-0.09832502
-0.23479141
-0.109911084
-0.095282175
-0.15173398
0.18197303
-0.007592829
-0.062843405
-0.06733083
-0.010865734
-0.0029067306
0.07141441
-0.0
-0.0
0.0
0.0
-0.0
0.0
0.0
-0.0
-0.0
0.0029779067
0.05349215
-0.0467221
-0.05432497
0.011633962
0.06350135
0.013766157
-0.02956035
0.024679875
0.16353314
-0.10375658
0.10571935
0.039985765
-0.15966031
0.04035902
-0.0768708
-0.016910842
-0.013567114
-0.19147518
-0.09508866
0.06363873
0.0034536037
0.008234816
-0.14343083
-0.024174603
0.09373837
-0.028465081
0.0
-0.0
-0.0
-0.0
0.0
0.0
-0.0
-0.0
0.0
0.11437101
-0.081404656
-0.10724029
-0.0037327956
-0.054863244
0.032873556
-0.041360572
0.16458052
0.18212064
-0.0
-0.0
-0.0
0.0
-0.0
0.0
-0.0
-0.0
0.0
-0.0
0.0
-0.0
0.0
-0.0
-0.0
0.0
0.0
0.0
-0.0
-0.0
0.0
-0.0
-0.0
-0.0
-0.0
-0.0
0.0
-0.06503686
-0.03203145
-0.021397341
0.008625569
0.06834663
0.19621655
0.118049495
0.055424772
-0.028444827
0.16783507
-0.08977293
-0.03133341
0.08426793
-0.044127513
0.013475053
-0.25294173
0.29142007
-0.026211312
-0.050774653
0.12933598
-0.15836225
-0.07597373
-0.05453707
-0.17620479
0.062233716
-0.06416936
0.0033168767
-0.0
-0.0
-0.0
-0.0
-0.0
-0.0
-0.0
-0.0
-0.0
-0.06838832
0.035636913
0.276694
-0.2125826
0.12035642
-0.09042671
-0.14003424
0.0010887495
-0.18563068
0.04480919
0.18246621
0.09335075
0.021515334
0.09129386
0.08553098
-0.05718253
0.040186547
0.010576836
-0.07819003
-0.0816239
0.0057335813
0.021509783
-0.08654888
0.051351722
-0.02163855
-0.039289452
-0.009494954
-0.0
-0.0
0.0
0.0
0.0
-0.0
-0.0
-0.0
-0.0
0.1470823
-0.14404833
-0.13516364
-0.17962684
0.16217798
0.062657446
0.11345357
0.07032296
0.040264744
-0.2107691
-0.016642949
0.21360706
0.037654236
0.21003027
-0.08608068
-0.008930297
-0.031025333
-0.056861475
-0.07063244
-0.11138371
-0.033611305
0.07531651
-0.27330083
-0.082720935
-0.22006002
-0.13976772
0.026372382
-0.0
-0.0
-0.0
-0.0
-0.0
-0.0
-0.0
0.0
-0.0
-0.31840688
0.35689428
0.07278229
-0.0013455463
0.16693327
0.022123754
0.15260577
-0.17115426
-0.08571447
-0.0
-0.0
-0.0
0.0
-0.0
-0.0
-0.0
-0.0
0.0
-0.0
-0.0
-0.0
0.0
-0.0
0.0
0.0
-0.0
0.0
-0.0
-0.0
-0.0
0.0
-0.0
-0.0
-0.0
0.0
-0.0
-0.0408972
0.23565432
-0.13415544
0.39101472
0.21892345
0.24049923
0.08978185
-0.04202927
-0.21898383
-0.10647153
0.10201061
-0.35439992
0.36537173
0.123221956
0.09013336
0.1389866
-0.16778634
0.18236819
-0.13727899
-0.003617524
-0.1183168
-0.054145824
-0.024981651
0.20556638
-0.15523736
0.05273644
0.07448373
-0.0
-0.0
0.0
0.0
0.0
-0.0
-0.0
0.0
0.0
0.028494129
0.024356911
0.25448605
-0.17231853
-0.06778868
-0.15917033
-0.11716675
-0.10209299
-0.1829386
0.19870655
-0.048654158
-0.009257879
-0.036970086
0.09319899
0.24288651
0.03429649
0.067089036
0.10655381
-0.1363692
-0.14129291
0.14589724
-0.2540506
-0.2816782
-0.07115844
0.023007633
0.16653301
0.0162395
-0.0
-0.0
-0.0
-0.0
0.0
-0.0
0.0
0.0
0.0
-0.0
0.0
0.0
-0.0
-0.0
-0.0
0.0
0.0
0.0
-0.0
-0.0
0.0
-0.0
-0.0
-0.0
-0.0
-0.0
-0.0
-0.0
-0.0
0.0
-0.0
0.0
-0.0
-0.0
-0.0
-0.0
-0.0
-0.0
0.0
0.0
-0.0
-0.0
-0.0
-0.0
0.0
-0.0
-0.0
0.0
-0.0
-0.0
-0.0
-0.0
0.0
0.0
0.0
-0.0
-0.0
-0.0
0.0
0.0
-0.0
0.0
-0.0
-0.0
-0.0
-0.0
-0.0
-0.0
-0.0
-0.0
-0.0
-0.0
0.0
0.0
0.0
0.0
-0.0
0.0
-0.0
0.0
0.0
-0.0
-0.0
-0.0
-0.0
-0.0
-0.0
-0.0
-0.0
-0.0
-0.0
-0.0
-0.0
-0.0
-0.0
-0.0
0.0
-0.0
-0.0
-0.0
-0.0
-0.0
-0.0
-0.0
0.0
-0.0
-0.0
-0.0
-0.0
-0.0
0.0
0.0
0.0
0.0
-0.0
-0.0
-0.0
0.0
-0.0
-0.0
0.0
0.0
0.0
-0.0
0.0
0.0
0.0
-0.0
0.0
0.0
-0.0
0.0
-0.0
0.0
0.0
-0.0
-0.0
-0.0
0.0
-0.0
-0.0
0.0
0.0
-0.0
-0.0
-0.0
-0.0
0.0
0.0
0.0
-0.0
-0.0
0.0
0.1958791
0.1140064
0.03498005
-0.12855819
-0.16034764
-0.012740027
0.071929924
-0.014505706
0.010824667
0.114736326
0.33493668
0.12901963
0.0526158
0.275617
-0.0050949897
-0.091000944
0.08565365
0.14926675
-0.09971941
0.07818808
-0.026546469
-0.05508548
-0.19731672
0.07214611
0.18031566
-0.025287548
-0.15862991
-0.0
0.0
-0.0
0.0
-0.0
0.0
0.0
0.0
0.0
0.03131654
0.12100105
0.12963457
-0.09422705
-0.048204217
0.18733183
-0.14161713
0.043299023
0.048250694
-0.0
0.0
0.0
-0.0
0.0
-0.0
0.0
-0.0
0.0
-0.0
-0.0
-0.0
-0.0
-0.0
0.0
-0.0
0.0
0.0
0.0
0.0
0.0
0.0
-0.0
0.0
0.0
0.0
-0.0
0.18850325
0.1043492
-0.08734198
0.1149364
0.24219288
0.06574462
-0.01688347
-0.074337415
0.06993697
-0.15217985
-0.13573438
-0.18270372
-0.044239994
-0.07409668
0.06972399
0.022672268
0.19317518
-0.01761571
0.1425149
0.12016405
-0.065055154
-0.11637216
0.02528042
-0.0755531
0.12469415
0.261258
-0.014357776
-0.0
0.0
0.0
-0.0
0.0
-0.0
0.0
0.0
-0.0
-0.09827126
0.12804615
0.08244206
-0.05675455
-0.1448071
-0.016419696
0.25518742
0.109623715
-0.008503394
0.02887485
0.044237025
-0.09392818
-0.031724744
0.039462067
-0.021548592
-0.006406071
0.00881782
0.015743548
-0.03654343
-0.018571807
-0.06985327
0.05495861
-0.1144161
0.026841456
0.10118057
-0.0038612555
0.05051483
-0.0
-0.0
0.0
0.0
0.0
0.0
0.0
-0.0
0.0
-0.007989606
-0.008761043
0.095914625
-0.098044455
-0.032227933
-0.12508182
-0.016336072
0.009565676
-0.017972466
0.0025217708
-0.02050908
-0.023653354
-0.009773305
0.10963181
-0.116108365
0.32350576
0.15077329
-0.20637365
-0.060947984
-0.09512163
-0.10054488
-0.21656711
0.017216593
0.1491991
-0.041468967
-0.2747021
0.09787126
-0.0
0.0
-0.0
0.0
0.0
0.0
0.0
-0.0
-0.0
0.08056847
-0.02401027
0.021641836
-0.14246714
0.32282957
0.044375163
-0.021302842
0.021036804
-0.05873513
0.0
0.0
0.0
0.0
0.0
0.0
0.0
-0.0
0.0
0.0
0.0
-0.0
0.0
0.0
0.0
0.0
0.0
-0.0
0.0
0.0
-0.0
0.0
-0.0
-0.0
-0.0
0.0
0.0
-0.012912854
-0.018939774
-0.25322965
0.060324714
0.082724676
-0.12587069
-0.010504223
0.15119234
0.139915
-0.07261672
-0.065732755
-0.07895287
-0.024472337
-0.07930956
-0.059467006
0.110041074
0.012558489
0.08127374
-0.07510268
0.09180848
0.25572795
-0.18313822
0.08391163
-0.0019613113
-0.1331219
0.10776706
0.008942905
0.0
0.0
0.0
-0.0
0.0
0.0
0.0
-0.0
0.0
-0.022849271
-0.11433232
-0.1202806
0.030050935
0.18970662
-0.01470599
-0.0011583392
0.06937262
0.22448228
-0.0380651
0.113268554
-0.04829828
-0.023735885
0.009739953
0.05139668
-0.012488097
0.06509757
0.093113236
0.018628152
0.06407954
-0.07165857
0.0350891
0.08506274
-0.008994383
0.13096835
-0.024317803
-0.0026534074
0.0
-0.0
-0.0
0.0
0.0
-0.0
0.0
0.0
0.0
0.0
-0.0
0.0
0.0
-0.0
0.0
0.0
0.0
-0.0
-0.0
-0.0
-0.0
-0.0
-0.0
-0.0
-0.0
-0.0
-0.0
-0.0
-0.0
0.0
0.0
-0.0
-0.0
-0.0
-0.0
-0.0
0.0
-0.0
0.0
-0.0
0.0
-0.0
0.0
0.0
0.0
-0.0
0.0
-0.0
-0.0
-0.0
-0.0
-0.0
-0.0
-0.0
-0.0
-0.0
-0.0
-0.0
0.0
-0.0
-0.0
0.0
-0.0
-0.0
0.0
-0.0
0.0
-0.0
0.0
-0.0
-0.0
0.0
0.0
0.0
0.0
0.0
-0.0
-0.0
0.0
0.0
-0.0
-0.0
-0.0
-0.0
-0.0
-0.0
-0.0
0.0
-0.0
-0.0
-0.0
-0.0
0.0
-0.0
0.0
-0.0
0.0
-0.0
0.0
0.0
-0.0
-0.0
-0.0
-0.0
-0.0
-0.0
-0.0
-0.0
-0.0
-0.0
-0.0
0.0
-0.0
0.0
0.0
-0.0
0.0
-0.0
-0.0
-0.0
-0.0
0.0
0.0
0.0
-0.0
0.0
0.0
-0.0
-0.0
0.0
-0.0
0.0
0.0
-0.0
-0.0
0.0
0.0
-0.0
-0.0
-0.0
-0.0
-0.0
-0.0
-0.0
-0.0
-0.0
-0.0
-0.0
-0.0
0.0
0.0
-0.0
0.0
-0.1887979
0.30433822
0.10911583
0.07012517
-0.070235625
-0.05734078
0.29700053
-0.09755356
0.061849624
-0.3476102
-0.14073452
-0.4036867
0.40128872
-0.015730025
-0.13907292
0.07285303
-0.07564495
0.14250581
0.08177184
0.46699724
0.09257872
-0.24676505
0.027799493
0.04832897
0.009288616
-0.097114846
-0.004437921
-0.0
-0.0
-0.0
0.0
-0.0
0.0
0.0
-0.0
0.0
-0.0032644311
-0.08638722
-0.18123221
0.10393607
0.05587323
-0.046265848
0.0008356186
-0.14413576
0.16012762
-0.0
0.0
-0.0
-0.0
-0.0
-0.0
-0.0
0.0
0.0
-0.0
-0.0
-0.0
-0.0
-0.0
-0.0
-0.0
-0.0
-0.0
-0.0
0.0
0.0
-0.0
-0.0
-0.0
0.0
-0.0
0.0
-0.1495815
-0.1535887
0.24174519
0.0051741195
0.0037032228
-0.17773195
0.0272136
0.015797378
-0.066526785
0.16716859
0.1224491
-0.13255005
-0.3421197
0.20063336
-0.37605983
0.027373683
-0.20241468
-0.29859674
-0.07375673
0.31154397
-0.08683885
-0.00094908715
-0.2842727
-0.015952727
0.10597254
-0.0791197
-0.12440402
-0.0
-0.0
-0.0
-0.0
-0.0
-0.0
-0.0
0.0
0.0
0.09414484
-0.042581435
-0.024568498
-0.060756635
0.1765534
0.10731928
-0.14941077
-0.031867232
0.108538136
-0.0966727
-0.050529383
-0.0846501
-0.13311929
-0.05923885
0.1715221
0.11281099
0.018710505
0.15207049
0.09465137
-0.18075125
-0.027645247
0.0046404907
-0.07140553
0.020827064
-0.17871816
-0.027615892
0.16255465
-0.0
-0.0
0.0
-0.0
-0.0
0.0
0.0
0.0
0.0
0.13162726
0.038505603
0.20369382
-0.022366185
-0.049112897
0.07578673
0.09094631
-0.08498252
0.21241964
-0.09169588
-0.074085146
-0.10430558
-0.18359518
-0.08952937
-0.1579482
-0.1255353
0.13957073
0.2935861
-0.25513715
-0.049424827
-0.015982494
-0.06371077
0.17273602
-0.19462727
-0.1296787
0.16448423
0.0709138
0.0
-0.0
-0.0
-0.0
-0.0
-0.0
-0.0
0.0
-0.0
-0.17374253
-0.043449227
-0.25652793
-0.0018583175
-0.08793423
0.107609466
0.03650831
0.10952923
0.10524136
-0.0
-0.0
0.0
0.0
-0.0
-0.0
0.0
-0.0
-0.0
-0.0
-0.0
-0.0
0.0
-0.0
-0.0
0.0
-0.0
-0.0
-0.0
-0.0
0.0
0.0
-0.0
-0.0
0.0
0.0
-0.0
-0.16066265
-0.1348046
-0.056408625
-0.20571451
-0.027133478
-0.21974458
0.033176985
0.17013983
0.06544653
-0.26337662
0.11244531
0.20448628
0.0076619233
0.03086058
0.12596527
0.22560512
0.14902304
0.26681632
-0.02755818
-0.13831005
0.119949006
-0.29067856
-0.09253105
0.07204252
-0.13951664
0.04337508
0.053519897
-0.0
-0.0
-0.0
0.0
-0.0
-0.0
0.0
0.0
-0.0
-0.23878413
-0.06769498
-0.21210255
-0.045751438
0.20931564
0.01537038
-0.0058930283
0.27528867
-0.12953514
0.041694827
0.00221975
0.12938261
0.0016963456
-0.062124357
0.11407237
0.02949136
-0.06606905
0.089947924
-0.040120065
-0.14247856
-0.016367888
-0.22538815
-0.048735015
-0.003277566
-0.12629093
0.099636555
-0.020658925
0.0
-0.0
-0.0
-0.0
-0.0
0.0
0.0
0.0
0.0
0.13461925
-0.04562063
-0.30531123
0.18035884
0.1377201
0.17991413
-0.01084432
0.057069704
0.10487005
0.06092655
-0.085392356
-0.1376411
-0.22924636
-0.26478133
-0.07451337
0.06862043
-0.12117025
0.17139876
-0.0020450016
-0.071944654
0.17492247
0.13016658
0.12105447
0.027674615
0.2704267
-0.05435616
0.0070430003
0.0
-0.0
0.0
0.0
-0.0
0.0
0.0
0.0
0.0
0.22682868
-0.14580162
-0.027994173
-0.05212947
-0.04699144
-0.09477646
-0.049605463
-0.059835322
0.04239533
-0.0
-0.0
0.0
0.0
-0.0
-0.0
-0.0
-0.0
-0.0
0.0
-0.0
0.0
0.0
-0.0
-0.0
0.0
-0.0
-0.0
0.0
-0.0
0.0
-0.0
-0.0
0.0
-0.0
-0.0
0.0
-0.047897797
0.26364556
-0.048128497
-0.1328135
0.15342209
0.106020175
-0.15938082
-0.032128144
-0.116388574
0.05048773
-0.1259626
-0.009716898
0.10838959
-0.15242346
-0.3439663
-0.25374088
-0.26100603
-0.29004538
-0.11342024
-0.15678148
0.09877592
0.15048793
0.1872564
-0.10079124
0.11101197
0.055044845
0.18006681
-0.0
-0.0
-0.0
0.0
-0.0
0.0
0.0
-0.0
-0.0
-0.11910526
0.21255703
-0.037061412
0.10804786
-0.15354194
-0.12760328
-0.050125167
-0.25384742
0.12646
0.08988074
0.21674153
0.01655744
0.04597541
0.14557707
-0.023509854
-0.021168064
0.1849214
-0.021693531
0.15318674
0.060868967
-0.11623967
0.18267715
-0.012317801
-0.025851471
0.13926396
-0.2778328
0.013012636
0.0
-0.0
0.0
-0.0
-0.0
-0.0
-0.0
-0.0
-0.0
-0.0
0.0
0.0
0.0
-0.0
-0.0
0.0
0.0
-0.0
-0.0
0.0
-0.0
-0.0
0.0
-0.0
-0.0
-0.0
0.0
-0.0
0.0
0.0
-0.0
0.0
0.0
0.0
0.0
-0.0
0.0
0.0
0.0
0.0
0.0
0.0
-0.0
-0.0
0.0
0.0
0.0
-0.0
-0.0
-0.0
0.0
-0.0
-0.0
0.0
0.0
0.0
0.0
0.0
0.0
-0.0
-0.0
0.0
-0.0
-0.0
0.0
0.0
0.0
0.0
0.0
0.0
0.0
-0.0
0.0
0.0
0.0
0.0
0.0
0.0
0.0
0.0
-0.0
-0.0
-0.0
-0.0
0.0
0.0
-0.0
0.0
-0.0
0.0
0.0
0.0
-0.0
-0.0
-0.0
-0.0
0.0
-0.0
-0.0
-0.0
0.0
-0.0
0.0
0.0
-0.0
-0.0
-0.0
-0.0
0.0
0.0
0.0
0.0
0.0
0.0
0.0
0.0
0.0
-0.0
0.0
0.0
0.0
0.0
-0.0
-0.0
0.0
0.0
0.0
0.0
0.0
0.0
0.0
-0.0
0.0
-0.0
-0.0
0.0
0.0
0.0
-0.0
0.0
0.0
0.0
0.0
0.0
0.0
0.0
-0.0
0.0
0.0
0.0
0.0
0.0
0.0
-0.13517834
0.15926526
-0.047037087
0.14126949
-0.0077166953
0.017121388
0.13116
-0.18974787
0.19355553
0.46931955
-0.0913737
-0.44473484
0.04437824
-0.12760878
0.16223902
-0.29168016
-0.14106879
-0.040459476
-0.14881769
0.20970686
0.23677655
-0.3718268
0.041943848
-0.12613843
0.041795477
-0.025610581
0.010679164
0.0
-0.0
0.0
-0.0
0.0
0.0
0.0
0.0
-0.0
0.25729018
-0.040290646
-0.2973588
-0.1387807
-0.08831689
0.04426063
0.06952573
-0.12568715
0.15135208
-0.0
-0.0
-0.0
-0.0
-0.0
0.0
0.0
0.0
0.0
0.0
-0.0
0.0
-0.0
0.0
0.0
0.0
0.0
-0.0
-0.0
0.0
0.0
0.0
-0.0
-0.0
-0.0
0.0
-0.0
0.018600194
0.046149172
0.05186075
-0.25134662
0.234042
-0.21641079
-0.08089157
0.040531024
-0.10107288
0.100012295
-0.3130899
-0.03493625
-0.14178668
0.06145741
0.14372043
-0.10347387
-0.022122717
-0.13739014
-0.051461495
0.079100534
-0.2837877
-0.072363816
-0.014285551
-0.071997546
0.1589711
-0.15772344
0.05877114
0.0
0.0
-0.0
0.0
-0.0
0.0
-0.0
0.0
0.0
0.0513244
0.14693694
0.09834684
-0.0873428
-0.031719025
-0.057886045
-0.13212767
-0.03356564
-0.17607099
0.066177554
0.11920243
0.18233797
0.10426073
0.02424452
0.09103821
0.13864024
0.035969503
0.17627282
0.12063486
-0.08978027
-0.03220571
-0.015431438
-0.119421855
-0.0074161403
-0.049062036
-0.07050341
-0.0794982
0.0
0.0
-0.0
-0.0
0.0
-0.0
0.0
-0.0
-0.0
-0.03323691
0.11746891
0.015711335
-0.0029099176
0.08185355
0.08561114
0.0011321511
0.06626819
0.19199912
0.16383849
-0.006563979
-0.039396342
-0.10693293
-0.13088135
0.14702938
-0.12821195
-0.064853586
-0.010572212
-0.039442066
0.035769213
-0.1467071
-0.04665132
0.016606713
-0.08851959
-0.12226037
0.056593794
0.153635
-0.0
0.0
-0.0
-0.0
0.0
-0.0
-0.0
-0.0
0.0
0.07592448
-0.12817216
-0.012705802
-0.15980203
-0.069251426
0.031802837
-0.014244144
0.29785714
-0.031724278
0.0
-0.0
-0.0
0.0
-0.0
-0.0
-0.0
-0.0
0.0
0.0
-0.0
0.0
-0.0
0.0
0.0
0.0
0.0
0.0
0.0
-0.0
-0.0
-0.0
-0.0
-0.0
-0.0
0.0
0.0
-0.051323395
0.20281602
0.18599024
-0.115093306
-0.11518044
-0.098791145
0.11983322
0.03175745
-0.0824729
0.18064913
-0.080483146
-0.08794029
-0.18632287
-0.007772501
0.11531599
-0.12261452
0.14395015
-0.13973708
-0.2190551
0.0044553606
-0.011293432
0.083661936
-0.03864927
0.049445428
-0.003422631
-0.15617187
0.034009494
-0.0
0.0
-0.0
-0.0
0.0
-0.0
-0.0
-0.0
0.0
0.05814235
0.03671457
-0.05807914
-0.050992176
0.03222154
-0.03466977
0.10291481
0.018565932
-0.035105288
0.115925096
0.21886267
0.09911404
0.105687425
-0.028442025
0.13593774
-0.113299705
-0.05022233
-0.04748768
-0.09117917
0.04285216
0.0028743804
-0.09271779
0.026152795
-0.13251127
0.00362548
-0.09249531
0.04177383
-0.0
-0.0
0.0
-0.0
-0.0
0.0
-0.0
0.0
-0.0
0.22617604
0.03975882
0.11586781
0.3053235
0.026692169
0.08801486
0.041972704
0.25392786
-0.12604362
0.006215386
0.07817169
-0.035133265
-0.00019328177
-0.14372689
-0.19032852
-0.20828065
-0.22859438
-0.026766045
-0.19953883
0.015515672
0.006193313
0.021314187
-0.09085674
-0.058969606
0.38529515
-0.24871752
-0.023177402
-0.0
-0.0
-0.0
-0.0
0.0
0.0
-0.0
-0.0
0.0
0.066226564
0.1275053
0.032204643
0.010673095
-0.06823864
-0.11797156
-0.13511145
0.067338355
0.12555373
-0.0
0.0
0.0
-0.0
0.0
0.0
-0.0
-0.0
-0.0
-0.0
0.0
-0.0
-0.0
-0.0
-0.0
-0.0
-0.0
-0.0
0.0
0.0
-0.0
-0.0
0.0
0.0
0.0
0.0
-0.0
-0.08179732
-0.22256126
0.20256783
0.041483164
-0.0013371311
-0.18880647
0.07751188
-0.14035945
0.078790866
-0.019893426
0.018182954
0.08668265
-0.00036672267
-0.012324304
0.018805819
0.05518106
-0.01883755
-0.07184091
-0.07596643
0.005168926
-0.07621967
0.024824988
-0.055362266
-0.1000581
0.088996865
-0.10584151
-0.013048829
0.0
-0.0
-0.0
0.0
0.0
0.0
-0.0
-0.0
0.0
0.010139829
0.11576417
0.113756746
-0.03932022
-0.04453307
0.10380824
0.05706413
0.006628712
-0.055946916
0.05886567
0.25093767
0.05642602
0.054604106
0.14500089
0.19418874
-0.01540491
0.22067156
0.21766402
0.028417075
0.023136342
0.019132309
0.116492055
-0.08848968
0.15320002
-0.008685997
0.030670611
-0.051956076
0.0
0.0
0.0
0.0
0.0
0.0
-0.0
-0.0
-0.0
-0.012301975
-0.17440389
-0.11089517
-0.11617478
-0.2345092
-0.030500267
0.3730524
0.06426339
0.04025491
0.072212026
-0.044516426
0.24510233
-0.14063454
-0.10038407
0.048741158
-0.22775784
0.041452687
0.17424323
-0.08668128
-0.08143861
0.009421645
-0.27504712
0.11264956
-0.30799276
-0.0922222
0.11575452
0.23378904
-0.0
-0.0
-0.0
-0.0
0.0
-0.0
-0.0
0.0
-0.0
-0.14108905
-0.0082644075
0.10581616
-0.32338423
0.09250663
0.29590264
-0.2523455
0.036113296
0.05235893
-0.0
-0.0
-0.0
-0.0
0.0
-0.0
-0.0
-0.0
-0.0
-0.0
0.0
-0.0
-0.0
0.0
-0.0
-0.0
-0.0
0.0
-0.0
-0.0
-0.0
-0.0
0.0
-0.0
-0.0
-0.0
0.0
0.1352771
-0.13560301
0.1838041
0.13967742
-0.019417219
-0.1291283
0.13388224
-0.14312717
0.01727003
-0.22789453
-0.0864508
0.11198086
-0.44040024
-0.14613755
0.3091087
-0.4102752
0.04889412
0.43057448
-0.061916485
-0.03430904
-0.038165472
0.049515244
0.15537459
-0.065897524
0.06690228
-0.020693285
-0.03015002
-0.0
-0.0
-0.0
-0.0
0.0
-0.0
-0.0
0.0
0.0
-0.07228337
-0.01760072
-0.18543716
0.06316898
0.042622447
-0.1729727
0.10887622
-0.01960523
-0.21916074
0.03935563
-0.077285096
0.06423413
0.06597486
-0.088218294
0.018287282
0.20659646
-0.13983843
-0.04456973
-0.029684125
-0.15215838
-0.04282656
-0.14226781
0.027516592
-0.2239885
-0.06811575
0.003183538
-0.15658048
-0.0
0.0
-0.0
-0.0
-0.0
-0.0
-0.0
0.0
-0.0
0.08731964
-0.0013492206
0.47506338
-0.038059935
0.026734501
0.2113724
-0.006703978
0.12820792
0.00989776
0.07431602
0.019588787
-0.14719543
0.05720716
0.27803147
-0.15329842
-0.07691129
-0.14219388
-0.30370244
0.016814288
-0.19586292
0.22428611
-0.22814056
-0.22752972
0.3459003
-0.09255273
0.09557801
0.16529125
-0.0
-0.0
-0.0
-0.0
-0.0
-0.0
-0.0
0.0
0.0
-0.010995773
-0.07669965
0.22305411
-0.029025787
0.077060446
-0.027228247
-0.10330606
-0.056472626
-0.10081511
-0.0
-0.0
-0.0
0.0
-0.0
-0.0
-0.0
-0.0
0.0
-0.0
-0.0
-0.0
-0.0
-0.0
0.0
-0.0
-0.0
0.0
-0.0
-0.0
-0.0
-0.0
-0.0
-0.0
-0.0
0.0
-0.0
0.19540691
0.32964087
-0.23958829
0.03897224
0.3461145
0.2949186
-0.08639552
-0.2599332
0.040828116
0.13302407
0.1858641
-0.04517405
0.24106626
0.2799073
0.0098998
0.13417806
-0.18721914
0.27188474
-0.15721938
0.18752487
0.092311926
-0.008207562
0.048704963
-0.12443987
0.20594752
-0.030589504
0.004089215
-0.0
-0.0
-0.0
-0.0
-0.0
-0.0
-0.0
-0.0
-0.0
0.08190039
0.12961167
-0.09102849
-0.1452302
0.014047945
0.005112815
-0.00821683
-0.07079937
0.12958762
-0.09342397
-0.058830097
-0.022443261
-0.018802203
0.1147935
0.1823306
0.033706017
0.034247994
-0.04198537
-0.21500556
-0.15400448
-0.0051011057
-0.30758777
-0.3526695
-0.14235227
0.08951131
-0.018442389
0.042540904
-0.0
-0.0
-0.0
-0.0
0.0
-0.0
0.0
-0.0
0.0
-0.10580437
0.19119954
0.21439908
0.18607612
0.1757483
0.117470525
-0.06889698
0.07141636
-0.12406554
0.18280071
0.03999629
-0.019497424
-0.050037265
0.013148592
-0.1865973
-0.38832343
-0.04258192
-0.048844513
-0.015796809
0.18774486
0.1412697
0.007102441
-0.105812974
-0.15776806
0.0593505
-0.1272408
-0.01315806
0.0
0.0
-0.0
-0.0
-0.0
-0.0
0.0
0.0
-0.0
0.012101386
0.15551783
-0.0350567
-0.105346724
-0.10877993
0.07699315
-0.019737488
-0.05192467
-0.01881897
-0.0
0.0
0.0
0.0
-0.0
-0.0
0.0
-0.0
0.0
-0.0
-0.0
0.0
0.0
-0.0
-0.0
0.0
0.0
0.0
-0.0
0.0
-0.0
-0.0
0.0
-0.0
0.0
-0.0
-0.0
0.14259152
0.042277247
-0.28057563
0.44410747
-0.24985157
0.28498298
-0.259243
-0.031936307
-0.026666488
-0.19758162
0.27768683
-0.007551762
-0.043052897
-0.11810004
-0.25094748
0.23121601
-0.14466706
0.06788001
-0.022663383
-0.1511409
0.071784794
0.08739939
0.10348193
0.3887112
-0.07657276
-0.1530322
-0.12914394
-0.0
0.0
-0.0
-0.0
0.0
0.0
0.0
-0.0
-0.0
-0.054653443
0.084867924
-0.19300346
-0.3234781
-0.07523766
0.074391946
0.11284609
-0.1617951
-0.025110962
0.19780737
0.012112973
0.0013785325
0.06863888
-0.030636251
0.02671032
-0.021475028
0.15853706
-0.057589058
-0.037097488
-0.03775055
-0.1971162
-0.031475794
-0.080299184
-0.084792145
-0.07792897
0.005829763
-0.10000105
-0.0
-0.0
-0.0
-0.0
-0.0
0.0
-0.0
0.0
-0.0
-0.048790812
-0.08329399
-0.26882866
-0.41238412
-0.3347485
-0.09850954
0.068252735
0.08791093
0.26810643
-0.10634268
0.16734903
-0.22451974
-0.030782305
0.19936155
0.22224249
-0.038566373
0.10103971
0.06926205
-0.24073653
-0.08012344
0.2640038
0.13983451
-0.0274724
-0.22329962
-0.37426165
0.08286565
0.1884646
-0.0
-0.0
-0.0
0.0
0.0
0.0
0.0
0.0
0.0
0.03493963
0.11439216
-0.05294454
-0.010679685
-0.019708537
0.18099214
-0.10772677
-0.12262946
0.11927924
-0.0
-0.0
-0.0
0.0
-0.0
0.0
0.0
0.0
0.0
0.0
-0.0
-0.0
0.0
-0.0
-0.0
-0.0
-0.0
-0.0
-0.0
0.0
-0.0
0.0
0.0
-0.0
-0.0
0.0
0.0
0.107327804
-0.14939672
-0.15048587
0.038163036
-0.20372584
-0.0032215046
0.036443148
-0.072165996
-0.324317
-0.11733529
0.030337779
-0.18477805
0.16800676
-0.05654076
0.159507
-0.1841631
-0.2560398
-0.28378853
-0.04082422
-0.09546864
0.055748027
0.045295194
0.33487102
-0.09384395
-0.056099366
0.06980588
0.089003645
-0.0
-0.0
-0.0
0.0
0.0
-0.0
-0.0
0.0
0.0
0.113589674
0.20609877
-0.07612169
-0.104992785
-0.032937706
0.048411965
-0.110818826
0.15461096
0.1084634
-0.03059756
-0.1475116
-0.09214001
-0.09273624
-0.12584823
0.07587348
-0.07036489
-0.02109509
0.118872896
-0.035319846
0.058697198
-0.024110232
0.06348639
-0.14753318
-0.20364198
-0.036270797
0.044057112
0.18013823
0.0
-0.0
-0.0
0.0
-0.0
0.0
-0.0
0.0
0.0
0.0
0.0
0.0
-0.0
-0.0
0.0
0.0
0.0
-0.0
0.0
-0.0
-0.0
-0.0
0.0
-0.0
0.0
0.0
-0.0
-0.0
-0.0
0.0
-0.0
0.0
0.0
-0.0
0.0
-0.0
-0.0
0.0
0.0
-0.0
0.0
0.0
-0.0
0.0
0.0
0.0
-0.0
-0.0
-0.0
0.0
-0.0
-0.0
0.0
0.0
-0.0
0.0
0.0
0.0
0.0
-0.0
0.0
0.0
0.0
-0.0
0.0
-0.0
-0.0
0.0
-0.0
0.0
0.0
0.0
0.0
0.0
0.0
0.0
0.0
-0.0
0.0
0.0
0.0
-0.0
-0.0
-0.0
0.0
-0.0
-0.0
0.0
-0.0
-0.0
-0.0
-0.0
-0.0
0.0
-0.0
-0.0
-0.0
0.0
-0.0
0.0
0.0
0.0
0.0
0.0
-0.0
-0.0
0.0
0.0
0.0
0.0
-0.0
0.0
0.0
0.0
0.0
0.0
0.0
-0.0
-0.0
-0.0
0.0
-0.0
0.0
0.0
0.0
-0.0
-0.0
0.0
-0.0
0.0
0.0
0.0
0.0
-0.0
-0.0
-0.0
-0.0
0.0
0.0
0.0
-0.0
-0.0
-0.0
-0.0
-0.0
0.0
-0.0
0.0
0.0
0.0
0.0
0.0
0.0
-0.0
-0.0
0.0
0.0
-0.0
0.0
-0.0
-0.0
-0.0
-0.0
-0.0
-0.0
-0.0
-0.0
-0.0
-0.0
-0.0
-0.0
-0.0
0.0
0.0
-0.0
0.0
-0.0
-0.0
-0.0
-0.0
-0.0
-0.0
0.0
0.0
-0.0
0.0
0.0
0.0
-0.0
-0.0
0.0
-0.0
-0.0
-0.0
-0.0
0.0
-0.0
-0.0
-0.0
-0.0
0.0
0.0
-0.0
0.0
-0.0
-0.0
-0.0
0.0
-0.0
-0.0
0.0
0.0
0.0
-0.0
-0.0
0.0
0.0
0.0
0.0
0.0
-0.0
0.0
0.0
-0.0
-0.0
-0.0
-0.0
-0.0
-0.0
-0.0
-0.0
0.0
-0.0
0.0
-0.0
-0.0
-0.0
-0.0
-0.0
-0.0
-0.0
0.0
0.0
0.0
0.0
-0.0
-0.0
-0.0
-0.0
-0.0
-0.0
-0.0
-0.0
0.0
-0.0
0.0
-0.0
-0.0
-0.0
0.0
0.0
-0.0
-0.0
-0.0
0.0
-0.0
-0.0
-0.0
-0.0
0.0
0.0
-0.0
-0.0
0.0
-0.0
-0.0
0.0
-0.0
0.0
-0.0
-0.0
0.0
-0.0
-0.0
-0.0
0.0
-0.0
-0.0
0.0
0.0
-0.0
0.0
0.0
-0.0
0.0
-0.0
-0.0
-0.0
0.0
0.0
0.0
0.0
0.0
-0.0
0.0
0.0
-0.0
0.0
0.0
-0.0
0.0
0.0
-0.0
0.0
-0.0
-0.0
-0.0
-0.0
-0.0
0.0
0.0
0.0
-0.0
-0.0
0.0
0.0
0.0
0.0
0.0
0.0
0.0
-0.0
0.0
0.0
0.0
0.0
-0.0
0.0
0.0
-0.0
0.0
-0.0
0.0
0.0
0.0
0.0
0.0
0.0
0.0
0.0
0.0
0.0
0.0
0.0
0.0
-0.0
-0.0
0.0
0.0
-0.0
0.0
0.0
0.0
-0.0
0.0
0.0
0.0
-0.0
0.0
-0.0
-0.0
-0.0
-0.0
-0.0
-0.0
-0.0
-0.0
-0.0
-0.0
-0.0
0.0
-0.0
-0.0
0.0
-0.0
-0.0
-0.0
0.0
0.0
-0.0
-0.0
0.0
-0.0
-0.0
0.0
0.0
0.0
0.0
0.0
-0.0
0.0
0.0
0.0
-0.0
0.0
-0.0
-0.0
-0.0
0.0
-0.0
0.0
0.0
0.0
0.0
0.0
0.0
-0.0
0.0
0.0
-0.0
-0.0
-0.0
-0.0
0.0
0.0
-0.0
0.0
0.0
-0.0
-0.0
0.0
0.0
0.0
0.0
-0.0
0.0
0.0
0.0
-0.0
0.0
0.0
-0.10927764
0.09878236
0.18937449
0.28645125
-0.28378066
-0.020003034
0.13424227
-0.13801108
-0.064439766
0.042109158
-0.045413084
0.026069278
-0.18523876
-0.08270126
-0.11101708
-0.09238453
-0.1895164
-0.21759969
-0.07522005
-0.10596744
-0.07735981
-0.39461055
0.04911554
-0.082142614
-0.040730864
-0.04932754
0.038544767
0.0
-0.0
-0.0
-0.0
-0.0
-0.0
-0.0
-0.0
-0.0
-0.17284998
-0.1782049
-0.0237977
-0.1413268
-0.08350424
0.04612587
-0.037615545
-0.07172748
-0.051425926
0.0
-0.0
-0.0
-0.0
-0.0
-0.0
-0.0
-0.0
-0.0
0.0
-0.0
-0.0
-0.0
-0.0
-0.0
-0.0
-0.0
0.0
0.0
0.0
-0.0
-0.0
-0.0
-0.0
-0.0
0.0
-0.0
-0.09808401
-0.1111288
0.06567218
0.28715986
0.3973669
-0.006194368
0.23372336
0.06355297
-0.116261184
0.109355986
-0.20842597
0.09030145
-0.078403875
-0.014983828
0.06605863
-0.18745187
-0.11623645
0.12521216
-0.23384674
0.1997995
-0.23080057
0.24585435
0.34928215
0.325119
0.10786212
-0.10924291
-0.06778772
0.0
-0.0
-0.0
0.0
-0.0
-0.0
-0.0
-0.0
-0.0
0.049986083
0.01743279
-0.11812725
0.018969113
0.12553893
0.26267
0.07628549
-0.048463404
-0.005805184
0.07608202
0.11274032
-0.017488949
0.27720055
-0.06839169
-0.12343981
-0.1159043
-0.23113483
-0.14260258
-0.012194826
-0.1488708
0.056394715
-0.07649357
-0.08149828
-0.09348619
-0.08805267
-0.14536455
-0.08507725
0.0
-0.0
-0.0
0.0
0.0
0.0
-0.0
0.0
-0.0
0.035627764
-0.14836356
-0.117820695
0.08716725
-0.0153814005
0.04169014
0.14464688
0.062425263
0.026969125
0.10965343
-0.18064795
0.11750752
0.23652518
0.0140452115
0.016494548
0.00959918
-0.112961195
-0.09777289
-0.17784353
-0.07145803
0.3171569
0.05405173
-0.29320088
-0.001688186
0.024433333
-0.11926815
-0.051590707
-0.0
0.0
0.0
-0.0
-0.0
0.0
0.0
-0.0
0.0
0.065507576
-0.21719842
0.047409374
0.021848453
0.0024976104
0.088173665
-0.12450655
-0.021108862
-0.12360499
0.0
0.0
0.0
-0.0
-0.0
-0.0
-0.0
-0.0
0.0
-0.0
0.0
0.0
-0.0
-0.0
-0.0
-0.0
-0.0
-0.0
-0.0
0.0
0.0
-0.0
-0.0
-0.0
-0.0
-0.0
0.0
0.15765537
0.12645194
-0.07760919
0.019533494
-0.36481753
-0.1543685
0.12136337
0.006871899
-0.05705688
-0.30935264
0.15239193
0.18376754
-0.17902684
-0.2518691
-0.20032021
-0.0040217633
-0.22806682
-0.07869534
0.025710555
-0.056123886
0.14664803
0.4314736
-0.21506634
-0.1258518
0.21689017
-0.05849638
-0.116959244
-0.0
0.0
-0.0
-0.0
0.0
-0.0
-0.0
0.0
-0.0
-0.1988383
-0.22301877
-0.049418762
-0.082607314
0.04709231
0.04358661
-0.048713904
-0.112125136
-0.073188774
-0.019111259
-0.13579468
0.12193442
0.25047466
-0.0046469094
0.12330321
0.04781592
0.10859273
0.042704936
-0.052626614
0.05876563
-0.03805164
0.027683994
0.05657444
-0.04015789
-0.08184505
-0.06680636
0.0034270226
-0.0
0.0
0.0
-0.0
0.0
-0.0
0.0
0.0
-0.0
-0.0
0.0
-0.0
-0.0
0.0
0.0
0.0
0.0
0.0
-0.0
-0.0
-0.0
-0.0
0.0
-0.0
0.0
0.0
-0.0
0.0
-0.0
-0.0
-0.0
-0.0
0.0
0.0
-0.0
-0.0
0.0
0.0
-0.0
0.0
0.0
0.0
0.0
-0.0
0.0
-0.0
-0.0
0.0
0.0
0.0
-0.0
0.0
-0.0
-0.0
-0.0
0.0
0.0
-0.0
-0.0
0.0
0.0
0.0
0.0
-0.0
-0.0
0.0
-0.0
-0.0
-0.0
-0.0
0.0
0.0
0.0
0.0
0.0
0.0
0.0
0.0
0.0
0.0
-0.0
0.0
-0.0
-0.0
-0.0
-0.0
-0.0
-0.0
-0.0
0.0
0.0
0.0
-0.0
-0.0
0.0
-0.0
-0.0
-0.0
-0.0
0.0
-0.0
-0.0
-0.0
-0.0
-0.0
0.0
-0.0
0.0
0.0
0.0
-0.0
-0.0
0.0
-0.0
-0.0
0.0
-0.0
0.0
-0.0
-0.0
-0.0
0.0
-0.0
0.0
-0.0
-0.0
0.0
0.0
0.0
0.0
0.0
0.0
0.0
0.0
0.0
-0.0
0.0
0.0
0.0
-0.0
-0.0
-0.0
0.0
0.0
-0.0
-0.0
0.0
-0.0
0.0
0.0
-0.0
-0.0
0.0
0.11557203
-0.2798308
-0.01154068
-0.0039994563
-0.44347134
-0.22949249
0.007894442
0.10732343
-0.24235967
-0.009364371
-0.08618396
-0.01969537
-0.19241244
-0.028036643
0.19541669
-0.03216909
-0.032591548
-0.050235063
-0.18563724
-0.096715935
0.14601772
0.10429825
-0.35618588
0.3090238
0.3733404
-0.22125898
0.15310977
-0.0
-0.0
0.0
-0.0
-0.0
0.0
-0.0
-0.0
-0.0
-0.024244562
-0.26006815
0.08257272
-0.07995993
-0.18666837
0.05924089
-0.02098498
-0.1804439
-0.07879948
-0.0
-0.0
0.0
0.0
-0.0
0.0
0.0
-0.0
0.0
-0.0
-0.0
-0.0
0.0
-0.0
0.0
-0.0
-0.0
-0.0
-0.0
0.0
0.0
0.0
-0.0
0.0
0.0
-0.0
-0.0
-0.151613
0.03613132
-0.14879668
0.16722961
0.049144678
-0.09202186
-0.023860399
0.09087545
-0.008921095
-0.10439566
0.010738652
-0.14215657
-0.06801106
-0.13268179
0.17554645
0.08639111
-0.30371365
-0.27132893
-0.02967424
-0.024153735
0.09625853
0.034569178
-0.19608347
0.31231317
-0.013328752
0.010415108
-0.14132787
-0.0
0.0
-0.0
-0.0
0.0
0.0
-0.0
-0.0
-0.0
-0.20550466
0.078608476
-0.11247716
-0.11229253
0.085510805
0.008441513
-0.11247026
-0.06325171
-0.014600514
0.08965052
-0.08899457
-0.039831348
-0.019278362
-0.13555469
-0.12616314
-0.015909916
-0.12977421
0.01253713
-0.1008804
0.059932545
-0.16608946
-0.08055072
0.0034911898
0.1379903
-0.14689536
-0.08176682
-0.057028018
0.0
-0.0
0.0
-0.0
-0.0
0.0
0.0
-0.0
0.0
0.0
-0.0
0.0
0.0
0.0
0.0
-0.0
0.0
0.0
-0.0
0.0
-0.0
-0.0
0.0
-0.0
0.0
-0.0
0.0
-0.0
-0.0
0.0
-0.0
0.0
-0.0
-0.0
-0.0
0.0
0.0
0.0
0.0
-0.0
-0.0
0.0
0.0
-0.0
0.0
0.0
-0.0
-0.0
0.0
-0.0
-0.0
0.0
-0.0
-0.0
-0.0
-0.0
0.0
0.0
-0.0
-0.0
0.0
0.0
0.0
-0.0
0.0
-0.0
-0.0
-0.0
-0.0
0.0
0.0
-0.0
-0.0
-0.0
0.0
-0.0
0.0
-0.0
0.0
0.0
0.0
-0.0
0.0
-0.0
0.0
0.0
-0.0
0.0
-0.0
0.0
0.0
-0.0
-0.0
0.0
-0.0
-0.0
-0.0
-0.0
-0.0
-0.0
0.0
-0.0
-0.0
0.0
-0.0
-0.0
0.0
-0.0
-0.0
-0.0
0.0
-0.0
-0.0
0.0
-0.0
-0.0
0.0
-0.0
-0.0
0.0
0.0
0.0
-0.0
0.0
-0.0
0.0
0.0
-0.0
0.0
0.0
0.0
0.0
0.0
0.0
0.0
-0.0
0.0
0.0
-0.0
-0.0
0.0
-0.0
-0.0
0.0
0.0
0.0
0.0
-0.0
0.0
-0.0
0.0
0.0
0.0
0.0
-0.0
-0.0
-0.0
-0.0
0.0
-0.0
-0.0
-0.0
-0.0
-0.0
0.0
-0.0
-0.0
-0.0
-0.0
-0.0
-0.0
-0.0
-0.0
-0.0
-0.0
0.0
0.0
0.0
-0.0
-0.0
-0.0
-0.0
0.0
-0.0
-0.0
0.0
-0.0
-0.0
-0.0
-0.0
-0.0
-0.0
-0.0
0.0
-0.0
-0.0
-0.0
-0.0
0.0
0.0
-0.0
-0.0
0.0
0.0
-0.0
0.0
-0.0
-0.0
-0.0
-0.0
-0.0
-0.0
-0.0
0.0
-0.0
0.0
-0.0
0.0
-0.0
0.0
0.0
-0.0
-0.0
0.0
0.0
-0.0
-0.0
-0.0
-0.0
-0.0
-0.0
-0.0
-0.0
0.0
-0.0
-0.0
0.0
0.0
-0.0
-0.0
0.0
0.0
0.0
0.0
-0.0
-0.0
-0.0
-0.0
-0.0
-0.0
-0.0
0.0
0.0
-0.0
-0.0
-0.0
-0.0
-0.0
0.0
0.0
-0.0
0.0
0.0
-0.0
-0.0
0.0
0.0
0.0
0.0
0.0
0.0
0.0
0.0
-0.0
-0.0
0.0
0.0
0.0
-0.0
-0.0
-0.0
-0.0
-0.0
-0.0
0.0
0.0
-0.0
-0.0
0.0
-0.0
-0.0
0.0
-0.0
-0.0
0.0
0.0
0.0
-0.051880296
-0.095385976
-0.13284145
0.011841392
-0.24363308
-0.31129855
0.04609758
0.2330707
0.06717251
0.32965595
0.20275258
-0.27871418
0.16788575
-0.04633695
-0.25246933
-0.10643378
-0.031163538
0.25171348
-0.020797208
0.014816895
-0.075592674
-0.15489303
-0.17071563
-0.2585551
0.101685785
0.29855022
-0.10042407
0.0
0.0
0.0
0.0
0.0
-0.0
0.0
0.0
-0.0
0.17598984
-0.10782683
-0.39231384
0.07529361
0.0039368304
-0.15378301
-0.10205784
0.085423596
-0.1336676
0.0
0.0
0.0
-0.0
-0.0
-0.0
-0.0
0.0
-0.0
0.0
-0.0
-0.0
-0.0
-0.0
-0.0
-0.0
-0.0
-0.0
0.0
0.0
0.0
-0.0
0.0
-0.0
0.0
-0.0
-0.0
0.010192414
0.04088828
-0.08436066
-0.13504961
-0.36503592
-0.04317474
0.11205088
-0.2013757
0.08160268
-0.13223395
-0.25934806
0.21854356
-0.23960166
-0.47753486
-0.056361612
-0.30559063
-0.27356607
-0.063685425
-0.22095372
-0.21267925
-0.28043675
-0.24691105
-0.1685871
0.17554976
0.44599986
0.1411273
0.14149877
-0.0
-0.0
-0.0
0.0
0.0
0.0
-0.0
-0.0
-0.0
0.00020551877
-0.039279073
-0.03266934
-0.08200939
-0.27225307
0.05918015
0.1280329
0.08774114
-0.08231301
-0.05560759
-0.10133077
0.034769688
-0.024151826
-0.05400801
-0.13328831
-0.12942094
-0.18547162
-0.13813253
-0.041060757
-0.22947036
-0.05934783
-0.043087345
0.08654271
0.07629352
-0.21557559
-0.13612486
-0.06135222
0.0
-0.0
0.0
-0.0
-0.0
0.0
-0.0
-0.0
-0.0
