-0.002462279,0.009984259,0.030049523,-0.033232626,-0.028434824,-0.029105559,-0.062910296,-0.019033622,0.010385439,0.004815261,-0.005365575,-0.025799407,-0.033595506,0.041137606,0.006591023,-0.013103669,0.023700172,-0.016073495,0.031635456,-0.009978088,0.007489767,0.02319238,-0.012941266,0.010719328,-0.040024675,0.010125908,-0.00840611,0.019712927,-0.032028046,0.026541658,-0.004054316,0.0141321635,0.030031502,0.030900475,0.03566036,0.010373624,-0.003995382,-0.026290799,0.040040717,0.033187192,-0.0026764849,0.0072938646,-0.02220917,0.030125007,-0.020920245,0.015274913,0.0070444536,-0.034480765,0.011108391,0.011347858,0.033971373,-0.0033197375,0.0050450964,0.026540428,-0.033873484,0.029661443,-0.041757707,-0.013392371,0.023713328,0.020708127,-0.013387159,0.007504902,0.0017534832,-0.04919045,-0.040057525,0.013775174,0.00021579773,-0.013069166,-0.01688026,0.020268189,0.009816091,-0.002756236,0.016225943,-0.004020901,-0.02459795,0.048588496,-0.008845083,-0.048108544,0.025104944,-5.6801136e-06,-0.002631204,0.012269869,-0.028158147,-0.016041601,0.0052791582,-0.049452245,-0.02935103,0.026426692,-0.005179425,-0.031201191,0.04553776,0.008935296,0.0027957847,0.06408421,0.013219743,-0.043199707,0.044286486,0.0037860447,0.028847652,-0.028639665,0.0102966335,0.013694015,-0.0009018975,-0.03417234,0.020663202,0.02155785,-0.008076855,-0.003494139,0.04096659,-0.028294262,0.007003894,0.03207863,0.036786232,0.009187729,0.009488635,0.00079035165,-0.03966992,0.00101268,-0.008272859,0.04020214,-0.0124206105,0.014707792,-0.0182632,0.006993998,0.005325764,0.010942662,-0.035517927,0.014121749,0.006868022,0.06321053,0.018109435,-0.019945191,0.0005089075,0.035925664,-0.0054544494,-0.007835329,-0.034087483,0.013115401,0.060414325,0.04634263,0.03763121,0.021329377,0.010367624,-0.0076202024,-0.014133537,-0.0053966865,0.0052014086,-0.020658376,-0.016320314,0.022895902,-0.01148755,-0.030098543,0.013308968,0.021026038,0.0039826147,0.017225528,0.038080424,0.0088988235,-0.026624952,-0.03190117,0.046914212,-0.010318823,-0.023883881,-0.006677562,0.04275735,0.030236667,0.004047011,-0.0027390923,-0.056143247,0.009401735,-0.03697221,-0.008815463,-0.003307108,-0.020835137,-0.004157329,-0.004146105,-0.012046757,-0.0137520535,-0.008992202,0.045161072,0.014782487,-0.007920118,-0.054509874,-0.002092662,-0.010292444,0.049479768,-0.012675949,0.0033362105,0.020747382,-0.017893223,0.015288775,0.01257101,-0.019262446,0.001616806,0.012629163,-0.0015613186,0.013566993,0.0049025035,-0.008888798,0.004213843,0.048120383,-0.009093614,0.01686969,-0.0193354,0.012425581,0.048306488,0.0028641466,-0.018841676,-0.024721188,0.018565333,-0.028785821,-0.03337717,-0.040698647,0.015936878,-0.022442805,0.045847148,-0.055092216,-0.011840852,-0.009048954,-0.031082496,0.0021961313,0.04478426,0.0027498545,-0.028869491,0.0153879225,0.008592403,0.016157692,-0.007318573,-0.009154984,-0.007101693,0.03895227,0.016989984,-0.03680627,0.014809252,-0.015942754,0.043850575,0.010748778,0.0018691574,0.026187958,0.014949974,0.025881834,-0.001348162,-0.022277765,-0.00026635226,0.0020456654,-0.0074406792,-0.0404498,-0.00092763174,0.026409395,-0.011028869,-0.0041857716,0.005091543,0.03271407,-0.0056596417,-0.0047971075,-0.005537295,0.019509012,0.04155002,-0.0147024505,0.021270089,0.006991176,0.010674926,0.049995255,-0.003731221,0.02272491,0.0367913,0.035686653,0.002165843,-0.018157177,-0.005277941,-0.00074291514,0.008916261,-0.008170085,-0.003029297,-0.011393467,-0.010826286,0.03687935,0.005084823,0.024554005,0.010775429,-0.0039025461,-0.016217925,-0.053316288,-0.015162381,-0.01597553,0.06509563,0.032837104,0.033220172,0.02592163,0.028964233,0.020644661,0.012315349,0.019887438,-0.014755562,-0.033877887,0.00015968892,0.03376954,0.0012373406,0.0047127893,-0.006137368,-0.024665253,-0.009046691,0.03489737,-0.0023818875,0.02329194,-0.009336053,0.034628727,0.032773096,-0.014811553,0.0294228,0.0058119884,0.013388183,8.128548e-05,0.02541054,0.045620453,-0.013157815,0.049451176,0.040202178,0.024638077,-0.0147657255,-0.028832376,-0.02131521,0.015460067,0.034739405,-0.00018981843,0.044872228,-0.009759281,0.00065760093,-0.009204696,-0.018503306,-0.024598619,-0.0076073147,-0.021911645,0.014734504,0.0016753415,-0.004310856,0.015584923,0.02447236,0.009915446,0.0033788132,0.00032019042,0.01313524,0.04085717,-0.0047008586,-0.002246755,0.003272108,0.023191465,-0.0062765526,0.035529666,-0.020191459,-0.03635343,-0.03774079,0.005922928,-0.011926024,-0.00427933,-0.037042733,-0.033040155,0.03826165,0.02226318,-0.04489551,0.00936169,-0.00504311,0.009643869,0.01686201,-0.001249427,-0.050263155,-0.022269515,0.008423796,-0.033505164,0.0035686481,0.03607879,0.023772795,0.034779176,0.009440098,-0.0015634759,0.0002033842,0.035742193,-0.03569792,0.005272679,0.0063826973,-0.0077828956,0.013038851,-0.020176671,0.0268169,0.008461997,-0.07009005,-0.024543615,-0.017372407,-0.0059814197,-0.0004524445,0.012180502,-0.019946195,0.0067906613,0.010705083,0.011165811,-0.009834367,0.017492356,0.025137844,-0.035759047,-0.03596704,0.0008978709,-0.0038050215,-0.008369506,-0.004080924,0.02462698,0.011735185,-0.0017973814,0.009929083,0.014077428,-0.004223728,-0.02807839,-0.01654721,-0.009188234,-0.0069521214,-0.020467162,-0.033737153,-0.0029242057,-0.017134447,-0.024742275,0.021253541,-0.011983744,0.012819422,-0.015653279,-0.032116022,-0.008546797,0.012221472,0.02386107,0.01401688,-0.010046832,0.038207155,0.03396968,-0.023497006,0.015194326,-0.028115299,-0.019905806,-0.008354981,-0.009875168,0.010403622,0.013550285,0.009817151,-0.027578844,0.020271854,-0.024574872,-0.047087733,0.021192778,0.04261958,-0.016292462,0.023511043,-0.023287378,0.015041367,-0.032937657,0.0270789,-0.020405259,0.016772399,0.02662281,0.016277855,0.019623928,0.004645852,-0.023628779,-0.009110292,0.0022190579,0.032120857,-0.043887712,-0.027847018,-0.04337798,0.017131463,-0.007506731,0.034250353,0.039312858,-0.016648272,0.031538296,0.02859605,-0.0020393475,-0.01079975,0.020785067,-0.023487724,0.009648609,-0.036209248,0.0040298733,0.03282597,-0.026069574,0.019779034,0.00016015784,-0.008741671,-0.006427716,0.024569044,0.020957341,0.028691115,0.011730161,0.0030232258,-0.043529473,0.019794691,-0.013953691,-0.003952359,-0.03167356,0.009314514,-0.028543098,0.015175238,-0.0032828127,-0.013765975,0.0192207,0.038054023,0.047347814,-0.03194856,-0.012622769,-0.0017197654,-0.005870968,-0.0041359738,-0.05900572,-0.04191995,-0.013696383,-0.036501296,-0.026489407,-0.014562947,0.009558893,-0.020206347,0.056430724,-0.005069216,0.005364215,0.012096576,0.004235813,0.019904712,0.03509893,-0.041750416,-0.0046524433,-0.013088915,-0.00022780636,-0.04882475,0.024684472,-0.010198937,-0.016358556,-0.012267905,-0.0001705581,-0.008296102,-0.013827281,-0.018069766,-0.018478164,0.04857194,-0.03258784,-0.009726262,0.008165012,0.016746756,0.0024081531,-0.0180122,-0.008990208,-0.058019225,0.0010578715,0.03698555,0.024216102,0.00129607,-0.00852694,-0.014717684,0.0028830953,-0.0023281681,-0.031316623,0.010028635,-0.019978954,0.058257084,-0.014718362,0.01384892,0.026107308,-0.004783698,-0.032913107,-0.00082673924,-0.04068648,0.0011353797,-0.005687987,-0.08679475,-0.033127457,0.0038500507,-0.00053283013,-0.05236073,-0.021829983,0.009065455,-0.028080886,0.017707987,-0.0368692,-0.0097191585,0.04279101,0.026057689,-0.008484158,0.018429322,0.025017485,-0.03183593,0.03547302,0.01431489,-0.027274378,0.0019130999,-0.03805882,-0.0245422,0.0053040544,-0.0054255347,-0.0054390565,-0.030980844,0.016856315,-0.03709637,-0.0156679,-0.015133343,0.021394365,-0.0003056172,0.03252985,-0.02178354,0.0024503884,-0.003829826,0.041635256,-0.027467882,-0.016561959,0.016289545,-0.038441546,-0.007946492,0.0075027323,0.0035379978,-0.042138003,-0.024036158,-0.023633393,-0.035724275,0.009452383,-0.015199361,0.006874435,0.001179173,-0.0018610865,0.027329493,0.020271335,-0.018474787,0.047354646,-0.013446705,-0.017142674,-0.007823227,0.01402689,-0.028149446,0.017538434,-0.037966784,0.0046085776,-0.053065464,-0.023744201,0.001546976,-0.013466739,0.0174263,-0.0023811136,-0.06375221,-0.013572826,-0.033679735,-0.0074282084,-0.019083273,0.020390108,0.02279168,0.028473526,-0.019683683,-0.018988794,0.023478495,-0.01163059,0.008092162,0.015862335,0.045935433,0.00028809477,-0.008786636,0.018266866,0.018456304,0.005359743,0.024218692,-0.014414357,6.3639345e-05,0.005815221,0.006363392,0.011719847,0.028954362,-0.015150082,-0.0107456725,-0.008533751,-0.027644124,0.00052297174,-0.018119879,0.012011025,0.027019901,-0.012423558,0.007732482,0.008005208,-0.012538587,0.035679292,-0.010948051,0.0062085274,0.018024797,0.0196345,0.0077185216,-0.029342534,0.002619241,0.041394155,-0.00670981,-0.008918476,-0.021184368,0.03995598,-0.0075836238,-0.028603403,-0.005787364,0.00627,-0.008671482,-0.018755108,0.044227418,0.0016808022,-0.013657725,0.0025275638,-0.00034492326,-0.0077368845,0.0029773144,0.027662877,0.046859432,0.009177805,-0.0042969105,-0.045454707,0.010476927,0.027242765,0.037413538,-0.01230259,-0.059687324,0.018755222,-0.008447614,-0.0282922,0.007850762,0.0069020703,-0.0030138558,-0.02909282,0.04414405,0.011868751,-0.0053852736,0.022087725,0.0215541,0.03163279,-0.015253589,-0.0039925026,0.01748983,0.0027268343,0.0068107736,-0.0005648712,-0.026935272,0.023923315,0.03787799,0.0049735466,0.010082451,-0.02990896,-0.023109382,0.0018752686,0.01334222,-0.008802772,0.0035238531,0.040416203,0.010514084,-0.022817269,-0.010107699,-0.021336852,-0.023263015,-0.0067818244,0.016046816,-0.013881359,0.021688478,0.0018845539,0.02996117,0.03727272,-0.03684767,-0.010170178,-0.000673607,0.058091737,-0.01696297,0.022128293,0.032421384,-0.00032750148,0.009897998,0.0036936586,-0.0161505,-0.008820403,-0.0010674485,0.04198478,-0.009753755,-0.0021127148,-0.028989974,-0.027301956,-0.031626508,-0.026233857,0.0036383353,0.04953953,-0.003017569,0.020068955,0.0035668572,0.005594044,0.019984344
