-0.087973826,0.015636306,0.103764296,0.010810075,-0.021965722,0.0851747,-0.052287463,0.036858466,-0.053658538,-0.07103915,0.1124302,0.0151766585,-0.06908985,0.06898149,-0.062225085,-0.05661155,-0.06831366,-0.10229382,-0.15073761,-0.10416635,0.032805122,-0.0043580933,0.011642572,-0.010178272,-0.008246129,0.013682044,-0.1052457,0.13028154,-0.020614283,-0.06060751,-0.008468098,-0.031741433,0.0708446,-0.026733352,-0.086177945,-0.071656056,-0.042341605,-0.033685736,-0.0050594555,0.009430941,-0.065548085,-0.024682617,0.024645075,-0.031079018,-0.08648696,-0.07719677,0.0044200774,-0.011094854,-0.021330532,0.036679804,0.1296823,0.038407948,0.05888618,-0.07223022,-0.12420605,0.081007585,-0.15423118,-0.076092415,0.09421079,0.037757143,0.12971704,0.04301986,-0.09964582,-0.14308959,-0.13220385,-0.01691653,0.018480651,0.056534328,-0.055487845,-0.001437476,-0.047106303,-0.03126091,-0.058324315,0.028268304,-0.09812999,0.040125273,-0.0838474,-0.033192303,-0.032164045,0.034595244,-0.09449209,-0.05315879,0.0069887233,0.050437685,-0.028623061,0.0012952795,-0.08094643,-0.08904644,0.042974703,-0.084127635,-0.015176015,-0.05241073,0.07167015,0.03272612,0.0351912,-0.0068799113,0.027964909,-0.030447926,-0.01169955,0.0062484317,-0.0085574975,-0.05491332,-0.023325782,0.026690332,-0.006396274,0.0332565,0.044662174,0.039928995,0.013863768,-0.11418977,0.0934728,0.13319637,0.021742616,-0.0831304,0.046412952,-0.045717493,0.038282644,-0.002820191,0.027656935,0.08627302,0.094738156,-0.046603363,0.0371083,0.049795248,-0.010832382,-0.06976679,-0.03633945,-0.0071075098,0.055566292,0.04582004,0.08335953,-0.0046505877,-0.073363855,-0.011635164,0.054730076,-0.015923226,0.04912911,-0.061337687,-0.0076259393,0.01715899,0.033060424,-0.020578008,-0.020670708,-0.09015918,0.108526,0.10119164,0.027936572,-0.029975843,-0.032218274,-0.08704359,0.038244735,-0.009652936,0.033019416,-0.053733215,0.022420952,0.018402738,-0.09714014,-0.055912755,-0.010722945,-0.111079745,0.066457175,0.17074138,0.061702345,-0.020349186,0.04859524,0.0025395441,-0.009291529,-0.09129663,-0.0037589518,-0.0008833715,-0.122702405,-0.045433585,0.0478487,-0.014161548,0.0924065,-0.05435463,-0.07184529,-0.06125005,0.0068160007,0.079562016,-0.024877762,-0.061876904,-0.010977618,-0.078767024,-0.04218938,-0.0067208842,-0.016537748,-0.08401435,-0.03921067,0.091123275,-0.033087403,0.035026375,-0.036796857,0.13750207,0.15834333,-0.04176375,0.031868227,-0.034721356,-0.061863787,-0.017187396,0.0916476,0.0101628015,0.08973467,-0.06750102,-0.06796225,0.077250615,-0.059496094,-0.009737304,-0.009842724,-0.0549707,-0.06050485,-0.04840415,-0.008559213,0.049051076,0.08566757,-0.009725307,-0.0493579,0.053055905,0.046207413,0.029690165,0.05316702,-0.005780002,-0.036483683,0.062502526,-0.121005125,-0.027854517,-0.025414554,-0.044144124,-0.08065517,0.040636744,0.109232664,0.01943438,-0.024168016,-0.03594844,0.14350986,-0.007963428,-0.12863201,-0.035031162,0.09350237,-0.048666965,0.047752466,0.0052654287,0.010371171,-0.11066352,-0.012579828,0.014901652,-0.0015685825,-0.044935457,0.04052001,-0.07626163,0.018210243,0.00040222233,-0.030209223,0.08894848,0.013191926,-0.017296037,0.043016125,0.038025264,-0.00064387167,0.025270864,-0.13106248,0.015891314,0.06289525,0.00819158,-0.07051223,0.03370795,-0.0078251995,-0.031498715,-0.1626353,-0.14699388,0.10190215,-0.020042088,0.062403716,-0.034161568,-0.03595731,-0.03353945,0.023339633,-0.059889425,-0.011885667,-0.023564167,-0.091269456,-0.018260052,-0.084514365,-0.066426374,0.12802346,0.026101805,-0.069703124,0.010129567,-0.10035339,0.116356984,0.12172952,0.041776244,0.048080184,-0.030299515,-0.095598884,-0.032121204,0.050897002,0.12060086,-0.030987896,0.007875265,-0.09315141,-0.08456166,0.06752464,0.012657455,0.0031717615,0.0020103988,-0.019005803,0.019259315,-0.029681977,0.09995549,-0.04761605,-0.028955178,-0.01706455,0.087773986,-0.06370646,-0.052826,-0.035937037,0.004153253,0.0062924093,0.056514766,-0.11061773,-0.054357864,0.04496274,0.032019295,0.00790186,0.093542226,-0.1097806,-0.06811918,0.06708891,-0.08618997,-0.080382735,-0.10248805,-0.028257726,-0.14973453,-0.023797354,0.06381348,-0.01263923,0.066552565,0.057281695,-0.016270902,0.050518192,-0.18410656,-0.05679526,0.047055587,0.053085294,-0.0007480468,0.060599502,-0.06589346,-0.08758144,-0.0092961,-0.014280078,0.019469803,-0.0026219497,0.045816362,-0.05417797,-0.051776733,-0.0064423056,0.06323879,-0.055263344,0.02570809,0.040241968,0.12167746,-0.020745363,-0.106729284,0.010803084,-0.036150735,-0.06534208,-0.0333154,-0.016014714,-0.0024992889,-0.045919783,0.11781893,-0.0882763,0.04489659,-0.02024809,-0.04865457,0.09849585,0.020036092,-0.07090484,0.014041923,-0.13580024,0.0629221,0.0024927955,-0.09392905,-0.037421424,0.00029212862,-0.07381348,-0.008939346,-0.11033887,0.05338134,0.039912555,-0.110038154,0.08427357,0.0073445523,-0.041316982,-0.002447859,0.034044653,-0.044186987,-0.014242656,0.06185253,-0.017605292,0.011421976,0.03136441,-0.10890334,0.15216039,0.0682968,0.040085405,0.02605529,0.051620726,-0.016491134,-0.020350767,-0.035274696,0.16544902,0.10554339,0.0161266,-0.04603922,0.03776333,-0.020745486,-0.07714029,0.029218245,-0.08480799,0.0040657343,0.0016267645,0.055787936,-0.08739599,0.015512119,0.10507611,0.086960346,-0.08550132,0.026911858,-0.052239157,-0.004564988,-0.03820439,0.09887507,0.06312725,-0.053356115,-0.03902637,-0.052737117,0.079451695,-0.018606441,0.13035075,-0.03830446,-0.07444692,-0.030673968,-0.14815246,0.06884205,-0.09611299,-0.011596841,-0.10237757,-0.0010604919,0.13192979,-0.030775493,0.016987052,-0.015794268,0.015081696,-0.039607514,-0.05746963,-0.007447842,0.09585468,0.021254068,0.008774957,-0.036347825,-0.028079024,-0.12635493,-0.03293792,0.06165359,0.06664131,0.120861605,0.05702972,-0.0262981,0.06451881,-0.083775565,0.005182601,0.14377174,-0.03127251,-0.13230571,-0.02981514,-0.07320097,0.009257349,0.05511983,-0.06536525,0.078689575,0.022813894,-0.1749922,0.020500626,0.072578706,0.038259946,0.07129025,0.0012550304,0.07159459,-0.090684585,-0.031909052,0.05864075,0.022665396,0.09976469,0.033896767,0.021052118,0.0297199,0.029799055,0.049975302,-0.0031058604,0.12479069,-0.0656746,-0.059315134,0.13118167,0.1391161,0.0063545527,0.10817708,-0.14853692,0.033185,0.08357297,-0.06115312,-0.006740683,0.009387443,-0.022052003,-0.16314404,0.06802657,-0.08062763,0.019636175,0.00020711024,0.057146445,0.02388231,0.059733726,-0.09412199,-0.04989994,0.019838013,-0.023896188,-0.09544917,0.046246264,-0.06163544,0.009640755,-0.110277586,-0.0023225758,0.046081904,0.08072149,0.012475646,-0.043529347,0.07299911,-0.037786126,-0.06182123,-0.059412263,0.022453224,0.048164386,-0.06566046,0.024680588,-0.020072646,-0.063265316,0.039085325,0.04240973,-0.086266965,-0.018938407,-0.16171314,-0.07415747,0.032076266,-0.03953269,-0.026661271,-0.07651868,0.024389409,-0.0052967835,0.037747465,0.0115324715,0.096015096,0.011151612,0.008199235,-0.038993713,0.02662699,0.041245554,-0.0259855,0.043259896,-0.041486867,0.038269572,-0.025635831,-0.15613973,0.01346108,-0.06894621,-0.023250852,0.037257086,-0.054064084,0.06307697,0.16273898,-0.15309304,-0.033109043,0.008086249,-0.034270976,-0.014962968,0.102879,-0.055501435,-0.0001503311,-0.026879797,0.06652596,0.05650734,-0.0044509233,-0.025119927,-0.07891089,-0.038458314,-0.0432814,-0.017701853,0.028900541,0.056993052,-0.00096387276,0.08907057,-0.06326183,-0.09949222,-0.059883673,0.018864742,-0.0022736737,0.035573144,-0.105382934,-0.084076166,-0.10607163,-0.15053092,-0.065662414,0.1014416,-0.04660005,0.110834695,-0.008765553,-0.080392666,-0.034201212,0.07271587,-0.009640542,-0.05229858,0.12050709,-0.01104001,-0.08793609,0.07217484,0.030173128,-0.0010420486,0.004392865,0.026060216,-0.057804544,0.117994405,-0.118591845,0.020648371,-0.051106375,-0.05750884,-0.16051902,-0.041195814,-0.06423882,-0.055384576,-0.052957915,-0.003962541,-0.02680921,0.024774466,-0.043148022,-0.015876632,-0.0394607,0.11396908,0.09623698,0.0142462235,0.035132516,0.0035887854,0.11139447,0.1513351,0.07081714,-0.06200841,0.027967166,-0.09856975,0.112996176,0.025978886,-0.017363,-0.088904865,-0.014106848,0.009313672,0.062291503,0.10570795,0.031634204,-0.010249226,0.04774415,-0.066580914,0.05015051,0.10065114,0.04577022,0.09585487,-0.060985867,0.02648721,0.022727812,0.06225445,-0.009334193,0.050591957,-0.008880816,0.07787751,-0.027604245,0.056002535,0.03355082,-0.090891324,-0.03460731,-0.02654108,0.109181084,-0.04208052,0.020189887,-0.030372921,0.0066408175,-0.023308352,0.081172094,0.104885116,-0.051895462,-0.009935708,0.13095468,-0.07649276,-0.077147864,0.052956454,-0.088226326,0.0032528313,0.11911759,-0.1196315,0.025235737,0.10130194,-0.011968844,0.05111306,-0.048376467,0.07851995,-0.013517247,0.10575448,0.04371455,0.057147928,0.0337266,0.047841545,-0.019967524,-0.0924918,-0.01927841,0.09673573,-0.016598312,0.0505731,-0.00012766726,0.09947906,0.008473743,0.005686893,-0.0038898443,0.015468971,-0.08977764,-0.054221477,-0.02642105,-0.006208612,0.02075792,-0.06385737,0.05030287,0.03262525,-0.0608883,-0.011452765,0.06934815,-0.06911411,-0.00068287196,0.02176625,0.042486582,-0.014052912,-0.004635897,-0.04602412,-0.02775974,-0.018126994,-0.03518543,-0.05686146,0.07990226,-0.05491158,-0.059065044,-0.00047144314,0.051171448,-0.018367985,-0.13992189,-0.10603772,0.11629331,0.013055404,-0.0154911205,-0.047289137,0.06000489,-0.13659279,0.026900442,0.042910766,0.004559787,-0.05189864,0.027749082,-0.048299488,0.046177864,0.012250248,0.07168628,-0.0046366025,-0.10083746,0.046374734,0.013977358,-0.10962201,-0.008085171,0.06636306,-0.037269916,-0.10564216,0.0810858,0.068943866,-0.017910898,0.02679816,0.065643325,-0.020742767,-0.03348046,0.08261562,-0.11799041,-0.087432295,0.12083184,-0.14171964,-0.13468583,0.105598815,0.024741113,-0.05637841,-0.024508448,0.029409548,-0.0041848263,0.04636027,0.119945735,0.04254569,-0.026114667,0.018578338,0.08497056,0.0109256655,0.011805523,0.008899919,0.003916555,0.026871644,-0.034363315,-0.12583226,0.093068615,-0.025518559,-0.16192554,-0.018180141,0.031649183,-0.12517811,-0.017480917,-0.0047944197,0.042432643,0.10153048,0.021211747,0.20085306,0.0380082,0.17220896,-0.09216144,-0.105135866,-0.08306066,0.011226408,-0.0036696878,-0.21267547,0.10666629,-0.052214704,-0.027153524,0.09794803,-0.18863332,0.15540607,-0.068919934,-0.064600445,-0.11877827,0.0055029374,0.017954981,0.21454702,0.056814853,0.21427305,0.12324665,-0.05291659,0.060696583,-0.07726484,0.12853299,0.025017684,-0.08255997,-0.05104453,0.005779356,-0.025005652,-0.009112631,-0.06885125,-0.07100867,-0.02245918,0.15603809,-0.06839432,-0.0051943096,-0.01279033,0.09800038,0.1613616,0.012865341,-0.0058936947,-0.114939295,-0.045161944,0.15078324,-0.05419169,0.063429415,0.030869694,-0.03372718,0.07078275,0.045761984,-0.124231756,0.032102924,-0.09569974,-0.0019892808,-0.04315814,0.1368056,-0.11158757,-0.11986076,-0.025880307,0.03864967,0.0765282,0.06845815,-0.04531132,0.06769109,-0.17319033,-0.06370175,0.111967005,0.12211465,0.09412062,0.15096879,0.0029144948,-0.12881382,-0.107771605,-0.20839499,0.06693468,0.15721665,0.084574826,0.011705068,0.11708642,-0.026373537,0.10418873,0.040188182,-0.09550692,-0.05867961,0.14623493,0.009547766,0.05075252,0.0043174834,0.10176144,0.051249865,-0.19274665,-0.112383544,-0.168503,0.09881137,-0.1725828,0.046549596,0.03265354,-0.07933645,-0.099550016,-0.2185664,-0.0028242609,0.13273697,0.014757244,-0.10685856,0.07907434,0.062235747,-0.061959606,-0.014778545,-0.055807315,0.060734607,0.008462544,-0.048738703,0.022237297,-0.015955888,0.042435687,-0.09617094,-0.06696071,0.007566926,-0.0042187623,-0.04898213,0.08872486,0.09534875,0.05041769,0.0715575,-0.0087727,0.11613509,-0.07658174,0.22857161,-0.024027765,0.22896793,-0.029275157,-0.10548831,0.033595894,-0.060894754,0.025169438,0.15638044,0.121831864,0.13345252,-0.1161075,-0.006024771,0.04097957,-0.036384307,-0.036339924,-0.03892459,-0.052435704,0.12514228,-0.11896563,0.025745412,0.095430665,-0.03151027,0.14142972,0.14876866,0.09322554,-0.04460901,0.091141514,0.08828291,-0.042419333,0.14618178,-0.12285322,-0.086293235,0.07063965,0.0017808405,-0.11597123,-0.052518193,0.08481995,0.15271579,-0.04044738,-0.008145093,0.00037085023,-0.017349057,0.14235699,0.079232305,-0.016915975,-0.020861661,-0.014793795,-0.08444588,-0.0018473322,0.003737462,-0.029781194,-0.034849603,0.0066673327,0.091659114,-0.05662823,-0.039805,-0.064094596,-0.045134734,0.054310057,0.0571639,0.024076995,-0.05499093,-0.058312397,-0.03718437,-0.075927876,0.00023007336,0.03255929,-0.08626379,0.031671133,-0.035004728,-0.0062134503,0.048626654,0.06432679,-0.024951627,0.03876936,-0.04793772,0.018951578,-0.017057853,-0.106716506,-0.021212643,-0.107671104,-0.028550934,0.10027424,-0.059725415,-0.046807997,-0.01359031,0.01776166,-0.09214624,-0.10532238,0.00046200218,-0.020965654,-0.18298487,-0.06634972,0.009183374,-0.02421833,-0.0036346628,-0.028672528,-0.03293781,0.07511171,-0.114884764,-0.0713779,-0.03543433,-0.03910007,0.09504793,-0.046118103,-0.12678477,-0.026150912,0.07668968,0.08107967,-0.013272828,-0.14112309,-0.13363114,-0.021249317,0.054052908,-0.02428829,-0.009886719,0.014630779,0.043015525,-0.023718238,-0.100207046,0.119886726,0.020076664,-0.052846156,0.00027532654,-0.14115888,0.13153659,-0.04881323,-0.11905861,-0.13578326,-0.061224032,-0.092218995,-0.022631546,0.024978606,-0.11256789,0.07858993,-0.017354567,-0.084191516,0.12016972,-0.0088041155,0.035140682,-0.032547016,0.029222235,-0.1543628,0.031521432,-0.022194589,0.031632863,0.042394113,0.13501482,0.018514741,-0.02126946,0.03237651,-0.25363633,0.09805307,-0.03953313,0.04925056,-0.093654215,0.013703342,0.1283781,-0.00946335,-0.0041759782,-0.055820487,-0.015152938,0.073062524,0.12387804,0.066943355,0.011705164,-0.0500995,-0.017818522,-0.15163061,0.05701199,-0.041766953,-0.050173372,-0.15138161,0.27023578,0.047070857,0.10539052,-0.06195379,0.046050016,0.08744147,-0.07003745,-0.01765548,0.07424902,0.01673816,-0.19452567,-0.0222147,0.12756385,0.15040402,-0.20126234,-0.076818,-0.0015003317,0.010617065,0.07618562,0.017601114,-0.04976573,0.11103932,-0.18503387,-0.04406403,-0.1044739,-0.14526172,-0.046566926,-0.029033758,0.18504795,-0.03487707,-0.06353045,0.01646553,0.062304027,-0.11122089,-0.098585755,-0.09265491,0.0046486235,-0.033056416,0.02536966,-0.017811865,0.029997095,-0.0025566686,-0.015318287,-0.069483824,0.22137332,-0.15475588,-0.045829274,-0.1534923,0.1153765,-0.05261565,0.04212998,-0.08640115,-0.086206965,0.09336002,-0.053154644,-0.03625545,-0.093171306,-0.16097918,-0.07016489,-0.023775173,0.050250534,0.040198795,0.123655684,-0.03563535,-0.03539429,-0.09778881,-0.12532681,-0.09991917,-0.07552511,0.0132714305,0.0872439,0.12819175,-0.061215434,-0.038789693,-0.024850765,-0.13067111,0.0057254517,0.09276354,0.09876792,-0.03653902,-0.041218307,-0.07922464,-0.017805727,0.03327442,0.09953005,0.13771763,0.041966956,0.09291741,-0.08955197,0.12851197,-0.10322441,-0.09861419,0.009654185,-0.09375767,-0.063709155,0.012450606,0.10974337,0.05124043,-0.024539292,0.052960154,-0.07089876,-0.047548752,-0.20215082,-0.10671489,-0.03857557,-0.095644146,-0.06356732,-0.16235866,-0.0029256206,-0.07517291,0.033556413,0.00887638,0.010240745,-0.005913898,0.03015012,0.12414471,0.11714947,0.012699271,0.11693991,0.097596295,-0.014640052,0.044265475,0.19124232,-0.016025675,0.1479544,-0.1334969,0.0486387,0.03767367,0.021533253,-0.025113072,0.06686313,-0.03947658,-0.045919575,0.1067319,0.0008339307,0.0736802,0.004381901,0.09378446,-0.079173006,0.11248964,-0.0021727004,-0.13990757,-0.07918498,0.10610392,0.04042372,0.013532687,-0.033386834,0.042534973,-0.104596175,-0.0396984,0.000109556895,0.027846029,-0.031380814,0.05832423,-0.115802094,-0.15785418,0.026652468,0.03828065,-0.113525994,0.026486484,0.09807118,0.20300362,0.035524745,-0.12609856,-0.00937689,0.164787,0.086971745,0.06709461,0.020116366,-0.058337092,-0.08026838,0.10191541,-0.13035715,0.0749728,0.1946743,-0.002139065,0.049411546,-0.027755626,0.09280218,-0.08984567,0.066741385,-0.12724215,-0.039002974,-0.0045558414,-0.047384124,-0.14658636,0.11643433,-0.05105097,-0.042318016,0.16370316,-0.04539136,-0.030437456,-0.047721483,0.05531128,-0.21072616,-0.08462261,0.013139347,0.10634687,0.018917134,0.0012152328,-0.05765105,-0.11997129,0.058820255,-0.007609853,0.038396444,0.066212766,0.03331781,0.11091716,-0.007914822,-0.062584825,0.042748433,-0.20787503,0.054508213,0.04096217,0.007414498,0.022028308,0.18757474,-0.034529235,0.005191969,-0.07166779,0.11407376,-0.11123524,-0.123616405,-0.06363032,0.113373674,-0.045336187,-0.060491286,0.08487113,0.0017637113,0.0068554245,0.08113123,-0.0121259475,0.019654116,0.10072977,-0.054277282,-0.026884628,-0.04895868,0.10277575,-0.07400142,0.021134617,0.16781162,-0.040811453,-0.0031829907,0.029919742,0.12241717,-0.04130479,-0.093829885,0.14375731,0.057949413,-0.10953714,-0.13694245,-0.022556746,-0.145969,-0.13717662,0.03764664,-0.055325437,0.106622964,0.049436614,0.030034384,-0.032016344,0.060534228,0.12048253,-0.050148703,0.068777196,-0.009537732,0.004003932,-0.10451529,-0.07432208,0.08531101,-1.9362791e-05,0.030274324,-0.053920154,0.0791104,0.18817908,-0.002217557,-0.055759206,0.074601986,-0.15756415,-0.15031794,-0.027624425,-0.035791464,-0.16998379,0.09394817,-0.27482086,0.095906615,0.0068003996,-0.07820339,0.024673251,0.054864053,-0.0016758634,0.06962625,-0.05170764,0.056629658,-0.14489952,0.043670863,-0.050805405,-0.12069145,-0.065050974,-0.04984596,-0.13895622,-0.19702381,-0.076401696,-0.046436258,0.103720844,-0.09571194,-0.14547311,0.014850982,0.07127636,0.15426292,-0.10215339,0.026272396,-0.033586968,-0.16867125,0.01887089,0.094386876,-0.07102229,-0.040754776,0.10328934,-0.056102373,0.015636943,-0.09010046,0.12028704,0.10118178,0.11825593,-0.037396546,0.031151738,-0.11800784,-0.097557984,-0.027240373,-0.11395896,0.06917903,-0.11023883,0.111784406,-0.028747723,0.037384406,-0.0035377317,0.06147805,0.1863429,-0.039058086,-0.031634226,-0.11547046,0.07773376,-0.047609545,-0.039435726,-0.078754805,0.041287765,-0.008220089,0.004107848,0.22049066,-0.11603817,0.03865611,0.0632219,0.14265555,0.12801336,0.014157267,-0.058191843,-0.08949329,-0.04746855,-0.0038718442,-0.04291576,-0.02038958,-0.11094583,0.05117646,0.12855434,-0.01808132,-0.038453046,0.02068213,-0.084383376,0.031922434,0.081634484,-0.15488195,-0.08120998,0.04791082,0.0364528,-0.002293679,0.060555376,-0.11098527,-0.033754334,-0.00011680215,-0.054249547,-0.003138359,-0.15383619,-0.030654445,0.05914818,0.029343681,-0.1041427,0.13725711,0.026886035,-0.089978695,0.076554164,0.1331155,0.031516947,-0.071270026,-0.0790188,-0.088436,0.16125478,0.1620608,0.072723635,-0.12015736,-0.019317755,0.06998506,0.1002648,-0.02439199,-0.112943895,0.03489143,0.061200827,-0.04355807,-0.013218147,0.026389021,0.09621199,0.14011905,0.18715183,-0.17683823,-0.069536045,0.16393912,0.053658895,-0.0281482,0.07978204,-0.09336774,-0.04621063,-0.028390765,0.074808635,0.123338014,0.04704673,0.19089887,0.023258664,0.11563064,-0.06242871,0.067915164,-0.1583157,-0.17958447,-0.0045517567,0.04933064,0.04406513,-0.034626093,-0.006850392,-0.17885266,0.0042920443,0.05018165,-0.010290041,-0.004404061,0.081154115,0.036915224,-0.050054017,0.006213913,-0.023963917,-0.03607864,0.12238039,0.0037945518,-0.06674166,-0.031885568,-3.8378977e-05,-0.08883262,0.003399618,-0.081627496,-0.02600326,-0.12646477,-0.018574553,0.0005272146,-0.01388908,-0.030485952,0.06295859,0.06891723,0.08178597,0.10444639,0.008133894,-0.05964888,-0.025757276,-0.050834145,0.015355242,0.04748641,-0.07859953,0.028834179,0.009171252,0.031965286,-0.06294084,0.007931802,-0.07412666,-0.086766884,-0.05601713,-0.05169953,-0.06301044,-0.04678773,0.0016841558,-0.017781692,-0.027818564,0.04220828,0.008727525,0.011846352,0.062055156,0.06498588,-0.028699046,0.06498318,-0.0861716,0.052093137,0.10488386,0.025044084,0.060383312,-0.0052736364,-0.11309124,-0.07338625,0.036061533,-0.07355945,0.082332954,-0.14712831,-0.004993375,-0.03900869,-0.042962782,0.03506032,0.006557631,-0.051865812,0.03313593,0.014471881,0.025801053,-0.0326122,-0.0017093014,-0.03748575,0.061333492,-0.12769157,-0.021425143,-0.026715524,-0.12355141,0.1096394,-0.11192661,0.07440173,-0.06491695,-0.029141372,-0.11070032,0.032323346,0.02194439,-0.0077853384,0.03180153,0.011660657,-0.05392045,0.010052129,0.07890342,0.07942193,-0.031935025,-0.028170854,0.05070197,0.05438236,0.015201,0.0131978905,0.03507977,0.016229821,0.023516366,-0.018304203,-0.026205165,0.012064436,-0.033140607,-0.028712565,-0.022221226,-0.047913995,0.033797473,0.06529716,0.024433939,0.037582442,-0.06576081,-0.10897038,-0.070165426,-0.028296364,0.005843081,-0.06856174,-0.0034453454,-0.06862569,-0.07103389,-0.07713579,-0.013744604,0.06496921,-0.056199092,0.10746334,-0.0239889,0.0014424828,0.067535356,-0.005017049,0.03168771,0.012808338,0.054934893,-0.12551959,-0.004061243,-0.04379894,0.048133515,0.06603878,-0.041346736,-0.09018103,-0.03885206,-0.0026554838,-0.036381897,0.008687357,-0.06809216,-0.018616201,-0.05852105,-0.077849686,0.04042657,0.044796497,-0.011828792,-0.051888704,0.10667058,0.09000681,0.017675621,0.060586654,0.09393513,-0.0863405,0.005244651,-0.03151515,0.11561831,0.042049695,-0.05613786,-0.009793002,-0.011237812,-0.11384994,0.0062673134,0.07747453,0.09218019,0.10956959,0.014283723,0.021668121,-0.0324948,0.050221995,-0.07264271,-0.081405945,0.06515228,-0.005572242,-0.041333456,-0.05241597,-0.008086059,0.044192676,0.058136705,-0.024617404,0.015798077,0.17671293,0.07993395,-0.030347401,-0.010186435,-0.0052728024,-0.0027516093,-0.030676275,-0.045607034,0.008434173,0.11046628,-0.13733728,0.09715697,0.008317552,-0.09640151,-0.0016461314,0.043098595,-0.030671388,-0.088405944,-0.06014191,0.008325052,0.03742761,-0.007610564,-0.10670421,-0.038177926,0.0140168,-0.010502942,0.037045408,0.009050152,0.100443095,0.013123761,0.04094623,-0.05136202,-0.11740366,0.03441321,-0.021291602,0.0014129981,0.09678477,0.051883463,0.10435538,-0.060309824,-0.048873536,0.028373597,-0.033942297,-0.08286469,-0.051733106,-0.04113026,-0.026261922,0.094667666,-0.04961751,0.0117134275,-0.039194353,-0.122258954,-0.13563517,0.022612227,0.0030067416,-0.053046845,-0.07454445,-0.067896396,-0.07010278,0.0009861854,0.051268987,0.0624136,0.0027258792,-0.031723835,-0.09128652,-0.05381941,-0.016176442,-0.12652372,-0.0060399263,0.066497646,-0.045985367,-0.065739274,0.027956408,0.0340578,0.039562207,-0.09087405,-0.065402605,0.06103083,-0.07712177,0.032598075,-0.015095425,0.013293376,0.07719553,0.026963903,-0.035113174,0.0014319303,0.09048809,0.045686737,0.05714932,-0.112418175,0.04956511,0.10708854,-0.044218227,-0.041455705,-0.06277561,0.06704523,-0.015024688,0.03192299,-0.0037248088,-0.024200322,0.08713273,-0.060702667,0.0055310344,0.10489591,0.026628293,-0.017819583,0.019069681,-0.10345541,-0.02645028,0.0048650373,-0.07295432,0.09190012,0.08374965,-0.047636528,-0.008432669,-0.05946133,-0.011696811,-0.041882124,0.04291199,-0.02723695,-0.011429055,-0.07280244,0.015913201,0.07169082,-0.037915204,0.004660697,-0.024618689,0.034840573,0.08030298,-0.06523325,0.040830962,0.04096211,0.07305115,-0.01261556,-0.047707655,-0.033125684,-0.010382222,-0.040872376,-0.13524684,-0.1091828,-0.091041654,-0.039055225,-0.007792761,-0.0336223,-0.037811458,-0.08592233,0.12061723,0.04371727,-0.024905676,0.08231894,0.11669365,0.044072933,-0.0025212886,0.03343474,-0.09565023,-0.06435525,-0.047728166,-0.09077679,-0.005694099,0.0659344,0.049672563,-0.0049824123,0.008648895,-0.037461676,-0.086361416,-0.03588969,0.06776696,0.044688523,0.08372404,0.16304052,0.016982326,-0.06307979,-0.100738324,0.003689624,0.09789415,-0.0012946917,0.011186084,-0.0045353076,0.017854292,-0.05383804,-0.10824299,-0.040209215,-0.07525366,0.068785384,-0.024029091,-0.09752503,-0.04326883,0.056909055,0.022399306,-0.0778993,0.011755201,-0.034188777,0.08371509,0.019541131,0.02767565,-0.00075247785,0.00830971,-0.02235537,-0.178992,0.06154485,0.042844098,-0.097697765,0.0063961158,-0.0785724,0.011383739,0.037857246,0.09636578,0.032691646,0.04061597,0.047192786,-0.041502796,0.13787189,-0.016942604,0.054240312,0.06430306,-0.117636636,-0.057549108,0.012264655,0.071735084,0.025311494,0.04809042,0.12814371,0.069310576,-0.0564894,0.08098312,-0.015399322,-0.022445107,0.0039956626,0.047774028,0.03766254,-0.0088242255,-0.11210609,-0.103486136,0.044339977,0.05510735,-0.009519107,-0.025671976,-0.0018118267,0.052748054,-0.058909018,0.053628534,-0.050937314,0.044836145,-0.051350057,0.09385494,0.044814497,-0.043100987,-0.0019223968,-0.018661916,-0.024254123,-0.016268998,-0.1705943,0.0008379966,-0.08176067,-0.07617858,0.0549132,0.03322186,0.103327006,-0.042788718,0.027453905,0.033319402,-0.032496955,-0.07121304,-0.0066705495,-0.012120086,-0.024027541,0.03543291,0.015957428,-0.0012450486,-0.046148147,-0.10303272,0.082036,0.07796415,0.02036296,0.020801224,0.06589373,0.054517213,0.13155718,0.005495319,0.06333834,0.0615794,-0.064832605,-0.04011708,0.005399587,0.029971395,0.024040459,0.018779239,-0.10225739,-0.021565517,-0.09775745,-0.15526493,-0.03379026,-0.019579729,0.008831877,-0.03929798,-0.053411655,0.031267095,-0.1199132,-0.015543306,0.11476238,0.02397838,0.087745026,-0.007921068,-0.07122311,0.025350463,0.021556323,0.030578585,-0.057447407,0.05875375,0.065635204,-0.08436211,0.035633143,-0.032440044,0.03132384,0.06410705,-0.11723791,-0.10061216,0.06893276,0.045846775,-0.08651717,0.06033093,0.111814514,-0.05508935,-0.043811716,0.027261462,-0.054217305,0.03672391,0.0324029,-0.013925076,-0.03976531,-0.09391636,0.117154814,-0.019526687,0.0126201445,-0.115878284,0.0024213558,-0.08392624,-0.036786523,-0.10759035,-0.008545459,-0.020135041,-0.055096354,0.0549009,0.04645195,0.028669026,-0.03240406,-0.07548534,-0.019769574,0.04166033,0.056772586,-0.021813499,0.04070896,0.048333928,0.06141174,0.088034,0.023523651,-0.009799716,-0.016640058,-0.009154101,-0.1533264,0.00069586904,0.08685298,-0.068927005,0.14475401,-0.023039617,0.027271582,0.070227385,-0.009337324,0.04694592,0.055076554,0.04659367,0.059259318,-0.06866023,0.091274664,-0.001479933,0.07398009,0.10406297,-0.00018654444,-0.021278987,-0.07611163,0.05440624,-0.08634436,0.025398666,0.050068278,0.024053395,-0.024067363,0.107183404,-0.056677505,-0.03857934,0.028929267,0.039753098,0.014247107,0.03981782,-0.056818843,-0.058025252,0.08065533,-0.022871464,0.024702696,-0.01748216,-0.016115833,-0.055277336,-0.16997193,-0.16321592,0.06049785,0.029241372,0.051331043,0.15654911,0.096035175,-0.024680585,0.04279206,-0.0355355,-0.10924707,0.08559824,-0.030043539,-0.02199631,-0.032823518,-0.00012218999,-0.11048129,0.007053134,-0.07360037,0.020405002,0.07915536,-0.025325332,-0.083743945,-0.06426574,-0.008047413,0.060145196,-0.101555154,-0.09641981,-0.038074367,-0.042217076,-0.027434757,0.13331291,0.06939905,0.006559051,-0.08107652,-0.029663997,0.019879267,-0.04800509,-0.013385351,0.015180576,-0.014659757,-0.017064517,0.026941465,-0.030025614,-0.038209505,-0.04004658,0.031028746,-0.05647575,-0.02271285,0.03021263,-0.060782462,-0.15972413,0.05041357,0.11149034,-0.038290888,0.02104639,-0.07737463,0.04305691,0.10520187,-0.02417684,-0.055541255,-0.0015623302,-0.056854896,0.05576421,0.02700413,0.01096715,-0.0035545651,-0.07542593,-0.05770924,0.060153328,-0.014287921,0.014615989,-0.019304907,0.047498476,-0.09000071,-0.030741956,-0.0544106,0.1017633,0.113860965,0.06844151,0.0033148075,0.030886132,0.096475095,0.01612782,0.0010296592,-0.057507034,0.00994974,0.007933499,0.019204194,0.055066712,-0.058949094,-0.0015989934,-0.012513143,0.09161401,-0.20796154,0.11313802,-0.04182167,0.079132,0.092502184,0.10332581,-0.101352945,-0.07687685,-0.058131527,0.03440742,0.025104128,-0.11932566,-0.008641532,-0.030855669,0.092289336,0.045808867,0.027965102,0.038801283,0.02186688,-0.027027996,0.003371626,-0.083322085,-0.03831664,-0.119181916,0.053403802,0.035165984,0.050558813,0.039149813,-0.07173943,0.005593025,0.15163416,-0.118722945,-0.060987946,-0.050605945,0.040849224,-0.05335763,-0.012362401,0.014850766,0.050349016,-0.0040899133,0.003441526,-0.08605105,-0.055096973,-0.0050942544,-0.041570477,-0.07653419,-0.07389989,-0.015134792,-0.019773899,-0.06968413,-0.0043324456,0.05392943,0.11346167,0.07148928,-0.008336027,-0.008948366,0.0024063904,-0.043453578,0.13188674,-0.013482865,0.028484086,-0.10570289,0.037999585,0.109944776,-0.046391513,-0.023825452,0.11968724,0.012657567,0.057823356,-0.04433697,-0.12886058,0.1277685,0.04887697,-0.16354059,-0.07834329,-0.03699727,-0.069199175,-0.07512336,-0.058587465,-0.07363745,-0.06284588,-0.033524696,-0.02144446,0.07546116,-0.18580818,0.039002445,0.050998,-0.059468493,0.067484386,0.025746537,-0.0906065,-0.015905187,-0.026014816,-0.099663556,-0.039982397,-0.0065513356,0.09269494,0.11971878,0.1135897,0.0056134337,-0.011781007,-0.048959453,-0.08947256,-0.049289398,0.02904968,-0.005925577,0.013065254,-0.06890404,-0.089808755,0.017965415,0.0040734843,0.0240269,0.026531948,0.0049017356,0.120524,-0.0044348165,0.08061048,-0.011001162,-0.09758113,0.00863116,-0.05724609,0.17317897,0.014200555,0.14323908,-0.062024195,0.13200736,0.041288394,-0.023075422,0.026417598,0.05102287,-0.06274396,0.014586303,-0.040236074,-0.05356407,0.06541607,0.08555891,-0.056795154,0.002836528,-0.111759074,0.06771674,-0.076187186,0.031180037,0.019873047,-0.05786611,-0.008843329,0.017580556,0.052288774,-0.0399158,0.09533851,0.12516025,-0.0010876439,0.065808095,-0.06589042,-0.0034399605,0.025746997,0.017623207,0.09174929,0.085551545,0.019914975,-0.13073035,-0.021623274,-0.026235964,0.012254318,0.019204311,-0.0038844168,0.06992891,0.0035597354,-0.014878831,0.0022754616,-0.06105412,-0.07340533,-0.06324415,-0.007823874,-0.054056972,0.043876033,-0.11891599,-0.08265359,0.051911816,-0.06672513,-0.06171293,0.012042644,0.042490378,-0.090532795,0.036190826,-0.05698348,-0.04166779,0.07647285,-0.091572404,0.02417246,0.0955282,-0.11588365,-0.094941765,0.042198636,-0.009276577,0.04030634,-0.07482777,-0.06430801,0.0040471964,-0.02122731,0.0077776182,-0.06340251,-0.028428841,0.026671523,0.029622674,0.1393392,0.018343477,-0.09946242,-0.054496165,0.034871615,-0.03322186,-0.02061813,-0.011261001,-0.055996325,0.009039782,-0.012938683,0.06111932,-0.10516385,0.029422715,0.0031114272,0.02324393,0.07634099,0.11062978,-0.019685585,-0.091815546,0.025056018,0.14207348,0.07065601,-0.026359634,0.0014491391,0.12006426,-0.096547246,-0.01046217,-0.082179815,0.05871383,0.16749467,0.08560648,0.13093586,0.040217377,0.060772747,-0.09921602,-0.05557555,0.008193234,0.07535368,0.066484235,0.050230213,0.08034616,-0.06491039,-0.052098382,-0.022475543,0.037229937,-0.13172388,0.054153156,0.10209314,0.07647065,0.019976847,-0.03550863,0.15461206,-0.0071112122,-0.09340514,-0.030738493,0.0014266839,0.03882269,0.09970208,0.049882624,-0.029651133,0.007680912,-0.047302492,-0.039831445,-0.046207402,-0.0999933,-0.038133066,-0.043279286,0.068483904,-0.08450418,-0.0019058088,0.14027469,0.04417583,-0.08749313,-0.09294603,-0.10604845,-0.040066756,0.047326796,0.034266245,0.005121192,0.016115496,-0.031535365,0.02355988,0.13803916,0.0037931746,-0.0064843893,-0.054108553,0.04034216,0.041668314,-0.046796244,-0.031529717,-0.062046506,0.099565774,-0.030471284,0.074689776,0.024553485,-0.05944637,0.091460265,0.044731144,-0.0057240142,-0.1252377,0.042319395,-0.03761885,0.08499934,-0.108014345,-0.0058967313,0.025398137,0.08975469,0.057394847,0.13440742,0.08793536,-0.14097334,-0.020133419,0.0967769,-0.009426975,-0.010198632,0.05343989,0.049080547,-0.031847958,-0.08217928,0.09318475,0.016524835,0.05732616,0.07228237,0.0031227637,-0.023716528,-0.031332172,-0.0046737236,-0.06145267,-0.06359129,0.08745696,-0.058822993,0.05129631,-0.019705916,-0.09443402,-0.072984025,0.055054292,-0.013594502,-0.1027805,0.11470952,0.017121347,-0.13031477,-0.02414692,-0.003006638,-0.032011617,-0.051436234,-0.01914247,-0.0059147403,-0.019934356,0.07097847,-0.061904456,0.047068335,-0.04030577,-0.028489588,0.13876684,0.09187634,0.04927797,-0.02504995,0.054134753,0.12691163,-0.032066345,0.025001755,0.00067791773,-0.08992705,0.04696371,-0.043065835,-0.08402951,0.013383059,0.06279082,0.0394502,0.033414345,0.08864734,-0.062529385,-0.09340574,-0.0688264,-0.01843607,0.08619449,0.13943462,0.08282153,0.20466004,0.0053083915,0.15842998,0.014906002,0.004457335,0.09107738,-0.0042491015,-0.02083501,0.05509453,-0.022429548,0.02650275,0.02317245,0.10688311,-0.1462027,0.08008935,0.065208174,-0.11103865,0.057775408,0.041691445,0.04268542,0.055648033,-0.04948799,-0.015913999,-0.02175586,0.113647215,-0.049911495,0.123294026,0.11089138,0.033105657,0.11947515,0.18924266,-0.07302168,-0.020120898,-0.15270495,0.04704262,-0.07465671,-0.004988468,0.0074918927,0.046127614,-0.042516302,0.01216246,0.06170502,-0.08231939,0.032798555,-0.047021963,-0.08110011,0.0037007728,-0.0050109588,0.19468522,0.001423414,-0.052781694,0.018330872,0.07911249,0.06318088,-0.015694778,0.14678676,0.048759505,0.0037450755,0.049803995,0.011968223,-0.1295082,0.14022252,0.054396216,-0.07040154,0.009654458,0.02835476,-0.019175395,0.02262075,0.0034732255,0.013325296,0.10339543,0.11630787,-0.061920155,0.097340815,0.035340484,0.06712054,0.028896531,0.05281637,-0.0183102,-0.03716627,0.10550686,-0.13724156,-0.013372447,-0.016242072,0.008185004,0.010683438,-0.042867146,-0.024816388,0.10294934,0.10676734,-0.1016491,0.013769086,0.0014722762,0.025054408,0.11912157,-0.010631927,-0.038049582,-0.053739455,-0.2187365,0.012189338,0.055194728,-0.061602883,-0.017663958,-0.011629299,0.016057394,0.04024944,0.03031392,0.058613908,-0.036454227,0.046885088,0.04258684,0.051081493,-0.06225344,-0.099384755,0.02132626,0.06576248,-0.063787736,0.12185557,-0.0015091681,0.030718146,0.051513776,-0.01831198,-0.011973551,-0.11569927,-0.054465346,0.0215328,0.0041372958,0.11717406,0.01187676,-0.028029975,0.043410137,-0.105357796,0.14961202,-0.091930054,0.009743032,-0.028642321,0.027620535,-0.020425506,0.0039616767,0.06454777,0.040820464,-0.13148074,0.023435164,0.029782074,-0.061680354,-0.026678719,-0.010209539,-0.02240882,-0.12509383,-0.06186253,-0.035458468,0.054754697,0.02296352,0.014593967,-0.06802796,-0.07804942,-0.06561957,-0.003724923,-0.00053357525,0.009132679,-0.17451356,-0.088235624,-0.101313114,0.022378206,-0.00010069023,-0.060642675,-0.019373259,-0.024073852,-0.048992913,0.06283691,-0.038458694,0.010253896,-0.10639924,0.048614364,0.12685323,-0.10036897,-0.048469987,-0.0692823,0.15119657,-0.056533054,0.11799841,0.032525558,0.015666112,0.100095026,-0.03439235,-0.047693975,0.063334644,0.02126814,-0.058964603,0.04677662,-0.08643196,0.030377813,0.13811564,-0.080794945,0.10829494,0.080714494,-0.022098714,0.08856843,0.07122938,0.001918257,0.078298934,-0.023737188,0.049019564,-0.12747824,0.049013607,0.04333711,0.017697249,-0.043498226,0.0657478,0.014870672,0.03322088,-0.046422675,-0.17425907,0.074971646,0.1145643,0.09011033,0.07929142,-0.087833285,0.0054111374,0.025795572,-0.059054427,-0.10000976,-0.08903251,-0.009430275,-0.13079454,-0.03201401,0.04720913,0.04286556,0.043586683,0.110592216,-0.03086406,0.06219287,0.01169867,-0.032937575,-0.059565254,-0.032849725,-0.011062352,0.1026131,-0.11781556,-0.07662331,-0.05318846,0.008539013,-0.08617849,-0.020280255,-0.09452789,-0.010261269,0.10475474,0.06589864,-0.0076955184,-0.021577284,0.020638594,0.093224876,0.0035759413,0.038700994,0.061449934,0.009696427,0.009389347,0.04850246,-0.05337284,0.06557169,0.062242012,0.01864729,0.09006255,-0.03977928,-0.18475118,0.0070386776,-0.06765581,0.062315475,-0.049764767,-0.028729392,0.15026243,0.0069137714,-0.07173836,0.00312376,-0.05378884,-0.03993207,0.046314515,-0.05189989,-0.036442302,0.12535417,-0.18494537,-0.035987526,0.029197669,-0.040743385,-0.13270764,-0.06599547,-0.06501167,-0.14920211,-0.0059768073,-0.023570105,-0.0055237133,0.060900904,0.059876062,-0.044389125,0.056969292,0.09679427,-0.025584199,0.06204741,0.018138621,-0.0454651,0.008999392,-0.03904604,0.028767802,0.021330424,-0.054165453,-0.052417666,-0.12901267,0.014764798,-0.10468934,0.051502407,-0.1369056,-0.0072596865,-0.018889546,0.09196607,-0.036034748,-0.007249537,-0.1098047,0.016125843,0.07693532,-0.042854086,0.009305849,0.00045799464,-0.099851556,0.04323464,-0.05254018,-0.12360455,0.03265411,-0.0725742,-0.091410846,-0.117990896,-0.006901445,0.02572153,-0.03637313,0.05777797,0.11762284,0.029805971,-0.06201516,0.1226658,-0.028033413,-0.05082708,-0.029140655,-0.0913982,-0.12366147,0.10927469,-0.021951351,-0.013910176,-0.14190428,0.057375457,-0.045872472,-0.008502547,0.06010392,-0.040531926,-0.06374119,0.0026969449,0.024411526,0.05051568,-0.07053217,0.016988773,0.01604388,0.01049834,-0.068100765,-0.06567953,0.07125762,-0.032719217,0.07689498,-0.03796766,0.021081848,-0.028215474,-0.085037775,0.0005449008,0.06981343,-0.1220603,0.078290686,-0.090075046,0.04855059,-0.04122764,0.08442643,-0.014773327,0.10163943,-0.030560765,0.027519846,-0.062581055,-0.053561945,0.03059974,0.054722928,-0.03324436,-0.03221528,-0.10670275,-0.052644614,-0.057555214,-0.06924745,0.10055999,-0.07676036,-0.073279515,-0.02952226,0.12188156,0.04948869,-0.06564152,0.002650271,0.03381248,-0.0016496278,0.051478934,-0.03686222,0.024833694,0.09154746,-0.056149628,-0.020776171,-0.033534866,0.07463858,-0.06947377,0.15726954,-0.044847872,-0.06310774,-0.062117167,-0.07717889,0.10690637,0.04855776,0.007540751,0.08068983,0.09127823,0.011118025,-0.11300788,0.08282844,0.050823186,0.10197542,0.039690018,0.015288453,-0.019519554,-0.029459147,-0.04170223,0.029963909,-0.02763327,0.010796615,-0.03858061,0.045387264,0.06965692,-0.06414518,0.056245755,0.08954448,-0.04579179,-0.068483606,-0.086118415,0.018644495,-0.04617597,-0.097459905,0.07340474,-0.043602467,0.042185523,-0.024983803,0.0393871,0.028458586,0.0477424,-0.10922807,-0.015550418,0.039358463,-0.0072338535,0.07545315,0.078268796,-0.02065195,-0.011839062,-0.13520616,-0.0074235206,-0.08266837,-0.10353533,0.0902614,-0.15711614,0.016336704,-0.04191519,0.092790306,0.059780736,-0.040126085,-0.023226479,-0.004587169,0.09539296,-0.004835319,0.06856515,0.084792145,-0.01655418,-0.029874174,0.016825842,-0.038295258,-0.062736936,-0.07400205,0.097221784,-0.064862035,-0.14487045,-0.10017779,0.028193804,-0.057488903,-0.070978634,-0.025364125,0.034360576,0.09786227,0.08460359,-0.028825367,-0.08059086,0.071711995,0.05942734,-0.0027066143,-0.016411647,-0.010432056,0.03658697,0.017301058,0.02377409,0.035596214,-0.037980884,-0.005278903,0.15297486,-0.018588407,-0.039111692,-0.082950376,-0.019786574,0.033050913,0.0027934927,-0.02258461,-0.026840234,-0.14845526,0.052272804,-0.1863418,-0.06784712,-0.0577988,0.05506065,0.11790723,0.000556845,0.12835826,-0.01292384,0.010411269,0.039893348,-0.050236676,-0.14837568,0.09272213,-0.06276814,-0.023693128,0.06974056,0.108015,-0.06566221,0.026291754,0.0320624,-0.06591674,-0.02979758,-0.06467995,-0.055696707,0.067949675,-0.016662525,0.049807988,0.057216417,-0.029871058,-0.035449944,0.034483697,0.1743625,0.011455,-0.04472211,0.03543962,-0.005081165,0.11670758,0.057749733,-0.09737806,0.10140646,0.03607578,-0.0057573267,-0.054202404,-0.012784092,-0.124742165,0.00063976017,-0.066234626,0.14425226,-0.09177841,0.04843823,0.037838668,-0.022561196,-0.08977812,0.03078208,-0.057311114,-0.051435184,0.053404696,-0.056884177,-0.06559559,0.038747117,-0.103433155,0.053073443,0.062368523,-0.06418271,0.13625087,-0.07637361,0.020754706,-0.063162066,-0.14488918,-0.15264772,0.04093532,-0.04112323,-0.09843229,-0.052702736,0.051703576,-0.08226937,-0.11367101,-0.01867233,0.015740637,-0.12565522,0.06875042,0.0557338,0.089459255,-0.018743731,-0.00033537415,0.039581284,0.033379562,-0.011504537,-0.005052038,-0.008331418,0.03185482,0.03080598,0.031503133,-0.03742654,-0.060689155,0.009251115,0.067496926,-0.008104294,0.033979367,-0.116259485,-0.04303858,-0.052569658,-0.066908315,-0.01851301,-0.06433416,0.052668907,-0.108824246,0.014748918,-0.0318179,-0.071631745,-0.0052960347,-0.065654926,0.010032461,-0.084629,0.038129557,0.016661685,-0.07596107,0.018472578,-0.0081412885,-0.004884779,-0.10359052,-0.06049728,-0.046310224,0.12904558,0.11993279,0.07103696,0.04093868,-0.014198773,0.021092858,-0.035977267,-0.014727588,-0.041023906,0.020879868,-0.066107206,-0.004932873,0.08466118,0.056395594,0.044431075,-0.016021142,0.065947786,-0.007396998,0.039363075,0.066438206,-0.023925452,-0.10838324,0.014706274,-0.07642726,0.20511433,-0.008811787,-0.04826688,-0.025715256,0.016783863,-0.06535161,-0.023546679,0.014835427,0.005700049,0.10266758,-0.014104041,0.02167669,0.023495087,-0.11224594,-0.07495632,-0.12403442,0.048516694,-0.119347535,-0.042267334,-0.008505354,0.0055888603,0.09684649,-0.027486281,-0.005936987,0.068612054,0.14634976,-0.03406256,0.019862372,-0.12174086,-0.115401655,0.0748744,-0.05367932,0.07718824,0.043706134,0.08435806,-0.058303054,0.045150753,-0.02497826,-0.0008826271,0.041572142,0.0958232,-0.1064871,0.053813897,0.03423102,0.048774347,0.009193135,-0.024507295,-0.09703737,-0.058545247,0.051404472,-0.007925563,-0.0017442094,-0.10891516,0.081391945,-0.08964184,-0.04669054,-0.076469846,0.05103254,0.0594259,-0.06038029,0.077599995,0.049650498,-0.008483187,0.0925006,-0.034290988,-0.054288972,-0.00870122,0.030791352,-0.027394947,-0.023621388,-0.06443003,0.100422464,0.15592135,-0.028545218,0.07118119,-0.055875253,-0.13594489,0.022987477,-0.1049866,0.0060437312,-0.06023535,-0.047437005,0.014063586,-0.016005201,-0.06450409,0.039907303,0.08783961,0.03626086,-0.096500054,-0.036017057,0.02613312,-0.009133366,-0.09543633,0.025063207,0.041264195,0.05701316,-0.050727356,0.04471931,0.046925023,0.0060702623,0.01158069,-0.0091389455,-0.009124013,-0.15939552,0.14045376,0.00075304817,0.04767598,0.06185391,-0.033946574,-0.012217602,0.003885713,0.07625996,0.015940698,0.023025889,0.0444214,0.08297987,0.14351201,-0.037375215,-0.07725666,0.02958476,-0.042620238,-8.133975e-05,-0.04756502,0.049014926,0.12029577,0.065026626,-0.030404642,-0.028874816,-0.013900919,-0.04657464,0.067724556,0.03891027,-0.00574508,0.025049452,0.031295825,0.0008512877,0.1183986,0.16284855,-0.07582302,-0.059161715,-0.027860897,-0.10588516,-0.004966446,0.04152825,0.029520513,-0.0748603,-0.008022867,0.009995966,0.05459988,0.017536059,-0.013905072,-0.02566998,-0.10453948,0.072618164,-0.05477557,-0.09407152,0.0023908878,-0.022980789,0.06203434,-0.022840545,-1.628675e-05,0.030360557,0.049211428,-0.08635766,-0.07015096,-0.00041881765,-0.010519152,0.0603271,-0.0150064,-0.06134203,-0.035891138,0.026345529,0.04744498,0.008320661,0.10014989,-0.004020747,0.086480536,0.014924784,-0.0028945294,-0.17688556,0.003967388,0.008849262,-0.033151787,0.09807934,0.016451295,0.061412763,0.054734465,0.067177325,0.07608495,-0.060755376,0.016452681,-0.021718202,-0.028153982,0.1338408,0.06556805,0.0020025095,-0.07733462,-0.09183757,0.08538077,0.08828208,-0.060426787,0.069153264,0.01476573,0.032678846,-0.018064713,-0.03018156,-0.09206158,0.006493522,0.007450734,-0.05648576,-0.06965662,0.036461256,0.05847895,0.033951472,0.0046521737,-0.068228625,-0.03656399,0.020857014,-0.03163161,0.0020095955,-0.06232665,0.059152324,-0.12120949,-0.08651493,0.041870903,0.0834375,-0.050043304,-0.07521002,-0.116379306,-0.022856392,0.098409235,0.08059489,-0.09598977,0.026853995,0.034658547,-0.07870262,-0.014600088,-0.085528895,0.12422726,0.11806034,-0.11112592,0.00012887878,-0.0027421205,0.0059955525,0.024684424,0.084226556,0.18897863,0.07788693,-0.041796334,0.028887289,-0.055056673,-0.015475242,-0.0072386404,0.009785401,0.028029786,0.07238885,-0.0696248,-0.043574948,0.042580046,0.018471576,-0.05528108,-0.010172905,-0.12290344,0.0012827085,0.0140074305,0.06434965,0.0067210756,0.09160889,-0.08448666,-0.008929093,-0.057126306,-0.009557839,-0.02132419,0.02851693,-0.02058348,0.07007781,-0.08234705,-0.11114052,-0.026984204,-0.062200177,-0.052026473,-0.04270368,0.12888288,-0.08888627,0.102209516,-0.039820764,-0.08761433,-0.061292384,0.041536495,-0.04089395,0.079704516,0.08330631,-0.1314311,0.048671927,-0.014615887,-0.033912428,0.11670629,0.013058306,-0.018460263,0.07578196,-0.05682634,0.024188966,0.06464942,-0.14609668,0.060288753,0.054547068,-0.01403823,0.030632555,0.049057834,0.05185615,-0.027418733,-0.029838998,0.0075961007,0.044368718,-0.022157649,-0.064758934,0.038749903,-0.067665316,-0.06730689,-0.06264656,0.080616705,0.07656506,-0.08680565,-0.043389842,0.05392746,-0.03600582,0.06961058,0.016318195,0.0542616,0.045443535,-0.0033857843,-0.042694073,0.045863483,0.06967741,-0.05771939,0.05446994,0.07846087,0.07104222,0.015667731,0.11133352,-0.013080772,-0.018524477,-0.006613413,0.11866058,-0.034757093,-0.07599189,0.042506434,0.02286618,-0.06871994,0.015679486,0.079905495,0.008944122,0.045926336,-0.09877746,-0.11459513,0.0266613,0.12436178,-0.028627861,-0.09436794,-0.020854333,-0.027551355,0.0048288926,0.052324057,0.0436398,0.034119807,0.060612366,0.011367991,0.009242838,0.039310016,-0.059160642,0.066564985,-0.038549446,-0.00041479638,0.037688356,-0.10161256,-0.023997912,0.054288663,0.07652219,0.054877695,-0.0074998997,0.061292063,0.012701789,-0.09516927,-0.06780504,-0.17425801,-0.10042849,0.016765635,-0.14044707,0.0636891,0.05740699,0.0025010102,-0.038729973,-0.06372327,0.007034718,0.066402346,0.0008870629,0.12101635,-0.04204353,0.12115492,0.007074062,0.100018516,0.005978506,-0.035447523,0.08368007,-0.058894675,-0.016293684,-0.06408151,-0.03024366,-0.0052475715,-0.024809739,-0.041013606,0.058934875,-0.086633325,-0.055538654,-0.02279991,0.07166085,-0.113588154,-0.063327804,-0.0022009083,-0.06092698,0.036774952,-0.07617876,-0.0914407,-0.06919781,-0.017460877,-0.05071256,-0.10987287,-0.025196766,0.13293266,0.0134944,-0.07267553,0.047251012,0.026739968,0.031769346,-0.0007762879,0.06420185,-0.18443525,0.069211595,-0.031660154,-0.038610607,-0.0033238155,0.037560783,0.00022416316,-0.01950882,-0.074777946,0.0027001025,-0.007210429,0.115470015,-0.14332034,-0.04117712,-0.079686984,-0.026071873,-0.038529433,-0.020739824,0.0047332393,-0.06778989,0.026714155,0.07468924,0.022464547,0.023681734,-0.11387531,-0.055637944,0.057634786,-0.030304134,-0.07789191,0.042121183,0.01498588,0.009874056,-0.04785399,-0.08531481,0.14237577,0.08309859,0.11374698,0.020500442,0.009512197,-0.012160493,-0.03712343,-0.1412054,-0.01495546,0.074613854,0.0061382325,0.059111457,-0.019299509,0.01629904,0.09666571,0.040470414,-0.062321987,-0.08865431,-0.020668272,0.092885055,-0.040610414,-0.014017832,-0.0011732082,-0.03350756,0.00939259,0.0648458,-0.03244763,0.076653644,0.032143764,0.109292544,-0.018932506,-0.001852863,-0.0618844,0.053945154,0.035840612,-0.008677895,-0.043908983,0.013113574,0.10107287,-0.034152575,-0.019445296,0.05566423,0.021876771,0.034257237,0.012635817,0.07143178,0.033788614,-0.04867312,0.08678711,0.1069799,-0.023682512,0.06586916,-0.027847338,0.0977843,0.020509535,0.05052193,-0.032514084,-0.121183775,0.00022071436,-0.00088620017,-0.0026165398,-0.055253103,-0.08399797,-0.07123366,0.09869724,0.08718102,0.0015985502,-0.056248788,0.0026559564,-0.10807807,0.053581852,0.08467211,-0.010503915,-0.08045202,0.055610385,0.12729491,0.084863305,0.0798339,-0.025100105,-0.026718127,0.09474215,-0.08844482,0.03570931,-0.026636835,0.0431763,-0.04469473,0.019829828,0.06657194,-0.107397504,0.049279034,-0.047088914,-0.08477947,-0.06526348,0.03074817,-0.023406487,0.01655063,-0.1779722,-0.023577379,0.051445138,-0.09558572,0.039989054,0.03207691,0.06246132,0.025943657,0.008685656,0.008855199,0.013435485,0.076404214,0.098579064,-0.09660187,0.063320786,-0.093171716,0.03214997,-0.020130588,-0.03473396,-0.05348933,0.043401714,-0.04393713,-0.046240684,-0.03054485,-0.09429222,0.0273861,-0.020905336,-0.107186675,-0.031421896,-0.11787307,-0.061467748,-0.017382283,-0.074592896,-0.073767796,-0.04746311,-0.05268799,-0.02624887,-0.017985657,-0.07051391,-0.0043965024,0.04565704,0.05314668,0.0021582195,0.009149621,-0.063657835,0.001664361,-0.12680528,-0.00039288768,-0.08141853,0.023363486,-0.08421137,-0.014052716,-0.00082685193,-0.001489543,0.084257714,-0.064835414,0.068036936,-0.02486515,-0.051690117,0.059801362,-0.15034065,0.17893663,0.134504,-0.087351315,0.15488094,-0.04270735,-0.04950291,0.09998546,-0.0019947488,0.14581598,-0.11336143,0.11456263,0.15066537,-0.04781802,-0.0015764417,-0.04401911,0.0259853,-0.085410565,0.08428764,-0.101455316,0.13903514,-0.039632898,0.01569648,0.026524108,0.0127452435,-0.06981386,0.04919696,-0.035712365,-0.20480658,-0.07230123,-0.018218698,0.05094311,0.0010690602,0.0034734777,0.0729283,-0.02157227,-0.05557407,-0.053536996,-0.003531602,-0.084843844,-0.11983469,-0.19573595,-0.16083835,-0.060953397,0.016293405,-0.123419315,0.057666592,0.01709952,-0.12349249,-0.009035948,0.0012473783,0.024714626,-0.076745875,0.15920244,0.016048694,-0.009770639,-0.020694025,0.18205462,-0.12660043,-0.041872904,-0.0019216454,0.0680018,0.1469772,-0.03719287,-0.005290139,-0.13455603,-0.12520865,0.07236743,0.027414486,-0.0023778195,-0.025202276,-0.035865128,-0.06508236,-0.029443588,0.13940011,0.06335246,0.14747566,-0.07457527,-0.03328105,0.20264943,0.036033552,-0.16547175,0.046331555,-0.07255999,-0.006768157,0.14599651,-0.0026161664,-0.011658957,-0.027292999,-0.035527125,0.05977939,-0.12271829,0.033853997,0.109678365,0.102645494,-0.10959725,0.055951152,-0.106668085,-0.06761976,0.16342324,0.05679493,-0.22753003,-0.06765629,-0.05812781,0.07482059,0.045451187,0.13319768,-0.013466469,-0.07723225,-0.20818181,0.08101335,0.0840633,0.19059788,-0.21794072,-0.088883206,0.12698485,0.16999455,0.029805284,0.09606857,0.0467792,-0.118312806,-0.0064634066,0.12908548,-0.07720977,0.08032707,0.06856284,0.14799644,0.07830218,-0.094865225,-0.025174292,-0.0066769044,0.09361753,-0.013127842,0.13519178,-0.0763337,0.025560014,-0.068671934,0.025781926,0.052902352,0.0921169,-0.011548308,0.08569772,0.01781391,-0.060741514,0.018412715,-0.0630696,-0.008763929,-0.0736085,-0.07057696,0.1092087,-0.15957727,-0.051741756,-0.10370196,-0.13260657,-0.021109223,0.11604585,0.024764497,0.049479205,-0.06934621,0.0072998786,0.1985979,-0.006223228,0.019034201,0.117361695,0.16430067,-0.07876959,-0.058918077,0.005095036,0.035362344,-0.10590645,-0.11380468,0.12589912,0.25107658,0.08399914,-0.09804457,-0.0068574985,-0.000474481,0.068076186,-0.027050167,-0.10588288,-0.09356524,0.011427679,-0.06699217,-0.26911667,-0.028435884,0.06901272,-0.043385744,0.053229794,-0.040531296,0.08744477,-0.18204726,-0.10272476,0.00025612712,-0.0021651813,-0.02024843,-0.13118945,-0.1239804,0.12411012,0.16188729,0.09240806,0.035873175,-0.027436567,0.028656948,-0.06608127,0.03310478,-0.08282871,0.07592421,-0.11286166,0.082363516,0.12748878,-0.14444001,-0.11883823,0.069861785,0.10844518,-0.029324338,-0.13388036,-0.013161084,0.11053331,-0.12028571,-0.022776436,-0.05375426,0.04004853,0.0689915,0.04425329,-0.060837545,-0.16610372,0.045450017,0.014619029,0.022133483,-0.016565008,-0.14161193,0.090849005,-0.09957435,-0.012358548,0.07743087,0.104936555,0.09692915,-0.036392156,-0.07795524,0.0017211206,-0.023984754,-0.075359315,0.020500587,-0.033014394,0.054706607,-0.09930005,0.07386167,-0.13079791,0.1643338,-0.031121505,0.0021991178,-0.11290671,-0.20307079,0.11231965,-0.016335089,-0.14204177,-0.071377024,0.10164253,0.034196828,0.101474784,0.018505117,0.0845211,-0.08196707,0.13002214,0.07086813,0.035045285,-0.0044416487,0.003457319,0.039041314,-0.07385656,-0.081483305,-0.0941723,0.18331964,-0.07558025,0.06178788,-0.05996662,-0.031736035,0.079644546,-0.08132378,-0.11362709,-0.059549756,-0.07366917,-0.051840562,-0.05532653,0.24762158,0.05626073,-0.19168003,0.016496401,-0.006970204,-0.12399289,0.105303235,0.008580984,-0.12986313,-0.08495965,-0.13415112,-0.106184125,0.14512217,0.10896463,-0.105464205,-0.00032284216,0.054397512,-0.06672058,0.031656995,0.18642598,-0.04070142,0.15255708,-0.09798044,0.030416671,-0.0044720387,-0.09035837,0.19431238,-0.049303636,0.095763475,0.07723638,-0.06914179,-0.036760427,0.019044302,0.063099176,-0.0059368648,0.029683439,-0.014859448,0.18833789,0.06711962,0.060532786,0.048724275,-0.0285588,-0.041750763,-0.010793843,-0.109094486,-0.08443804,-0.07514931,0.03497189,-0.15964162,0.023453008,-0.048380163,0.0013072175,-0.020561408,0.017573511,-0.065910764,-0.028638812,0.1273694,0.024627011,-0.1643638,-0.07638109,0.0026962082,-0.020973926,0.036683522,0.13879661,0.021134084,0.012364077,-0.19229937,-0.111916184,-0.027092021,0.0126296915,0.11905182,0.21464454,-0.1762449,-0.075619265,0.032976747,0.058289453,-0.09969049,-0.09284254,0.10102554,0.0085970005,0.031692266,0.0049860156,-0.04505596,0.03452603,0.10876092,0.11882516,0.009066818,-0.026556738,0.021516215,-0.024374224,-0.14454207,0.12721394,0.10174139,-0.06607887,0.071966566,-0.14294465,0.071052566,0.073685735,-0.07352723,-0.12909147,0.17117867,-0.040943414,0.108660154,-0.11294041,0.01537716,0.05884802,0.044511173,-0.11447198,0.13658737,0.11739083,-0.059359096,0.07243829,-0.1258427,-0.11615884,0.082211085,0.02221227,-0.06799818,0.15849936,0.0065293824,-0.099291414,-0.029834487,0.004841235,0.023926193,-0.03467535,0.099759944,-0.07853752,-0.05851164,-0.06924218,0.08353589,0.052136302,0.09954471,0.05412068,-0.11820527,-0.11930034,0.07863988,-0.017144494,0.0024336088,0.025745805,-0.120036386,0.014671866,0.081189014,-0.110325046,-0.08827907,-0.058236826,0.16940424,-0.029429398,0.1060336,-0.06844859,-0.0067097493,0.17329606,0.19124962,-0.025798947,0.12150939,0.053758856,0.10021229,0.03845462,-0.027308622,0.01213271,0.006747628,0.050504815,0.11274296,-0.034687027,0.07153974,-0.0065915124,-0.03724698,0.015709268,0.029903227,0.052341912,0.12094843,0.06395825,-0.01813779,-0.061472267,0.0356033,-0.1604562,-0.056804385,-0.00890138,-0.037293456,0.005669544,-0.076875634,-0.037696738,0.066736236,0.041610092,0.08023811,0.13218416,0.13284577,0.046393525,-0.0254688,-0.16729046,-0.01251763,0.17954478,0.040333707,0.03876863,-0.017953433,-0.058727723,0.0040105684,-0.03880453,0.13670203,0.007715699,-0.01448641,-0.05455856,-0.014951226,0.06585892,0.07564181,-0.062705226,-0.12787886,-0.009962408,0.044219732,-0.09585941,-0.01289089,0.069121525,-0.1754942,0.026591454,0.057844162,-0.25017792,0.15451062,0.20382515,0.0031454659,0.042065956,-0.08225679,0.08546035,-0.09469344,0.103036664,-0.005151051,-0.011343172,-0.022917083,0.007820663,-0.092454456,0.0015362584,0.028523214,0.108097486,-0.10071253,0.03142049,0.031842444,0.11330942,-0.0128724,0.053507797,0.051909164,0.12828825,-0.0075823814,-0.00018497933,0.04714608,-0.06297058,-0.047004327,-0.18826811,-0.0018325811,-0.027285066,-0.010976258,0.0032311457,0.05283565,0.10523173,-0.11769515,0.0733798,0.01201209,-0.11836649,-0.117136635,0.08108248,0.07548923,0.020051148,0.1824227,0.048976567,-0.008689135,0.030122794,0.019548811,-0.20539525,-0.030237122,-0.13670132,0.13848668,-0.10951902,-0.1255746,0.01854209,0.04772389,0.048421316,-0.06445974,0.14898616,-0.09315133,0.045174923,0.092255265,-0.03202342,0.09839696,-0.119115524,0.07182744,-0.022865921,0.05792026,0.07157008,-0.08372089,-0.22877061,0.098303296,-0.10334881,-0.26494226,-0.021700853,-0.0043417374,0.046514653,0.20059857,-0.029145768,-0.026786055,0.03217339,-0.05434331,0.022313785,-0.010055834,0.13018231,0.055060953,0.12642701,0.045780193,0.025190622,-0.05530403,-0.0177214,-0.03283185,0.12180817,-0.01342786,-0.07893292,-0.097300574,-0.07784651,-0.022782216,-0.06724576,-0.0009909954,-0.011234462,0.041919515,-0.023167577,0.07677593,0.033552136,0.0020423615,-0.06961235,0.06587729,0.14375307,0.08776371,0.0017403171,-0.07103931,0.099226005,-0.10144714,0.15896587,-0.0682935,-0.015003717,0.08853022,0.06444692,0.098026976,0.047668077,-0.05877287,0.13285583,-0.004436508,0.09837612,0.1351983,-0.008315121,0.08330101,0.046184763,0.009367062,0.08326192,0.13244277,0.120101295,0.042954735,-0.061796047,-0.03272092,0.011102474,-0.20971829,0.15757044,0.09280645,-0.14137101,-0.07211709,0.03242017,-0.17276642,-0.18385033,0.05931339,-0.11221455,0.06310558,-0.16831508,-0.041680444,0.18479076,0.038978882,0.07818331,0.06072417,-0.11371839,-0.09225061,0.01646766,0.039998356,-0.07055789,0.12356413,0.0853021,-0.018071817,-0.020693153,-0.14272314,0.07158947,-0.028575191,-0.011769362,-0.08910517,0.019692931,0.010765269,-0.034940515,-0.1377068,-0.18593952,-0.12744333,0.038467415,0.07696621,0.09848736,-0.13593732,-0.012183449,-0.028319113,-0.09187136,-0.010582491,0.049773246,-0.0036097434,-0.04365003,0.11924134,0.1654128,-0.033473466,-0.08494112,0.043321624,0.043557584,-0.10188702,0.13386016,-0.10429166,-0.18519108,-0.032621183,0.12688775,-0.042662133,0.046002936,0.078628615,0.011004758,-0.16034013,0.053885706,-0.12592524,0.13426115,-0.22630851,0.09220026,0.05130114,0.036889065,-0.076882534,0.081397064,0.09041996,-0.13109456,-0.12763718,0.13827376,-0.10513816,0.012441973,0.09615452,0.012630849,0.11393911,0.11970774,0.12709664,-0.00844787,0.010126277,-0.048184443,0.029663218,-0.07959456,-0.12213007,0.047355216,0.009864108,0.17547072,0.08919534,0.020542609,0.0841107,0.09608321,-0.13316166,0.030400023,-0.036837455,-0.007117553,0.023199009,0.19719659,-0.043095578,-0.024985943,0.027076837,0.07428285,-0.12532175,-0.03295445,-0.096488245,0.115613095,0.027702423,0.048241973,-0.14516957,0.2348149,-0.041641906,0.100183465,-0.012132588,0.0467466,-0.10069873,0.0855462,0.06065988,-0.05163724,-0.08870292,0.02191252,0.024289386,0.06748565,0.09847014,0.12066159,0.10282658,-0.03055312,0.048828218,0.11979719,-0.087378465,-0.024305012,0.046549734,0.07577326,-0.071041666,0.0026082923,0.052838456,-0.028357832,0.024632014,0.0068596983,-0.08458344,-0.052638404,-0.063403964,-0.077401854,0.11795404,0.009530037,-0.058499236,0.053632308,-0.005487566,-0.06615979,-0.004779427,-0.12448685,-0.054524828,-0.18537258,0.049949847,-0.103055194,-0.04313508,-0.0033258668,-0.054864492,0.00989002,-0.05136273,0.14850748,-0.041037988,0.016938517,-0.013029602,-0.015713893,-0.03268757,0.07779917,-0.05560675,-0.0142299505,0.10269895,-0.040415928,-0.045553643,0.054126985,-0.011954567,-0.055596415,0.0073286593,-0.033076275,-0.09796973,-0.004340178,0.018678188,0.00937909,0.05995921,-0.02512909,0.080972,0.066856444,0.17235962,-0.022531971,-0.17142081,0.12628096,-0.13553552,0.017485615,0.02870792,-0.055207264,0.06365787,0.058791805,-0.024436267,-0.10043362,-0.09889955,-0.023461485,0.007403071,-0.15593462,0.018344281,-0.07366133,0.019142678,-0.0032374128,0.12334709,-0.069049135,0.015884588,0.09431202,-0.08521807,-0.10138473,0.013368483,0.048579354,0.078367025,-0.09374936,0.028139181,-0.006349604,0.011406616,-0.007391748,-0.050849617,0.05843413,-0.062419184,-0.10686898,-0.018309128,-0.01833761,-0.005233727,0.017600497,0.040405907,-0.015363034,-0.0012736088,-0.031537708,0.08283797,-0.08263325,-0.06258833,-0.037620217,0.004292044,0.13750811,0.06426898,0.11476509,0.021846516,-0.0036362314,-0.031260192,-0.08760173,0.08622982,0.10150592,0.10476051,0.07976005,0.022328498,-0.10600862,-0.018372264,0.078103565,-0.093181506,0.1186596,-0.01363833,-0.012956236,-0.055958085,-0.07995562,0.046178453,-0.122272305,-0.09245367,-0.05714315,0.094044335,0.10996935,0.043996282,-0.006593919,-0.05022973,0.058614906,0.028485447,-0.04488538,-0.06603629,-0.02804959,0.06551515,0.07433372,0.027850244,-0.100846246,-0.031709336,-0.059970032,0.099359274,0.14306568,0.050301485,-0.0768437,-0.057605933,0.016677327,-0.065260604,-0.03427093,0.05319763,-0.02023919,0.03645422,0.061205663,0.10784109,-0.03559652,-0.07693446,-0.06948989,0.08252922,-0.0034130698,0.027917974,0.04626117,0.09810921,-0.06535758,-0.04350663,-0.05952713,0.018467156,0.013447729,-0.08040588,-0.09457097,0.08801712,-0.09171842,0.057681646,0.026522906,-0.008417738,-0.0018797589,-0.027186217,0.11808386,0.003085673,-0.021063404,-0.13778028,-0.056831088,0.03481858,0.03978071,-0.13022146,-0.05047207,0.032035816,-0.03485588,-0.057003725,0.049669594,0.0003897585,0.16340952,0.122170076,0.022366202,-0.063235246,-0.025151627,0.02542774,0.07229585,0.14825296,0.07095728,0.024443787,-0.11895092,0.11609013,0.07355142,-0.027860453,0.011114066,0.12826,-0.10707925,0.019202316,-0.13659485,-0.031788588,0.009995349,-0.038985796,-0.0747057,-0.18215863,-0.06720495,-0.008658088,-0.04999218,-0.10103222,0.07025316,-0.0043908716,0.011394649,-0.019346558,-0.088615574,0.0073055285,-0.0014580116,0.017017948,0.11806971,0.09310821,0.10857095,-0.075789645,-0.017569672,-0.038088348,0.08676805,0.03824883,0.039947722,-0.0055374596,0.090125576,0.17186062,-0.039434146,-0.049069773,-0.07642585,-0.1438719,-0.010745684,-0.033264015,-0.00828532,0.014841001,-0.1219422,-0.09018999,0.0068055736,-0.0012464067,0.038066514,0.02814728,-0.035272144,-0.0010268345,-0.0018145822,-0.063411884,0.0074111475,-0.14774527,0.026125837,0.09669684,0.0182498,-0.08721114,0.12523359,0.08082692,0.011337469,-0.033690095,-0.1212111,0.07257473,-0.109649435,0.10361396,0.019120596,0.045822974,0.013481395,0.10843146,-0.03563415,0.026898619,0.002418311,0.031655435,-0.008063633,-0.10166291,-0.0433294,0.10927882,0.056934476,-0.06920565,0.10196236,0.009005654,0.047031548,0.11474795,0.0496857,0.08999405,0.012323516,-0.12240524,1.2527496e-05,0.06065589,0.040249385,0.04252648,-0.070638366,-0.018077184,-0.107696615,0.18581878,0.013972216,0.09505223,-0.017516892,0.055705704,0.01387492,-0.072477944,0.028741656,0.0072093513,-0.0663858,0.05267117,-0.028832838,-0.028628051,-0.07399889,0.10906405,0.034679804,0.035699036,-0.051486336,-0.088763416,-0.0468866,0.04680778,-0.0015644964,0.018702896,0.07212873,-0.057521172,-0.05554349,-0.02264612,-0.036781453,-0.02616239,-0.16583306,-0.021021409,0.027184866,-0.050306246,-0.001545751,-0.030501755,0.03268138,-0.033285603,-0.06466196,-0.015783358,0.024265105,0.03352174,0.040655937,0.011723822,0.017664462,0.08667367,-0.1015438,0.021310715,-0.0749381,-0.0088244425,0.011625198,0.027463214,0.014981248,0.0048730867,-0.06673866,-0.06430594,0.026643379,0.049852308,-0.04318586,0.041170552,0.034975454,0.041801497,-0.05598596,0.022821516,-0.17646535,-0.031830236,0.019282013,-0.016184233,0.06073842,-0.010544431,0.05593266,-0.025769303,-0.051553458,-0.16286705,-0.07792942,0.035638582,-0.06790083,-0.092963845,0.046143923,-0.00895141,0.031815294,-0.10314459,0.027165325,-0.10962156,0.016863346,-0.058476884,-0.05632816,-0.02309175,0.085119694,0.030403066,-0.18070386,0.03358348,-0.011116318,-0.03496592,0.008976985,-0.013089002,0.021390054,-0.03513287,0.003003331,-0.030788526,0.04987303,0.036975276,-0.05230554,0.011116476,-0.04172436,0.0021495481,0.082719095,-0.04207589,-0.014126726,-0.00036529682,0.021327944,0.047811177,0.120645426,0.02141733,-0.042600915,0.03717657,-0.06887963,-0.025511762,0.0039218883,-0.03400122,0.012496709,-0.02702738,0.025580063,-0.1471545,-0.017588973,0.0002655926,0.050940603,-0.03982423,0.0657871,-0.07326383,-0.0072226836,-0.0031390178,-0.0070774923,0.0022355455,-3.17615e-05,-0.06084859,0.029696481,0.09647139,-0.07585144,-0.05946068,0.063512646,-0.116275825,-0.028447406,-0.098625205,0.10175432,-0.12542641,0.071949676,-0.017767707,-0.005982192,0.014892275,-0.059027493,-0.0023499883,0.05172064,0.0012737956,-0.02635299,0.043991607,0.100294046,0.013822633,0.08775063,-0.05370239,0.05709786,-0.09764709,-0.10883581,-0.0031852035,0.04194779,0.09685479,0.15865317,0.04986802,0.03419525,0.12897995,0.010673523,0.01682298,0.03963464,0.084044404,-0.088019,0.012425366,-0.052328773,-0.0068359384,0.038364895,-0.12350167,0.0616153,-0.05714733,-0.15518948,-0.07919177,0.041634936,-0.011044238,0.022026567,0.034769654,0.024394758,-0.12819633,-0.0317013,0.0018661066,0.014458113,0.021744521,-0.012822016,-0.02110476,0.0646906,-0.03162729,0.045420427,-0.0061271912,0.14033012,0.06000206,-0.14861254,0.060085867,0.107601516,0.009169849,0.04034576,-0.16571797,-0.08098297,-0.025356421,0.049208283,-0.07787957,-0.09457166,0.020785466,-0.056504045,0.0681787,0.0006650145,0.02035002,0.099598505,0.033411823,-0.013650852,0.035807297,-0.1091246,-0.008115581,-0.046800505,-0.0594652,-0.13355823,0.014530937,-0.12314811,-0.029403232,-0.068939075,0.0103036845,-0.07637554,0.00042390762,0.0007748474,-0.015306093,0.043125723,-0.06621615,-0.026698645,0.00040894843,-0.023296008,-0.024228455,-0.036613263,0.014377984,0.0010517366,0.008032295,0.06350781,-0.004282682,-0.10949831,-0.0057689752,-0.08213423,-0.16583934,-0.085807286,-0.028648635,-0.09326822,0.020132182,0.039938696,-0.05247929,0.03749453,0.019370792,0.089616984,-0.040740333,0.073824234,-0.008035179,-0.0047913617,0.0076758554,-0.09577228,0.058115825,0.016032534,0.055594996,0.01437645,-0.112792574,-0.009726793,-0.052577887,0.04530382,-0.013445492,-0.08499065,0.064515345,0.15537916,-0.055066638,-0.08842384,0.035767965,-0.072530575,0.016903616,0.037234314,-0.07141856,-0.0076952996,-0.061580367,-0.10354239,0.003693901,-0.0011144852,0.021135697,-0.065488525,-0.08148369,-0.098877296,0.028492538,0.11527558,0.06277845,0.036210604,0.13589084,-0.004975815,-0.040226087,0.013641399,-0.0695535,-0.03969159,0.026070302,-0.023000244,-0.08335281,0.03161439,-0.13964614,-0.08529536,-0.029459836,-0.084979996,0.056490567,-0.0013119638,-0.09780156,-0.025928898,-0.0014724747,-0.020341126,-0.022992922,0.051736288,0.027036792,-0.036006626,0.1478832,0.074904814,0.018266015,-0.07112284,0.0051929136,-0.039887067,0.08488484,-0.14980514,-0.06287217,-0.09501144,-0.07963659,-0.062464025,-0.026664099,-0.103914455,0.06635073,-0.11378361,0.07492023,-0.053882845,-0.04620908,-0.007145368,0.018037004,-0.027431335,0.06665834,0.036853194,-0.042591106,-0.0033773826,-0.023605922,0.10047813,0.10563192,0.12581731,-0.01860299,-0.05274397,-0.018831221,0.077297434,0.029340362,0.06317528,0.0159743,0.004901849,-0.04660923,0.0011383999,0.061138257,0.0903669,-0.034721285,0.028021758,-0.03542751,0.0501558,0.028440481,0.032767095,0.11918121,0.091670915,0.041577294,0.029335232,0.060069136,-0.056569614,0.03511623,-0.03647849,0.02680964,-0.0771275,0.094923615,0.07212042,-0.010572242,0.06113816,0.10029635,0.00961647,-0.082601406,-0.042781744,0.033468,0.08998836,-0.07277996,0.018312449,-0.015986104,-0.049076106,-0.0819823,0.070542745,-0.08257588,-0.007839669,-0.033767816,-0.039561734,-0.02637992,0.05422051,0.015893247,0.11017869,0.07436966,-0.04713032,0.00093222014,-0.015703725,0.09576716,-0.028632177,-0.016400874,0.048927028,0.016707579,0.14599864,0.031547736,-0.033256818,0.08834267,-0.008289079,-0.0006233358,0.064006895,0.050911162,0.009989062,-0.05064414,-0.04325238,0.053222843,-0.017892797,-0.01983818,-0.01945461,-0.03778147,0.06708673,-0.00050650665,-0.023508107,-0.074158415,0.07058189,0.05006385,-0.05005359,-0.053956717,0.017159574,0.027370272,0.06090438,0.08648393,0.009416791,0.063749075,0.1456141,0.019977424,-0.022273196,0.033072487,-0.112183884,-0.04246361,0.014131477,-0.018453723,0.0009961538,0.031235615,0.0112116635,0.094614945,-0.13578412,-0.11113731,0.034297444,0.0863077,-0.057158846,-0.015071877,0.04465889,-0.117594324,0.06280625,-0.07778593,-0.009932201,-0.061236955,0.008363105,0.06508321,0.017763374,-0.041686635,0.04487585,-0.059019256,-0.08926225,0.020620506,0.027971594,-0.033732556,-0.027582854,-0.06975737,-0.029393515,0.010956525,0.11119857,0.0056952764,-0.11549566,-0.06694153,-0.08455174,-0.078226045,-0.082653634,-0.05801143,0.07692792,0.117833905,0.08145452,-0.11572916,-0.0072666486,0.026142294,-0.021498593,0.010644684,0.046041887,0.08436224,0.01589818,0.09713584,0.14415325,0.04042247,0.0872969,0.059725028,-0.0012401744,-0.0021675918,-0.07700599,0.041224375,-0.2009764,-0.08589753,0.021585913,-0.049848516,-0.06438354,-0.00097133423,-0.0032192676,0.22311203,0.06305813,-0.015763212,0.045416534,0.096452445,-0.05354689,0.061458148,0.0013172558,-0.03149154,0.046068612,0.10074907,0.029539987,0.009560364,-0.06519073,-0.017575415,-0.03907116,-0.056230586,0.02949986,-0.14187507,0.062867396,0.059560005,-0.007497649,0.0944508,-0.02331693,-0.022675203,-0.01803062,-0.20588452,-0.059613336,0.0648929,0.09114844,-0.01821273,-0.057709105,0.032909606,0.07576801,0.05445064,0.006712068,0.044229563,0.13129476,-0.12529932,0.0921611,0.027156504,0.044329267,0.030750971,0.0012908853,-0.0035856655,-0.033284314,-0.023470454,0.10621003,-0.013771897,0.105189264,-0.018425068,-0.19049776,-0.07296324,0.019927893,0.008595888,-0.065137245,0.11686425,0.09758598,-0.055215135,0.05800397,-0.032874793,-0.08661464,0.07760401,0.011450235,-0.046759244,0.007983504,0.049117144,0.12856081,-0.0062895743,-0.16707656,0.081164055,-0.058776423,0.0078073647,0.028578913,-0.04152754,0.022060655,-0.011607966,0.0018794443,0.097375154,0.044620477,-0.0065560765,0.048111998,-0.056994688,-0.06473208,0.07661097,-0.0552831,0.039088067,-0.018852798,-0.041356884,0.08347065,-0.15066688,0.013305183,-0.0036097595,0.081011675,-0.107344,-0.023654949,-0.081594475,-0.069644555,-0.021764696,-0.015718218,-0.06499665,0.06821185,0.08437996,0.037360378,-0.022755213,-0.050826874,-0.08894593,0.09165378,0.0061063357,0.11178014,-0.07782385,-0.1875639,-0.00751226,0.044113815,0.04214098,0.049551528,0.06961662,0.05894812,0.04124809,0.044294853,0.06494706,-0.01032054,-0.04164044,0.021622473,0.038906872,0.01918855,-0.011186985,-0.029739195,-0.012918237,0.038311686,-0.028237207,0.04671168,-0.076518,0.019755477,-0.060334586,-0.04188204,-0.09294169,0.03548017,-0.011516565,-0.02799046,-0.13453919,0.0029654468,-0.052610315,-0.0112433545,0.014094384,-0.19346526,0.052068666,-0.054226287,-0.014281062,0.06945623,0.008242095,0.06862365,0.033620164,-0.010762422,-0.034935888,0.05529988,0.10010639,-0.13358384,-0.008812416,-0.022082422,-0.16905569,-0.021343907,0.020041978,0.03906698,0.06373193,-0.09215162,-0.035078,-0.036226846,-0.011840864,-0.04701908,0.053963967,0.007379423,0.013340997,-0.0139974505,0.018743778,0.105575584,-0.028782222,0.015294721,0.041055173,-0.07345941,-0.06571307,0.14250396,-0.07077772,-0.03887891,-0.028581439,-0.033963144,0.13146496,0.016259344,-0.11539846,-0.09906789,0.029004235,0.14477131,0.10766616,0.0031066725,-0.10412674,-0.06198225,-0.10360594,-0.11117996,-0.06921715,0.062429436,-0.06735173,0.1468225,0.07586006,-0.034367703,0.06276167,0.032414783,-0.06951857,0.0545274,-0.01735026,0.08009165,0.07449833,-0.062398173,-0.0405076,-0.016975312,0.05058143,0.16533084,0.05500058,-0.08505885,0.094687,-0.069874264,-0.027640784,0.03453586,0.04084997,0.011608938,0.08095995,0.09887551,0.18044002,0.024918143,-0.061961144,-0.047873605,0.077122405,0.003258351,0.06527097,-0.09074574,0.08778575,0.035996802,0.02184028,0.20519441,-0.1088899,0.055396497,0.05624873,0.11412822,-0.07192529,0.100222655,-0.057579786,0.045801993,-0.06804031,-0.08668989,0.055778384,0.046669926,-0.12801094,0.08755434,0.118033126,-0.19495544,0.008483524,-0.15054572,-0.11088354,0.011064483,-0.07724264,-0.015843688,0.030877233,-0.018498326,0.060997836,-0.04812757,-0.02388986,-0.040197723,0.042839132,0.08493942,-0.024302723,0.0627095,-0.023506809,0.0055804015,-0.08624356,-0.009561043,-0.017910037,0.04852749,0.1659842,0.050689094,0.001632088,-0.059288077,0.08255554,0.01805368,0.026217753,-0.051460005,0.042159908,0.025512585,0.062253773,-0.01688182,-0.0077534406,0.13460201,-0.09191972,0.027986828,0.08096812,-0.0004619166,-0.04254727,0.032143988,-0.10802318,0.11734364,-0.023456376,-0.026158134,0.06777803,-0.103642285,0.025710385,0.023866124,0.07001455,-0.066663116,-0.024135021,0.10065532,0.1848195,-0.07257203,-0.05761692,-0.012225751,-0.11134657,0.117673784,-0.036947977,-0.10320445,0.017313054,-0.0764034,-0.017661558,-0.09348435,-0.0040393826,-0.059069235,0.061394285,-0.06981652,-0.018051026,-0.13038595,-0.10201303,-0.09532184,-0.073173136,0.08702407,-0.08608342,0.076304235,0.021485282,-0.013840536,-0.021527344,0.095701575,0.18491955,0.036505774,0.20237695,0.17624438,0.08828543,-0.021546543,-0.06763015,0.055234626,0.054321013,0.026442591,0.022152377,-0.014562755,0.06639797,0.020857995,0.17009726,-0.06900752,-0.0040235505,-0.02448738,0.011603705,-0.08575506,0.015536432,0.13780308,-0.074257314,0.11264734,0.032996714,0.019837853,0.017768554,-0.015540149,-0.008758784,-0.015952835,0.016002517,-0.15226555,-0.04361539,0.112881996,-0.12518881,0.05030397,-0.031272393,-0.09955781,0.030082839,0.011263903,-0.032257248,-0.030158445,-0.12596814,-0.14949106,0.0049515725,-0.018499793,-0.008735823,-0.112278126,0.08232246,-0.059104767,0.11768141,0.017517896,0.036537085,-0.07312377,0.08051394,-0.027632484,-0.018269043,-0.0777368,0.13990377,-0.010382322,0.144741,-0.06275442,0.10004911,-0.08811061,0.01197306,0.06522837,0.09136634,0.018895524,-0.14466703,0.10029223,-0.08423652,0.0075672483,0.11363845,0.056170296,0.18013118,-0.0066864,0.080647714,0.072978616,-0.066726424,0.117451616,-0.13342968,0.12107833,0.029329533,0.07076176,0.035151497,0.05294996,0.04223675,-0.037019074,-0.035293084,0.06928798,-0.0024969957,-0.060519237,-0.094167255,0.046035074,-0.009085493,-0.07039964,-0.03576696,-0.11519996,0.05346595,-0.11917965,-0.15673847,0.03094145,-0.023763126,-0.083119966,0.03591446,0.11744551,-0.021908006,0.007325665,-0.0222169,-0.13429922,0.0930555,-0.04791496,-0.010102468,0.23299935,0.012726521,-0.037181873,0.09363392,-0.046164658,0.03376921,-0.03292133,0.11949597,0.031637724,-0.10439477,-0.05328579,-0.0730317,0.051472835,-0.17408681,-0.11221944,-0.02510868,0.03288028,0.028131936,-0.16618733,0.09274791,0.11351032,-0.045063067,-0.14491951,-0.02467529,-0.09578907,0.108094856,0.089093015,-0.037565388,0.055737734,-0.0064956825,0.00024851694,0.03159326,0.008064415,-0.01749051,0.042730186,-0.11589576,-0.025316194,0.008514501,0.03010064,0.06272828,0.12181059,-0.027145376,0.089316815,0.03759029,0.04398917,0.024093367,0.16902708,-0.026882345,0.1606958,-0.08502257,-0.036086958,-0.07757301,-0.020062491,0.069725685,0.10174203,-0.064787306,-0.03408238,-0.002366807,0.090324655,-0.10578797,0.030577663,-0.095174365,-0.10867321,-0.094176866,0.010541206,0.065509036,0.016285941,-0.017433673,0.13171536,0.054892436,0.07334898,-0.11153943,0.084173694,0.014050981,0.0962083,0.065020934,0.008497744,-0.0042112265,-0.0655951,-0.056514207,-0.060939528,0.014222358,0.08519356,-0.05089761,-0.014585825,-0.2198588,-0.022253416,-0.04637351,-0.07348174,0.14751896,0.06806738,0.030724522,-0.024956543,-0.04547228,0.008368645,0.005421225,-0.10211006,0.0699778,0.007789795,-0.0879919,-0.051274013,0.028009247,-0.11257818,0.09130143,-0.036291186,-0.044767223,0.020634657,-0.021095319,-0.074284695,-0.0794236,0.10320347,0.03895814,0.04032815,-0.14553659,0.004446878,-0.0027247255,-0.043251988,-0.110060394,0.06477864,0.14487405,0.044447344,0.12347624,-0.06250494,-0.045130882,0.0217662,0.010712294,0.048181903,0.07864368,0.1612223,-0.048827823,0.07006922,-0.047343936,-0.048303135,0.09176837,-0.09238543,-0.104778916,-0.041302774,-0.034049258,-0.028154964,0.07601958,-0.09640699,-0.13969286,0.014260826,-0.055710457,0.08160509,0.08307933,-0.03270911,-0.17587258,0.046920966,0.0664788,0.019012848,-0.04038517,0.13782997,-0.04639021,0.058563158,-0.033784665,0.06058982,0.009904544,-0.056104857,0.04391336,0.004733378,0.05407214,0.055781662,0.03546878,-0.03806457,-0.030763349,-0.034626696,-0.005789517,-0.10585846,-0.11368593,-0.0648802,0.113404095,0.08687269,0.12556773,-0.13753684,-0.00800005,-0.10490611,-0.019845024,0.031583175,0.05675566,-0.02753287,-0.036376566,-0.084932335,-0.04330294,-0.13093081,0.045899685,-0.17520282,-0.0490155,-0.08338353,-0.10969157,-0.016346978,0.008235597,0.032494284,0.05082808,-0.022746252,-0.010408987,0.12178387,0.06588586,0.15760952,-0.17000863,-0.054683335,0.04756092,0.0002593926,0.06865781,-0.05547624,0.068485364,-0.00640497,0.044519834,-0.1315299,0.054152124,-0.046725117,0.029323185,-0.047973726,0.10154574,-0.03026454,0.16284807,0.04263843,0.013273494,0.15147696,-0.013988255,-0.13743356,0.03799033,-0.0720645,-0.09086391,-0.03340993,-0.18807173,-0.005498408,-0.11385642,0.05630653,-0.037118703,-0.16519564,0.074544854,-0.097299926,-0.14724071,0.012925168,0.034402825,-0.07768151,-0.14567265,0.04239968,-0.053275373,0.027442537,0.075503774,0.015595741,0.0042093107,0.07141549,0.05513251,0.08836225,0.0763218,0.03163866,-0.07192464,-0.043544963,-0.03059019,0.1356999,-0.061979033,0.013462371,-0.009996661,-0.027581016,-0.047934514,0.0690652,-0.021921298,-0.003984036,-0.09778259,-0.060803268,-0.07330114,0.11878045,0.009314583,0.07169597,0.042727947,-0.050383974,0.06147771,0.059196603,-0.00022082153,0.041320413,0.0014259901,0.12887914,0.13143206,-0.072830416,0.10793335,0.03389007,0.066351205,-0.05273256,0.21382396,-0.024828482,0.03362886,0.0049698064,0.040764898,0.041721355,-0.02666164,-0.09923027,0.23413639,-0.06518917,-0.028147407,0.08454479,0.0018000681,-0.0032491381,0.1819977,0.017049365,0.09388443,-0.0044473363,-0.018273635,-0.17368384,-0.06871866,-0.069791034,0.0010543182,0.07446568,-0.053342137,0.13196956,0.057743438,0.013906101,0.0746824,-0.14947814,-0.028274857,0.16626509,0.018147476,0.03983657,-0.03153314,-0.0062290933,-0.04743297,0.2307885,0.046107773,0.039901465,-0.1653061,0.014653595,-0.032003596,-0.04066967,-0.083940774,-0.25857702,0.020295545,-0.17593604,-0.024003386,-0.055770878,0.070579804,0.05095739,0.07217574,-0.010424893,0.03431783,0.14802794,-0.21030986,-0.03090879,0.0084729,-0.08071884,0.014189888,0.09855105,-0.053720307,0.030612515,0.009068037,0.052348938,-0.027573818,0.2795515,0.0444788,0.033544272,-0.027333574,-0.04211057,-0.11861401,-0.04344422,-0.05514038,0.15430504,0.028186433,-0.0965523,-0.001810204,0.05584629,-0.078176364,0.054090735,-0.010962286,0.02392794,-0.015741954,0.17218912,-0.122398354,-0.030667955,-0.00883209,-0.013567555,-0.048338488,-0.16545421,0.058025673,0.1879594,0.14689717,0.011670704,0.37129137,0.05652624,-0.10103506,-0.02222251,0.08291093,0.20638403,0.16394694,-0.06210531,-0.049090013,0.07190819,0.20255026,0.08877461,0.07788584,0.057496216,0.06392908,0.04231526,0.0008261384,-0.1520995,-0.059300162,-0.15232247,0.041209668,0.15156688,0.01608236,0.0243492,0.07729115,-0.17175363,-0.0041377814,0.053046245,0.010068359,-0.001896395,-0.089005865,0.055348787,0.055309962,-0.009861608,0.036543783,0.069193535,-0.2106842,0.049549475,-0.2057785,-0.11671586,-0.15229121,0.09798125,0.15654112,0.14130369,0.042049803,-0.14903753,-0.07510188,-0.009640051,0.12409864,-0.08156401,-0.05343207,-0.03140769,0.03994028,-0.17488423,-0.0208415,-0.042682175,-0.029023997,-0.15353747,0.043014057,-0.0896028,-0.067500904,-0.072106846,-0.010396273,-0.19010454,0.1960428,-0.03842738,-0.019390745,0.13934082,0.010922185,0.012798081,-0.05492518,-0.25369945,0.040765088,0.0071070087,-0.057771698,-0.011577478,0.068415865,-0.050850745,0.031850006,-0.036853127,-0.06400683,0.11559432,-0.018742984,0.08463162,-0.10664022,-0.048049916,0.066624954,-0.005944902,-0.16927825,-0.048902858,-0.07278603,0.014719741,-0.2245434,0.08860145,0.094304614,0.042860907,0.010873177,-0.054133147,-0.044921152,-0.16351973,0.075925395,-0.17103466,-0.03325205,0.056498714,-0.08808789,0.040300433,-0.1348723,0.061106548,0.04895977,-0.12741235,0.07498522,0.030916031,0.025158202,-0.034164984,0.05661878,-0.052313857,0.15262373,-0.21995986,-0.12667705,0.07108568,0.0058519994,-0.0020965054,-0.124057256,0.10549226,-0.07554628,-0.17214167,-0.16774632,0.116871774,0.10562417,0.048145045,0.07267567,0.016022779,-0.06615299,-0.06585681,-0.04469171,0.12274801,-0.10031042,-0.002369768,-0.04152732,0.054465454,0.051381193,-0.053259704,-0.07275503,-0.03482684,-0.006609327,-0.0052547324,0.068312086,-0.12584083,0.2479725,0.06315387,-0.055964228,0.016616585,0.18989739,-0.1391251,0.015812967,-0.2082838,0.10011535,-0.030779382,-0.06450173,0.027500397,0.029744994,0.23357236,-0.121380515,-0.03400249,-0.22362603,0.0577315,-0.025319738,0.15008347,0.13896593,0.0314624,0.14675666,-0.021075789,-0.09917129,0.15311304,-0.023562504,0.08425914,0.031035826,-0.046870597,-0.02643662,-0.013692815,-0.045560304,0.10481202,0.065242834,-0.074521355,0.099144064,0.04055249,0.05750945,-0.12445183,0.039741445,0.040105946,0.037021603,-0.1351845,0.13205965,-0.029576354,-0.06387653,-0.07605468,-0.04555869,0.11766872,0.051017966,-0.07396689,0.08894528,-0.12335274,0.026701447,0.0430275,0.08027596,0.09543344,-0.16980918,-0.07548209,-0.091044545,-0.12108064,0.08346411,-0.10225462,0.12609147,0.15128921,0.030665146,-0.22051628,-0.02345576,0.08868595,-0.00063312607,-0.05089314,-0.030075563,-0.15115866,0.015537077,0.07101074,0.15893877,-0.060945697,-0.08202096,0.16122954,-0.025916588,-0.14446478,-0.031072114,0.041058995,0.12136352,-0.020844772,-0.103627205,-0.14047682,0.13941866,-0.11497195,0.019573735,-0.061663464,0.0064094802,-0.014159013,-0.07971723,0.120779164,0.016929679,-0.07386424,-0.01780577,-0.080331184,0.17510535,0.05534008,-0.052355967,0.0830255,0.11908306,0.17523304,0.12666546,-0.013934916,0.2620974,0.11370595,0.029548235,0.033955876,0.04334558,-0.2169389,-0.028803026,-0.04047271,-0.039014284,0.045420308,-0.082136534,-0.15912174,-0.0866941,-0.09243357,0.066350825,0.03715093,0.04568044,-0.02198977,0.039263207,-0.07607577,-0.04491117,0.050462853,0.10400567,0.2490076,-0.0424412,0.0022909604,-0.0028699976,0.018772762,0.09285282,-0.0682262,-0.06671476,-0.025553012,-0.004564281,0.06256103,0.14312941,-0.079796284,0.04340171,-0.0113087315,-0.040252987,-0.013812943,0.009338386,-0.0006450812,0.12431675,-0.080178626,-0.07961195,0.014252463,0.06826566,-0.20729862,0.14059651,-0.14565894,0.101287894,-0.012097928,0.09149281,-0.009050257,0.039628275,0.034984432,0.103499435,-0.025959304,0.08251261,-0.091976054,0.0578234,-0.044987958,0.17771047,0.09923951,0.0764298,0.03076227,0.07587172,-0.09942736,-0.005483678,0.18046162,-0.12600164,-0.017183851,-0.02006927,-0.015517024,-0.023762466,-0.12181955,0.07176135,-0.021653853,0.17477624,-0.014377243,-0.050620988,0.006858506,-0.117998846,0.023800528,0.22844185,0.08467528,0.04745126,-0.04266254,0.06314157,-0.2310182,-0.061812688,-0.012431606,0.028394528,0.07922707,-0.016025819,0.0004909207,0.047653217,-0.02984307,-0.058785237,0.040006686,-0.07632787,0.03308324,-0.062416688,0.041926704,-0.034007244,-0.027476855,0.13399532,0.03059335,0.037544873,0.024354696,-0.01936556,-0.19412105,0.11793011,0.115113266,-0.052437566,0.065643944,0.23265572,0.054359056,-0.004015017,0.18444923,-0.075776115,-0.06533092,0.037442643,0.12440706,0.0016010676,0.012391952,-0.059821103,-0.21172376,0.06451137,-0.03653375,0.028182054,0.001025465,-0.0950413,-0.19234712,-0.16115381,-0.061443895,-0.12551503,-0.07791282,-0.15533037,-0.008197169,0.076160714,-0.13054241,-0.065237604,-0.0026389954,0.04630534,0.04212082,-0.04357378,0.021004895,0.16238846,0.06474975,-0.013874319,0.011501715,-0.06249441,0.04647048,-0.08742742,0.062528074,0.034241814,-0.007138687,0.023572965,0.0012304607,-0.06546273,-0.072853304,0.079029776,0.028456574,0.09866343,0.01739695,0.039751228,0.10961121,-0.1791319,0.014987782,-0.056899887,0.013319175,-0.018451992,-0.09224067,-0.13640462,-0.006784048,0.01303149,-0.084052905,0.0043147453,-0.1333254,0.09282198,-0.115121864,-0.053757593,0.017024145,-0.07824169,0.050380323,-0.12571745,0.091929756,-0.24063447,-0.10691862,0.054919224,0.0040363874,-0.066018246,-0.0044310912,0.006609802,0.0026915225,0.015705185,-0.00560506,0.06333168,-0.042615604,0.16164179,-0.10093744,-0.090187356,0.10383842,-0.044794492,-0.023720987,0.13688174,0.1861674,0.09715342,0.004120072,0.1252648,-0.013443837,-0.10110001,0.024539283,0.0028237219,0.012632424,-0.0019889297,-0.09046671,0.04788171,0.16383083,0.071939476,-0.1269777,0.018622983,0.0084193805,0.00513638,-0.20540573,0.019276178,0.044898555,-0.1761633,0.040143993,0.036967337,-0.17276439,-0.0856469,0.0894405,-0.06503465,0.12059556,0.22202086,0.1028013,0.0825857,0.14275396,0.1654867,0.020802459,0.035851546,0.008740683,0.08711213,0.0250194,-0.12680043,-0.14149663,-0.05169872,0.12847897,0.1506773,0.15905319,-0.18811259,-0.004412725,-0.035255704,0.04868354,0.077061586,-0.060142957,-0.035843525,0.112165384,0.1855872,-0.03809809,0.05566993,0.05838179,-0.022753946,-0.022342563,0.018707346,0.10001333,-0.020659897,-0.14530839,-0.0267753,0.101697564,0.025836498,-0.054919627,0.07329228,0.12418663,0.082550585,0.039061245,-0.078213714,0.021249276,0.13290088,0.027103597,0.09975815,0.021697138,0.13657668,0.075352356,-0.020708436,-0.010237302,0.11488693,-0.11310647,-0.16266203,0.05305729,0.054261398,-0.06501667,0.03113336,-0.096917085,0.075435236,-0.0061779814,0.118392244,0.13781992,-0.016339986,0.16865124,0.1698337,0.028867705,0.10583058,-0.012503498,-0.01157182,0.073102266,-0.03857817,0.014484688,-0.014816012,0.18748425,0.14513232,0.15021941,-0.003827638,-0.004780198,0.019077783,-0.0002762717,-0.01156079,0.03193066,-0.045590274,-0.040635075,0.015767254,-0.02967679,-0.028051937,0.053748734,-0.039599594,0.11663179,0.06715419,-0.13117953,0.0547538,-0.11464039,-0.024596447,-0.18888316,-0.03540384,0.19474629,0.07808725,0.052321725,-0.00017452496,-0.096860304,0.11414667,0.03256228,0.010723829,-0.03389384,-0.04718,-0.09321979,0.050066873,-0.060592268,-0.103016034,-0.14104462,0.017482141,-0.14671099,-0.068487436,-0.0062445938,-0.12151168,-0.07707658,0.18391109,-0.0569407,-0.03703674,-0.0068453574,-0.0829662,0.009253984,-0.061000552,0.0110761495,-0.03830497,-0.11691165,-0.042104613,0.025959888,-0.11284299,-0.03269521,-0.15108141,0.1589199,0.03804563,-0.1594652,-0.03866171,0.17152607,0.09730269,-0.031396076,0.07965505,0.09284256,0.052217826,-0.067849025,0.07929916,-0.12994121,0.021935318,0.024354314,0.0025573277,0.169535,0.017309515,0.035117645,-0.01814279,0.013385011,-0.014105266,-0.14521092,-0.014950157,-0.16597465,0.07080469,0.059041407,0.044025734,0.0059618736,0.13621998,0.016037546,0.26994833,-0.009974726,-0.047051374,-0.055837207,-0.014678498,-0.036034957,-0.078252204,-0.28525186,-0.19673185,-0.097836964,0.06472752,0.043212827,0.0032433334,0.111275256,-0.028110065,-0.005074826,0.06965325,-0.10548914,0.08950058,0.02023597,0.004556489,-0.12106485,-0.08470052,0.005174132,0.028321693,0.009811101,-0.071428224,0.056162924,-0.008841072,-0.12212266,0.024566311,-0.005911588,0.08560376,0.21238446,0.068881236,0.0097237555,-0.020396184,-0.16607226,0.078590475,-0.0918489,-0.146795,0.04058646,-0.086275324,0.13461636,-0.18838818,-0.07871659,-0.03006121,0.16855532,0.15413073,0.06655807,0.09341294,0.03878733,-0.106202714,0.038351573,-0.04652299,-0.042652804,0.03346913,0.046322197,0.18267412,0.064021535,-0.14675923,-0.13914646,0.05068994,-0.008465337,0.08487091,0.118288934,0.052425,0.044659644,-0.028311174,0.09524668,0.001632838,0.055625197,0.15513252,0.024201797,-0.0015229449,-0.049802367,-0.06410623,-0.16801795,0.083647706,0.07228923,-0.092049584,0.035058666,0.0019538195,-0.027134271,0.11662176,0.022463165,0.05374411,-0.013440074,0.22498123,-0.10305963,0.026114773,0.15235738,0.03571644,0.049096975,0.0380757,0.034266602,0.09395763,0.0021525417,-0.11263051,0.007640227,0.11907143,-0.008989186,-0.14813712,-0.023679772,0.2332559,-0.16005911,0.11786865,-0.05080806,-0.18496358,0.017033156,-0.14459634,-0.179334,0.08166797,0.16690134,0.07150079,0.11514452,0.04765537,0.07643834,0.0048548435,-0.007951853,0.01585516,0.01861653,-0.065287955,-0.008601903,-0.031056527,0.10981594,-0.08374728,0.0871128,-0.07243164,0.029947964,0.054026835,0.016751809,-0.018229453,0.025091,-0.0059762304,-0.14124224,0.051505692,-0.044530902,0.08262002,0.07254083,0.0918495,0.024085118,-0.1187458,0.14829914,-0.047683965,0.023277272,0.029513037,0.02959385,-0.04342516,0.07843233,0.12785617,0.045884468,0.07027849,-0.05677673,-0.0018617597,-0.003043093,-0.108550355,-0.017935855,-0.08195602,-0.014757587,0.054780517,0.038548887,-0.061864357,-0.12525664,0.052480213,0.089526534,0.03241231,-0.118885644,0.082418226,-0.024722414,0.022537345,0.062365364,-0.07382464,0.16984212,-0.028246319,0.09775781,-0.051530603,0.12427274,-0.040282156,0.055305436,0.04066977,-0.056373652,0.08355141,-0.055062618,-0.071085624,-0.010656562,0.08106649,0.09027324,-0.051121213,-0.07145084,-0.16365486,0.17635804,0.075950384,0.13724808,-0.09739426,-0.13369636,0.02455797,0.08591621,-0.06545723,0.11332446,0.10324352,0.042489324,-0.06422448,0.09962505,0.13650773,0.03510092,-0.09561015,-0.12104225,0.07430077,-0.005419644,-0.13241102,-0.070881076,-0.008410239,0.09792929,0.06905958,0.11941223,-0.09137454,0.052972116,-0.09647987,-0.0912824,0.0006593621,0.00029008675,0.012045429,0.073055044,-0.07812801,-0.06778111,-0.111917496,0.13149856,-0.06653558,-0.16017102,-0.005905878,-0.04076479,0.1493585,-0.0029730469,0.06444184,0.11387926,0.06789395,0.06162136,0.1256874,-0.004243859,0.040390324,-0.082419544,0.030564398,-0.0037889893,-0.08885936,-0.028940668,0.04449003,0.08459657,0.088753775,0.008192301,-0.20605169,0.014754991,-0.11557725,0.09558493,-0.15043542,-0.06394312,0.037285436,0.004839701,-0.10880662,0.14362672,0.113218844,-0.08886429,0.16140133,-0.046034183,-0.012395587,0.09059059,0.081799276,0.024284061,-0.013693137,0.041369274,0.17729613,-0.10034593,-0.0055170967,0.010239618,0.010699921,0.08021236,0.04708928,0.033695128,-0.075671375,0.011652798,-0.0556504,-0.12274058,-0.033597138,0.113996126,0.045868963,0.003656035,0.09762977,0.005388226,0.040424377,0.03495684,-0.059744086,0.00730338,0.032190926,0.106866576,0.040478766,-0.032196738,-0.06524728,0.0066692545,0.07000213,0.13088179,0.017048756,0.10025354,0.026934652,-0.04576558,0.06280941,0.046997268,-0.05128496,0.04444447,0.03132874,0.039078027,0.09760983,0.08029848,-0.04975584,-0.08664989,0.010247045,0.048901346,-0.019360809,-0.040475264,-0.003084381,0.20112732,-0.0042491285,0.14611551,-0.13006449,0.015000101,0.06120772,-0.04331544,-0.043755103,0.023968056,0.06793086,0.005775525,0.04771815,-0.06523857,0.20697583,0.04916795,-0.2084911,0.0851079,0.06446821,-0.088950165,-0.10219489,-0.16500919,-0.15010025,-0.02075015,-0.08151983,-0.0036956598,-0.03542437,-0.038795527,-0.033803817,0.008053185,0.07090513,-0.12228328,0.04444033,0.113457486,-0.096080914,0.06551261,-0.06535321,0.09568827,-0.031234166,-0.042030737,0.04838659,-0.0746591,0.063831985,0.013759621,-0.0677173,-0.08968977,0.08857378,0.020668264,-0.059374727,-0.18909146,0.09433252,-0.0063472623,0.04892328,0.00203008,0.00064899895,0.07960285,-0.11953934,0.019368302,0.0632164,0.13892801,-0.078384124,-0.015259994,-0.082774065,0.12734851,0.030474745,0.17492181,0.012569341,-0.17040108,-0.044572722,0.110383525,0.065471105,-0.11705932,-0.02194493,0.030451545,-0.007074083,-0.106742635,-0.031130018,0.041588318,0.049335193,0.12790243,0.005647185,0.042770386,0.02632268,-0.04992473,0.057845972,0.04101815,-0.051463522,-0.1437271,0.030567037,0.07253861,-0.083641924,-0.06437372,-0.1422141,-0.035553318,-0.04008521,0.056986865,-0.01371421,0.08667399,-0.016075503,-0.0486157,0.09776653,-0.06695594,0.067533836,0.0037794737,0.028720208,0.060282517,-0.0049280133,0.015851362,-0.03775157,0.097724766,0.028054629,0.046787363,-0.0030668827,0.035857793,0.065781206,0.12216561,0.087955184,0.016166124,0.08511064,-0.045761917,0.13472709,-0.030331522,-0.04992561,0.17958497,-0.067558646,-0.009931563,-0.00078347797,-0.026470607,0.043364562,0.090630986,-0.00025282617,0.027966173,-0.04071113,0.022276528,-0.047996853,0.12845157,-0.04001868,0.047889765,-0.11074416,-0.04591011,0.0465758,-0.017865768,-0.03408132,-0.023752337,-0.018605214,-0.041529857,-0.11982506,0.055882253,-0.09434388,-0.08074595,0.047672417,0.026944876,0.05939457,0.06464524,0.064119756,-0.071545824,0.013495069,-0.071578756,-0.024760606,-0.14470895,0.20629963,-0.07270377,0.06039363,-0.18737139,0.09742436,-0.17193216,-0.027141755,0.011489219,0.12295337,0.09765347,-0.20062418,0.0054384107,-0.054316282,0.12769471,0.14382131,-0.111210994,0.030981185,-0.07692544,0.21305953,0.12088608,-0.100545704,0.12447981,-0.15371606,-0.0076424032,0.022777509,0.035202667,0.13223203,0.08627652,-0.081563815,0.08331308,-0.059035502,0.0051287273,0.016819468,-0.10392378,0.012265635,0.18127042,-0.024749734,-0.017195953,-0.0026530626,-0.11698222,0.0026552796,-0.13470471,-0.08624028,0.046970673,0.087309025,-0.16049494,0.08715378,0.02756229,-0.10120665,-0.035263844,-0.042672604,-0.09165072,0.028347852,-0.16492335,-0.018724091,0.12329572,-0.01263096,-0.12462981,-0.106941864,-0.07725553,0.09246211,-0.08625306,0.13680838,0.013049365,0.009595349,-0.031820044,-0.15986982,-0.16192225,0.042151663,-0.045562655,0.112523116,-0.011082423,-0.05923538,-0.05801101,-0.055890247,0.013039925,0.011493669,-0.06344701,0.013407549,-0.08777752,0.05045168,0.06440616,0.015805881,0.050535988,-0.044447567,-0.052360974,-0.07512019,0.06085282,-0.028748464,0.10487668,-0.039703894,-0.06958108,0.03432034,0.0013230017,0.01614667,0.06629797,-0.040043272,0.05518643,0.111022756,0.114199266,0.055575,0.14423673,0.013760593,0.12341964,0.08019991,-0.112433136,0.008173908,-0.08279475,0.014718763,0.08284012,-0.0682775,0.09198018,-0.059516877,0.008337782,-0.05477961,-0.042979594,0.03595613,-0.023525164,-0.09080472,-0.043445364,0.10245242,-0.065400995,0.0111813815,0.1467149,0.15443183,0.16789342,-0.11935309,0.17949435,-0.11857938,0.009995428,0.064429484,-0.056552667,0.003119454,-0.055634823,-0.023599619,-0.08241971,-0.05170328,0.0057977657,-0.13409111,-0.00822565,-0.02982221,-0.09162716,0.03859591,-0.029996935,0.12737323,-0.029443737,0.16926381,-0.06315608,-0.07140023,-0.12255901,0.02205924,-0.03250584,0.17472745,0.13941735,-0.020393478,-0.087458715,0.0022007474,-0.13507345,0.02151377,-0.10862315,0.032407496,0.049519803,0.02616339,0.03961386,-0.038748473,0.26782656,0.049537852,0.10012798,-0.13234217,0.007245828,-0.038032126,-0.068758294,-0.15570089,0.14703341,0.060320333,-0.04521173,0.20957518,0.02704989,-0.013093346,0.0903552,0.029472023,0.051195852,0.117723115,0.08363228,0.062690325,0.016842028,-0.15685043,0.019212428,0.14312486,-0.022234514,0.032593917,-0.028563704,0.0007669159,-0.09529828,0.17592403,0.0867158,-0.1255616,-0.033794016,0.009593413,0.03989333,0.13036472,0.13545758,0.0013282018,0.026111618,0.006093705,0.03928055,-0.06476224,0.06598577,-0.02254808,0.17096609,0.025311833,-0.017087925,-0.1115086,0.015495735,-0.0038569483,0.0492439,0.018918015,0.17009468,0.09732157,-0.08892181,-0.00066808733,0.038883545,-0.015388227,-0.15372601,-0.08668254,-0.061636984,-0.007710582,0.08450027,0.13318975,-0.07183044,0.12131493,-0.114586204,0.06694937,0.0860727,-0.059815776,-0.012958097,-0.008034443,-0.10761619,-0.085897505,-0.1574473,-0.049473412,0.038807068,-0.09592487,-0.09119028,-0.19723187,0.010881116,0.09215576,-0.10426409,0.032084484,0.07924971,-0.06743863,-0.011846174,0.11056863,0.10102593,-0.09034491,-0.14606015,0.091301635,-0.075386845,-0.03697829,-0.14796531,0.010149317,0.0635267,0.04204319,-0.14871922,0.025540015,-0.14783101,-0.04031776,-0.066817455,0.12083922,-0.14486445,0.032513816,0.057568084,0.1792466,0.07092298,0.040684316,-0.042167656,0.06872391,-0.035439402,-0.012393484,-0.014564128,0.06764217,-0.009350424,-0.05328452,-0.04526205,-0.013607756,-0.18017584,0.007880301,-0.13634917,-0.04521093,0.08473211,-0.08261364,-0.08151912,0.056779813,0.08048474,-0.019047681,0.11068274,-0.012609996,0.016077554,0.06307574,0.06541142,0.039405074,0.052159682,0.04277286,0.013167339,0.065451935,0.09662898,0.054871235,0.035076957,-0.027045907,0.040632546,-0.017588135,-0.116058424,-0.0817706,-0.015649509,-0.12277487,-0.16409919,-0.1533386,-0.10347486,-0.065944806,0.10006516,-0.124207444,0.23968579,0.111926824,-0.15243514,0.1969767,0.06291513,-0.053820193,-0.050670527,-0.0010520619,0.04518237,0.095496416,-0.14946546,-0.05863346,-0.07023042,0.039747097,0.030531425,0.13255227,0.078091875,0.04596252,0.048166413,-0.008636439,0.07485987,-0.00825356,-0.0030212011,0.15759851,-0.17697492,0.044260874,0.007083429,0.07546142,0.009328464,0.13112833,-0.16209863,0.15039314,0.027639905,0.07828161,-0.11280897
