-0.1833136,-0.33780608,-0.17318805,0.011790952,0.03751717,-0.19652213,-0.07651541,0.007222562,0.033687443,0.008863368,0.15651062,0.028756652,0.16537857,0.17158818,0.1755556,-0.13729216,-0.1175618,-0.030814985,0.08381212,0.09731607,-0.076751195,-0.010377296,-0.027090518,-0.10591291,0.02171992,-0.070872076,-0.16932316,0.14347947,0.01500454,0.18904938,-0.18684512,-0.094664864,0.060293294,-0.14747056,-0.020005345,-0.07185294,0.24407065,0.20218617,0.16310082,-0.07428894,-0.038654692,-0.18334597,-0.2196188,0.012412143,0.044209715,0.071057014,-0.03706713,0.025944503,-0.18185821,-0.06410191,-0.15183866,-0.09731137,-0.01718102,-0.1175099,-0.105246134,0.054124992,0.0025334863,-0.041571807,-0.12206566,-0.05266242,-0.018931575,-0.12520544,-0.0376968,0.19398504,-0.016501796,-0.04886079,0.13879044,-0.024012849,0.07024142,-0.2309965,-0.1143565,-0.01855335,0.021064425,0.039549932,-0.035860714,-0.045397453,-0.0737211,0.06357837,0.001556393,-0.0009776875,0.066705175,-0.10879776,-0.04920909,0.09557468,-0.060744252,-0.013261599,0.050650045,-0.010255117,-0.021060487,-0.09553677,-0.20458463,0.121544726,-0.16985323,-0.05155833,-0.25882986,-0.04057344,-0.0075418996,-0.025073597,0.06122992,-0.00808323,0.07798617,0.0018235174,-0.016452158,0.02257612,-0.18354121,0.010422642,0.019953918,0.009333884,0.08510752,0.015489463,0.13647851,-0.05442517,0.024388986,0.10934876,-0.13503042,-0.060254756,-0.0040536453,0.2066581,0.07842173,0.12354208,-0.07046713,-0.07392234,0.09925559,-0.17202161,-0.15317531,0.00631046,-0.22673276,-0.11266785,-0.025318371,-0.14547691,0.060448658,0.026184658,-0.0010637874,0.19114237,-0.1436,0.06294483,0.05217561,0.062312987,0.061355468,-0.053411707,0.20652778,-0.17264432,-0.16136335,-0.071180366,-0.10951477,-0.027098607,0.21549451,-0.19528084,0.08816644,0.27280957,0.018823573,0.02368952,-0.04617739,-0.033838745,0.013618967,-0.13339673,0.055734735,-0.0720928,0.0592022,-0.057846192,-0.12198157,-0.10902456,0.011190174,-0.081942305,0.033817504,-0.070878915,-0.12538487,0.07102189,0.009951374,-0.02020569,-0.07021659,0.1430755,0.14406227,-0.23492338,0.104618944,-0.048410065,0.11852923,0.037701216,-0.18928342,-0.06888524,-0.08613886,0.052417792,0.12948754,0.2185165,0.07125329,-0.04127906,0.048983134,-0.05401555,0.031339996,0.015408435,0.048332844,0.025523035,0.0338182,0.1244115,0.14487569,0.07269782,-0.10122916,-0.11368277,0.0741222,0.04530741,-0.07490538,-0.003734273,0.08996446,0.11204137,-0.011940479,0.11687471,0.048666585,-0.07682706,-0.04464834,-0.11434431,0.1634823,-0.14934513,0.15503722,0.022204876,0.043573745,-0.011406318,0.05677948,-0.046646126,-0.03643629,0.016107861,0.030805277,0.038226973,-0.056894407,-0.060361154,0.025426617,-0.055469614,-0.050746907,0.1481021,0.0761465,0.046172757,0.046235923,0.12776133,-0.0631114,-0.03184518,-0.0039625964,0.11854043,-0.1342649,-0.07289392,0.21916959,-0.079245776,0.12990454,0.09606526,0.009922905,0.02411068,-0.007832101,0.089267775,0.11323286,-0.056958176,0.0107154995,0.08493651,0.052672766,-0.10301415,0.069868036,-0.12796344,-0.19357905,0.16401231,0.05098771,-0.14789814,-0.10876477,-0.091957,-0.12092083,-0.0011542642,-0.033849142,-0.3418866,0.07524518,0.10107,0.016849121,-0.1380018,-0.30176237,-0.057274327,-0.21781477,0.05940605,-0.18552876,0.0824301,0.12842853,0.023211269,0.14227359,-0.14027919,0.07791845,-0.05786803,0.040755533,-0.13411178,0.093302816,0.031343505,0.016392972,-0.21527763,-0.20118392,0.10366211,0.01798022,-0.019028794,-0.13993369,-0.034317333,-0.061005346,-0.121023186,-0.024264468,-0.11774142,-0.029460791,-0.057153624,0.058210503,0.004009333,-0.03840152,-0.11120688,0.11191379,-0.03519809,-0.020877648,0.027070045,0.099441856,0.044473827,0.008463986,-0.012115773,0.013080156,0.0123042185,-0.07028311,-0.052446865,-0.020608388,-0.022327699,0.057815548,0.037678067,-0.0018435827,-0.11138769,-0.056343444,-0.069148965,-0.098132126,0.02013852,-0.036550686,-0.0062592365,-0.064689,-0.07984679,-0.017721713,-0.086591125,-0.013200181,-0.057837997,-0.04964664,0.04235588,0.08341262,-0.008684955,-0.04045555,-0.009331126,-0.028723234,0.018238496,0.022660553,0.09488225,-0.028165925,0.0178953,-0.05776402,-0.07085284,-0.043711625,0.03368434,-0.06374538,-0.08345831,0.032483082,0.010802529,-0.08673253,0.055221874,-0.11924706,0.012865235,-0.10440561,-0.027070586,-0.057695907,-0.10634673,-0.065569,0.039206903,-0.050456613,-0.017595647,0.032026555,-0.07918079,0.039686713,0.06799392,-0.02978909,0.06618955,-0.06619023,-0.024586685,-0.0496346,0.039611977,-0.03710343,0.049784876,-0.0274168,-0.11262223,-0.0711603,0.071207814,0.02971777,-0.0723615,-0.0990803,-0.032677714,-0.023259586,-0.12115897,-0.18110868,-0.0434148,-0.028788093,0.06985968,0.041468248,-0.100382544,-0.04366915,-0.026864942,0.0419652,0.009504531,-0.017738115,0.055711467,0.1566035,0.007141029,-0.13298109,0.009360015,0.06517483,0.0030803513,-0.015816977,-0.07813616,-0.016137255,-0.022108696,-0.07111567,-0.13092066,-0.030502502,-0.10221195,-0.025246222,-0.122077934,-0.061336815,-0.09810126,0.14902568,-0.05900734,-0.009465475,0.07000843,0.0069924784,-0.10442971,0.12810007,-0.053886518,0.0969924,0.0048160013,0.011028763,-0.08654357,0.002658974,0.029855456,0.0013593668,-0.028790396,0.11038507,0.049569096,-0.06673076,-0.05551783,-0.03702983,-0.031106882,0.055006366,-0.084311396,-0.20944852,-0.0031133657,-0.004058014,0.024298226,-0.15343125,-0.25907844,-0.17361589,0.03753186,0.13696903,-0.10927503,0.11231989,-0.007222799,-0.04674725,0.17392637,0.086478315,-0.06585756,0.12963073,-0.03790652,0.0057278667,0.0072296974,0.10038423,-0.0027228894,-0.07080783,0.25371173,-0.1310688,-0.007673776,-0.017957438,-0.19527273,0.22788537,-0.07704111,-0.042841762,-0.008350922,0.13468046,-0.029367309,0.08668226,0.16529076,-0.1321564,-0.01713725,0.047150563,-0.08980671,0.0923683,0.1741688,-0.05805964,-0.005874233,0.002721989,-0.06982968,0.12059252,-0.015013941,0.004847668,0.17627253,-0.004491953,0.051168274,0.09605229,0.09888675,0.11456784,-0.19196545,-0.10261977,-0.13373849,-0.24102166,-0.0083837025,-0.19687574,-0.298508,0.105616406,-0.13873914,0.04529173,0.1267104,-0.055894714,-0.07731782,0.10093376,-0.0738676,0.004552318,-0.0035127066,0.05912842,0.026864577,0.096650824,-0.08782223,0.018117778,0.07259771,0.09232475,0.06401822,0.03400732,0.0035376258,0.065234505,-0.023926513,0.061271578,0.12686813,-0.01478689,0.24474531,-0.019152407,-0.0047876104,-0.22283228,-0.01487679,0.10360732,0.038167696,0.087231524,-0.015303704,0.095116936,0.018450558,-0.0929122,-0.06317833,0.088572875,-0.32003072,-0.036108043,0.015776802,0.025767155,-0.10003215,-0.039667185,0.11678905,-0.14889358,-0.19854164,-0.28969175,-0.07592643,-0.11933301,-0.15484534,-0.16375619,-0.04525992,0.15507576,-0.21336551,0.014969044,0.07756478,0.008991778,0.13029206,-0.024465818,0.17469867,0.12720792,-0.10498549,-0.10735295,-0.02830406,-0.057953592,-0.10262871,0.019106733,0.23660603,-0.18295655,-0.027535947,0.21294755,-0.18871209,-0.110280424,-0.14948994,0.0077424427,-0.04364385,-0.14190345,0.15336531,-0.11359603,0.056888662,0.3568364,0.0376801,-0.05392085,-0.16240202,-0.31852964,-0.04439151,-0.12722516,-0.08221277,0.114569165,-0.04955588,-0.10049825,-0.09307624,-0.030358013,-0.091769345,-0.05987111,0.19761477,0.08668043,0.07128002,-0.064016424,-0.009393978,0.11721915,-0.04223187,-0.08395995,-0.004926447,0.0001670494,0.017517844,-0.025862517,0.071870215,-0.10556078,0.1054116,0.038761936,-0.1903368,-0.06108755,0.033229515,0.10301394,0.075998485,0.09313346,0.24251185,0.063395955,-0.0118139405,0.14388986,-0.13084789,0.10899706,0.0126931295,0.008552341,0.16999453,-0.013872161,0.016938467,-0.040139478,-0.08605224,-0.046353072,0.102360584,0.13293323,-0.010859074,-0.12969008,-0.0050508273,0.024153374,-0.16972588,-0.29881322,-0.32810584,-0.1452782,0.031964317,-0.101986565,-0.03816129,-0.0051149977,-0.007820094,0.081185274,-0.05238745,-0.04712705,0.011956454,-0.0054764166,-0.08785124,0.08780611,-0.09054857,0.0063917977,0.07579283,0.036435056,0.08884985,0.108662,0.104740284,-0.13815609,-0.06184039,0.11730212,0.08744041,-0.16691644,0.061588287,0.086759314,-0.11809904,0.035185076,0.18745673,-0.0943374,0.027972057,-0.0070732613,-0.110914,0.14785919,0.02603494,-0.011398883,0.03347795,0.059612453,-0.022648696,-0.16960043,0.039634235,-0.16787139,-0.25213024,-0.13016811,-0.17740685,-0.09847083,-0.019612012,-0.07108964,-0.2538201,-0.10446013,-0.24787563,-0.39400035,-0.07036569,-0.050284572,-0.18661328,0.0232162,-0.1798,0.23568697,-0.07590449,-0.15881339,0.02074956,0.10679166,-0.13874303,0.27406022,0.15801635,-0.09996325,-0.16255619,0.11929074,0.050827272,-0.065735996,0.017529223,-0.028307829,-0.01793022,0.00987898,0.1879535,-0.10157618,-0.07625044,-0.043477464,-0.06533234,-0.08686584,-0.107496046,-0.07168914,-0.07911452,0.03835557,0.054189183,0.010931852,-0.101686515,-0.023396393,0.017958743,0.051573914,0.039655406,0.02840663,-0.06933155,0.033153705,0.13096708,0.118359774,0.051544163,-0.0014519141,-0.07969972,0.019809887,-0.0956671,-0.076493695,-0.03749429,0.028149784,0.024928901,0.011000537,-0.083059244,0.0015762133,-0.04696437,-0.108387955,0.019842407,-0.029732864,0.046052553,0.064382546,0.04553235,-0.07564343,0.058157884,0.07173198,-0.08147021,0.057558585,0.021569207,-0.05042733,-0.03349161,0.049276307,0.056086946,0.08488451,0.04322067,-0.07361588,-0.04299636,0.045756318,-0.023139747,0.008265213,-0.07054467,0.03305799,-0.03782262,0.028469346,0.011946397,0.07141968,0.07680235,0.10437726,-0.07754758,0.00010063246,0.038221803,0.042676847,-0.078036144,-0.048344135,-0.015191311,-0.0016810329,-0.05978928,0.013120558,0.00029391848,-0.08609426,0.06216575,-0.076467365,0.044281855,0.005382647,-0.07796232,-0.03718223,-0.09584255,-0.06185385,-0.035990916,-0.04297567,-0.03842032,0.035447218,-0.015945105,0.01537855,-0.020505419,-0.06786077,0.05858389,-0.10805654,0.026378516,-0.036691867,-0.026805552,0.004658756,-0.08566056,-0.012357478,0.047820974,-0.10221758,0.017369742,-0.04468504,-0.0012590123,-0.019667221,0.020587703,-0.08812112,-0.040220257,0.012431163,-0.08239661,0.010446228,0.036139276,-0.017584287,0.031949986,-0.0067375964,-0.06927544,0.01928396,-0.008105958,-0.09063146,-0.09694148,0.00590215,-0.031038383,-0.03145874,0.03289358,-0.017144475,-0.095654,-0.099604905,-0.097767435,0.04345103,-0.10991468,0.0054139625,0.10924232,-0.11676203,0.05592963,-0.00065164745,-0.0059796716,-0.014217253,-0.025521621,0.025227007,-0.045285933,-0.017735442,-0.06715785,-0.096619666,0.0063061337,0.07151263,0.00022769756,-0.09034437,-0.055604897,0.086739086,0.0968235,0.05618596,0.017790047,0.013620218,0.0055069053,0.017152136,-0.12307384,-0.056055255,-0.10662235,-0.061809357,-0.05405431,0.070959,0.048031308,-0.10110802,-0.06790301,-0.034597717,0.11354485,0.119621776,-0.04300991,0.04510683,-0.044960584,0.014273616,-0.033621565,0.016228648,-0.0171003,-0.030766089,0.053787947,-0.0790763,0.045575418,-0.008950133,-0.053250134,-0.0595345,-0.060221054,0.04858056,0.09827714,0.18895337,0.04896567,-0.0156205725,0.05019781,-0.056389667,0.08051044,0.048708603,-0.08080248,-0.09823132,-0.027327517,-0.0593618,0.0034689421,0.03259961,-0.069082275,-0.064766854,-0.108193316,-0.02211907,0.098072335,0.07057967,0.06534018,0.049739864,-0.0657517,-0.04448282,-0.07322562,-0.105966195,-0.06652355,-0.1398144,-0.072942786,-0.068274066,-0.013921042,0.03404852,0.024382195,0.06710297,0.0149351545,-0.03557237,-0.086522244,0.09656188,0.055543453,-0.07385073,-0.024935534,-0.053487796,0.008536167,-0.04257687,0.02416597,0.15430604,0.13400382,0.03342325,-0.08944509,-0.08273547,0.040884044,0.026497364,-0.012316009,-0.012652393,0.03862596,0.105706275,-0.1859402,0.038123053,-0.033162795,-0.047754742,-0.021884914,0.054341946,-0.07697478,-0.0220732,0.044311244,-0.01766014,-0.1168012,0.03453308,-0.0035183635,-0.11849975,-0.14583112,0.00036185753,-0.08405251,-0.013890131,-0.10474179,0.0010462897,-0.11295996,-0.014865575,-0.061399702,-0.1062421,-0.09219473,-0.0848114,0.13135603,-0.042721454,0.034174256,0.010006684,-0.04004519,-0.044094414,0.078175105,-0.038266435,-0.009509664,-0.12559463,0.09000628,0.061342582,0.034664143,-0.03615546,0.03111228,0.027066855,-0.017624188,-0.021628989,0.13597186,-0.013272785,-0.095917314,0.10406908,-0.058577426,-0.13246301,-0.14686309,-0.016954029,0.060676165,0.17537703,0.02407488,-0.046068326,-0.14803244,-0.0010566316,-0.047032457,-0.05753861,-0.17008401,-0.108412445,0.05874449,-0.2610548,-0.12155027,0.16781029,0.16581494,0.09089482,0.20945013,0.087332696,0.15377901,0.13118558,-0.0052346624,-0.075961515,-0.0149561325,0.105408594,-0.022074848,-0.06931961,0.02003051,0.015633143,0.12665561,0.14523904,0.0031062127,0.041214745,0.29004878,0.034796674,0.108788036,0.17989028,-0.11768844,0.17075959,-0.061977606,-0.047256175,0.033740155,-0.11453704,-0.0013655503,-0.031373557,-0.048090186,-0.011967625,0.021095868,0.07511775,-6.3399864e-05,0.103622094,0.08744435,0.079269305,0.14578323,0.08155234,0.053488478,-0.10960402,0.033039555,-0.023491882,0.037843633,-0.07974036,0.07559159,-0.05088154,-0.16316383,-0.026675373,-0.12961735,0.012973821,-0.29493657,-0.10560048,-0.02102898,0.02421395,-0.017625785,0.011061159,-0.010748227,0.0357479,-0.046335336,-0.056750078,0.02048359,0.12780315,-0.023693718,-0.062231403,0.023355143,-0.0155718215,-0.10483945,0.022821438,0.035421904,-0.0037337681,0.05776741,0.25436983,0.031629924,0.1292174,0.044557806,-0.10975036,0.24097617,-0.0024653433,0.14031343,0.2102444,0.0783338,0.22793356,0.08349917,-0.014048769,0.10545816,-0.17181723,0.052755997,-0.1561232,0.03644237,-0.07554785,0.08348749,0.18417023,-0.084415995,0.09115288,-0.09920472,-0.20087592,-0.16257216,-0.14137314,-0.071529396,-0.23219416,-0.0872738,-0.22561267,-0.1508973,-0.2269414,-0.31397298,-0.13482365,0.23572542,0.10786166,0.10674278,0.18714,-0.050609373,0.18362436,-0.32104567,-0.071006365,0.0922151,-0.030990476,0.14282364,-0.046086427,-0.0755277,-0.1216733,0.022630278,-0.05476872,-0.062140044,-0.010594473,0.34362924,-0.16956912,0.07362988,0.27944547,-0.17173429,0.02615398,-0.0763028,-0.21462236,-0.031392217,-0.058437422,0.052840084,-0.1813447,-0.30036706,-0.12583326,-0.21723562,-0.20894451,0.021764418,0.16882999,-0.06932582,-0.023904862,0.11692077,-0.0020422954,-0.0057282196,0.010063922,-0.14109203,0.07519511,-0.08364016,0.19430724,-0.063602485,0.16645029,0.038011067,-0.024720285,0.09741869,0.031698428,-0.064683884,-0.20071663,-0.015950127,-0.033162866,-0.17111903,0.10736709,-0.034448788,0.13492697,0.07183148,-0.026301673,-0.20891222,-0.14111674,0.017199244,-0.08825643,0.25296697,0.046686385,-0.19136257,0.04521915,0.031748883,-0.08948855,0.17563087,0.07889362,0.0510412,-0.109687485,-0.018855667,0.07853323,0.039198324,0.04625703,-0.10474915,0.07943766,-0.114425994,-0.18049097,0.08695635,-0.25025636,0.113202706,0.058752883,-0.26109403,0.011527118,-0.103736654,-0.028923502,-0.0024103103,-0.02170702,0.005717881,-0.10487218,-0.058499947,-0.04169023,0.095273,-0.00611427,-0.07563686,0.13610059,0.08122087,0.105545044,-0.05946613,-0.019599505,0.12655155,0.10079306,0.27229154,0.097753786,0.14667773,0.09988975,0.19825633,-0.08747896,0.0036404743,0.06671763,0.19091143,0.09631466,-0.09605503,0.02246349,0.13260682,-0.00018071031,-0.045785613,0.028929949,0.05543355,-0.1299783,0.0833381,-0.0016546238,0.035561778,-0.09998676,0.075601734,0.11558118,-0.22202288,-0.06664301,-0.17911527,0.0622269,-0.16561316,-0.044648655,-0.1281145,-0.3343497,0.13785847,-0.29755893,-0.3097407,0.16607149,0.024869505,-0.2167854,0.20285717,0.100063935,0.10112822,-0.04627477,0.21463,-0.052049678,-0.27955192,-0.12952742,0.08550985,-0.0332294,0.007457353,-0.17145798,0.009681122,0.15601207,0.03782077,0.04193591,-0.09565278,-0.23406295,-0.03128004,-0.22149548,-0.2270403,-0.12032487,-0.29288074,-0.129321,0.003922237,0.18918376,0.13028188,0.035659894,-0.009468623,-0.04095846,-0.10299159,-0.09824438,-0.10303993,-0.055930488,-0.081405334,-0.2281763,0.07384872,0.07464407,0.06547668,0.10821608,0.15123773,-0.01073344,0.08091537,-0.13007605,-0.0012439628,-0.075241335,-0.108053885,-0.07255392,0.1327092,0.00934944,0.049763814,0.018107405,0.082616724,-0.10275717,0.22301038,-0.06624384,-0.046042398,0.088954546,0.08775093,-0.09742286,-0.012943663,0.048554268,0.0380793,-0.14847805,-0.13511625,-0.057022605,-0.0679253,0.18112215,0.015177154,-0.0073113465,-0.15070088,-0.08613466,-0.087883614,-0.032661438,0.042677037,0.07611047,0.014072892,-0.014780206,0.10011686,0.17790681,0.29977563,-0.0847175,-0.11355314,0.050961338,-0.07382861,0.118527696,-0.011286331,-0.04323482,0.015653264,-0.0038185872,0.048590068,0.012631703,-0.09228491,-0.011585459,0.07721974,-0.011380793,-0.10747916,0.019841516,-0.14936979,0.1415288,0.13903138,0.041189473,0.23461287,-0.075900644,-0.04002476,0.005092142,0.13522784,0.0032326446,-0.3105876,0.21089157,-0.10463599,-0.112499356,0.07261877,-0.10029006,-0.08597373,0.026798908,-0.014881691,-0.0056327046,-0.029333865,-0.06078821,-0.013271205,-0.03911644,-0.03680231,0.13230239,0.10017238,0.1249738,0.0009913449,-0.029485118,-0.09002,0.001531499,0.089082465,-0.106475934,0.19209594,-0.04555209,0.0012910824,-0.06650596,-0.13114831,0.060034767,0.1758249,0.08643161,-0.018686058,-0.16556065,0.21975742,-0.005061336,-0.15564342,0.13452283,-0.28350753,0.048826266,-0.25859353,-0.1987812,0.046125542,-0.0766799,-0.021580642,-0.10971776,-0.21343376,-0.059204057,-0.020914465,0.03283163,-0.120676145,-0.009371877,-0.012254119,0.0778304,-0.10499103,0.046951238,-0.0597835,-0.09282593,-0.04944449,-0.077396154,-0.023672417,-0.013690308,0.069592945,-0.16264275,-0.08681953,-0.061304655,-0.0710798,-0.02505213,-0.051452987,0.0609429,-0.043773826,-0.03386452,-0.02726608,-0.064971834,-0.03956056,0.066824615,-0.029147321,0.073622,0.03459767,0.07629527,0.03034674,-0.0067465524,0.027661333,0.017891614,-0.03798744,0.13130239,-0.091202706,-0.024520183,0.0120092025,0.07469649,-0.010899744,-0.07104696,-0.03492852,0.07659234,0.10838971,-0.0853708,-0.05826845,0.09110684,0.16680449,-0.040817373,0.08639198,0.019424746,0.051568735,0.114282794,0.07555921,-0.0013003348,0.037406627,0.03743517,-0.029416401,0.056936193,0.055074465,0.055342566,-0.033612456,0.06882882,0.007383907,-0.07989845,0.054549232,-0.16018389,0.052614637,0.007891803,0.023837416,-0.043541692,-0.12590498,0.07446513,-0.028242027,-0.07205862,0.05001162,-0.012175129,0.014938633,0.057745196,0.08086733,0.040680435,0.009200311,-0.024845378,0.01748403,0.10808489,0.04354361,0.050450545,-0.042090148,0.022647,-0.065143056,-0.111705184,0.014544149,0.021596832,0.07609342,0.11618281,-0.06579373,0.12251016,0.057893276,-0.1342741,0.103914514,0.044126015,0.13914894,0.0009236311,0.020285016,-0.11816796,0.0786289,-0.046014775,0.012116655,-0.06967068,0.03343809,0.1125864,-0.103479534,-0.03857742,-0.10588846,0.038216177,0.055628672,-0.111956336,-0.16754691,-0.12656991,-0.08561508,-0.1402852,-0.11591973,-0.12590788,-0.015396649,-0.049132597,-0.15230379,-0.0018753707,0.018963987,0.19694552,0.13513938,0.0009417166,-0.06768438,0.02192429,0.0002129318,-0.23776142,-0.008958592,-0.06918495,0.11151057,-0.031853456,-0.063155286,-0.017290095,-0.06984135,0.08298143,-0.0065076915,-0.07641215,-0.016555523,-0.10096546,-0.04138172,0.0717168,0.024846336,0.11850634,-0.06061377,0.18626891,0.13035583,-0.02908694,-0.059054777,-0.106478736,0.3058669,-0.02277122,-0.06825825,0.09143021,0.028167797,-0.009343705,0.01399837,0.02311808,-0.09341609,-0.025689486,0.020353021,0.23682824,-0.011056473,0.032821637,-0.06608674,0.048570707,-0.21073696,0.038583092,-0.07443922,-0.06890303,0.05869515,-0.14173485,0.13849452,0.08211742,0.0905557,0.014320884,0.06850796,-0.20341553,-0.08411895,0.29461336,0.20447952,-0.03789233,-0.21402022,-0.03238559,0.019685179,-0.13798171,0.077705406,0.068494976,-0.09495533,0.01585035,0.2556085,-0.015694316,0.018272122,0.16560723,-0.097078785,0.026429158,-0.0641043,0.14925879,-0.14562504,0.1013481,-0.13834475,-0.08667825,-0.3120281,-0.23126608,0.2457215,0.15972856,0.04215062,0.050426643,-0.02180452,-0.026068298,-0.011420085,-0.009102195,-0.031963907,-0.090917334,-0.047477603,-0.105676256,-0.0096716145,0.07799791,-0.07495856,0.085294776,0.14468406,-0.007541119,-0.26670113,-0.23305994,-0.064282574,-0.06985744,-0.10900806,-0.28073555,0.024722327,-0.078705154,-0.053173702,0.03727747,-0.12822503,0.08043471,0.17967103,0.017321229,-0.066123664,0.00030506405,0.04085274,0.07330583,0.098956645,-0.018467318,-0.008321501,0.23021074,-0.09461045,-0.13444096,0.047743004,-0.15363498,-0.05883224,0.06053357,-0.017796665,0.08697015,-0.014504406,0.072620325,0.01910259,0.03217205,-0.16781646,-0.096768096,-0.06511925,-0.00014815728,0.03005728,-0.15856694,0.04060522,0.00036078398,-0.35199657,0.020294724,0.0348836,0.034283362,-0.12144371,-0.26548025,0.27267003,-0.2581475,0.19809325,0.089553595,-0.1980472,-0.1299928,-0.0078031723,0.1340283,-0.10010803,0.06434817,0.059100978,-0.26665148,-0.12549175,-0.0605208,-0.3356584,-0.32664466,0.09264785,0.048397284,0.1397046,0.22677714,0.15337151,-0.13156971,-0.08034114,0.03267263,-0.032014582,0.014779576,0.087237924,0.038789403,-0.20855543,-0.02328106,0.16791512,0.22039329,-0.062039677,-0.019251721,-0.015658928,-0.057819188,0.062414188,-0.021847887,0.08460834,-0.06291466,0.11880391,-0.06602307,-0.13293608,-0.006880529,-0.03814065,-0.1995957,-0.032603,0.00782559,0.048094504,0.13885748,-0.023637975,-0.07453107,0.11022495,0.025620362,-0.075919546,0.023977682,-0.06819555,0.1485406,0.07153433,-0.06353644,-0.019400619,0.011246185,-0.067506135,0.04465881,0.087114245,-0.0047115837,0.112852655,0.060276765,-0.22288759,-0.065862656,0.11289302,0.13145971,-0.023761857,0.11248472,0.013048213,0.024629334,-0.13723214,-0.13600537,0.05198322,-0.017333038,-0.2242899,-0.03859803,0.017145598,-0.07161133,0.0078088613,-0.004371345,-0.06453283,-0.037591767,0.03134457,0.04244168,-0.08150922,0.045884773,-0.13723874,-0.112570286,-0.0122692,-0.069662094,-0.05230339,-0.03456368,-0.032483555,-0.018363921,0.036265682,0.006514371,-0.049437366,-0.18090701,0.20032215,-0.09886432,-0.061970927,0.20241567,-0.115082,-0.07664771,-0.05315686,0.017960234,-0.00012253974,-0.11481665,-0.0662781,-0.08797595,0.03948706,0.028643556,-0.0031083478,0.15645932,0.05742217,-0.009761138,-0.0013910222,-0.065537125,-0.06661595,0.04374291,0.040528685,-0.07671046,0.040438972,-0.0076782824,-0.19809595,0.053336885,-0.03230858,-0.0996443,0.109495915,0.047916833,-0.045865897,-0.082754895,-0.13027425,-0.023107084,-0.009731448,-0.2013174,-0.13266264,0.22725062,-0.03272579,-0.23678799,0.20191932,0.05129097,0.0051906584,-0.124274395,-0.059674386,0.053172838,0.022263182,-0.16349882,-0.009796648,-0.13447702,0.04100526,0.07444021,0.000570991,-0.07575204,-0.013246911,-0.058646068,-0.1037875,0.18184958,-0.16541336,-0.05342621,0.32013956,-0.0069075683,-0.15853612,-0.022334889,-0.097936064,-0.019060228,-0.10583272,0.025414487,-0.040176816,0.2474275,0.1517613,0.13574597,0.059633583,-0.008153241,0.016504606,-0.012910124,0.088414475,0.034453217,-0.1303765,-0.080250874,-0.038336847,-0.1985341,-0.030792603,0.10586422,-0.02754801,0.08667201,-0.089397065,0.04008179,0.013251003,0.11049169,-0.1249605,0.14531945,0.14448904,-0.081113905,-0.05651468,0.07901943,0.0008586236,-0.093452565,-0.046559304,0.061358076,-0.016293602,0.10770582,0.07963443,0.0037577383,0.12430571,0.11642335,0.09605034,-0.013320487,0.1945871,-0.017401887,0.006161567,0.062302977,-0.064977825,-0.13389225,0.19899224,0.06571364,-0.01681518,-0.08344053,-0.084006615,0.10020908,-0.11646765,-0.0063238363,0.012919846,-0.042009175,0.006837762,0.034160577,0.012949842,-0.050879493,-0.03217724,-0.010519044,0.14077777,0.07583562,0.027828414,-0.060014483,-0.044451576,-0.057997707,-0.03074819,-0.10026968,-0.024952225,-0.13974929,-0.020451313,0.20835419,-0.20563355,-0.022124618,-0.11437514,-0.08154732,0.09581064,-0.14207245,0.049562927,0.10359456,0.10163184,-0.10582543,0.0029684755,0.11728765,0.06108678,0.014099262,0.13676442,0.04869535,-0.12720379,0.12517451,-0.047565226,-0.11942599,-0.20312062,-0.073338665,-0.0062616128,-0.07609012,-0.020100964,-0.074855305,0.045433592,-0.05714788,0.020132357,-0.25066954,-0.0006254047,0.07663883,-0.13885349,-0.08228644,0.12354241,0.007654165,-0.25923923,-0.17586538,0.018689856,-0.0036316852,-0.27484712,-0.07243989,0.048391316,-0.09082324,0.009268624,0.10110211,0.12606655,-0.1604165,-0.14753234,0.12290001,-0.022371005,0.0905272,-0.15993248,0.023945076,-0.22922076,0.053052146,0.26873723,0.21139783,0.1835608,-0.15886655,0.033140823,0.014134206,-0.19607808,0.06895537,0.075206265,0.04610747,0.07984754,-0.06425187,-0.010389589,0.058805987,0.13534012,-0.10556466,-0.021536585,0.08880206,0.047453783,-0.033273287,-0.01653098,-0.10152812,-0.08991332,-0.06728454,-0.040896185,-0.039243802,-0.053957447,0.03744441,-0.22624232,-0.09783863,-0.076529,-0.116747774,0.03490806,-0.060815103,0.22720502,-0.041081302,0.17600498,0.012348502,-0.10916484,-0.12111749,0.047845915,-0.10881829,-0.004786493,0.17820516,-0.014713368,-0.010788333,-0.08043831,-0.072418995,-0.18648092,0.159669,0.03884884,0.098030835,0.019961888,0.13183933,0.12532648,-0.052234434,-0.04430399,0.0019040727,0.02418053,-0.081310265,-0.021331856,0.076572016,-0.09161693,0.2763043,0.024927298,0.09463627,-0.08420216,-0.078491814,-0.039989557,0.03383363,0.11480657,-0.04379947,0.06374673,-0.061073795,-0.053684916,-0.08436624,0.086460225,0.052979093,0.09116745,0.042338092,0.057588685,-0.14130715,-0.036093313,0.0055932207,0.0031365457,0.011776933,-0.1060173,-0.05931234,-0.089270875,-0.16059902,-0.1780463,-0.12852028,-0.16142668,-0.1924959,0.034126043,-0.06117016,-0.031416267,-0.115833215,0.009985715,0.0938042,0.010058714,-0.11194064,-0.026343351,0.034656104,-0.0031499467,-0.050070632,0.17670521,-0.028076552,-0.038346376,0.043351207,-0.13609399,-0.004791828,-0.07804083,0.046449304,-0.05796449,0.1278029,0.009214521,-0.007542652,-0.10229473,-0.10422323,-0.0861659,0.07059734,-0.036842935,-0.2088109,-0.20130888,-0.24563971,-0.24908623,-0.17415544,-0.19938673,-0.19659397,-0.020249052,-0.012372434,0.033675123,0.1723389,0.067994386,0.024287324,-0.16569676,-0.02445231,-0.14417619,-0.23657602,0.14484058,0.027521228,-0.09656756,-0.255535,0.076708436,0.123760216,-0.26559943,-0.21100299,0.0003862103,0.03451867,0.029312462,0.19228476,0.32041436,-0.29824057,-0.30526468,0.1130313,0.12661055,0.030251307,-0.012781694,-0.049706288,-0.11326986,0.036906254,0.06535447,0.34303522,0.07184322,-0.021164818,-0.0391471,0.2982716,-0.113806464,-0.31084543,0.16256033,-0.08507033,0.14164257,-0.2272729,-0.034475487,-0.01779245,0.031498518,0.009748444,0.093061775,0.2937731,-0.11792045,-0.038812123,-0.24119483,-0.06208584,0.036047876,0.11129263,-0.058599338,0.0029235482,-0.025850723,0.12040631,0.18384124,-0.28731817,-0.016301703,-0.03957683,0.050943505,-0.10037505,-0.20454945,-0.16767392,0.10889128,0.24761891,-0.021124033,-0.05873204,0.061990388,0.12370051,-0.022787299,-0.035158034,0.05591107,0.12599209,-0.023918338,-0.150928,0.18695621,0.07380647,-0.06534303,-0.05363864,-0.004269717,-0.055523552,-0.06327784,0.009285501,-0.030715082,-0.0910327,-0.058209006,-0.050402205,-0.07005973,0.0018651879,-0.07002412,0.0024406393,-0.10555413,-0.07796764,0.058549166,-0.20093685,0.042713672,0.051777095,-0.21011288,0.02155549,0.092392765,-0.11850198,0.17518829,0.102436356,-0.078903124,-0.01911623,0.11206594,0.04618599,0.026617343,0.046366204,0.016267449,-0.043206543,-0.13913573,-0.04758793,0.19829585,-0.12488049,-0.07058106,0.28681642,-0.038251147,-0.14280097,-0.21333,0.1295221,0.16147427,0.23213172,-0.06232994,-0.24760053,0.098292515,0.087818906,0.05675,-0.24576621,-0.00092939194,-0.16925888,-0.21494065,0.068390355,-0.041142646,-0.016070228,-0.02247373,-0.16096076,-0.016157411,-0.29659182,0.09599082,0.08750534,0.057304386,-0.21000712,0.08320158,0.039486114,0.11047939,-0.2842784,0.0019497228,-0.19928083,-0.18767935,-0.19122928,-0.30154312,-0.12816122,-0.36187008,-0.17382227,0.022807507,0.09333419,-0.0024107841,0.028277807,-0.16832423,0.0101948595,0.1985392,-0.15780534,-0.049544748,0.09289515,0.118146025,0.12831436,0.06677495,0.120575055,-0.30077416,-0.073481746,-0.15232153,-0.063237414,-0.049835406,0.038737804,-0.2854249,0.00024002722,-0.014847865,-0.1616579,0.076636545,-0.049938574,-0.06561414,0.18200262,-0.018610034,-0.116558515,-0.17298508,-0.06622569,-0.1457276,0.20697357,-0.2113227,-0.08245326,-0.038283236,0.013866983,-0.18941663,-0.16112743,-0.005176801,0.046485018,-0.059813205,0.0027925922,0.030875485,-0.03992887,-0.06271268,-0.028882459,-0.030415697,-0.17437792,-0.04934255,-0.16921882,-0.040077552,-0.08634295,0.007586067,0.002886919,-0.21702135,-0.039965905,0.2176186,-0.32612327,0.13366392,0.24535507,-0.049263425,-0.01258754,0.35836163,0.021182315,0.03705933,0.00206459,0.07931739,-0.07333879,-0.09303113,-0.07305346,-0.008464785,-0.09925978,-0.10940761,-0.15386994,0.053575337,0.007095617,-0.029516868,0.0016680742,-0.18930252,0.021275578,-0.0031364518,0.073626556,-0.24048169,-0.20416948,-0.13894852,-0.0195729,0.0052724136,-0.19603579,-0.012389138,-0.07710963,0.011604725,-0.0744652,-0.17637318,-0.048564438,0.08313439,-0.05352039,0.082628995,-0.08840584,-0.045299046,0.05067647,0.038403857,-0.08577316,-0.09205533,0.20841286,-0.1289713,-0.011427352,0.047589168,0.09160666,0.01735941,0.08388298,0.012049164,-0.16178806,0.1798035,0.02388402,0.0629946,0.27932724,0.25881076,-0.06804538,-0.1758369,-0.26849413,-0.009357088,0.1152154,-0.21335326,-0.04700658,0.021258263,-0.28276384,-0.014971924,-0.15080316,0.10934455,-0.27305877,-0.048178636,-0.08238786,0.117212266,0.105649084,0.17997575,-0.1940504,-0.078368776,0.30915388,-0.06913919,0.09636202,-0.13949238,-0.18598622,-0.15736993,-0.0839441,-0.20617364,-0.10927923,-0.07593448,-0.0030011642,-0.17684454,-0.1490394,-0.19877572,0.009733378,-0.08209189,0.06479926,0.022860693,0.026096651,0.01746834,0.12743184,0.05046265,0.003255408,0.03705151,0.015492163,-0.0026871029,0.060319085,0.101173356,0.06344795,0.23828651,0.018333111,0.063693784,-0.03291932,-0.06907017,-0.19827494,-0.042700995,0.013061198,0.021006564,0.19879587,-0.019475838,0.007857308,0.038513795,-0.11596617,-0.0058246814,-0.0037282056,0.14619416,0.06507958,0.08751824,0.039042074,0.06492398,-0.07453993,0.033310894,-0.02519609,0.2258507,0.11588321,0.012859787,0.045030866,-0.014993376,0.07125671,-0.078212336,0.0035001684,-0.052006878,-0.053554714,0.119850665,0.0070451987,0.12156602,0.030812077,0.00024085537,-0.08328057,-0.017567413,0.006841481,0.030381165,-0.015182725,-0.012466074,-0.029269911,0.011409194,0.025936116,0.05141877,0.0365433,-0.055381473,0.039163005,0.028951565,-0.04207658,-0.07618032,-0.0031296643,0.04819913,-0.023326203,-0.08154719,-0.017248366,0.015974978,0.057606712,0.07924946,0.008927532,-0.015663572,0.011007019,-0.043263815,-0.056485694,-0.006583428,0.012597071,0.1431644,0.062635906,-0.114095695,0.015976314,-0.058598258,-0.05661417,0.06798023,0.050742373,-0.0479174,0.047035787,0.091004804,0.17896506,-0.23768882,-0.0016904002,-0.050351385,0.067871146,0.15292458,-0.055897024,0.043365125,0.16245416,0.13403568,-0.16434027,-0.079970896,-0.04929879,-0.07995493,-0.0989117,-0.10593372,-0.1034891,-0.011762649,-0.28448915,-0.0048656855,-0.15757452,-0.17476936,0.06605893,-0.078360714,-0.08966194,0.039278988,0.02125461,-0.073632896,-0.02132936,-0.15021911,-0.0506595,-0.029790351,-0.170515,-0.18132062,-0.059413817,-0.18099211,0.15087903,0.20355527,0.06835289,-0.17926377,-0.18087684,0.061378494,-0.05428519,-0.12258503,-0.029744131,-0.15201469,-0.17339426,0.04751191,-0.098143585,0.1466742,0.16047639,-0.12354237,-0.07949105,0.040299285,-0.13779995,-0.055270072,0.11990704,-0.03861725,0.081235394,0.15636712,-0.0465122,-0.008875778,0.05162731,-0.1367313,0.0056511117,-0.20375037,-0.12756795,0.058895383,0.24110253,-0.1133626,-0.073424146,0.014286185,-0.0051328847,0.10319629,0.119592965,-0.16089617,0.15771887,-0.13021395,0.19682454,-0.05104028,-0.23983976,0.087721504,-0.1193858,-0.1393837,-0.10989014,-0.17996606,-0.04377651,-0.034053355,0.0118515575,0.012001106,0.08093976,-0.07235128,-0.051383175,0.0063129743,-0.0126199825,0.17787078,0.058646023,-0.066794895,-0.11876753,0.03613605,0.13662745,0.14919698,-0.004306024,-0.120351024,-0.091983214,-0.01280857,-0.031997487,-0.06995558,-0.12129497,-0.085071705,-0.01382517,-0.029931655,-0.025274126,0.032545995,0.0329594,0.018802695,-0.07592584,0.041141953,0.081713095,-0.055176772,0.004836696,0.11210746,-0.06936026,0.24281642,-0.13012856,-0.16163425,0.2690049,-0.1354026,-0.05047096,-0.03555501,0.10133086,0.107574165,0.087124206,-0.0862876,0.12769869,0.0017451764,-0.06908459,-0.0015763709,0.088090144,0.1628352,0.22211917,-0.008284606,0.09398494,0.09979671,-0.01468915,-0.082809836,-0.08552193,-0.1541062,0.14516476,0.27086058,-0.11777759,0.0681768,0.015526076,-0.045283858,-0.07057394,0.09902475,-0.20975526,0.010450215,0.17060053,0.11987987,-0.17663091,0.114226915,-0.07373489,-0.23662555,-0.16598953,-0.12873481,0.11660282,0.0663972,-0.043149073,0.03189154,-0.039523598,-0.13189411,0.030151075,-0.049142707,-0.0986823,-0.068014644,0.311771,0.269457,-0.09647508,-0.11607628,-0.19519626,-0.14223365,-0.13571584,-0.106980965,-0.14911616,0.029913517,-0.15524565,-0.23735242,-0.18130547,-0.0795901,-0.14515617,0.04485404,-0.004882628,0.16591534,-0.0589054,0.136666,0.041615345,0.086141594,0.13146481,0.17466374,0.08438335,-0.022324262,0.13750583,-0.015473774,-0.05574395,-0.08255777,-0.001874377,0.1912328,-0.039964244,-0.15379918,0.04248567,0.0020305149,-0.077440366,0.16073014,0.12955505,0.051304407,0.061444245,-0.19436607,-0.025223766,0.1724758,0.21007295,-0.038476594,-0.07001272,0.14325774,-0.014517861,-0.0947837,0.06073958,0.0085936645,-0.1558355,-0.0028617983,0.008589443,0.051784582,-0.020024316,-0.11634144,0.055844665,-0.038722765,0.010221357,0.012707073,-0.074586324,-3.219056e-05,0.118624054,-0.15311041,-0.31892207,0.0070318105,-0.084494494,-0.21816617,-0.032245092,0.16852176,-0.011734318,0.017920641,-0.05787288,-0.058097605,0.062418226,0.07145912,0.0010453704,0.020803014,0.0034925232,0.087241225,0.054701053,0.037444055,0.22701216,-0.03260274,-0.19488373,0.03890105,-0.06633305,-0.18074422,-0.23790969,0.019484755,-0.055210337,-0.11189808,0.31423783,0.054122493,-0.107396126,-0.057327636,0.26692727,-0.054234877,-0.036133178,0.024107443,0.17487,0.08336217,0.039966203,0.0353773,-0.017998997,-0.081817605,-0.07707967,-0.18472806,-0.16625562,-0.25427765,-0.049674265,0.009159433,-0.112185486,0.17020436,0.27976775,-0.00849672,-0.26484364,-0.23081903,-0.21055196,0.007884057,-0.033002432,-0.1715873,0.120660685,0.21607505,-0.117481075,-0.09068054,-0.09544876,0.16702487,0.03912335,-0.1127889,-0.12974922,-0.0010068793,0.0026824735,-0.18725578,-0.05501978,0.0060933307,-0.22778195,-0.0091491705,-0.07269719,-0.2565115,-0.07625994,0.2149077,0.19203115,-0.119369425,-0.12689368,-0.08793883,-0.099425726,-0.17323904,-0.06877693,0.056409664,-0.012004012,-0.07703649,0.0332625,0.024699626,0.0050892984,0.10672759,0.0076585882,-0.082237415,-0.015367267,-0.069516934,-0.05773698,-0.09091723,-0.10192647,-0.0401783,0.05963568,-0.039143447,0.19561434,-0.07008594,0.0604394,-0.0068702144,-0.045789577,-0.016527295,-0.11493738,0.061362326,0.10765386,0.11762183,0.13625757,-0.19653325,0.05308618,0.02909166,-0.10567382,-0.029191103,0.03341427,0.024434226,-0.14186527,0.01332853,-0.05492393,0.10806705,0.051974833,-0.004106139,0.015968496,-0.042125296,0.022794971,-0.042571448,-0.015761228,-0.040297884,-0.029581916,-0.08912855,-0.076935746,0.15845755,-0.10424416,-0.08679907,0.08304218,0.02583835,0.007253174,-0.04896541,-0.15196013,-0.05791909,-0.08281098,0.17234308,-0.05797053,0.15424407,0.06340716,0.07839591,-0.026780307,0.05548649,0.026089944,-0.07749769,-0.026467461,0.03612065,0.061265692,-0.025412556,-0.085040726,0.060415745,-0.0050560758,-0.121376954,-0.1284988,-0.08459199,0.13744643,-0.006226823,-0.035838034,-0.100413464,-0.012395979,-0.033129998,-0.09073292,0.14085479,0.06574254,-0.050294526,-0.03241791,-0.004673885,-0.20534511,-0.016303308,-0.08672644,-0.007469744,0.021247586,-0.06571893,-0.030436764,-0.08779764,0.07818999,0.05336375,-0.0030610745,0.045890853,-0.04101725,-0.069435954,0.15770654,-0.047579974,0.11320388,-0.075317174,-0.04640169,-0.10834337,0.0105993245,-0.13052651,0.04356527,0.050567888,-0.10696435,0.09698532,0.13305838,-0.050934337,0.103635825,-0.07238089,0.16396213,0.028547995,-0.04275031,0.035263482,-0.015243194,0.07610866,-0.02501316,0.010356531,-0.08700146,-0.089488514,-0.14981407,-0.044348445,0.110304594,-0.092306376,0.0077324556,0.01620926,-0.015485162,-0.035241168,-0.026986191,-0.23256604,0.3900873,0.2562589,-0.19979374,0.2564137,0.11721339,-0.121680126,-0.04171822,0.0009205041,-0.09366743,-0.17724265,0.07496608,-0.09462404,-0.14647616,-0.14871505,-0.14201969,-0.056157634,0.019362755,-0.053306073,0.028899174,0.1524147,0.013117872,-0.031720452,0.075507954,-0.023632849,-0.09474986,0.06952723,-0.05265554,0.039171558,-0.056360424,0.0630169,0.024769608,-0.15892188,-0.04262993,0.027135113,-0.02421187,-0.12263827,-0.057781156,0.013935437,-0.009241424,0.02275962,0.085767224,0.06624991,-0.11830107,0.042936817,-0.06710729,0.07089202,0.020858413,0.0069658244,0.10102431,0.081553966,0.015440007,-0.02866766,0.1358278,-0.0839584,0.1505604,-0.047722768,-0.058685638,-0.09262076,0.048128515,0.041671157,-0.0629389,0.091351576,-0.15861343,-0.023624681,0.020369722,-0.0830049,-0.05932709,-0.17613307,-0.033132818,0.030256543,0.017146965,-0.08316688,-0.042200897,0.025300533,0.022747602,-0.07896424,0.06215956,-0.0067086536,0.070466936,0.090952635,0.018910322,-0.012067204,-0.08994686,0.00789776,0.03307162,0.08113233,0.051976025,-0.22325872,0.0909648,0.21614468,-0.033036914,0.060645666,0.016649889,-0.029795459,-0.026142063,0.12860626,-0.05099222,-0.07744025,0.08900874,-0.10166365,0.05904908,0.06191309,-0.06735509,0.017131025,-0.04684247,0.008069237,-0.036860757,-0.09582733,-0.07779585,-0.057851057,-0.006926633,-0.124536976,-0.1594975,-0.15399733,-0.10586519,-0.07985145,-0.025387596,-0.09736181,-0.12669995,-0.047031544,-0.10561297,-0.3044853,0.24423675,-0.03894015,-0.253942,0.26829386,-0.06111858,0.12444485,0.087434955,-0.048418425,0.0043217884,-0.07938116,0.08504812,0.05313926,-0.043000173,-0.14611559,-0.06383515,0.03624658,0.08073519,-0.008940578,-0.11359344,0.02354415,0.02291628,-0.26309696,0.11210298,0.057549782,0.26204598,0.29769328,0.16187146,-0.19261914,-0.067452066,-0.0211573,-0.15982933,-0.14828546,-0.021367146,0.028280407,0.08435677,-0.036448102,-0.060190447,-9.889968e-05,0.13617055,0.037330784,0.14795564,0.0077243666,0.047091044,0.047947835,-0.011857162,-0.0987417,-0.12717392,-0.054085277,-0.057337087,0.004852871,-0.032030102,0.028929759,-0.0028936507,0.061874893,0.020552738,-0.06714248,0.0739686,-0.07734017,-0.08050647,0.06851165,0.047204554,0.1170653,-0.05727561,-0.087344915,-0.0804522,-0.071874335,-0.13093741,-0.09007721,-0.10308263,-0.06319978,-0.014451305,-0.16292812,-0.118120626,0.100159034,0.07103018,0.025917806,0.21839494,0.1862101,-0.07372081,0.06782075,0.05969224,-0.24803182,-0.10247706,0.037496172,-0.11035757,0.037355624,-0.041567855,-0.033001643,0.29236653,0.034627583,-0.010583866,0.017674047,-0.00031609175,-0.059696227,-0.110832326,-0.048793416,0.029708825,-0.045734957,0.051909216,0.08605174,0.17617235,0.13659646,0.0354793,0.06736723,-0.18011087,-0.030089544,0.03730601,0.03985215,-0.1374094,0.108761884,0.03275954,-0.16847183,0.0389027,-0.1228075,-0.043016847,-0.0038478433,0.06811078,-0.049252294,0.02952062,-0.045101542,-0.11979432,0.007716611,0.043222364,0.07147029,0.10345492,0.051941473,-0.14330122,-0.08696386,0.08570541,-0.04269449,0.116990454,0.03777291,0.072344445,0.08051189,0.034601487,-0.18506646,-0.23520814,0.0011929945,-0.048309226,0.017135434,0.090769894,0.1532758,-0.045237914,0.124855794,-0.07392766,-0.004755463,-0.056734372,-0.08687641,-0.20197627,-0.09681019,-0.04944781,-0.16499983,-0.048261553,-0.1843614,-0.07383139,-0.09214945,-0.0035699054,0.106190115,0.05550226,-0.004099847,-0.22510725,-0.08313583,0.305751,0.22957173,0.0077191163,-0.19113667,-0.22498602,-0.10799247,-0.041043017,0.15930326,0.21042809,-0.20118035,-0.101017214,0.05329349,0.003930958,-0.356982,-0.14015394,0.09325628,0.016073423,-0.06656425,0.014004609,-0.029915303,-0.014002077,0.05884395,0.019456545,0.12088684,0.13158068,0.4690431,0.06518625,-0.07816201,-0.08172776,0.0006999575,0.07742628,-0.16520116,-0.16261086,-0.018396385,-0.10614744,-0.13831244,-0.008274612,-0.055590775,0.051368505,0.31906503,0.08075807,-0.082141556,0.07466961,0.20160753,-0.06982629,0.0705284,0.043784663,-0.018348657,0.021204736,-0.1622013,-0.21698807,-0.01056971,-0.0064640865,-0.013536172,0.03187411,-0.18131298,0.069861576,0.040319443,0.029454306,0.16867693,0.016825348,0.21074434,-0.0053108954,-0.021141555,-0.13838366,-0.16726261,0.16389772,-0.4519961,-0.22623447,-0.045571353,-0.05034091,-0.009204819,0.061240874,-0.06490591,-0.048971437,0.07039021,0.06262333,-0.070639476,-0.035891492,0.050562114,-0.015977135,0.037665956,0.10635234,-0.03647032,-0.07335542,0.36851978,0.103435434,0.08979738,0.1683095,0.121112145,0.1545746,-0.17353405,-0.010198799,-0.20444727,-0.19170907,0.19537693,-0.010700304,-0.39067653,-0.08124365,-0.043453332,-0.053031575,-0.0028394687,-0.10582094,0.057379518,-0.021062503,-0.11699575,0.019968305,-0.18929815,-0.09175446,-0.21689072,0.12371445,0.012898629,-0.3623503,0.051476244,-0.05606821,-0.07007818,0.24734752,-0.22014798,-0.2876876,0.011039148,-0.060176082,-0.47424382,-0.14241919,0.042216707,0.033289675,0.100070156,-0.11084186,0.0010384428,0.1050724,-0.11837057,0.030036477,0.23204401,-0.21679917,-0.140386,-0.18278404,-0.07031098,-0.18420918,-0.11694598,0.076752976,-0.09554773,-0.22041754,0.20355256,-0.04140534,-0.02996365,-0.024851587,-0.032734636,0.13246259,-0.17020403,-0.024857331,0.10656989,0.075581945,0.16708668,0.1007418,-0.16468267,0.0027588955,-0.2460997,-0.25750306,0.09950486,-0.1323235,-0.092475675,-0.060314666,0.020453235,-0.029057076,-0.020699073,0.03752259,0.033230018,0.011123038,0.20825548,0.011456758,-0.03707884,-0.06396621,-0.15624756,0.05612962,0.12321152,-0.0832225,0.046836518,0.058623377,-0.030929796,0.055893626,0.07516772,-0.032873888,-0.04714336,0.040719658,0.08909126,-0.029218473,0.19305304,0.088231005,0.030890204,-0.16502173,0.006934659,-0.045750108,0.11290824,-0.03804291,-0.05338342,0.042246416,-0.027848324,-0.12352691,0.12606102,-0.070950046,-0.07310572,-0.08478329,0.00044476977,-0.07589681,-0.009898302,0.08917668,-0.037081912,-0.024733678,-0.21625818,-0.14800386,-0.1622676,-0.42906034,-0.0071059396,0.17800517,-0.06381919,-0.034152377,0.020779492,-0.021472365,-0.061636433,0.00095320086,0.027082495,-0.069673434,-0.031453047,-0.07129465,0.026643611,0.05100276,0.010464329,-0.04072938,0.15066671,0.2098849,0.044060268,-0.045244984,0.028600272,-0.069355994,-0.07154853,0.015083088,-0.08464879,-0.07060988,-0.00053482706,0.09275185,0.09576053,-0.13588342,-0.09437036,-0.021489283,-0.055396773,-0.08939487,-0.07725118,0.14157623,0.121446155,0.11106341,0.14750001,-0.07799004,0.094454475,-0.13956396,-0.12392053,-0.1158643,-0.28524765,0.00073062157,0.11095807,-0.059566732,-0.076636404,-0.014836821,-0.33320615,-0.096796155,-0.24737202,-0.2541958,-0.031705473,-0.008872342,-0.123045236,-0.06524487,0.064225234,-0.051276755,-0.09761949,-0.074457884,0.2058841,0.1522832,-0.15592493,0.11922145,0.014582046,0.16929086,-0.19055411,-0.02099877,0.03148969,-0.17905065,-0.17486776,0.11505751,-0.18209606,-0.09615979,-0.012941262,0.05446706,0.13955538,-0.020541139,-0.006959571,-0.12657887,0.18625946,-0.07559751,-0.08663389,0.029873954,0.01793915,0.021366658,-0.009122589,-0.101852655,0.09130374,-0.15512368,-0.033234302,0.016609056,-0.15260531,0.02030495,-0.08085191,-0.032044295,-0.08036862,-0.055016425,-0.09185994,-0.049227323,-0.059000816,-0.08355534,0.047256257,-0.07358858,0.07073001,0.013960048,0.05769401,0.06779123,-0.02433374,0.09232209,0.1045013,0.029875986,-0.09180939,0.024175525,0.001277999,-0.046363898,-0.05355059,-0.017984683,-0.037464514,0.101537436,0.07033241,0.054695405,-0.06533816,-0.022915395,-0.0037554074,-0.018069,-0.076220065,-0.08585688,-4.5263303e-05,-0.05990447,-0.09376123,0.0037464208,-0.068705104,0.02786423,-0.019836199,-0.09973173,-0.043691184,0.08498524,-0.020348048,-0.03498903,-0.11954033,-0.09992284,-0.13933247,0.054522827,0.04281708,-0.10020095,0.053001925,0.07970137,-0.058104057,0.0012915798,0.08347456,0.080206394,-0.04206457,0.007951882,0.07758041,0.018222714,-0.015876878,-0.03547195,-0.08618103,-0.0630259,0.026897736,0.0050566024,-0.024237089,0.0023305244,-0.059900012,-0.0819835,-0.06605548,0.051135976,-0.050568823,-0.022558266,0.027372431,0.00606567,0.05212737,-0.051950406,0.040252652,-0.011176294,-0.06870588,0.008776095,0.07007985,0.03791659,-0.044286765,-0.025688864,-0.06603063,-0.096311375,-0.028877178,0.03177091,0.02312979,0.028406853,0.12512636,-0.038426545,-0.035837032,-0.08431791,-0.082841106,0.051380787,0.07091271,-0.11605502,-0.10368313,0.10700763,-0.09642256,0.024810346,-0.1238342,0.029475067,-0.10244271,0.00960238,-0.09181561,0.061024904,0.06501305,0.013422925,0.121882826,0.0150887035,-0.104916684,-0.112980284,-0.041634865,-0.05162885,-0.09124778,-0.017227758,0.0270212,-0.036998797,-0.009190663,0.1393537,-0.05034667,-0.11230141,0.051284466,-0.19048534,0.12238917,-0.08000852,-0.05873294,-0.18731114,-0.15815178,0.24747178,0.10988709,-0.17113292,-0.0066844895,-0.047895752,-0.183318,-0.035530552,-0.097488254,0.068237,0.1356261,0.039776523,-0.10852185,-0.05579144,-0.0010048824,0.048529427,0.024504265,0.0496312,0.020077128,-0.17535101,0.04960325,-0.038069084,-0.10918844,-0.08664859,0.03697979,-0.1580581,-0.08021876,-0.053300496,-0.11541662,0.098081835,0.13019854,-0.008863846,0.009699865,0.0022219992,-0.048680797,-0.009919818,0.095472895,-0.08035371,-0.06006296,0.11954222,-0.116176024,-0.097790375,-0.04792485,-0.07978497,-0.11536086,0.076958925,0.06286141,0.07111485,-0.048183866,-2.9853103e-05,-0.08848893,0.020268273,0.008269482,0.05256276,-0.010751967,-0.08537946,-0.018070204,0.13418016,-0.12856185,-0.09460738,-0.06297502,-0.019645128,-0.03655102,-0.018492578,-0.07445415,0.059181917,-0.052570704,0.072636165,0.037345923,0.028389022,0.039237034,-0.08362427,-0.004539052,-0.13983248,-0.04111756,-0.0336446,0.05444559,-0.064800076,-0.0464267,-0.020463575,0.032254353,0.008261374,-0.021594042,0.16355498,-0.04031511,0.11938066,0.17099965,-0.015284563,-0.11256413,-0.06749152,0.08993776,-0.018596854,0.07060598,0.070150144,0.10997512,-0.057661604,-0.10847014,-0.12117795,-0.07566165,-0.17320636,-0.060511347,0.21874952,-0.05796953,-0.14077336,0.062298447,0.09588469,-0.021162383,0.019135535,-0.027459148,-0.10783178,0.10945021,-0.032842368,-0.18382213,0.05615822,0.12161279,-0.033655196,-0.016200297,-0.007498257,-0.023481304,0.041090373,-0.040067635,0.16619784,-0.11282532,-0.04416238,-0.058233056,-0.11126381,0.057849802,-0.03993589,-0.025092969,-0.063228816,-0.122921005,-0.063141145,-0.022789411,-0.04492048,-0.070163734,0.10521644,-0.15758325,-0.12747964,0.048596762,-0.0039712028,0.09577415,0.27850103,-0.015060027,0.36555812,-0.15431052,-0.07996444,-0.0073928796,0.0045392537,-0.2602901,-0.18260607,0.03925583,-0.10733172,-0.27128863,0.07334654,0.041903824,0.11682658,0.18740031,0.05549031,-0.12602487,0.14384599,0.06551218,-0.08026101,-0.008781053,-0.09591923,0.10241948,0.14657389,0.027819792,-0.105538405,-0.10624999,-0.07071226,-0.01811986,0.13895437,-0.12882705,0.0960303,0.08911691,-0.02348887,-0.060830228,0.09692799,0.11229296,-0.010132159,-0.09583106,0.16410951,-0.17422299,-0.002113201,0.08474892,-0.00016206813,-0.04143581,-0.023443121,0.09884849,0.08908558,-0.025837999,0.024992421,0.13131644,-0.062049232,0.06664081,0.04954325,0.021827368,-0.17082034,0.079313084,-0.3050931,-0.107427016,0.07883725,-0.020986198,-0.13198718,0.06866159,-0.05141095,-0.0070023444,-0.007007032,0.0956679,-0.0656089,0.025404785,0.05665938,-0.07270423,0.0018968324,-0.07702861,-0.10836232,0.1339353,0.028710432,0.09421604,-0.012820113,0.0651035,0.02101692,-0.050628364,0.051391102,0.083800666,0.028029205,0.010068502,0.07851402,0.026008805,-0.06440273,0.17861348,0.0033903066,-0.004822833,-0.11008694,0.05392099,0.061909363,-0.006529387,-0.14711489,0.15332285,0.098696984,0.009605383,0.0301402,-0.009932729,-0.101811245,-0.14751017,-0.111880176,0.035650685,-0.23487863,0.05361681,-0.18397851,0.012369463,-0.100332804,-0.10839551,-0.23058578,-0.064704165,0.0024338688,-0.202678,-0.14847103,-0.0060498454,-0.10891022,-0.14924456,-0.078495786,0.06626792,0.17491022,-0.10935491,0.24482548,0.13427535,-0.26595667,0.1432196,-0.29496035,0.018151043,-0.08685129,0.056874223,0.09147616,-0.06749379,-0.12408655,-0.101003274,0.15163617,-0.07199999,-0.06292145,-0.058070086,0.03505007,-0.20077175,-0.12755822,-0.0801746,-0.18450338,-0.058085315,0.10191527,-0.01232451,0.06620317,0.021733476,-0.037758518,-0.09958024,-0.005995807,0.055975262,-0.011693214,0.022818554,0.03660557,-0.024991816,0.13117754,0.17336448,0.0012694434,0.11049539,-0.015690694,-0.020037813,-0.075706385,0.006062284,-0.06336618,0.028886937,0.13414297,-0.077782504,-0.14622365,0.029174598,-0.025615947,-0.06382543,-0.117231496,0.007372922,0.0071922652,0.038469616,0.10908771,0.089731894,0.04725741,0.0013200555,0.036663845,0.08915581,0.065604106,0.051472303,0.06581313,-0.070969455,0.004359733,0.14315803,0.00844115,-0.105088234,-0.027226172,0.038713526,0.17072833,-0.07086168,0.056267045,0.04812493,-0.08659659,0.051097583,0.13018015,-0.21917889,-0.062347747,-0.020851042,0.06917966,-0.22801161,0.005018354,0.03052085,-0.18771105,-0.13664772,-0.015093798,-0.042896926,-0.017210996,0.064608686,-0.0047149183,0.02486442,0.07560438,0.02892624,0.06210623,0.061114036,0.024193978,0.08169634,-0.06690538,0.07401056,0.1852242,0.061691467,-0.053171076,0.041259576,-0.004424867,0.024463102,0.04929317,-0.025217984,0.1047927,0.057945855,-0.10448463,0.035945926,0.110566534,0.020209571,-0.010830909,0.037665375,-0.107137665,-0.045315214,0.0036228383,0.03878339,-0.14310054,-0.014672583,-0.19423772,-0.065282755,0.039172437,-0.052693818,-0.1453466,-0.06229326,0.20401724,0.0050300956,0.05264703,-0.23430403,-0.11932283,-0.052962054,0.13138288,-0.17404078,-0.10080058,0.15928997,-0.034811966,0.0038725908,0.0030451345,-0.008481162,-0.029136803,-0.030961556,-0.053548038,-0.12478082,-0.13080217,-0.19044724,0.08600701,-0.16895533,-0.05504648,0.052879773,0.11025928,-0.08611055,-0.0068070036,0.08727803,-0.09448092,0.060525913,-0.06902516,-0.25512713,-0.09840756,0.056420963,-0.6018999,-0.367075,0.2688201,-0.2323455,0.040728092,0.23454182,-0.026974414,-0.10835247,0.009583733,0.17503265,-0.004884685,-0.02477067,-0.16895945,-0.020924514,0.08154826,0.031505488,-0.30494356,0.2244142,0.068671614,-0.07985539,0.1322968,0.058785856,-0.04154175,-0.09512814,0.109718904,-0.20979035,-0.11424071,0.39161435,-0.13378966,-0.044652324,0.05620552,-0.03728828,-0.025249554,-0.004537186,0.025959367,0.031224292,-0.09543675,-0.023737201,-0.0022801268,-0.10870171,0.014667914,-0.09543218,-0.009591191,-0.17737179,0.082537346,-0.10682099,-0.056266088,-0.020225346,0.035251938,-0.021974262,0.095720604,-0.27172148,-0.14511889,-0.038141586,-0.16947305,0.048364032,0.08804909,-0.122225665,0.1816581,-0.3400017,0.39176106,0.040297963,-0.20299631,0.21996023,0.04749489,0.062437,0.11102471,-0.22150795,-0.06831299,0.014249078,-0.056123827,0.05391766,0.010840017,0.05342965,-0.101210356,0.055005927,-0.15037407,0.057063825,0.072065,0.030268798,-0.064719275,-0.04022098,-0.13050114,-0.11743138,-0.16849133,-0.021770122,-0.056801528,-0.032209028,-0.075774126,-0.16897947,0.13410209,0.0066573126,-0.12466191,-0.05075933,0.061276022,0.08146793,-0.009020721,0.042461712,0.09033081,0.21482024,-0.0003876102,0.045266286,0.057173178,-0.12113054,-0.05443961,0.12761933,-0.18203446,0.004079283,0.15595892,-0.0107146995,-0.1529605,0.069543496,0.03108516,0.029462287,0.15999557,-0.20022646,-0.10108227,0.24495216,0.082023695,-0.009712585,0.10535099,-0.042183608,-0.06605901,-0.20463464,0.10038742,-0.06454253,0.0056749233,0.20127171,0.11987923,-0.007544392,-0.13152134,-0.04523212,0.17352434,-0.1576759,-0.21340093,0.065294944,0.0035946406,-0.09418299,0.03313939,-0.07112463,0.017593471,0.042699788,-0.035816774,-0.08369455,-0.14986995,0.09002831,-0.16975819,0.1571376,0.29278058,0.18319246,-0.24434781,-0.16750292,-0.10713189,0.12411401,0.123440154,-0.13250384,-0.15237965,0.078585654,0.18658079,-0.12207837,-0.1286032,-0.06030093,0.17365173,0.26441345,-0.2515264,-0.19179073,-0.08075619,0.11352181,0.029646957,-0.21899772,-0.0017797083,-0.1604268,-0.03140024,-0.116674185,0.05792407,0.0041328957,0.38526687,0.19709265,-0.3848922,-0.10266838,-0.064749524,0.029425928,-0.11327743,0.013272765,-0.0951809,0.02385394,-0.03389328,-0.14329597,0.058159124,-0.036157675,0.19059047,0.10607356,-0.061683558,0.07229845,-0.21966241,-0.050268494,0.10164303,0.11792778,0.115237705,0.2527402,-0.15559909,0.057334483,-0.01738104,0.2330365,-0.22515026,-0.2830494,-0.28696907,0.2491187,0.0030940813,-0.18058182,-0.17723788,0.111084506,0.034088366,0.0011960258,-0.038241554,-0.06740087,-0.09924541,0.041891597,-0.05785687,0.010175363,0.06659419,0.018890435,0.0076275496,-0.035498027,-0.07938063,0.19103168,0.020105217,0.0344293,0.04438157,0.001720936,0.07226141,-0.22551413,-0.023475785,0.16891229,0.09116128,-0.0062301187,0.034056034,0.123603135,-0.0017054774,0.108899355,-0.07771518,0.036926545,0.094518244,-0.027243212,-0.08773921,0.033092014,0.020724788,0.025803233,0.26605117,-0.043832164,-0.29145136,-0.10182501,-0.018912323,-0.021179304,-0.14801967,-0.1272943,-0.16022575,0.19014847,-0.10234047,-0.32713318,-0.19198728,-0.08352327,-0.08848113,-0.42174116,-0.17220634,-0.13377,0.098899595,-0.020121826,-0.0031819183,0.18232428,0.22107553,-0.13177088,0.22680917,-0.08265482,0.047069903,0.3127143,-0.17023373,-0.27649084,0.019198775,0.22475062,0.15583733,-0.18884525,0.008935475,0.17204913,0.008987345,0.024035305,-0.2479226,-0.19574654,-0.12556502,-0.11236397,-0.0043180357,-0.13833477,-0.14849192,0.20967247,0.04515167,-0.03350221,0.15791583,-0.19634788,0.2572011,-0.06486398,-0.044864174,0.17490801,0.08530937,-0.0070696766,-0.03783557,0.039002568,0.010134805,0.08770415,0.3003639,0.049988408,0.05317108,-0.12545311,-0.018200736,-0.15030606,-0.29206854,0.110823326,-0.043469828,-0.14152664,0.0035775932,-0.023539338,0.00078053784,0.017392209,-0.09093951,-0.2083301,0.025718339,-0.066178724,-0.13694267,0.09713192,-0.025297102,0.12895682,-0.18823203,-0.1708833,-0.064000726,0.017320959,0.10619503,-0.064600684,-0.16256161,0.16059709,-0.15286009,-0.032768685,0.066978864,-0.07069179,-0.08100345,0.08009646,0.14509794,-0.08257388,-0.032873318,0.045269243,0.10050912,0.14067668,-0.1167016,-0.011003829,-0.116985746,-0.025609765,0.07083874,-0.06657804,0.028504591,0.03678971,0.02944499,0.020088071,-0.019810352,-0.08468269,-0.043083914,0.018623598,0.008534454,0.041978177,-0.006546197,-0.0812942,0.046049032,-0.09697426,0.016411446,0.034591403,0.06369022,-0.009603834,0.15094204,0.079436556,-0.037670463,0.18552564,0.111004494,0.03562753,-0.10258002,-0.0034177087,-0.27898788,0.025507605,0.09136292,-0.07301352,0.013397052,-0.12329398,0.1036876,-0.087430626,-0.03696736,0.12152488,0.05026512,0.040970452,0.033097934,-0.13581239,0.11011429,0.038452864,-0.20838992,0.16086516,-0.054880567,-0.009536832,0.13475834,0.0048705684,-0.20413709,0.25755286,0.11344824,-0.056380663,0.14036041,-0.18416016,0.002823961,0.2591444,-0.21763182,0.057028998,-0.0880335,0.1437009,-0.29652053,-0.18589848,-0.058759365,0.027950529,-0.12400689,-0.021782406,-0.06709655,0.096040756,-0.032230083,-0.13343541,0.049205013,-0.09304618,0.013332372,-0.025053103,0.15105584,-0.08865853,0.03881689,0.5281566,-0.07651826,0.045109987,0.076994374,-0.0025387157,-0.09771206,-0.0053524952,0.18040282,-0.007938262,-0.11451786,0.16760841,0.035678145,-0.045195058,-0.07918278,-0.0032721744,0.117482916,0.030204343,-0.010089203,-0.19809216,0.0347862,-0.120213255,-0.106149346,-0.039084144,-0.24197309,-0.06898454,-0.27745914,-0.16490276,-0.072834685,-0.08375217,-0.1251872,0.16313553,0.015022846,-0.05275829,0.033928964,-0.059498597,-0.23698068,-0.0641296,-0.19473109,0.07136352,0.09223286,0.0685241,-0.1878922,-0.17900074,0.07844804,-0.19287434,-0.12798136,0.049696002,-0.29034537,-0.015373621,-0.10698208,-0.0035302464,0.10202989,0.23273614,0.013419137,0.059782147,-0.081135005,-0.023667865,-0.07625915,0.006082651,-0.2247623,-0.050990812,0.17892088,0.10647754,0.27349502,0.13507132,0.011748144,0.12001751,0.046621736,0.048130628,-0.058130726,0.039361395,-0.023393631,-0.057943128,-0.049408488,-0.08333427,0.069746986,0.041103993,-0.040851533,0.08607241,-0.04316008,0.0201909,-0.007990494,-0.008494774,0.06907106,-0.06629007,-0.058136083,-0.36127582,-0.29314697,0.23743665,-0.25391036,-0.4180984,0.06706617,-0.2134601,-0.11883161,-0.0629758,-0.14198866,-0.06516406,0.052503034,-0.13603574,-0.013285954,-0.05720962,-0.030606247,-0.08827796,0.047525585,-0.16163547,-0.06343299,0.1304958,0.028327962,-0.042192742,0.08285858,0.040238515,-0.080204144,-0.048890736,-0.05249025,0.08658036,0.11761776,0.21637037,0.21553884,-0.033390917,0.058867745,0.14829792,-0.22928628,-0.28234503,-0.2419603,-0.025528442,-0.40692458,-0.3687493,-0.15422362,-0.07412317,-0.036300477,0.08005271,0.059390225,-0.01966704,-0.0015203103,-0.0006497172,-0.037500963,0.02652037,-0.25779188,-0.04858938,-0.16247818,0.21232854,-0.061671503,0.04792592,0.15730582,-0.12790516,0.10559192,0.23696367,-0.07870405,0.11593677,0.27170256,0.10226404,-0.036331527,0.040728007,0.1063668,-0.093449086,-0.07130148,0.011970213,0.11756348,0.23752972,0.29762626,-0.12041135,-0.04372865,0.08027285,0.23940124,0.057958283,0.07421556,0.014292992,0.017631259,-0.14955013,-0.077069975,-0.17215362,-0.099188305,-0.026653295,-0.17349474,-0.010476528,0.090882316,0.040016603,0.12116005,-0.04313719,-0.12635624,-0.024034193,0.017161448,-0.045714114,-0.06891842,0.09194504,0.04706845,-0.060993332,-0.07174212,-0.12683153,-0.16836439,0.14022844,0.070972286,-0.056174908,-0.087172605,0.21966961,0.13619016,-0.002756598,0.035518166,0.058562927,0.10591475,-0.014167185,-0.017678225,0.0509395,0.00082108116,0.24953276,-0.053873397,0.031275578,0.033101603,-0.16293299,-0.096547656,-0.21161067,0.064014174,-0.07419501,-0.09884597,0.073805176,-0.07300199,-0.027703322,0.046320472,0.048246436,0.07843652,-0.054399885,0.03179251,-0.10684247,-0.074963294,0.033222362,0.0658179,0.050285496,0.16754222,-0.06431209,-0.2690675,-0.092180386,-0.09030342,-0.12605199,-0.18546914,0.06255269,-0.07380655,0.0001922217,0.044947002,0.020150175,-4.2661974e-05,0.0064801485,-0.082107395,-0.12798822,0.036371652,-0.06506183,0.04006599,0.13271245,-0.030780796,0.05296413,-0.12517963,-0.1832666,-0.13192669,-0.058288418,-0.026066544,-0.1594372,0.04278138,0.065583356,0.1619643,-0.051963244,-0.19556938,-0.105774626,0.04624824,-0.005538709,-0.1366829,0.06360624,0.025717795,0.081001796,-0.22037144,-0.195173,-0.14019106,0.03011978,-0.13654254,0.004258798,0.050604686,0.118800364,-0.09243504,0.0040662326,-0.16584127,-0.016603114,-0.13284104,0.12168637,-0.081158064,-0.08368009,-0.0676154,0.0043018055,-0.017987452,-0.035373725,-0.075425066,-0.07167403,-0.030038059,0.04836244,-0.06113427,-0.031851336,-0.058362763,-0.022035427,-0.0799832,0.0054325573,-0.06090795,-0.07531433,-0.021813057,-0.038807794,-0.0057310653,-0.056241516,0.04938752,-0.04266692,-0.009974428,0.008566999,0.05720066,0.08024961,0.06397976,0.010947598,-0.0045551183,0.054623976,-0.052039426,-0.011009594,-0.027659671,0.057004895,0.033319082,0.05242439,0.020059364,0.025577815,-0.060499474,-0.05412304,0.05035421,-0.011040076,-0.07722957,-0.07754331,-0.02638606,-0.08094451,0.00023649476,-0.05865639,-0.03618488,-0.028966999,-0.027474698,-0.077341005,-0.036707703,-0.045511253,-0.04934209,0.073957086,-0.07447003,-0.043794252,0.07320776,-0.05848417,-0.072094776,-0.0076831956,-0.06393154,0.009430596,-0.009529253,0.029482083,0.0061299116,0.048949882,-0.08148811,-0.011977798,-0.0812592,-0.024080979,-0.022232497,0.015988996,-0.06829321,-0.04925731,0.018659903,-0.057505015,0.026236475,0.0050531137,7.69393e-05,-0.036496613,-0.07416374,-0.028726786,-0.031919334,0.011137468,-0.042381685,-0.04944089,0.030640291,-0.06561036,0.066556625,0.08005155,0.025850683,-0.02332086,-0.039201964,-0.002385955,0.053364545,-0.031246066,-0.021387186,-0.06789386,-0.061552893,0.05843054,-0.0394722,0.048394,-0.028295714,0.0353767,0.039624095,-0.034089405,-0.03108211,0.008716449,0.05256246,0.06350732,-0.033783566,0.053778533,-0.0673793,0.034067728,-0.044568237,0.0027073263,0.083800204,-0.056388788,-0.00894634,-0.004326391,-0.0066382857,-0.014997506,-0.08153785,-0.066519335,-0.016992891,-0.00078901555,-0.033106986,-0.055709284,0.022199363,-0.04397127,0.06575493,0.025003426,-0.07769518,-0.02121269,-0.055830296,-0.05384012,-0.025770318,0.07864888,0.08273709,0.06168087,0.04043294,0.0339285,0.014922698,-0.053908866,-0.09510266,-0.07496467,-0.04124056,0.1691477,0.11549223,0.07670376,0.21130456,-0.044746228,-0.04975269,0.12921894,-0.04301761,0.2224464,-0.20398422,-0.014742396,0.01469637,-0.1783072,-0.10099575,-0.1295553,0.046880804,0.113980725,0.095475785,0.1355029,0.20559606,-0.275285,-0.25205427,-0.17832315,-0.1783953,-0.025480615,-0.20588256,0.055428557,-0.06081611,-0.1076796,0.010371392,0.107501335,-0.11334463,-0.23478524,-0.13355194,0.0030816149,-0.3414789,-0.045002803,0.039405167,0.050034646,-0.09572452,0.0065459604,-0.1726173,-0.1423945,0.11790244,-0.14286952,0.039657548,-0.02576214,0.08883876,0.03995951,-0.09800666,-0.12866598,0.17038639,0.15742965,0.09260631,-0.04078225,-0.0441051,-0.16119625,0.01847579,0.06340784,-0.19775422,-0.086367846,-0.3734134,0.0738902,0.523926,0.086482465,0.04275445,0.062447824,0.052331805,0.061983857,0.11524275,-0.04772651,-0.11067422,0.040346228,-0.034028567,-0.05473701,0.017130822,0.12521785,0.05092995,-0.086424194,0.1785812,-0.05795023,-0.118979305,0.039687764,0.065097004,-0.07699345,-0.07523891,0.055589564,0.15810716,-0.009079358,0.09826042,-0.19616494,-0.046765953,-0.17540954,-0.05418339,0.04367711,0.0011935561,-0.17380737,-0.008237743,0.0404792,-0.05947811,-0.09342857,-0.03930367,-0.07737888,-0.24321796,-0.1423097,0.13159803,-0.1710849,0.1999776,0.05021855,0.063510925,-0.025978286,-0.09849971,-0.34434217,-0.3249005,0.10255251,-0.10856877,0.14932352,0.21321201,0.055333164,-0.022621475,-0.102070875,-0.00529167,0.12361569,-0.36238313,0.12232177,-0.16640079,-0.17657974,-0.122146666,-0.15344055,-0.06994692,-0.14390756,-0.10448082,-0.10744874,-0.22106355,-0.18106875,0.2054705,-0.08743979,-0.18718567,0.063545346,0.12360319,-0.100829385,-0.27604064,-0.037594005,0.0879921,-0.07240347,0.11467281,0.19398195,0.15503778,-0.0993783,-0.07773676,-0.03168054,0.07225928,0.022611791,-0.049486894,0.06675809,0.03729677,-0.2206668,0.03171207,-0.0075033074,0.076618634,0.23818652,-0.01570715,0.055578776,0.09404994,0.1063135,-0.0051413397,-0.09611187,-0.1681812,-0.035129286,-0.13638695,-0.2722232,-0.07781823,-0.06379108,0.21702076,0.017234404,0.046499882,0.07643206,0.12386996,-0.13532813,-0.21450141,-0.12013461,0.08925223,-0.12471976,0.045074314,-0.17699794,0.018595202,-0.0073585724,-0.13368629,0.06994418,-0.010056474,-0.18032415,0.027194599,-0.06251562,0.10156907,0.10680897,-0.065797985,0.1754444,0.10529693,-0.009879963,-0.049501188,-0.0062407274,0.033243082,-0.05461486,-0.17394046,-0.008961742,-0.013437363,0.1006912,0.15386154,-0.047412142,0.12268363,-0.026228648,-0.118869916,-0.012350076,-0.0101531055,-0.02138486,-0.008599406,0.0006554135,-0.023669956,-0.010584258,-0.082988344,0.12138798,-0.060417958,-0.014623073,-0.06002445,-0.09423722,-0.18266858,0.034838125,-0.092571184,0.009924732,0.24938762,0.20380265,-0.31025365,0.33025154,0.08051872,-0.33159357,-0.39564314,-0.11350091,-0.1620373,0.12945102,-0.06404073,-0.063195,0.12549788,-0.08850957,-0.14994144,-0.1694138,-0.117469005,-0.10053652,-0.13083747,-0.08090368,-0.14685692,0.05026034,0.0130589595,-0.070987456,-0.051487256,0.06429936,-0.16133323,-0.2391413,-0.17643052,-0.16949244,-0.028102532,0.09982752,0.052218664,0.043056447,0.14880687,-0.17202091,0.15392546,-0.1661208,-0.3773497,0.2651838,-0.1719161,-0.37984666,-0.36094227,-0.03911084,-0.27511898,-0.09208115,-0.09971034,0.119480655,-0.052544456,0.058199022,0.11771465,0.012495477,0.1305761,-0.08633873,-0.2207827,0.48014873,0.24057077,-0.27701887,-0.20150718,-0.16740693,0.019697923,-0.009599915,-0.21359807,-0.018285763,0.11176887,0.2000444,-0.17924035,-0.22913866,-0.20357834,0.088226415,0.032798395,0.0018839118,0.10609965,0.07955505,0.008297456,0.0180337,0.15614502,0.12396108,0.04441358,0.08102419,0.21958725,0.046107855,-0.002573685,-0.0855301,-0.038761135,-0.066365056,-0.16871732,0.014564403,-0.10840863,-0.12352892,0.111013114,-0.12073595,0.054602265,0.13369489,0.07206531,-0.041493125,-0.1951478,-0.07686775,-0.109264314,-0.012354822,0.048802767,-0.20175214,0.057458423,-0.16303594,0.003490172,-0.10204357,0.07678436,0.012453893,0.24298349,0.14215451,-0.01356601,-0.11740604,-0.013646936,0.089564435,0.08090265,0.009894628,0.078778274,0.10091783,0.09261021,0.24059528,-0.060809765,-0.02541045,-0.18249978,0.00501992,0.11078923,0.016506603,-0.091686755,-0.07783004,0.009581056,-0.0910413,-0.055765856,0.043934487,-0.039421614,0.004086209,0.04436131,0.044418864,-0.04191978,0.01094324,-0.028209625,0.10271644,0.075825505,0.051885616,0.08292195,0.07230688,-0.11162139,-0.009911991,-0.18710287,-0.22757466,-0.243387,-0.103278495,-0.18546475,-0.049549855,-0.08939904,-0.008679931,-0.047145974,0.0961785,-0.08290558,-0.1462341,-0.08582176,-0.112767346,0.084684305,0.0015993275,0.08484922,-0.083063304,0.045334853,-0.056499537,-0.06491534,-0.16463482,-0.03702845,0.04822771,-0.033087872,0.16996816,-0.005244408,-0.11068414,-0.054409217,-0.10434491,-0.17356616,0.13108523,0.09821575,0.18642426,-0.048107505,-0.18942541,0.13393517,-0.13687894,-0.08058964,0.08304221,-0.1898833,0.025051085,-0.17184089,0.1628607,0.04864135,-0.037029423,0.05477832,0.064244755,-0.0042654066,-2.2956523e-05,0.08161613,0.12031315,0.042527314,-0.14161906,0.030031659,-0.2646292,-0.1904317,-0.08924548,0.42569524,0.42386356,-0.23422624,-0.20435785,-0.011871491,-0.098567866,-0.17691934,-0.16827387,-0.1642055,0.098383136,0.18022469,0.018473843,-0.053681575,0.0077917534,0.077414475,0.032567885,0.09062735,-0.06350205,0.048979312,-0.086328566,-0.074493654,-0.054452345,-0.0719672,-0.045953646,0.038194843,0.059719134,0.10148741,0.18241723,-0.041059975,-0.06382728,0.051147904,-0.04778642,0.0402145,0.005496628,-0.049378846,-0.06498365,0.03932242,0.086917415,-0.01951237,0.10283198,-0.054510605,0.02132515,-0.2039863,0.046206143,-0.053681303,0.10920398,0.02726182,-0.0059560803,0.025691075,-0.048827622,-0.02631619,0.03900214,0.02484318,0.022095608,-0.030409457,0.0030448039,-0.053059693,-0.07353679,-0.21676955,-0.06720626,-0.18405852,-0.04393393,-0.16045633,-0.077771254,0.18996993,-0.06891197,0.01806587,0.018204764,-0.029869337,-0.0960198,0.085377604,-0.060606293,0.004319312,0.013658994,-0.06862319,0.110739306,-0.014356014,0.07796825,-0.0016155076,0.0795285,-0.04962221,0.06910835,-0.016067382,-0.009660661,-0.044360485,-0.03415262,-0.09432515,-0.1694028,0.014307643,0.05475266,-0.05008198,0.07721377,0.0018751654,0.07475183,-0.078353345,-0.07816298,-0.070747346,0.052544214,-0.060940746,-0.025046265,0.16985881,-0.026224859,-0.04842612,-0.052760996,-0.01493791,-0.07224656,0.081180915,-0.07191504,0.016086034,-0.016775478,0.056069393,0.02143501,-0.10127792,-0.03196609,-0.05453697,0.1256324,0.013656935,0.07147182,-0.027132247,-0.030180637,0.0986417,0.010847804,-0.08750359,-0.09272379,-0.061538294,-0.07303405,-0.051239323,0.1578679,0.00080167316,-0.027205747,-0.14278063,-0.093631536,0.12627009,-0.028241985,-0.096886694,-0.08926845,-0.04752389,0.035644736,0.048288114,0.01977763,0.117571004,0.1338047,0.004649293,-0.06558474,-0.03986373,-0.107058235,-0.13034722,0.042568635,-0.02638908,0.081123486,-0.013335634,0.011683361,-0.19055395,-0.0040261787,0.06715627,-0.08947136,0.031641815,-0.04763765,0.03250468,-0.10594513,-0.052505553,-0.04733058,0.08389749,-0.04150837,-0.0054132105,0.009934081,-0.041711565,-0.038576998,0.05016298,0.04083995,-0.020663349,-0.05977164,-0.09355377,0.15410306,0.019428615,-0.0729119,-0.08055995,-0.029111665,0.0836668,0.033178564,0.033116642,0.05441079,-0.026135227,-0.040963735,-0.037156496,0.090839334,-0.034120843,-0.05567214,0.017523317,0.027481467,0.042114813,0.0012886971,0.02966682,0.09141243,0.045846876,-0.078525305,-0.022061031,-0.017466648,0.023106318,0.030165557,0.18935707,0.07235422,0.023030711,0.02288162,-0.021869503,-0.01297754,-0.121705994,-0.056347713,-0.05140268,0.0727851,0.0014746782,0.04238913,0.016978398,0.0040790755,-0.07545684,0.05330979,0.05167884,0.02626239,-0.048109848,0.03615098,0.06300303,-0.06037729,-0.0029485582,0.14662997,-0.02876111,0.020198168,-0.001103859,0.06806169,-0.016921733,-0.08990651,-0.09601224,-0.04768528,-0.0371773,0.0058543244,0.07028398,0.08619474,0.18804675,0.033478968,-0.07886941,0.0506235,-0.04308323,0.028355466,0.01919987,0.034710903,0.03053475,-0.051444035,-0.02159571,-0.08068229,-0.062759586,-0.03143655,-0.01634368,0.0065782815,-0.017223846,-0.08539486,0.102823995,0.029794155,-0.05775595,-0.058400035,-0.09347132,-0.10060258,-0.16549535,-0.05542154,-0.050591055,0.14247592,-0.06229952,-0.10640649,0.116573274,-0.073332384,-0.01848262,-0.14011976,-0.10487266,0.041130375,0.034968805,0.08054327,-0.085632235,0.017975066,-0.00024956482,0.0037988585,-0.08847285,-0.056830827,0.037905794,0.08732148,0.057002313,0.07805101,-0.07308636,-0.01579776,-0.034556687,0.0737659,-0.07952727,-0.10199382,0.043385852,-0.058054533,0.14096217,0.13175957,-0.063604034,0.043739416,-0.16726093,0.007889416,0.0042295307,-0.08483777,-0.014962254,-0.059963115,-0.05942262,-0.0043731113,-0.058390103,-0.06804633,-0.018855337,-0.033711664,-0.054817356,0.0059959926,-0.054139234,0.14611624,-0.058313042,0.046393093,0.10073633,-0.072344765,0.044567093,-0.0011968972,-0.06903869,0.022270719,0.05248116,0.030789975,0.096497975,-0.049254425,0.063641734,-0.0029034663,-0.038844317,0.0268516,-0.01649867,0.04803934,-0.07750338,0.022784324,0.15167601,-0.06411431,-0.046456344,0.08256684,0.045013066,0.075370856,0.009142723,-0.10663884,-0.05313375,-0.04900912,-0.091736816,0.04514092,-0.059908498,-0.15680933,0.04344753,-0.0429178,-0.119202375,-0.084738046,-0.030466061,0.015132809,0.024279742,0.012449405,-0.07741209,0.007227764,-0.07368374,0.014413093,0.078039646,-0.073568046,0.01855245,-0.03112135,-0.019646652,0.008373915,-0.12195226,-0.025983572,0.02296895,0.07676812,-0.073484324,-0.07725617,-0.050504964,-0.05980232,-0.02175058,-0.14855865,0.065502204,-0.10471095,-0.06103744,-0.004070262,-0.052980654,0.06999424,-0.08298718,0.008934171,0.055587742,0.090214394,-0.060998697,0.07213191,0.016540295,-0.0046429797,0.042021964,-0.015998023,-0.062186405,0.00020204215,0.039355304,-0.031715345,-0.020204587,0.030535731,-0.05316564,0.07054981,-0.019575309,-0.13439317,-0.11681662,0.08306965,-0.078961074,-0.101376206,0.052028436,-0.09886033,0.028348668,-0.094851054,-0.07691892,0.029205792,0.06773301,-0.107599065,0.086472064,-0.06372215,0.023560671,-0.047981948,-0.06718388,-0.08819306,-0.04828167,0.099209145,-0.04978819,0.016627122,0.06622336,-0.07234232,-0.026333228,0.08261204,0.068741396,-0.11842046,0.043830864,0.026122285,-0.31961432,-0.080862895,-0.12572904,-0.22557487,-0.29486814,-0.07521405,-0.029853396,-0.0030966469,-0.15279801,0.18281944,-0.08763855,-0.033124413,0.22407858,-0.020073488,0.05324575,-0.035935037,0.115654014,-0.060004357,-0.11763488,-0.08194081,0.08394886,-0.066062674,0.15785506,0.12847783,0.24290425,-0.007863425,-0.098707736,0.11812923,-0.044982877,-0.06466596,-0.02508804,0.030909281,0.26685447,-0.09773325,0.12350404,-0.06353257,0.11335245,-0.32024786,-0.09644951,0.082742214,0.0065041487,-0.12016035,0.17298348,-0.06705647,-0.18855232,0.31157568,0.2813901,-0.14127748,-0.31220278,0.15515065,0.07842644,0.011433741,0.0383133,-0.071681246,-0.04947521,-0.17702669,0.016295543,-0.022347447,-0.034706958,0.17268458,0.15128869,-0.1162421,-0.057595715,-0.055767085,-0.02856282,0.01037739,-0.2521598,0.08506496,-0.032971155,-0.07007705,-0.09580328,0.003796384,0.017549278,0.121861145,0.021372616,-0.04488424,-0.026333798,-0.2216977,-0.13699724,0.09058491,-0.06541947,-0.11895725,-0.13829486,-0.13220523,0.028474992,-0.013801082,-0.08148902,0.026218038,0.15843955,-0.11417697,0.08322275,-0.15795135,0.05572366,0.008304227,-0.013462397,0.13740355,0.07179732,-0.006097102,0.056988496,-0.027763952,0.060563363,-0.034006856,0.028336184,0.112441964,0.18109907,-0.027083462,0.09463874,-0.1152635,0.23144127,-0.1634626,-0.11919715,-0.06429846,-0.12686954,-0.005113837,0.049124148,-0.08343759,-0.06533735,0.08420282,-0.15512237,-0.19972904,-0.005009313,0.107011564,0.05178436,-0.15169162,0.13336246,0.08080256,-0.14348178,-0.067230545,-0.12171129,0.03183744,-0.020152025,0.0649928,0.31815353,0.006621587,-0.06029207,0.05690013,-0.21132553,-0.10873655,0.028003687,0.05390102,-0.12790254,-0.010117623,0.071908385,-0.03336185,0.028548963,-0.31894058,0.29971075,0.020914963,-0.103963494,0.00030510366,-0.08299567,-0.26457518,0.007442017,0.08062454,-0.07864401,0.04000144,0.27385306,0.08978858,0.112395935,0.06698492,-0.14863424,0.023932308,0.07064458,0.12822391,-0.043239642,0.048270512,-0.008213717,-0.034961045,0.12834151,0.1420618,-0.064354606,-0.1477723,0.15025462,0.1295055,-0.19993638,0.046944633,0.17254983,0.21667013,0.18426076,-0.04385845,-0.20241493,-0.017163573,-0.0561292,-0.11996238,0.0331108,0.08838616,0.055318,0.19247289,-0.16724277,-0.1834699,-0.10651977,0.095137894,-0.019906694,-0.17401855,0.13569982,-0.060318697,-0.1465461,0.06098918,-0.19369859,0.016588744,0.05174516,-0.03747778,-0.109610476,-0.117010914,0.15052448,-0.12197461,-0.14327194,0.18557492,0.096440665,-0.05438326,-0.12577936,-0.16759704,-0.0061064865,0.07374496,0.056858152,-0.092191726,-0.06345987,-0.04705793,-0.0018786003,0.012804857,-0.03881768,-0.10345098,-0.1133949,-0.09513311,-0.10202946,0.02058877,-0.06948051,0.05028295,0.025103103,-0.07520132,-0.07752936,-0.056875363,-0.3041538,0.075329356,-0.17637244,-0.072713174,-0.04252033,0.1764394,0.06457949,0.033650167,-0.18348092,-0.07955742,-0.048713885,-0.044780906,-0.07105625,-0.03559161,0.27749112,0.056778178,0.10611288,0.11025384,-0.20774107,0.031161098,-0.14049248,-0.013250784,-0.22992732,-0.19951288,0.1998017,0.05883949,0.23067059,-0.14245889,0.021471288,-0.109275095,-0.018694438,-0.22534142,-0.36011106,0.07457158,0.21976079,-0.34925044,-0.16847113,-0.1224399,-0.24615715,0.08112856,-0.1966866,0.4406986,0.037748273,-0.035549387,0.006187057,0.015496707,-0.12569033,0.08894326,0.19787541,0.025940416,-0.15554665,-0.18076801,0.029241046,0.07210871,0.32061577,-0.03296477,-0.034761198,-0.16078694,-0.16827895,-0.119497344,0.23134941,-0.16187923,0.11556315,-0.060357057,-0.043168876,-0.11103584,-0.15294659,-0.0010869353,-0.073019534,0.053943135,-0.07178559,-5.900715e-05,-0.12335229,0.019686146,-0.18442167,-0.01938471,-0.1032491,0.1484259,-0.0076433704,-0.07351388,0.0007336755,-0.024931198,0.17440905,0.009924988,-0.104997166,0.06352297,0.006749014,-0.062832505,-0.077148005,-0.070761256,-0.07511928,0.14686935,-0.037262224,-0.10417758,0.005510671,-0.10253021,0.030509641,-0.08462888,0.0027715226,-0.020390032,0.17483363,0.035156935,-0.03991011,0.007638896,-0.010613899,0.024073003,-0.08501979,0.07451862,-0.15940727,-0.061249252,-0.108384155,-0.08947065,-0.13403799,0.016044477,0.117762245,-0.2302296,-0.113453574,0.14315133,-0.027687995,-0.2402732,-0.1339577,0.032403987,0.02333914,0.006084523,-0.03687763,-0.0009978592,0.018979311,0.1220941,-0.07335696,-0.05739985,-0.04771914,0.05465871,0.03288264,-0.038011357,-0.038597092,-0.12127094,-0.14697878,0.035726678,-0.06817552,-0.030095039,-0.063919574,-0.06985951,-0.05995601,0.14301524,-0.010223989,-0.12251425,-0.04250911,0.06134099,0.01714541,-0.118560694,0.23403268,0.041003935,0.0021971767,-0.093209974,-0.05929437,0.0785457,0.041372444,-0.10140371,-0.062295713,0.0041140257,-0.10064883,-0.06218664,0.08400826,0.14932571,-0.21913943,-0.034951486,-0.050458934,-0.1655448,0.017897798,-0.2250852,-0.045446735,0.12723605,0.05959646,-0.14645185,-0.06911872,0.09925208,-0.04134713,0.015118925,-0.1002746,0.19979182,-0.12778904,-0.13686444,0.12963416,-0.09345024,-0.1447763,0.022181673,0.20566915,-0.13606629,-0.09657452,0.14478563,0.057868756,-0.13010722,-0.09941073,0.10917934,0.043895174,0.13973485,0.13050908,-0.25264266,0.058538634,0.36508164,-0.25819263,0.07928436,0.1349053,0.10253369,0.10666241,-0.22644918,0.3437004,-0.1871477,-0.23814431,0.17935388,0.0080186445,-0.19873047,-0.25409463,-0.23408994,-0.11139656,-0.081959486,-0.021046543,-0.11086174,-0.031639863,-0.022402551,-0.22370951,-0.09448951,0.014063554,0.15525988,-0.061987475,0.04296424,0.080404006,-0.017390145,-0.029684909,-0.0029831144,-0.10526806,-0.16043776,0.004035223,0.16119522,0.042677816,-0.060112696,-0.19145644,-0.053563025,0.06910494,0.0017139656,0.013434073,0.11401597,0.14435591,0.2194299,0.06748232,0.07361826,0.049993377,0.03958935,-0.0008183642,-0.060282085,-0.009447159,-0.19552103,-0.051459763,-0.06350431,-0.0679523,0.18978907,-0.092984326,-0.06664231,0.03463136,0.089952864,-0.014922568,-0.091804676,0.1343562,-0.13355501,-0.033011585,-0.15518513,-0.074453115,-0.07919385,-0.008898091,-0.08766542,0.042117637,-0.064651,0.043498557,-0.05432376,-0.037058476,-0.06803999,-0.061898485,0.0020626686,-0.11035537,-0.020669961,-0.069912836,-0.015325708,-0.09655664,0.0393567,0.17524035,0.026517993,0.015721066,-0.03376403,0.03882882,-0.13732259,0.3220878,0.15079972,-0.031863917,0.009353845,-0.20120868,0.10819393,-0.14423834,-0.036980532,-0.076602414,0.20576285,0.19290003,-0.09779744,-0.051449906,0.05182331,0.020553993,0.014832802,-0.006445714,-0.09234743,-0.06324805,0.17969298,-0.10746614,-0.17390692,-0.16527767,0.030813714,-0.12610677,-0.10882763,-0.090323046,-0.3382249,-0.075611845,-0.22811347,-0.20947613,-0.2525615,0.10084383,-0.26182255,-0.14819962,-0.19461428,0.47254232,0.17208466,0.07381536,0.030188646,0.16032657,-0.0015506399,0.12597638,0.035318684,-0.058058284,-0.025966045,0.10034769,-0.058083232,-0.031222628,-0.032681063,-0.06798412,0.120915905,-0.26956913,-0.14961447,0.07202465,-0.13461448,-0.14336337,-0.083481796,-0.24504924,0.30064997,-0.12076853,0.040895134,0.11205994,-0.3203619,-0.07767224,0.073947795,-0.074242905,-0.005673998,0.22573029,-0.07558293,0.009074614,-0.15894186,-0.14229697,-0.120455295,-0.040682655,0.07614465,0.0041250386,-0.18347377,0.22632754,-0.16087608,-0.08865701,0.31652793,-0.023444429,-0.036371484,-0.04330115,-0.13777333,-0.028338483,-0.19893987,0.0902248,-0.15261458,0.09005903,0.0029367288,-0.106930465,0.017377736,0.14232062,0.009495385,0.07435879,0.031090062,-0.048970718,-0.016136235,-0.102875434,0.025556171,0.013586438,0.022343665,-0.11130638,0.0024895957,0.09544126,-0.005474635,0.011531834,0.016054882,0.059213467,-0.06567539,0.04648817,0.23189907,0.08411446,0.06584342,-0.15968002,0.21028686,0.08002154,0.013550847,-0.09913499,-0.14447044,0.05407722,-0.12676369,-0.008687214,-0.032776553,-0.060050435,0.049100954,0.06723931,-0.038090903,-0.0572909,-0.12852614,-0.13940462,-0.013555806,0.04703283,-0.083282396,-0.01746031,-0.024898019,-0.06881634,-0.09067124,0.18724863,0.07168231,-0.012051131,0.0155817205,-0.23680024,0.41615546,-0.21711352,-0.094651826,0.0059826546,-0.008787155,0.12178393,-0.046861455,-0.16461942,0.12952496,-0.07560097,-0.1648843,0.05197676,-0.09958769,0.19659743,0.0399509,0.016442236,-0.05700718,0.0058585634,0.1627674,-0.010024159,-0.066735975,0.1633963,0.13797085,0.27819553,0.032100935,-0.1037173,-0.006515442,-0.071810454,-0.11275673,0.008078649,-0.12865369,-0.24620757,0.059104476,-0.06538698,-0.108910024,0.06623383,0.17352594,-0.41239843,-0.07240064,-0.19378646,0.062411856,-0.09517063,0.18560694,-0.04211264,0.03680489,-0.042032767,-0.07230196,-0.011774239,-0.08617442,-0.109393194,-0.056695256,0.0031959345,0.1585229,0.38596034,-0.12948695,0.25527173,0.04169294,-0.155034,-0.054024745,-0.11013063,0.035256766,0.039667763,-0.0663735,-0.10348229,-0.03320475,-0.030867232,-0.036844168,0.027391689,0.10233579,0.007173272,-0.0094264,0.1344862,-0.051291697,-0.010291657,0.029613929,0.087451644,-0.1243465,0.07293882,-0.16369466,-0.16349833,0.082713775,-0.0727322,0.032380104,-0.029765394,0.08780322,0.013937758,0.051596306,-0.13549486,-0.033262428,0.05129211,-0.01692273,-0.011676831,-0.03503855,-0.08117169,-0.115269646,-0.08825752,0.09854608,0.021262506,0.062252313,0.051321134,0.17123948,0.061776116,-0.02645728,0.093289696,0.12237954,-0.041641135,0.07701637,0.01791887,-0.051364884,0.05283362,-0.08522612,-0.017946295,-0.2088615,-0.13902602,-0.06538356,-0.04603576,0.0144245755,-0.025301829,0.010782408,-0.03180089,-0.0017829506,0.028765678,0.014172962,-0.032375325,-0.07069343,0.0063588074,-0.017180886,0.044493724,-0.05485855,-0.004124422,0.06360023,0.003609495,0.08660168,-0.042059623,0.006658022,0.060264822,0.05408173,0.024954524,0.02025107,0.16189544,-0.03622723,0.0133132385,-0.005434184,-0.11823752,-0.052277334,-0.007865894,0.0034379289,-0.0994012,-0.08919654,0.10694226,0.094090775,-0.05209325,0.052996136,-0.0820832,-0.024695443,0.13645187,-0.10904193,0.16313985,-0.02289121,-0.1122967,-0.011529095,0.025838543,-0.26602077,-0.03897251,-0.048507877,-0.011122275,-0.020069798,0.12705526,-0.07534466,0.022491546,0.018408284,-0.10758582,-0.0634649,-0.116549,-0.07222218,0.084300116,0.09391805,0.1682132,-0.12081188,-0.18489662,0.0032746552,-0.07006732,0.019251658,-0.17415644,-0.033939723,-0.0024473534,-0.09763806,-0.049348846,-0.14437722,-0.02935611,0.027389415,-0.11839005,0.033272784,-0.16096754,0.14982025,-0.022106603,-0.13799103,0.07758196,-0.22886325,-0.04188106,-0.047438506,0.22042726,-0.21828182,-0.1460621,-0.06080675,-0.0065052714,0.06728806,-0.07312245,0.098220326,0.09053406,-0.08284427,-0.0024534103,-0.0854918,0.003796608,-0.061456416,-0.059189234,0.13027921,-0.004051254,0.057154134,-0.13328499,-0.074837424,-0.11809573,0.056474883,-0.072913244,-0.13346769,0.07752246,-0.1543799,0.069594584,0.1308657,-0.004717388,-0.0016799067,0.11457096,0.034658022,-0.20461528,-0.097918026,-0.021123456,0.024482237,0.035319198,0.022892337,-0.017348574,-0.107625455,-0.08181078,-0.07451412,-0.18377146,-0.056777596,-0.07291046,0.24880983,-0.042621322,0.013989638,0.09886092,0.012350496,0.010009721,-0.023877043,0.02541822,0.02835018,-0.045178358,-0.3021145,0.07825172,-0.14212072,-0.00080904976,-0.023346715,0.09492473,0.010795447,-0.02909072,0.21702208,-0.018810108,-0.04891176,-0.053470094,-0.014031909,0.010962701,-0.067379415,-0.04346704,0.044221222,-0.07046489,0.044217877,-0.072339416,-0.21595152,-0.14332148,-0.26640278,-0.095369734,0.042808503,-0.050823625,-0.114923984,0.22421825,-0.057574034,0.081377015,0.10884867,-0.29215682,-0.020341324,0.22170338,-0.14136687,-0.078997836,-0.0017077206,-0.0019482123,0.08708588,-0.05266921,-0.034171034,-0.011634955,-0.016628899,0.027690979,0.080175884,-0.15267475,-0.22189815,0.09358902,-0.033166412,-0.033962153,0.12876002,0.12147991,0.08950237,0.07789713,-0.2702756,-0.24081132,-0.1253653,0.07654371,0.12028647,0.18119976,0.15044649,0.09005981,0.20655492,0.21488577,-0.115163065,0.09907557,-0.10751696,-0.03462878,-0.07285053,-0.20639229,0.17596968,0.014775788,-0.19334763,0.015866974,0.13558494,-0.026941536,0.0034551462,-0.08430876,-0.13029224,-0.11371317,0.022224082,-0.15576063,-0.035763156,0.066997185,0.037573267,-0.03929166,-0.09366705,-0.109776996,-0.047346536,-0.1648543,-0.2340119,-0.10127535,-0.037610054,0.16996942,-0.21965317,-0.19389482,-0.031665888,-0.1345033,-0.2322145,-0.042467307,-0.103566855,0.19088727,0.05143945,0.00062418246,0.19655153,0.003438682,0.07911096,-0.036063027,0.00043586464,-0.10131641,0.014943234,-0.024314897,0.15336096,0.103729226,0.096859895,0.19264735,0.008285189,-0.03825748,0.003734132,0.088455334,0.090459965,-0.07111555,0.2841316,0.042965908,-0.18430185,-0.01913048,0.1742405,-0.044256933,0.0017065523,-0.041552745,0.15869848,0.15870313,-0.17766154,0.19939844,0.031100005,0.087273054,0.019587878,0.15865682,-0.12262411,0.043558434,0.010489402,-0.010424199,-0.137849,0.10485377,0.0077529447,-0.23068848,0.044916123,0.1223549,-0.0628718,0.07696601,-0.20729952,0.09413631,0.0049275183,0.019737426,0.038043972,-0.014892026,-0.066906326,-0.07825995,-0.0035136153,0.050185163,0.05214526,-0.03454543,-0.05186718,0.1295569,0.07221384,-0.27254146,0.008840879,0.055649955,0.03921648,-0.013570084,-0.10996217,-0.11763978,0.002188659,-0.040104367,0.063793994,0.066528,-0.016509393,0.14240807,-0.07228504,0.2189055,-0.06650669,0.029872507,0.05554831,0.030162977,0.014290505,0.027236808,0.08109765,-0.019085284,0.09669253,-0.10326167,-0.17052533,-0.044106368,0.16680868,-0.03539745,0.19140983,-0.114484474,0.046307914,0.03184425,-0.09011926,-0.2832778,-0.077015735,-0.020144239,0.015314609,-0.07393789,-0.07347395,-0.05023547,-0.023787985,-0.24021998,0.1091472,-0.07016091,-0.20099916,-0.09565809,-0.093272984,0.06488991,0.03765948,0.010160719,-0.028857732,0.010193678,0.0077297115,0.14497401,0.0051649003,0.016085044,0.00763245,0.11929724,0.05566507,0.066836946,-0.011093424,-0.04086005,0.102063745,0.051961657,0.08537352,0.04086587,-0.053250667,0.17524542,0.017858777,-0.08814088,0.027552184,-0.07848405,-0.019843398,0.063850306,0.0073309564,-0.079295896,-0.12774268,0.01578687,0.06451127,-0.05132239,0.0481739,-0.090596125,-0.023211582,-0.08231032,0.06423502,-0.10711532,0.040473714,-0.064999856,-0.06416784,0.06451857,-0.03264815,-0.096524216,-0.015101841,0.033694927,-0.023110986,0.007560741,0.08177329,0.07655347,0.024838906,-0.17148796,-0.09922278,-0.008238629,0.13307635,-0.0012320478,0.032941073,0.0443234,-0.06943489,-0.011171661,0.02651838,-0.12813285,-0.05574071,-0.025083946,0.062050026,-0.023114143,-0.018923972,0.036488403,-0.0021125034,0.084467836,0.14870949,-0.030828428,-0.0891168,-0.014550346,-0.07259441,0.07306394,-0.009236077,-0.014147405,0.06879667,0.04248564,-0.026848132,-0.08521727,-0.054164223,-0.061524455,0.05124659,0.034222808,-0.00513846,0.029528908,-0.07425235,0.066092625,0.048626747,0.056622744,0.07328587,-0.05095085,-0.0013952585,-0.10416816,0.059619587,0.029019285,0.020119507,0.029869974,-0.05062225,-0.11004521,-0.03138326,-0.05987627,0.016465494,-0.006749142,0.28925493,0.0103087025,0.049765054,-0.08349688,0.0005765331,0.006343649,0.0084901275,-0.044870384,0.08883487,0.024346512,-0.060950536,-0.011113865,-0.011108128,-0.06775229,-0.078496896,-0.11643132,-0.026973901,-0.075075716,0.08743693,0.041345235,-0.03921773,-0.033761334,-0.08936023,0.004138988,-0.13958545,0.052827045,-0.119213164,-0.034580596,-0.055395946,-0.0659871,-0.096083276,-0.079131536,-0.099808566,-0.030270986,-0.114582576,0.098106466,0.16572806,-0.020042872,0.04136214,-0.14823005,0.059379414,0.0030660508,-0.11464234,-0.0023977617,-0.06001736,-0.035085738,0.057958696,-0.00060052035,-0.029725725,0.018074937,-0.28093138,-0.010311467,0.084746845,-0.21297942,-0.1774764,-0.24528314,-0.26846784,-0.0011495939,0.034967743,0.28949052,-0.04167374,0.054256544,0.24417864,-0.21643835,-0.091325104,-0.06619796,-0.16687986,0.11247322,-0.15935424,-0.01327445,-0.04715613,0.105564155,0.059921853,0.20356713,-0.26880926,0.011084099,0.15112081,-0.08449869,-0.18346807,-0.133796,0.052615825,-0.057151847,0.04499524,0.0069155316,-0.11698964,-0.024490813,-0.031198269,-0.048218552,0.09534622,0.11372142,-0.032067027,-0.07377692,0.007876288,0.03240631,-0.075368196,0.267075,-0.023706498,-0.114826694,-0.2605263,0.033804175,-0.10773906,0.098858126,-0.05799316,-0.08907621,-0.39797208,-0.099064246,-0.047643136,-0.22377661,0.00865421,-0.017960662,-0.2035682,-0.029607635,-0.11253804,0.008620935,0.3140555,0.07535937,0.027754929,0.22616172,-0.15499192,-0.14345312,0.1445902,-0.021730669,-0.01930909,-0.039557166,-0.013126322,-0.03599974,-0.0077705365,-0.09939312,0.054581318,-0.069323756,-0.081105866,0.045286227,0.002082561,0.013580828,0.08016461,0.011297382,-0.01756905,-0.13805683,0.078097776,-0.10164404,-0.15817259,0.05290863,-0.09487703,0.0141564235,-0.10505406,-0.1587519,-0.0931304,0.07249825,-0.061925467,0.056116804,-0.059238367,-0.00784638,0.03368572,-0.073556036,-0.05399248,0.11122957,-0.014404947,0.12613837,-0.043754518,-0.029642975,-0.04041651,0.10951392,-0.1171708,-0.0057934294,-0.019954292,-0.08969358,0.23356636,-0.087801,0.04633378,-0.04737375,0.0834585,0.14402176,0.13948944,-0.002647567,-0.175747,-0.023361815,0.14201492,-0.3011878,0.040270343,0.25472194,-0.30510336,-0.26002946,0.124113366,-0.34632945,-0.013594114,-0.12699471,0.024681551,-0.050242495,0.010405088,0.21766837,0.110746294,-0.2558484,0.15637694,0.10687484,0.031682443,-0.0831798,-0.13892822,-0.19438727,-0.096706115,0.063437566,-0.030279884,-0.081652075,-0.13876115,-0.14606561,-0.024930134,0.19878559,-0.12204526,-0.1532494,0.13554215,-0.0968614,-0.13588318,0.06655436,-0.039350137,0.010920785,0.09239948,0.14155944,0.05933214,-0.07126845,0.007341664,0.03966832,-0.026024986,-0.043147787,-0.06708038,0.045001935,0.04079328,0.12035499,-0.11268587,0.25656956,-0.042529684,0.13684809,-0.0017158042,-0.03419934,0.15647122,-0.063450985,0.30574313,-0.09146957,0.005583104,-0.13102415,-0.010216447,0.036109306,0.031092685,0.14294009,-0.057892762,0.1673594,-0.12616481,0.09545059,0.04125845,-0.086804986,-0.09844506,-0.022624115,-0.21681888,-0.1048207,-0.0566702,-0.044394843,-0.11580882,0.11824134,-0.15616536,-0.092634365,-0.25505635,0.23760253,0.01578138,0.047613107,-0.13599332,-0.05037232,-0.06904886,-0.10506435,-0.054450616,0.008488168,0.09682015,0.012453352,0.033444237,-0.022283655,0.058268417,-0.09886122,-0.015009589,0.052304972,0.01758918,-0.105727404,0.05106671,0.009988951,-0.040115327,0.018132038,0.007821138,0.019673133,-0.13910973,-0.119415276,0.0033370277,0.048016302,-0.11273716,0.26059645,-0.03592055,-0.042072263,-0.009362325,-0.008513409,0.14799179,0.02613137,-0.032562904,-0.06618387,0.24904981,-0.07970343,-0.08891032,0.07443327,-0.21158022,-0.20134626,0.2217224,0.10712419,-0.0010040527,-0.18740748,0.19945456,-0.0626741,-0.061450027,-0.23639748,-0.15907659,0.13960333,-0.014889938,-0.16649435,-0.22910714,0.22784251,-0.05216053,-0.07958506,-0.0025080813,0.31023994,-0.08509976,-0.05174526,-0.01845653,0.033509556,-0.029307146,-0.20107037,-0.15578115,0.015636597,-0.13512506,0.074908055,-0.10577751,0.07449325,-0.022706246,0.02199018,0.17549394,0.017245848,-0.012037351,0.008413558,0.018969446,0.082927726,0.016383102,0.028537724,0.040648483,0.06915036,-0.05063438,-0.09410135,0.021011347,-0.05983062,0.028101489,-0.039369665,0.032905363,0.018452944,-0.0655707,-0.04508769,-0.028912539,0.07769914,-0.022849925,-0.033740617,0.0051747034,0.060051646,0.038944907,-0.005064748,-0.052139267,-0.008072647,-0.039890256,0.028386528,-0.022418093,-0.074348174,-0.04080248,-0.0020149932,0.014201427,0.021468934,-0.060773782,-0.08176953,0.03389252,-0.076239884,-0.06291033,-0.064188294,-0.007908089,-0.012632067,0.05770256,-0.045453753,-0.07106669,-0.005221897,-0.05799043,0.03797109,-0.074406005,-0.033069413,0.01885837,-0.07893061,0.026082946,-0.05840896,0.059075467,0.07369586,0.06265375,-0.031218493,-0.08201157,-0.081207156,-0.015192863,-0.06793156,0.00038133413,-0.037706282,-0.044810154,0.041949965,0.04970399,-0.015225853,-0.06667682,-0.034589887,-0.041371804,-0.07707127,0.02749405,-0.030697143,0.074159846,0.0069365213,0.020395676,-0.050333582,-0.04133413,0.016769074,-0.037951365,0.0759037,-0.022886338,0.03781944,0.06117923,-0.063910775,-0.026255058,-0.06447886,0.05505101,0.053812284,-0.04132445,0.09473218,-0.02915662,0.06042252,-0.0066532274,-0.009557458,0.074986406,0.07446337,0.03004237,0.0570107,0.04388627,-0.07222406,-0.010737775,0.023542741,-0.07935773,-0.029725045,-0.022623565,-0.07177478,0.027770147,-0.028507281,-0.060062423,0.09780067,-0.054343846,0.0011329895,-0.015931753,-0.07086003,-0.047686473,0.066438615,-0.052290063,-0.051095713,-0.03662816,-0.026762962,-0.039857414,0.048646506,0.096356355,0.014987569,0.10109518,-0.031084802,-0.08738233,-0.047755595,-0.0031347596,0.02252575,0.038948916,0.05641077,-0.05644259,-0.058911312,0.0029144667,0.009991517,0.013217106,0.0732815,-0.00898909,0.2296567,-0.14077726,-0.11015475,-0.13783148,0.23666199,0.11322019,0.08648391,0.045969512,-0.07077829,-0.010892889,-0.07371067,0.1745848,-0.1197041,-0.06823359,0.069898784,-0.12195243,-0.14725989,0.073459595,0.08885636,-0.09962669,-0.021037158,-0.18797447,0.08915161,-0.0037562915,0.09216021,0.00030305597,-0.002401376,-0.0534035,-0.034994043,-0.1453107,-0.007489932,-0.12670965,-0.017487623,-0.027349824,-0.066307396,-0.09538283,0.003174971,0.041434415,-0.15104157,-0.20121789,-0.062912606,-0.06129033,0.13420902,0.10127875,0.046003655,0.021244079,-0.025325598,-0.09382311,0.12697224,-0.0339586,-0.06552385,0.0960106,0.09390397,-0.15166037,-0.1227582,0.09884358,0.08238442,-0.054675963,0.051854115,0.050645035,0.11576726,0.006926896,0.07514276,0.082562126,-0.07224579,-0.05888104,-0.11479544,0.08132184,-0.19300011,0.14538525,0.049991727,-0.19192433,-0.034999866,-0.019594254,0.0036568632,-0.02207134,0.06927186,-0.014660742,0.0053940574,-0.022699758,0.08961422,0.07106285,0.09572809,-0.04270446,0.14499722,0.004924458,-0.062661536,-0.0031801353,-0.024887113,0.085768,-0.025675813,0.2701205,-0.18052976,0.22942792,0.021341875,-0.2038279,0.22827514,-0.068415605,-0.198226,0.14553761,0.105770394,0.059590425,0.098557584,0.02283306,0.034785755,0.14990495,-0.119463444,-0.023526255,-0.01424703,-0.060667783,0.0059754895,-0.052417986,-0.08004384,-0.07772197,0.07872524,-0.019852586,-0.121616766,-0.14887045,0.020261616,-0.02121891,-0.21676561,0.021495236,-0.18704687,-0.029794373,-0.103319086,-0.22441253,-0.12392543,0.21601537,0.059688542,0.11728127,-0.09184917,0.09435258,0.1284153,-0.100190185,-0.077682674,-0.045626167,-0.07868472,0.085251,-0.19693151,-0.081213616,-0.065144,0.06585662,0.0020355426,0.063586056,-0.14656788,0.3199155,0.200972,-0.0047163283,-0.12191592,-0.0546202,0.062705606,0.026321892,-0.10849963,-0.14738868,-0.08259724,-0.0646587,-0.0054247533,-0.1658237,-0.29667535,-0.07099245,0.121722125,-0.0017314478,0.06079256,-0.042662792,-0.14812456,0.06466604,0.2493894,-0.1576193,-0.081418164,0.012209033,0.06871946,-0.100847565,0.11202001,-0.089438684,-0.067632034,0.09054158,0.016797237,0.09173426,0.009825953,0.09089404,-0.011170296,0.05367123,-0.2239137,0.093018,0.19328934,0.12767065,0.059786648,-0.01965015,0.046539012,-0.06730152,0.02380897,-0.0928409,0.037005514,-0.03772156,0.029521156,-0.022150813,0.047967277,0.022860872,0.029282842,-0.00083803997,-0.012170195,0.044664405,-0.027643634,-0.111569926,-0.09946508,0.12975526,0.024299528,-0.11215852,0.06868022,-0.1455633,0.04841205,-0.059925422,-0.38219684,0.011777474,0.03558203,-0.09456655,-0.0659138,-0.053167235,0.04541476,-0.018145902,0.0073615517,0.040588036,0.009271944,-0.080161974,0.001206728,-0.054351516,-0.05270799,-0.09376215,-0.077050574,0.23228994,0.12841229,0.11318635,0.05640822,-0.02879423,-0.026051668,0.03348275,-0.007694064,-0.028946474,0.075637184,0.011770064,-0.0065919925,-0.043187153,0.0062959744,0.086485915,-0.058842596,-0.008272773,-0.036004175,-0.0430929,-0.026986882,-0.007013429,-0.03809622,-0.029442897,0.04906158,-0.09824962,-0.07221811,-0.0228583,0.030587355,-0.14904183,-0.045991212,-0.0077327215,-0.0038023535,-0.24221393,-0.0999012,-0.21464202,0.09045818,-0.09266428,-0.2661489,0.11328793,-0.049306225,0.011682858,0.05613314,-0.037516057,-0.091938555,-0.099051416,-0.07326661,0.09141179,-0.07725134,-0.12391649,-0.09466999,-0.15583372,0.115995474,-0.22836232,0.2127395,0.072251044,-0.1365572,0.1895316,-0.036615655,0.016914085,-0.10881393,0.10610898,-0.26511133,0.1648837,-0.111908816,-0.46973103,-0.11118006,-0.22371322,-0.21313593,0.11424364,0.1131711,0.032694753,-0.15988663,0.0896762,-0.028933376,-0.0805103,-0.09159796,-0.08427264,0.10046303,0.09020257,0.039655976,0.13225622,0.053809285,-0.048217725,-0.06896846,-0.0859417,-0.1398369,0.099613495,0.08141018,-0.10379422,-0.036989793,-0.12037796,-0.041774016,-0.15967818,-0.16449593,0.09792882,0.16191345,0.20588139,-0.069659814,0.23798667,-0.05199118,-0.111199886,-0.2097194,-0.18208288,-0.12425249,0.040100068,0.18685196,0.045777485,0.07167405,-0.22219935,-0.23349944,-0.14689496,-0.26259917,-0.113554046,0.12281373,0.04598606,-0.15418656,0.081733346,0.03160595,-0.08227315,-0.116312996,0.026369322,-0.07498108,-0.008132435,0.20640995,0.08012681,0.22902259,0.106102735,-0.059610907,-0.08375016,-0.109071195,-0.033069048,-0.029207902,-0.033557124,0.042161934,0.009919744,0.061555944,-0.05798271,0.057858538,-0.063064545,-0.03547389,0.020450922,0.037202176,-0.10352916,-0.033141043,0.1206067,-0.055031016,0.11316137,0.02997799,0.0595204,-0.2064618,0.3158808,0.0984912,-0.3014361,-0.060762208,-0.10363973,-0.3129155,-0.18385173,-0.07106808,0.11376927,0.19279663,-0.051155835,0.12943406,-0.015375168,0.022605596,0.050879147,-0.1928817,-0.021130439,0.030002408,0.023601552,-0.018030489,-0.04458355,-0.07373306,-0.062085506,-0.11939911,-0.09118357,0.10456739,0.042796377,0.23396151,0.113153145,-0.062995434,0.03251858,-0.0024315552,-0.07650934,0.044427887,0.24980165,0.037368968,0.116891734,0.112236865,-0.25078624,-0.024960246,-0.028001748,-0.022472259,-0.2494495,-0.0005280025,-0.08693999,-0.034906276,0.027940875,-0.011039569,-0.09762841,-0.033457812,-0.082816474,-0.12741986,0.08527179,-0.14899853,0.19478454,-0.028673174,0.19952339,0.38640925,0.010972836,0.06532989,-0.00981208,-0.075755626,-0.13772807,-0.31871635,0.15783256,-0.24959871,-0.36210927,-0.107683115,0.07273255,-0.21480909,-0.16728555,0.21906891,0.04913416,0.07971037,-0.020783402,0.09177752,-0.15937759,-0.06256419,0.029009495,0.056475535,0.11423474,-0.009302458,-0.14038588,0.118590735,-0.19829492,-0.19284475,-0.08588141,0.03890128,-0.015679758,-0.1892773,-0.13797015,0.038021427,0.18881622,0.18504076,-0.07271785,-0.09134729,0.098998405,0.004334954,-0.07865383,0.044908285,-0.098031804,0.08330305,0.069146395,-0.0076788235,-0.26145446,0.115728125,-0.01097065,-0.052935395,0.30573404,0.14753723,0.11080885,0.12818016,-0.1277415,0.00840067,-0.055402823,0.029757066,-0.14775112,0.07101123,0.02149052,0.13757284,0.2690688,-0.0828326,0.062394287,-0.040708162,-0.26814327,-0.04115386,0.06669817,-0.0059153764,0.035954334,-0.015182986,-0.0786692,-0.03709916,0.08410016,-0.017256737,0.06872879,0.0052145137,-0.006463716,-0.09839557,-0.019720053,-0.07916927,0.09848694,0.17874764,0.07135364,0.08239932,0.44200972,0.043549333,-0.1699548,0.04133823,0.010981663,0.070437945,-0.0016062681,-0.12759408,0.14849336,0.12788355,0.08620532,-0.08833446,-0.022932446,0.0023075177,-0.08545005,0.025275972,-0.113273576,-0.1915738,-0.15643325,0.15904935,0.044237792,-0.17927358,-0.17084064,-0.04086464,-0.056785114,-0.23401235,-0.12237951,-0.04292701,-0.021189122,0.099367514,-0.32123637,-0.40395257,-0.088633664,-0.22063372,-0.21945758,0.18838072,0.32181343,0.04385839,-0.1610767,-0.16488765,0.14388187,-0.047163647,0.1279348,-0.060789827,-0.29603964,-0.11467402,-0.123324566,0.10986453,-0.28921857,-0.20145352,-0.085201725,0.02247645,-0.07937407,-0.08536609,-0.102960415,-0.18706827,0.011065631,-0.08935893,-0.23734877,-0.07359168,-0.19010384,0.19847447,0.016988793,0.016264673,0.09736266,0.066513866,0.33432353,-0.018505344,0.091695316,-0.054313045,0.019940643,0.117975034,-0.12311608,-0.030102154,-0.12983526,0.22045784,0.28541678,0.2795968,-0.16425209,-0.13791922,-0.014240369,-0.039224576,-0.20290571,-0.06906911,-0.07386866,-0.053050514,-0.033688854,0.17737527,0.12266789,-0.040407937,-0.054207332,0.026929118,0.09231257,-0.13614285,-0.023501739,0.11085501,0.13176009,-0.08257761,-0.0031051494,-0.17089209,-0.020370997,-0.048032645,0.12736952,0.022317428,0.044907294,0.15325686,0.14697619,-0.057477918,-0.089884326,0.09635803,0.0351089,0.08514452,-0.022244997,-0.119118914,-0.14601395,-0.1328932,0.0419873,-0.07290417,-0.00025902805,-0.21702021,0.15342674,0.16452251,0.09215296,-0.09303874,-0.022138339,-0.00039004866,-0.037372343,0.08862889,-0.025844514,-0.008064761,-0.10874216,-0.089133,0.019219294,0.030315768,0.09869258,-0.0028537454,-0.06132879,-0.018493881,-0.19702375,-0.08097399,-0.04340159,-0.041770212,-0.068605915,-0.19210476,0.08363857,0.08975621,0.07187234,-0.008473003,-0.12513533,-0.026981026,-0.07640383,0.24013504,-0.11283896,0.034771293,-0.08362228,-0.015157202,0.018774796,-0.098405346,-0.014533292,0.06944828,-0.05874807,-0.0035131157,-0.18877706,0.054007623,-0.05713706,0.053466257,0.085739575,0.15976456,0.02755071,-0.09568974,0.102890305,-0.048612874,-0.03917023,0.08537817,0.02831812,0.13961549,-0.04191759,-0.123816006,-0.15996233,-0.13492249,0.20400468,-0.12840736,0.12387933,-0.075404175,-0.07225883,-0.101795845,-0.067580424,-0.12291521,-0.0097386725,-0.18675089,0.051372673,-0.14475726,-0.063395426,0.059834436,0.033099078,0.0847914,-0.11436677,-0.21917716,-0.28467417,-0.2118662,-0.18395053,-0.13689327,-0.22712189,-0.17353962,0.04385725,-0.271415,-0.011750098,