0.27046838,1.2546086,0.3733666,1.0166174,-0.3107514,-0.9169471,-0.2858878,-1.1643915,-0.6575731,0.18279752,0.45791236,-0.23032191,-0.018522339,0.5093325,0.20052624,-0.9689615,-0.4990632,0.6481253,-0.89062065,-0.29698765,0.19647136,0.9108055,0.90490854,-0.7188347,0.0024722477,-0.6893397,0.6053941,0.13707192,-0.032299533,-0.12211698,0.1383341,0.3995314,-0.5955472,0.22318564,0.7569583,-0.83209556,-0.0030562468,0.75179136,-0.67520773,0.56598693,-0.5051391,-0.7734517,-0.5374489,0.796008,0.47929868,0.008239408,-0.4948828,0.58483547,0.60028917,-0.6528268,-0.05168043,0.7942489,-0.4595051,-0.31912655,-0.4395618,-0.4881612,-0.11239745,0.03073908,0.86866015,0.76864743,-0.0939974,0.30892462,-0.9118934,0.7257027,0.3030663,-0.5164135,0.45843092,-0.30686998,0.10086156,0.095386125,-0.29272237,0.029158546,-0.31210408,-0.06581699,-0.322659,0.042125657,-0.07979749,-0.12786832,0.4151836,-0.26642513,-0.24837334,-0.29810643,-0.34076202,-0.40319633,-0.5280972,-0.5684796,-0.32144642,0.03907347,0.09852956,0.9265555,-0.15937382,0.01932877,0.22830173,-0.91382706,0.7979568,0.019293094,-0.9454414,1.190992,-0.2379423,-0.13428405,0.3381758,-0.15779449,0.50435036,-0.68671256,0.2950034,-0.25953665,-0.5014141,0.6769082,0.014319058,0.35871917,-0.33632147,-0.15682603,0.76683974,-0.49071035,-0.27691108,0.3236182,0.05746855,-0.07770803,0.20226653,-0.0692748,0.26871628,0.18184623,-0.083666235,0.05410717,0.43888992,-0.18254016,0.18378294,-0.43626004,0.53898054,-0.5577057,-0.6250237,0.9837204,-0.4999243,-0.35810766,0.7595729,0.24605207,-0.43574604,-0.7940544,0.75824064,0.27238992,0.09732936,-0.17708337,0.27800086,-0.19510904
