0.047877673,0.028995562,-0.037730265,0.017636638,-0.07193926,0.11772087,-0.0058506248,0.025198573,-0.12843233,-0.06857675,0.04920525,-0.07110729,0.0885156,-0.08470941,-0.067227915,0.018531619,0.09447186,-0.019588633,-0.15628712,-0.11024715,0.037264593,-0.05618539,0.083466694,-0.12973596,-0.015255342,0.028443556,-0.09125091,0.0053108567,-0.051281415,0.0058197486,0.088071264,0.026263854,-0.0833181,0.00090877054,0.0056602755,-0.046952043,0.14329776,0.015645033,-0.0017797888,0.088103086,-0.014443839,0.10445305,-0.014214908,0.061535936,0.07210357,0.008191526,-0.078180164,0.04873428,-0.00075171737,0.037717387,0.06639231,0.07992918,-0.045065273,-0.035868466,0.039222397,-0.0037148923,-0.15922631,-0.041861746,-0.0015130667,0.08107379,0.05967658,0.1066288,0.037972912,-0.0042239474,-0.11343846,0.0020789837,-0.13600716,0.04913436,-0.109244026,-0.031211764,-0.115589984,-0.07797693,0.06740893,0.0621589,-0.054440565,-0.12046568,0.0017094684,0.021712903,0.03835184,-0.08325669,0.03952919,0.077281445,-0.07911769,0.09921418,0.048911918,0.042896762,-0.12196487,-0.06501595,-0.13213341,0.11304581,-0.08995028,-0.038216148,0.036604416,-0.042059954,0.07351759,-0.06252451,-0.018144058,0.07488736,-0.0009819523,0.055372927,-0.15487859,-0.08491582,-0.06476141,0.014012488,0.00999838,0.06996934,0.0032563566,0.011682912,0.031460084,-0.029806877,0.077231936,0.03528609,-0.00324695,-0.017079288,0.10258866,0.06747826,-0.021953164,0.010133297,0.04617832,0.045292046,-0.012599713,0.031066421,-0.008598013,-0.0012430723,0.08175404,0.112569086,-0.073287964,-0.14966066,-0.004517509,0.06813213,-0.02589334,-0.009187131,0.10296961,0.00014133738,-0.01814536,-0.028624175,-0.027710972,-0.084339276,0.13663013,0.0044210036,-0.07174337,-0.008508565,0.10383641,-0.0006685695,-0.014298779,0.06826134,-0.077800944,0.049267083,-0.028403364,-0.09172643,0.028584171,-0.058324583,0.117735796,-0.025233082,-0.045345496,0.020644283,0.16289543,-0.012167741,0.0028736813,-0.027045403,-0.008269288,-0.0006597836,-0.11231157,0.061635595,-0.08313775,-0.02447214,-0.1250142,0.039852474,-0.03960618,-0.02727738,-0.01982783,0.0111463275,-0.029894324,-0.018374052,-0.037411872,0.061629336,0.097226605,-0.05673614,-0.040514357,-0.085298814,-0.049894854,-0.05724952,-0.011910723,-0.035384737,-0.07558487,-0.010343577,-0.0012581374,0.04205626,0.011700152,0.050837148,0.036088087,0.05663245,0.073045775,0.022763405,-0.052587558,-0.073880725,-0.047219757,0.04022016,-0.082271114,-0.06372238,0.013873228,-0.028628344,0.08919791,-0.022600293,-0.018539367,-0.024165478,-0.05285082,0.07749946,0.07659615,0.008897183,-0.11973007,0.041560862,0.050084196,-0.035639685,0.07337413,-0.085970126,0.024373913,0.06050074,0.020482168,-0.033235643,-0.065828696,-0.014720961,-0.019213434,-0.04407914,-0.045982435,0.009675777,-0.0632727,-0.04822955,-0.0920299,-0.0014097099,0.09147009,0.016231012,-0.12900351,-0.01841927,-0.0022060773,0.019903181,-0.03484943,0.11272847,0.073842354,0.025046326,-0.07094066,0.0075871325,-0.10720549,-0.073444,-0.18288332,0.033582434,2.4076213e-05,0.061479244,-0.020907564,0.09839041,-0.091812514,0.035878103,-0.08970221,-0.07900011,0.053059377,0.01351996,0.06126163,0.110967726,0.06470469,0.002917654,0.06640019,-0.031584885,0.05062579,-0.05095649,-0.04162693,0.13704056,0.057857253,0.07077278,-0.09353624,0.06518592,0.047361817,-0.15388934,0.06743506,-0.07618899,-0.050989013,0.09958496,0.015678486,0.0815924,0.0071320897,-0.10253677,0.026079083,-0.022269245,-0.12157089,-0.01884527,0.0056247525,-0.12635536,0.020922234,0.06246296,0.08782578,0.05990615,-0.043369,0.0748245,-0.0113135185,-0.13603051,-0.0063939663,-0.001319034,0.037018403,0.04848307,-0.0033028112,-0.054811493,0.049277127,-0.027469356,0.057995483,-0.0244483,-0.14031857,0.03775048,-0.028358314,-0.040827937,0.030207254,-0.05464797,-0.13277695,-0.02208609,-0.056529578,-0.013304759,0.06080575,-0.047178984,-0.08047839,-0.09294737,0.14711218,0.12622292,0.016284116,-0.016539814,0.028404707,-0.048999775,0.050239153,-0.041513454,-0.018365078,0.010362379,-0.00013029296,-0.067489654,-0.03639292,-0.007452424,-0.03479778,-0.16282268,0.083591096,-0.025074445,0.098405026,-0.057397146,0.0051875636,0.057989012,-0.06600425,-0.088801555,0.04689329,0.040704727,-0.0254033,-0.03362725,0.021896694,-0.0108417235,-0.029969642,-0.0323792,-0.029260905,0.07741919,-0.09310827,0.01123775,0.09696311,0.15560408,-0.08760461,0.049418584,-0.038075354,-0.12020509,-0.06707011,0.035295375,0.04810935,0.029163446,0.052130908,0.05001341,0.011705455,0.07472535,0.0029939963,-0.102740586,-0.003088546,0.05943153,-0.01153324,0.07365301,0.025328817,0.06242198,-0.05171512,0.065572485,0.035439137,-0.013010463,-0.085769065,0.020625677,-0.0047956933,-0.03108719,-0.0012010277,0.009820712,0.031897984,0.13269801,0.017785892,0.10357046,-0.0016116154,-0.043772105,-0.06892527,0.12122247,-0.033215947,0.042603184,0.040854678,0.038683277,-0.07569253,-0.04469968,0.0910308,0.101479545,-0.037695594,-0.10154186,0.07762669,-0.07957055,-0.03125909,0.016804472,-0.008708291,0.09033727,0.08051155,-0.0004039573,-0.019749906,0.09355942,-0.0049811206,0.011575982,-0.039568424,-0.015507802,0.04673781,-0.109285034,-0.06273568,-0.025704158,0.02173113,0.029779324,0.010091305,0.053939153,-0.010319853,-0.12177914,-0.03472479,0.07384049,0.020293694,-0.07021506,-0.02421656,-0.06157386,0.03068448,-0.0069558914,0.007410148,0.048983324,-0.057834357,-0.09689281,-0.006089958,0.027546313,-0.007332474,-0.003538588,0.045099877,-0.04741705,0.037836947,0.043283377,-0.009868687,-0.0582717,0.060609743,0.055153664,-0.033630323,-0.06550488,0.010182283,-0.09106994,0.008531827,0.09702196,-0.11107655,-0.012941467,0.051325943,0.025323533,-0.033409495,-0.042177092,-0.077275045,-0.0023770197,-0.043166637,0.0048474194,0.06071523,0.065260835,0.03961251,0.04832901,-0.02810508,-0.07542059,-0.03953932,-0.012039678,0.143931,0.015836146,-0.051006805,0.051784303,-0.11332785,0.046098195,0.033640012,0.039036177,0.048973907,-0.008543925,0.015938494,0.024702134,-0.04414842,-0.031135855,0.0475763,-0.03064212,0.029950835,-0.021814061,-0.0016256828,-0.030256093,0.013350183,0.03830596,0.07662591,0.0009137967,-0.07968903,0.029753022,0.0081345495,0.055961534,0.08620646,-0.063918285,0.08087018,0.047444463,0.06402275,-0.08924631,0.04029053,0.07489995,0.03575126,0.03143087,-0.111243516,-0.03559278,-0.114658184,0.052423485,-0.058099657,-0.007079867,-0.052394815,-0.07624492,-0.09592932,-0.0013243027,-0.049318977,-0.06680494,0.06897654,0.09389379,0.042771876,-0.014212628,0.053192526,-0.01766327,0.07964274,-0.047444545,-0.05732413,-0.019677293,0.010512606,-0.13555242,0.08913997,0.017541219,-0.042321187,0.020282753,-0.023318872,0.0035866147,0.007863672,0.09741499,-0.1052545,-0.00047476278,-0.057259724,0.06790791,0.02277807,0.092064835,-0.0076132794,-0.100053936,-0.02598991,-0.12045807,-0.07654218,-0.027882565,-0.05809457,0.008949836,0.09618016,0.017122408,0.0008149442,0.0016982886,-0.0089129945,-0.029678155,-0.091889635,-0.09543655,0.07194817,0.03172034,0.16247079,-0.09037664,0.03675652,0.07866603,-0.14845438,-0.11156141,0.005229327,-0.01633,-0.0355217,-0.008818941,-0.08212919,-0.069943815,0.10500448,0.010935486,0.08187081,0.0011147482,0.072503276,0.039461236,0.12535502,0.028151708,0.013607625,0.080623895,0.015621526,0.029414468,-0.09544984,0.0061665936,0.023049483,-0.065628394,-6.8125715e-05,-0.06599616,0.01611833,-0.104995884,0.06737081,0.06259105,-0.067147106,-0.07000727,-0.071230695,0.036468297,0.03264263,-0.06164896,-0.08638567,-0.088431045,0.06500171,-0.051662005,-0.0087505,-0.08947632,-0.032191858,-0.08026154,0.097214185,-0.13819857,-0.03718521,0.030410996,0.1267898,-0.0750181,-0.073993206,-0.054022152,0.028107239,0.06258127,-0.034493025,0.021642828,-0.09891814,0.00922671,0.013144664,-0.03926097,-0.12588689,-0.113283865,0.11535836,-0.0571223,0.10888842,0.108920865,-0.051669937,0.18448654,0.00418,-0.034419786,-0.008952853,0.1001775,-0.048713878,-0.06503406,0.010410598,-0.09269456,-0.07568642,-0.15077813,0.12749882,0.0355303,0.10442712,-0.12189538,-0.030467236,-0.023809694,-0.00011578306,0.03796682,-0.048178762,-0.12822725,-0.06289591,-0.01795103,-0.05346207,0.11811414,0.025074467,0.016491983,0.06505811,-0.0039809803,-0.06385114,-0.0127342185,-0.017728996,-0.009419956,-0.057655465,-0.0060970895,0.081723675,-0.042453427,0.06631502,-0.06099122,0.021590283,-0.013293785,-0.019156177,-0.04658345,-0.10407266,-0.010384383,-0.014318801,0.019477885,0.05541551,0.053442292,-0.041686587,0.062654495,0.066026896,-0.021333184,-0.0727759,-0.03493111,-0.07292823,-0.11919634,0.035722975,0.031765305,-0.061083842,0.10131395,0.039855227,0.035595164,-0.045588233,0.09642221,-0.022248726,0.008966338,-0.18873869,-0.058904048,0.0308311,0.04952527,0.032403484,-0.019142345,-0.028433984,-0.024686448,-0.050575517,-0.032799922,-0.026325831,-0.009704281,0.11903099,-0.024664328,-0.07044024,0.03568008,-0.010082309,-0.1301334,-0.12143843,0.13866538,-0.041357387,0.07248408,-0.06874141,-0.07888157,-0.0020498983,-0.045788974,0.001078042,0.014550303,-0.007461677,-0.006083412,-0.0873864,-0.07918371,0.0100016,0.05939868,0.062065568,-0.00051016995,-0.054833528,-0.012434494,-0.08472565,0.082303695,-0.105987996,0.045791097,-0.008060376,0.042991407,-0.043271873,-0.07920456,0.030652547,0.012240428,0.052281376,-0.105331294,-0.016941069,0.026832178,-0.025036026,0.0062459395,0.07249188,-0.030392546,0.04155563,-0.048381444,0.04516727,0.014638636,0.12561387,-0.0023553008,0.029861405,0.050524525,-0.043474637,-0.08132093,0.056285035,-0.09149305,0.002285855,0.06573018,-0.06728518,0.037525363,-0.049398586,0.0053786025,-0.10174862,0.04872089,-0.1333068,-0.025517056,-0.025196362,-0.092507504,-0.10406433,-0.2175391,0.01375212,-0.13497832,-0.028901799,-0.16989295,0.04619544,-0.06412729,-0.049373057,0.082225524,-0.04936584,0.022824116,-0.055425894,-0.018340249,0.15041587,0.0818506,-0.17194575,0.08471107,0.041769113,0.079061285,-0.080328174,-0.05706162,0.15097934,0.029944092,0.08960067,0.044787787,-0.035176102,-0.01792066,0.014975551,-0.028987803,0.014834537,0.18118292,-0.114719175,-0.053316414,-0.035915736,0.0046037682,0.034260012,0.051034797,0.108361356,0.030847037,0.049109574,-0.028401308,0.1068048,0.023286682,-0.12045199,0.09314839,0.0118862735,-0.14072019,-0.07139693,0.10343095,-0.057993717,-0.11861242,0.075705625,-0.04906945,0.10495213,0.10864977,0.087880865,-0.05508558,-0.027945451,-0.05127947,0.12405,0.016471999,0.1056207,0.05687002,-0.0036363818,0.10340876,-0.1290693,0.13545072,-0.1758695,0.099888265,0.037108466,0.021821823,-0.055014428,0.051318657,-0.019174136,0.11144928,0.09759522,-0.07363879,0.065755405,0.132578,0.055543106,0.005665264,0.08484263,-0.07885784,0.0028185858,0.071099244,0.05339937,-0.09267045,0.07806092,-0.100468144,0.025147574,0.044886544,-0.05724808,-0.019740568,0.06406385,0.08449359,-0.024533227,0.010930589,0.042995207,0.14658995,0.0072082602,-0.058236856,-0.006984088,0.18310785,0.018138682,0.16108122,-0.0797114,-0.11760299,0.04967904,-0.037123326,0.11512012,-0.04548641,-0.01597223,0.12964484,0.12266322,0.09294127,0.038570043,-0.087853335,-0.046509318,-0.057908934,-0.03964627,-0.12858455,0.008049187,0.17117198,-0.035615068,0.057644006,-0.00970117,0.028931716,-0.17322674,-0.10437746,0.047951337,-0.15292062,-0.048965193,-0.13731472,0.022722231,-0.17046805,-0.035949253,0.038182203,-0.021984046,0.09287072,0.12569767,0.14399298,-0.04804142,0.03525259,-0.11057337,0.028832758,-0.0749215,-0.036866535,-0.1370905,0.059496015,0.06799647,-0.06678652,0.022112757,-0.012502476,0.085844435,-0.13528408,-0.09600106,-0.04757597,0.0959353,0.05097517,-0.09254361,-0.045886915,-0.06757388,0.067570694,0.13234606,-0.03572168,-0.11336014,0.076293856,0.0039945575,-0.0011999235,0.13000378,0.1398316,-0.08062834,-0.014896471,-0.14016171,0.0013616123,0.13693646,-0.046988346,0.0072987885,-0.0602296,-0.17556643,0.021762922,-0.067153156,0.03547857,-0.05056235,-0.094586544,-0.076171346,0.039135553,-0.16307105,0.060123432,-0.0821389,-0.031616177,-0.091699965,0.056143016,0.11193215,-0.1088807,-0.08917203,0.18398653,0.086462125,0.10361792,0.08855777,-0.07699963,0.02246589,-0.1274708,0.067319795,-0.058435865,0.077145696,-0.011396776,-0.034031287,0.1256552,-0.16536953,-0.08112922,-0.042697784,-0.06923283,0.015928695,0.07199373,0.13928625,-0.090854935,-0.11174785,0.07680372,0.031330902,0.16363184,0.039412007,0.026746528,0.034845274,0.15453632,0.056490853,0.02398885,0.13005559,-0.14266153,0.10391081,-0.13262998,0.11740673,0.02861886,-0.06919255,0.06148127,0.058163397,0.15593614,0.03817729,0.047646955,0.122626595,-0.08221351,-0.101810426,0.050095204,-0.036768973,-0.02926409,0.07849336,0.07406171,0.04461363,0.042766117,-0.11338942,-0.110126115,0.100145295,-0.24094898,-0.13794178,0.032127496,-0.090820424,-0.21945798,-0.009658551,0.06763029,-0.07398868,-0.07729212,0.053293403,-0.10787614,0.020247784,-0.07153128,-0.121263355,0.11093418,0.11212346,-0.05156994,-0.084025756,0.040613566,0.1734285,0.055950414,-0.023659125,0.17460267,-0.0028206932,-0.070999876,0.052971918,-0.10937259,0.047408693,-0.016467888,-0.07321024,0.0314957,-0.091836154,-0.03665209,-0.024094613,-0.08524687,-0.11314526,0.051163085,-0.00036012664,-0.056253795,0.022791103,0.020536436,0.037767492,0.0034185066,0.080603965,0.11924647,-0.088791296,0.09624683,0.031123498,-0.07025467,0.027460031,0.016617296,-0.027897907,0.004147588,0.061254326,-0.08026174,-0.08209816,0.012815743,0.07374074,0.038839936,0.035005268,-0.10836341,-0.08064791,-0.036763243,0.108375065,0.004829481,0.028125267,-0.04837057,0.13250493,-0.028568346,0.008658265,0.02777425,0.0017549059,-0.11828891,-0.21595435,0.0011231031,0.037575204,-0.020518892,-0.108585365,0.015362741,0.23287371,0.03046923,-0.15105473,0.06264586,0.0050482336,0.13989948,-0.05239921,-0.03952512,-0.013637597,-0.12853967,0.11669746,0.010432372,0.03916572,-0.09665335,-0.15146904,-0.085158505,-0.099003986,-0.044703957,0.020056149,0.016851636,-0.14124969,-0.029739348,-0.124101534,0.053774282,0.09928305,0.021254111,0.110770166,0.15151046,0.10069625,0.11599915,0.09316548,0.04121256,0.061084144,0.14682467,-0.09527505,0.061366573,0.059048682,-0.15706763,-0.09565511,0.042065505,0.09747782,0.13896167,0.062027145,-0.08430723,0.10923913,0.10157635,-0.075107336,-0.17946483,0.08863314,-0.23017894,-0.22023852,-0.14142114,-0.15290643,0.08423043,0.013160461,-0.048438966,-0.08857439,0.074548714,0.02111852,-0.03875941,-0.07330323,0.05485562,0.059036825,-0.030234482,-0.10373583,0.07277284,0.097360626,0.015923351,-0.20633438,-0.07364284,-0.07762199,0.048361167,-0.007299407,0.10983894,0.01910456,-0.06763816,-0.073566794,-0.022412675,0.0517262,0.042940546,0.046309832,0.027112583,0.017121753,-0.040218156,0.031003492,0.053825125,0.018317182,0.02530435,-0.01996838,-0.04010535,0.19393511,-0.06611871,0.14441143,0.027650164,0.06547261,-0.06154981,0.049707945,-0.09015645,0.08687305,0.1956727,0.13592221,-0.15911172,0.0890214,0.13795717,-0.038279127,0.02111281,0.020108383,0.15760538,-0.058750987,0.13082743,-0.07953378,-0.12033114,0.039972026,0.043859325,-0.08274034,-0.11631855,0.061748713,0.04609354,0.08547361,0.063750945,-0.13633554,-0.011393815,0.074957974,-0.19357492,0.07298426,0.113015905,0.10274623,0.04185547,-0.026925115,0.14599115,-0.009785089,-0.004859686,-0.120691895,-0.025870705,-0.044577155,-0.034655005,0.0023946143,-0.1005115,0.21229124,0.06388819,0.040264945,0.09316045,0.0042792764,-0.034304652,0.15854399,-0.03644597,-0.12078411,0.043070063,0.012479219,0.06787446,0.01961602,-0.14934303,0.10250475,0.038440373,0.063376054,-0.046740655,0.019260192,-0.009996242,0.11534758,0.0040488183,-0.12642138,-0.11932211,-0.12212676,-0.05689088,0.085179865,0.08902589,0.007610568,-0.043732073,-0.2588705,-0.08203526,0.07955234,0.04681474,0.055898968,-0.12554453,-0.19671589,0.109878145,0.04220769,0.06313557,0.060329363,-0.1071668,0.16495281,0.08505123,0.17762515,0.045415133,-0.061469838,0.028492928,0.072813936,-0.061248075,-0.1347915,0.1454225,0.05781073,-0.12255283,-0.0180778,0.09247663,-0.056740336,-0.06637093,-0.09644285,0.14291392,0.036730736,-0.10445746,0.04602199,0.10277507,0.08770343,-0.01747583,0.13021193,0.07800918,0.04389317,0.08368738,0.010629536,0.057026558,0.061362375,0.14753318,0.12147637,-0.049996898,0.01503638,0.043982565,0.07952659,0.092158616,0.09423293,0.02521944,0.12272101,-0.09066149,-0.0524397,-0.024669288,0.026496466,-0.019637447,0.09413694,-0.010910076,0.11157698,0.047782,-0.08516078,0.059285432,-0.02231213,0.08274652,-0.04761592,-0.09450711,0.048472386,-0.039367273,-0.08563335,0.22971326,0.035819523,0.12617989,-0.11964429,0.024201626,0.040914793,-0.027010169,0.07568237,-0.011090066,-0.0006402412,-0.10701187,-0.10762377,0.10313911,0.07086742,0.11690087,0.049939103,0.03078438,-0.07122443,0.046328302,0.14609036,-0.056630585,-0.047904655,-0.11459823,-0.006010885,0.122755386,-0.0077829063,-0.06182956,0.043351986,-0.039290704,-0.021973507,0.09405797,0.05169077,-0.16910785,0.075272195,0.0083457315,-0.06387259,0.113142416,-0.011078079,-0.14806722,0.11838265,0.09529222,0.17457825,-0.013961939,0.05969367,0.08053511,0.037112426,0.023966186,-0.0040892647,-0.03860051,0.09342582,-0.0062215133,0.0076159653,-0.11426211,0.08230568,0.044429418,0.13513638,-0.13331147,-0.045406926,-0.01042457,0.15289864,0.07253014,-0.10374862,-0.009708042,-0.11720236,-0.016432868,0.01952334,-0.20049062,0.009675699,-0.101872295,0.0047915513,-0.012760953,0.005371099,0.051168524,0.072754234,0.071614616,-0.12408792,0.015139173,-0.089417875,0.082173556,-0.060969234,0.12735808,0.05871383,0.058140263,0.12209303,0.07376662,0.039651558,0.07750706,-0.05095167,0.10797785,0.10496285,-0.0688753,0.11593954,0.109335415,-0.13064909,0.055697683,-0.069769956,0.005626605,0.08665389,0.07296412,0.14567898,-0.08859859,-0.06351589,-0.12478638,-0.061014496,0.1552024,-0.0691889,0.0021430415,-0.0052054194,0.103852816,0.05983973,-0.07761583,0.15999624,0.07564555,-0.039275948,-0.004852208,0.16528527,0.044646237,-0.031940773,0.047629215,-0.008307923,-0.16498733,-0.116480745,-0.02869755,0.007633437,0.08343293,0.10355889,-0.027467784,-0.09834393,-0.12447069,0.17511714,0.036013182,0.10319916,-0.06868569,-0.035067786,0.15338442,0.018237283,0.089073874,0.011315566,0.04710207,0.07972004,0.081626184,0.008331188,-0.040974546,-0.1294114,0.0725602,-0.03655623,-0.007893946,-0.03679585,-0.105556235,-0.06783454,0.15137894,-0.060720813,-0.01987718,-0.08320864,-0.096427724,0.010951279,-0.043154832,-0.00060175266,0.017502593,0.13309108,0.021942973,0.03153528,-0.06449636,0.054542203,-0.023119958,0.04330545,0.050046317,0.11699141,-0.017499618,-0.073088616,-0.06969556,-0.047795564,0.04129679,0.14945261,0.033469085,-0.06618358,-0.1681035,-0.031275798,0.114756346,0.021372046,-0.0025070538,0.11746343,0.14470021,-0.11045982,0.06492882,0.0922323,-0.1390973,-0.050903883,0.066469096,0.14083582,0.015601911,0.084276006,0.030793311,0.060559515,-0.07791675,-0.038019534,0.18173307,0.010024413,0.1377173,0.015831845,-0.010839816,0.18229362,-0.14344455,0.047574528,0.052842386,0.1679081,-0.11736554,-0.092488185,-0.021438394,0.026455365,0.015761169,0.03262028,-0.062058687,-0.053319786,0.12708871,-0.097085826,0.084704265,-0.0890019,0.042343445,0.04576946,-0.01583058,0.099008135,-0.0305918,-0.04482914,0.10972015,0.08058548,-0.025949638,-0.029480964,-0.0967457,0.11778071,0.0046314406,0.004051212,-0.046817023,0.027545255,-0.04058092,-0.092298664,0.027624259,-0.029051334,-0.00881436,0.06796728,0.04153071,-0.054152373,0.0398628,-0.074188426,-0.0648225,0.0934626,0.028023615,0.047719996,0.02880081,0.051706545,-0.032436114,0.019208603,-0.03302258,0.12306837,0.019090021,-0.18454336,0.12065689,0.08104641,-0.06013853,0.090354346,0.028923443,-0.020107722,-0.06034706,0.02719416,-0.0421314,-0.07104104,0.018917382,-0.13618548,0.046872336,0.008262247,-0.0048178476,0.03971877,0.066658705,-0.08252257,-0.019130403,-0.039981633,-0.060916785,-0.026718333,0.018600857,0.008249566,-0.10674044,0.013891865,0.058694888,-0.06293363,-0.18057735,-0.084956296,0.033582143,-0.03845611,-0.031866398,0.058625482,0.031846046,-0.046765402,-0.022129362,0.09520536,0.011008274,-0.040032808,-0.00036777268,-0.08147872,-0.048725534,-0.049232334,-0.08624995,-0.050190497,0.012591098,0.033257566,-0.051198334,-0.06562353,0.03273917,-0.060613718,0.057315253,-0.009977282,-0.002076678,-0.05330488,-0.09001832,-0.054776482,0.011985559,-0.024562253,-0.061625067,-0.004123165,0.05366608,0.113115236,0.091861054,0.0011558549,0.026276851,0.07792594,-0.02094349,-0.17582871,0.034872726,-0.08539931,0.0348588,-0.032023486,-0.005077271,0.011271358,-0.06924337,-0.0043515,0.004246165,0.12502298,-0.11269972,-0.028245855,0.0041326773,-0.07352263,0.12074231,0.2016053,-0.073464155,-0.10428841,-0.019073505,0.07939654,-0.015446958,0.08302165,0.10940714,-0.057349138,-0.0068614795,0.09636187,-0.00046701008,0.005760286,-0.012208234,-0.028496651,0.032421615,-0.08152299,-0.12726143,-0.05827492,-0.054528542,-0.067714356,0.020984948,-0.045142643,0.0635942,0.030812986,0.050499395,-0.003216032,-0.082565285,-0.05433227,-0.04608722,-0.100975804,-0.02055898,-0.005009225,0.034348745,-0.10347048,0.0032001715,-0.12432059,-0.007626858,0.033622887,0.07102652,0.03369357,-0.03072337,0.019941535,0.07580984,0.031614583,-0.061610732,-0.010476265,-0.040408634,-0.0148704015,0.018531255,-0.075492814,0.024004092,0.0059270184,0.032963887,0.040177267,0.023490561,-0.057763513,0.06491208,0.041157275,0.08213302,0.11019893,0.030186184,-0.05332499,0.09168401,-0.027248574,0.1016749,0.028696282,0.05098744,0.0059794406,-0.13254564,0.022911401,-0.09046554,-0.002051156,-0.13715446,-0.05289562,0.008683948,-0.0050703688,0.07214937,0.0027941389,0.08553309,0.04168803,0.009843693,0.05888188,0.00088468706,-0.045713097,0.05499368,0.021814916,-0.1403351,-0.05631593,0.09592872,0.035049465,0.006973327,-0.0056590443,0.064208545,-0.037598666,0.033225782,0.007091655,0.09007837,0.0031630788,-0.082815655,-0.08603989,-0.036714587,0.15610388,-0.06884432,-0.03986597,-0.033344183,-0.03600659,0.07179706,0.12109958,-0.030314136,-0.036639865,-0.048381694,0.031734936,-0.020255245,0.0098358,0.08613596,-0.0274218,0.08303254,0.01971682,-0.022335256,0.023704343,-0.015213335,0.048007503,0.14044596,0.028733209,0.06380008,0.04548367,-0.117529064,0.06950343,0.052059066,-0.0051543573,-0.07379906,0.053094357,0.08814387,0.05399568,-0.007415941,-0.058414783,0.014210029,0.009752417,-0.084457636,0.04381867,-0.026485948,-0.0019409657,0.040561326,-0.024517685,0.059921797,-0.13466546,-0.099524625,-0.031417,-0.024081435,-0.16330707,0.051593732,-0.05757499,0.042233147,0.025753599,0.0077969315,0.020374838,0.064153165,-0.0070791123,0.098500945,0.040415805,-0.09225404,0.020925563,0.07293667,-0.100743905,-0.08222712,0.015680816,0.022827461,0.08598916,0.006512597,-0.017909735,-0.031639144,-0.11278878,0.065783955,-0.019838264,0.0052204053,0.0089328755,-0.05845795,-0.07897924,0.025080398,-0.04819284,-0.017753825,0.05273075,-0.0024218902,-0.064276904,-0.0066019786,0.07839498,0.18486506,-0.08994244,-0.08719621,0.11595317,-0.0245474,-0.11646628,-0.1377305,0.05918251,0.0008364861,0.018025942,-0.0027218324,-0.06561681,-0.09687003,0.05886597,0.025197523,0.00136105,-0.0045665363,-0.03573044,0.009534354,0.07896055,-0.027998779,-0.03048682,-0.07772041,0.0104073025,0.079280004,0.05203808,-0.0048408844,0.06244751,-0.07209296,-0.05526325,-0.045579232,0.07155402,-0.08844823,-0.091064736,-0.007876638,0.031095715,0.1024026,0.009413036,-0.062226336,-0.0055443137,-0.10383404,-0.06250587,0.018214514,-0.015999084,-0.041876055,0.08383639,-0.051964454,0.10729895,0.0017985482,0.053307306,-0.053317215,-0.030358255,0.04814056,-0.089427195,-0.060862154,0.20878209,0.055665728,-0.1216093,-0.017158443,0.017320752,-0.026436087,-0.07210661,0.10739072,0.001311345,0.12629597,0.1266537,0.08736524,0.0080288,0.11840352,0.091898,-0.015342511,-0.056091223,-0.045362327,0.012564024,-0.0035454526,-0.08811151,0.15673923,0.09821872,0.10079409,-0.02083495,-0.032761488,0.087734774,0.09109576,-0.088301346,-0.07372417,0.12212961,0.07805496,0.038758785,0.09151382,0.03307855,0.012404792,-0.058521774,0.050596103,-0.015544407,0.08227261,-0.08975884,-0.053948276,0.027101584,0.054278098,0.0388752,0.025114553,-0.025123812,-0.033060923,0.054533795,0.059660524,-0.032397144,0.017643062,-0.07064827,-0.11871062,-0.04512552,-0.109895706,0.014843047,0.055739135,0.015660137,0.0739058,0.0814985,-0.15416054,-0.05071971,0.111571044,-0.04722017,-0.16465192,0.13262391,0.0011659912,0.008549535,-0.0706285,0.031670425,-0.04182873,0.052893177,-0.0052903066,-0.048171885,-0.0425039,0.0002731421,0.026422117,0.05212778,0.04196537,-0.050753396,-0.005135931,-0.047265265,0.035798423,0.012874216,0.067429714,-0.10534106,0.01566996,-0.07217632,-0.0031885358,-0.017938986,-0.001212932,0.039111424,-0.04973104,0.09938691,0.06674716,0.00997296,-0.062405124,-0.09478503,0.09570997,-0.07716923,-0.09765174,-0.019686438,0.057758003,-0.008574345,-0.07113511,-0.004635612,0.123564236,0.09401555,0.0071624555,0.072914995,-0.085412495,0.09706439,0.026241535,-0.007029604,-0.0302204,-0.054955717,-0.004504516,-0.00073357054,0.037865084,-0.08302802,0.03478931,-0.122904055,0.05424115,0.013723192,-0.019550242,0.02979661,-0.017166054,-0.063071795,0.025944302,0.084569156,0.013984608,-0.0012826564,-0.028522097,0.04656937,0.06813807,0.0896772,0.040335078,-0.024707789,-0.018854972,-0.0010657872,0.028638208,-0.038922608,0.007839673,-0.06814851,0.013079639,-0.0032921603,-0.09461959,-0.102578215,-0.1104447,-0.05895463,-0.042351432,0.026743138,-0.0061835814,-0.08663235,-0.0075170547,-0.055799812,-0.12253982,0.12382135,-0.0909144,0.0008119696,-0.052647367,-0.091760874,-0.0048321798,-0.058068175,0.04879114,-0.028351894,-0.04169208,-0.10499842,-0.10562399,-0.020947238,0.08827987,0.05605857,-0.029773576,0.009352764,0.09666126,-0.069642596,0.08368258,-0.0058270837,0.038428266,-0.021699201,-0.09517407,-0.03612837,-0.018542511,-0.002245583,-0.05360913,0.123435795,0.003446444,-0.018274035,-0.010974663,-0.059645146,-0.016167015,-0.009406818,-0.06445983,0.033580925,-0.0029434946,0.12850544,-0.14204688,0.080580205,0.09301626,-0.07817869,-0.20536526,-0.03896423,0.07837428,0.0037083619,0.037811123,-0.07855153,-0.041254975,0.032324016,-0.04828989,-0.0012089589,0.13122338,0.05392386,-0.059070546,0.09957571,0.040836412,0.044086862,0.06972374,0.067056164,-0.015654184,-0.055216383,-0.03002234,0.007868225,-0.011116966,0.03750434,0.04630883,0.04346768,-0.029587742,-0.04998109,0.08295519,0.036420617,-0.0148221785,-0.07917211,0.041335113,-0.03691499,-0.04977297,0.0043661217,-0.082035355,-0.059917655,-0.122908585,0.05472003,-0.072878644,-0.118523546,0.017720697,0.0066514155,-0.00744795,-0.058324844,0.01794595,0.026784156,-0.101616256,-0.037598565,-0.020994611,-0.014096199,0.07606192,-0.064184465,0.005028465,0.00891708,0.008554098,0.008143137,-0.08990444,-0.022193566,-0.024498092,0.07289308,-0.109330684,0.048492406,-0.029296234,0.038382165,0.17897944,0.0035088442,0.030714339,0.00916408,0.0061746533,-0.0027908618,-0.029480655,0.0023672807,-0.01092207,0.003277372,-0.079956986,0.08750104,-0.07591026,0.03806836,-0.031852607,0.013131173,-0.00823599,0.056722663,0.0365076,0.061998148,-0.05181009,0.073576264,-0.022947863,-0.044468977,0.061932784,-0.054914933,-0.04634228,0.10626533,0.062102713,-0.057689343,-0.10278363,0.012753739,-0.07879828,-0.07513483,0.036200896,0.03718101,-0.1082599,0.16916586,0.03871653,0.036520932,0.06782134,-0.069329135,-0.060052447,0.012112738,0.048818875,-0.031685248,-0.017234681,-0.06150756,0.106532164,0.07961796,-0.02856609,-0.016100971,-0.03313608,0.01116013,0.03602692,0.06743285,0.044525184,-0.03949864,-0.047489226,-0.060469422,-0.0213608,0.121637754,-0.019196633,-0.015242915,-0.03404558,0.00258016,0.06875205,-0.0791008,-0.11763096,0.103610165,0.052068394,0.018843394,-0.074007586,-0.058487963,-0.043927584,-0.016038379,0.0028445548,0.02507134,0.055027314,-0.0038317533,-0.06575718,0.04519988,-0.025311494,-0.040324874,-0.06546523,0.0440928,0.0019818728,0.04661347,0.041103,0.00066745287,-0.012829271,0.062435217,-0.10957014,0.003067884,-0.032733504,-0.11395687,0.07714739,-0.06810246,-0.074354656,0.070670776,-0.05988833,0.0256616,-0.026402405,-0.0019799138,-0.011126919,0.019365212,0.0031650704,-0.038949937,0.015133996,-0.0010367823,0.024170958,0.041738037,-0.025712976,0.03380884,0.07092538,-0.042455994,0.021616224,0.012616066,-0.04748042,0.018878035,0.03804076,0.00088094687,0.07138114,0.10091622,0.03286485,-0.049958065,-0.031921152,0.030361928,0.035528943,0.006260401,-0.08056873,-0.10991235,-0.10131309,0.015713934,-0.0074639684,0.013186208,0.038518146,-0.04692512,-0.04573237,-0.09643905,-0.046751495,-0.12851681,-0.110103995,0.08699083,0.10483782,-0.014107249,0.040714704,-0.0065374575,-0.041618805,0.02557096,-0.094215326,0.042370997,-0.07032531,0.05195239,-0.021682594,-0.03899182,0.06979169,-0.1311298,0.079271354,0.16216885,0.101560615,0.01481173,-0.010275743,0.06627672,-0.008715645,0.03278148,0.009925741,0.06329071,0.012552363,-0.12537207,0.08154385,0.12275979,-0.10154922,0.06087767,0.01730038,-0.06838437,0.055957723,0.08298973,-0.09515519,-0.003174519,0.07927353,0.0049342993,0.07676398,0.013250941,0.091854975,-0.10391003,0.118707746,-0.011338858,0.13097799,0.020754764,-0.003969038,0.0803497,-0.11297257,-0.03084964,-0.017867198,0.01674077,0.008897688,0.14807737,-0.05241686,-0.14748144,-0.018577183,0.08810428,-0.064223275,-0.010681266,0.030310214,-0.0062232157,-0.06855784,-0.047993,-0.048832737,-0.021620233,-0.05297204,0.032607906,-0.024864096,0.11939052,-0.0672966,0.03445932,0.050106138,-0.059853636,-0.06760639,-0.0039706714,-0.0014857558,0.016657764,0.032502655,0.030412363,-0.0007098734,-0.0017089386,-0.025948094,0.014035678,0.051129587,-0.066210225,-0.08791845,0.025996312,0.012327075,-0.011932108,0.08708596,-0.010063513,0.0106634125,-0.058694176,0.06734795,-0.032037735,0.067886844,-0.097573705,0.078374155,-0.014368721,-0.16126442,-0.026738055,-0.085255094,-0.08990891,0.06771893,0.0024000963,0.0484195,-0.026473092,-0.08470196,-0.024398208,0.0031111857,-0.036349375,0.014543864,-0.036822896,0.109100424,-0.03410549,-0.07910234,0.103076115,0.0045703095,0.09203364,0.079782136,-0.026315436,-0.038477328,0.16659667,0.09768485,-0.12818271,0.016066128,0.020943925,0.0790425,-0.041525066,-0.08413961,0.009524859,-0.051670056,-0.0053694546,0.021424245,0.0324513,-0.00032803742,0.034949828,-0.048189946,0.044613995,-0.06491858,0.13622762,-0.08404621,0.008229042,-0.02383194,-0.023640083,0.030796742,-0.12444149,-0.019946069,-0.04592013,0.05160507,0.061036896,-0.01554564,-0.086307175,-0.038385432,-0.057058237,-0.0022395314,-0.020646878,0.030345099,0.10028569,-0.06561172,-0.17166047,0.0077070305,0.006771485,-0.10801598,0.021802556,0.07329738,-0.020958416,0.025121763,0.100443855,0.008877765,0.11917702,-0.07629487,0.089572005,0.12331741,0.07970756,0.07313526,-0.03603372,-0.057841904,0.08457221,0.12370702,-0.011193059,-0.07730512,-0.0065244855,0.08485026,-0.07579967,0.088777274,-0.10005437,-0.017861463,0.065105826,0.07033155,-0.011356079,0.03861641,-0.05301719,-0.0006554877,-0.024440756,-0.06427489,-0.14512138,0.047539726,0.08208877,0.0067360424,-0.04997119,-0.13670094,-0.03001689,-0.0019535525,-0.18473105,0.06255254,0.084592454,-0.008491778,0.03407278,0.036122765,0.10114499,-0.036087908,0.07579945,0.040573034,0.07613368,0.0412528,-0.021686634,-0.04445478,0.051128294,0.021458048,0.07392558,0.0072174137,-0.12433506,0.09443775,0.083444685,-0.007152593,-0.013208889,-0.055198424,-0.083040945,0.056285296,-0.060313568,0.082057334,-0.023520604,-0.005261729,-0.032725718,0.015649365,0.061038185,0.0075519164,-0.022445766,-0.103978775,-0.100835495,-0.06772319,0.01589281,0.04213499,0.0012420394,-0.117339544,0.027009545,0.014344861,0.026347041,0.022071626,0.044256784,-0.02021277,0.079893395,-0.027040973,0.04968775,0.12462631,0.0465196,0.056601904,0.06243741,0.042757705,0.01086234,-0.058027584,0.062307864,-0.038912795,0.057819616,0.08501429,0.023241911,-0.04642682,-0.02592197,0.017265983,0.07480638,-0.05169769,-0.009312695,0.16764167,-0.12700707,0.07681398,0.04014643,-0.026462214,0.0086626485,0.002146119,0.018515056,0.07686362,-0.005265857,-0.09060402,0.05380858,0.06290708,0.055059325,0.06320403,0.11581396,-0.046586055,-0.034601245,-0.093665235,-0.0732512,0.0151295215,0.049410485,-0.018072128,0.10811164,0.03543344,0.015642362,0.017477341,-0.018269708,0.07607798,-0.13622876,0.03821735,-0.13144521,-0.13577501,-0.1804367,-0.09948071,-0.10156677,0.041359056,0.12465415,-0.10212461,-0.0006398382,-0.12530498,0.04024011,0.03516335,-0.007270146,0.12369141,0.028319791,-0.026568457,0.008584332,-0.044473592,-0.062102612,0.0024750584,0.095500335,-0.06333416,-0.097303264,0.09922354,0.09109851,0.051055856,-0.062451936,-0.09764245,0.09502817,-0.045391064,-0.0515369,0.022851938,0.041174814,0.006838651,-0.004867951,-0.03310269,0.11301802,-0.021072572,0.0047706766,-0.019643016,-0.013371848,-0.12636076,-0.0038394781,0.04737141,-0.13036337,-0.018600672,-0.018071609,0.09152483,0.07004759,0.12525134,0.020896256,0.07037122,0.012723212,-0.05848593,0.027243948,0.05096984,-0.030066008,0.034993954,-0.03295834,-0.00095393095,0.09253068,-0.0112311905,-0.05951634,-0.17601864,0.018898018,-0.03761954,0.07904045,0.0946459,0.12064014,-0.014625502,0.033726,0.08062751,0.10422388,-0.0587282,-0.018919783,0.026939424,-0.108371206,-0.0007539735,0.03620906,-0.03326847,0.13115045,0.03851142,-0.063270316,-0.031922538,0.04917224,-0.052811794,-0.09736321,0.04767159,0.03511731,0.11129782,0.03866827,-0.021810167,-0.036245365,0.07776998,-0.05448897,-0.054533027,-0.02185417,-0.09287882,0.14710495,0.03620896,-0.045896366,-0.0039213756,-0.038321428,-0.018485347,-0.018857876,0.056895673,-0.023023237,0.08334549,-0.030353213,-0.12915689,-0.0068336204,0.033901148,0.02509342,0.10094609,-0.008151983,-0.09396441,-0.08362601,-0.06377684,0.06468802,0.057522397,-0.043682028,-8.54194e-05,0.03428822,0.049415573,-0.047941167,-0.053523634,-0.08767934,0.046652943,0.03020334,-0.011645856,-0.06500702,-0.047333322,0.04635162,0.01798238,0.08157338,-0.10364908,-0.030777778,0.0050329366,0.07557312,0.016301468,-0.05724582,-0.022177417,-0.039220057,-0.04532313,-0.08340444,0.10622382,-0.01571349,0.09826529,-0.006067639,-0.089451656,-0.0042525213,0.0987416,-0.112448856,0.052741483,0.0067480123,-0.022096314,-0.07218798,-0.040538035,0.05006789,-0.017980775,-0.11042916,-0.15886554,0.12971614,0.020668056,0.07311076,0.030186025,-0.0578889,0.011755572,0.009543118,-0.08176717,0.07475951,0.030454842,-0.008064324,0.00269712,-0.14765775,-0.029272534,-0.027220024,0.005614371,0.048004694,0.032652363,0.124420784,0.056174926,-0.06466943,-0.026619688,-0.051183917,-0.0035454915,-0.09704187,-0.0036022314,-0.053237237,-0.0034860629,-0.064973705,0.058808688,0.02135047,0.054338038,-0.0002206078,0.037034974,-0.045039512,0.013235212,0.10144092,0.10786471,0.017113585,0.06411536,-0.08288453,-0.090645276,0.035559773,0.049749877,0.10603382,0.06568029,0.08964048,-0.013611209,-0.034136605,0.012734304,0.07233653,-0.010518676,-0.019107841,0.030688172,-0.022756526,-0.15867761,0.07346297,-0.11441565,0.06814509,0.13094985,0.019418634,0.09622895,0.034245387,-0.11171907,0.17203535,-0.030561568,-0.01346762,-0.097816855,0.017253153,0.02252019,-0.041057713,-0.052594893,0.024906551,-0.0644989,0.026965542,0.035548728,-0.076310165,0.061827905,0.072360046,-0.021301951,0.13089058,-0.011073707,0.065046474,-0.0017146195,0.0546958,-0.052568514,0.061769646,-0.10276639,0.026154326,0.0910872,0.031240603,-0.0794423,0.08915874,0.044917315,-0.034878567,-0.0035395173,0.0009827123,0.024410538,0.031219376,-0.08246182,-0.06946638,0.06455324,0.11440447,-0.06727378,0.0010496663,-0.0014427523,0.058790404,0.054500196,-0.06550311,0.06777106,-0.04860442,-0.052427005,-0.098473474,-0.012320009,0.038196128,0.014150863,-0.047271322,0.02757928,0.050058812,0.075945854,0.113861196,-0.04696956,0.008336027,0.0575784,-0.0409507,0.0219296,-0.014052397,0.0048068995,-0.055470426,0.019934505,0.044483438,0.10053978,-0.01493582,-0.08648848,-0.0055375993,-0.009042557,-0.06869216,0.06823267,0.019206911,0.044972856,0.045412194,0.026679812,-0.0043275077,-0.05053,0.073026225,-0.029781291,0.018792804,-0.07742808,-0.04742809,0.0004310223,0.099093586,0.012256392,0.014235161,0.058190864,0.050574247,-0.13298558,0.14311044,0.004236437,0.085059665,0.05457974,-0.032763194,0.036133505,0.029715443,-0.07030844,-0.09241627,-0.008355033,-0.05575839,-0.121043004,-0.0454497,0.014250082,0.061030116,0.0048849997,-0.042854164,0.022288933,0.03538716,-0.03762004,-0.05611558,0.1235298,-0.0928779,-0.08095643,-0.055612426,0.033473726,-0.04885947,0.020617608,-0.0070223883,-0.03735156,-0.0058865678,0.056508623,0.06956537,-0.02673158,0.07323525,0.006714178,-0.06662764,-0.00095702463,0.02766965,-0.099100955,-0.014747557,-0.010979913,-0.007293636,-0.03911206,0.073520154,0.0016036561,-0.08073138,-0.013224698,-0.06804953,0.009960513,-0.11132596,-0.009363179,-0.009022814,-0.088155314,0.018435018,-0.011034497,0.120156355,0.014093535,0.051519204,0.05627652,0.008456346,0.03637599,-0.0066087083,0.07957191,0.03412802,-0.05862786,-0.08508178,0.03876181,0.03279436,0.087515354,-0.0024790226,0.060877673,-0.1011536,-0.03804524,-0.017605828,0.004694419,-0.0018535418,0.024111032,-0.06829502,-0.019839525,0.13016145,-0.03534621,-0.022097038,0.0079621915,-0.10708236,-0.03131138,0.047504913,0.06176711,0.12541923,0.06302328,-0.105694465,0.04187941,-0.019982956,0.033242617,0.024039663,-0.0071255392,0.01487622,0.06676458,-0.061848458,-0.039462067,0.003931192,-0.060287282,-0.00011256573,-0.055232584,0.024753477,0.032990504,-0.009293837,0.02415122,-0.1005749,-0.030104173,0.009733609,-0.05514197,0.007909042,-0.010533106,0.009538626,-0.06521442,-0.061379027,0.1015837,-0.045267813,0.09546578,-0.06225531,-0.15862994,0.034225527,-0.04749593,-0.094488546,-0.01573316,0.08431743,0.023257464,-0.12259621,-0.07305031,-0.026037976,-0.015445301,-0.057783354,0.008719048,-0.050563335,-0.030379381,0.04475945,-0.053366385,0.051202167,-0.07525442,0.043473955,0.042297453,0.025049362,-0.10478713,-0.030423606,0.09965863,-0.117004775,0.0022282943,0.07848833,0.024734639,-0.010369945,-0.02540569,-0.084950596,0.031407237,0.0011491122,-0.02782954,-0.050046995,0.018145591,0.0373622,-0.0010561629,0.013508509,0.04707221,-0.08160423,0.052860595,-0.067933835,0.056148253,-0.025759723,0.0834836,0.038759466,0.025556885,0.015588661,-0.02551666,-0.04133442,-0.03140599,-0.022692142,0.13901828,0.14539815,0.01240866,0.005937547,0.0029659364,0.13991171,-0.05009603,-0.09864964,-0.0074237385,0.04791781,0.0043021827,-0.09270315,-0.009289573,0.026846876,0.04028886,-0.055479184,0.048694912,-0.057702705,-0.017127784,0.050472256,-0.04689977,-0.07763861,-0.11125643,0.012195656,0.10462884,-0.029497882,-0.029024074,0.013287707,0.059931222,0.08154271,0.022461768,-0.047364496,0.05058401,0.058013745,-0.088698685,0.08855482,0.08186705,-0.015005456,-0.035491567,0.02112016,0.014620737,0.0031993592,0.015653469,0.015321,0.032183737,-0.012958257,0.074436136,0.031849366,0.08297585,0.063136496,0.009235187,-0.046177056,0.006625757,0.050725568,-0.042372078,0.017664136,-0.09964401,0.07719128,0.0877094,0.038270876,-0.09005082,-0.059346955,0.0065422794,-0.08597601,-0.13608529,0.06618204,0.08946622,0.039295297,-0.055499297,0.03188569,0.05344551,-0.00724773,0.00285148,-0.113815136,0.036774747,-0.05765767,0.014337284,-0.06131736,-0.066396035,0.13450819,-0.108328916,0.07331645,0.05891461,-0.021582345,0.09206274,-0.01932217,-0.0419262,-0.0615335,-0.05227099,-0.009640497,0.078034565,-0.053871218,-0.107661076,-0.030815065,0.057859454,0.059409868,0.12442059,-0.009649277,0.04710251,0.07254833,0.0714023,-0.17426424,0.0006298297,-0.033242863,0.008095058,0.023473201,-0.0011440038,0.008938744,-0.08795708,0.033560876,-0.045145422,0.14026727,-0.050258122,0.01511378,0.033866655,-0.11865774,0.06367574,0.20446499,0.0032887305,-0.11259938,-0.06477052,0.048113015,-0.072383456,0.014707503,0.12562856,-0.00809427,0.01713574,0.053737916,-0.030294232,-0.07807316,0.039242245,0.016432736,0.02661116,-0.029331636,-0.12576732,-0.11934354,-0.063581556,-0.071239404,-0.039850295,-0.09684466,0.076997176,-0.071059756,-0.023492794,0.0125515405,-0.12970996,-0.011023508,-0.02482475,-0.02072971,0.027266491,-0.05064511,0.012838204,-0.1370787,-0.014335474,-0.08647419,0.004248576,0.033343103,0.026594272,0.0033439451,-0.024023041,0.027599579,0.0030662029,-0.0671077,0.011678938,-0.007711382,0.049968615,0.088003874,0.026309453,-0.02934944,0.0034386932,0.04115765,0.00280968,-0.052276634,0.09468988,-0.009827073,-0.004852032,0.038301114,0.016292837,0.016753266,0.05336636,0.004295979,0.063567944,0.056499526,-0.040124696,-0.0075650117,0.04096331,0.052832823,-0.0393019,-0.079230905,-0.08719616,0.009883807,-0.15926349,-0.002630424,0.05576011,-0.02025282,0.042846084,-0.0015495839,0.06537319,0.055375732,-0.027829574,0.051913112,0.07633501,0.021523453,0.06671874,0.023942888,-0.061358828,-0.020044036,-0.0042588348,0.09748724,0.0019510903,-0.041362856,0.037968263,0.07106253,0.03584077,0.010886722,0.06227111,-0.15534857,-0.03331794,-0.009070875,-0.07116723,0.029090546,-0.076351434,0.029555338,-0.02684034,0.05823912,0.013134724,-0.035353757,-0.019502936,-0.011014765,-0.06713132,-0.00716424,0.091133855,0.047198962,0.106251545,-0.021450268,0.10062069,-0.029265258,-3.4684945e-05,-0.01888941,0.016951952,0.120961696,-0.05207706,0.017444924,0.089079805,-0.061597925,-0.06902179,0.010915887,0.04894163,-0.06912533,-0.059496325,0.046232615,0.039081253,0.037307464,0.010353324,-0.008940532,0.07493582,0.12622967,-0.030669363,-0.048393033,-0.109765105,0.0083889775,0.04936492,-0.05421942,-0.0467246,-0.11264365,-0.023622248,-0.111986585,0.035412647,0.044709716,0.07606869,-0.019473167,-0.02485863,0.058747083,0.040180437,0.024710633,-0.0025906155,0.10151263,0.07693905,0.10463014,-0.027886743,-0.030531507,0.15536492,-0.14895152,-0.17567764,0.0059475694,-0.0433901,-0.03831329,0.026942637,0.03947843,-0.08660596,-0.06566644,0.023088904,-0.021893248,-0.09636232,-0.08331771,0.015576701,-0.03569136,0.059625514,0.0638907,-0.0056168656,-0.01911403,-0.05041466,-0.055384263,0.019429242,0.054515492,0.12835585,-0.066045664,-0.033566553,0.013128478,-0.0010861426,-0.066656075,-0.08175726,0.07486543,-0.0021191807,-0.022469431,-0.030423202,-0.012030772,-0.12864849,-0.0661316,0.014627746,0.070690714,-0.028780645,-0.030489625,0.028225254,0.013095523,-0.09509479,-0.013131742,-0.055977907,0.04277698,0.10277674,0.04115524,0.06510272,0.04122787,-0.105603695,-0.018656408,-0.039612353,0.0076229796,0.0025420878,0.0016826465,0.006318557,0.105207294,0.094844766,-0.00814998,-0.11345009,-0.07383995,-0.055541206,0.026559101,0.02054424,0.08315335,0.038127374,0.0649661,-0.030608924,0.045227647,0.039561138,0.08405521,-0.020141795,-0.014674028,-0.046101265,0.025902001,0.045063972,0.11024709,-0.04238126,-0.016218347,-0.0109080095,0.07912245,0.04603921,0.009078581,0.022794165,-0.10280275,0.0278996,0.055788893,0.013479505,0.0139187155,0.08917666,0.14263739,-0.03980362,-0.012323446,0.0069142072,-0.0008234756,0.013512555,-0.058385894,0.066011876,0.023887128,0.054499976,-0.0570418,-0.025303345,0.08539462,0.06282417,0.04555989,-0.017545069,0.14429642,0.083854064,-0.09568653,0.085832335,-0.038311396,0.029600777,-0.020566989,0.069231436,-0.055007786,0.114493385,0.018975489,-0.052487936,-0.06976934,-0.017909355,-0.12349909,0.04927306,0.05707551,-0.03959559,0.028140917,0.039541572,0.03840998,-0.0772417,-0.076190054,-0.015384709,-0.027675292,-0.054911867,0.056805685,0.005094547,0.018338481,0.07655801,0.053041905,-0.08443677,-0.087970376,0.0044244374,-0.10791822,-0.15474601,0.13350046,-0.053305585,-0.06416699,-0.063414976,-0.008417314,-0.1305475,0.037253186,-0.09728922,-0.024339639,0.017817812,0.041649293,-0.07903282,0.10200078,-0.09029791,-0.08558606,0.041059773,-0.07071272,0.037118174,-0.1163203,0.057997834,-0.059817657,0.052203506,-0.010189545,0.0030100038,0.040261388,-0.089375325,0.027863288,-0.06660308,0.05824869,-0.04691068,0.006665206,0.068051755,-0.054232005,-0.016814854,-0.06213461,-0.023147425,-0.02520789,0.050630867,-0.081097655,0.028239662,-0.027746957,0.005285689,0.0053359177,-0.046512477,0.010904851,-0.1192327,0.12397372,-0.052184436,-0.029806487,0.021809585,0.02809659,-0.00809985,0.082431726,0.027039608,-0.095064126,-0.05285568,-0.019622965,-0.046757028,-0.09207828,0.07474911,-0.07799321,-0.016776623,-0.08066423,-0.032670293,0.09660209,-0.06539822,-0.018315889,0.025061814,-0.07070216,0.08173742,0.040821884,0.03195273,0.059492573,-0.07122632,0.025739346,0.02921781,-0.01957508,0.04351786,-0.082091406,0.0006056057,-0.074239776,-0.03366223,-0.028266717,-0.07903085,-0.03799369,-0.15125977,0.055361494,-0.025469314,-0.045496356,0.08810344,0.0604723,-0.040275946,0.09635882,-0.047239743,-0.045761164,0.0006313785,-0.03938108,-0.054728482,-0.0005779319,0.026969584,0.07537098,0.022329906,-0.084758975,-0.08680126,-0.049823053,-0.009351602,0.053579025,0.1466995,0.09184132,0.022252984,-0.015474323,0.02450983,0.0023880538,-0.00070518,0.08773528,-0.029957185,-0.04389578,-0.015917072,-0.010502925,-0.0720432,0.10258172,-0.09081153,0.029234698,-0.102981016,-0.007350867,0.028263304,-0.046074077,-0.0065700854,-0.09530198,0.059648387,0.03734121,-0.1471514,0.1498282,0.06540486,-0.039613098,-0.09655754,-0.07265775,-0.011021032,-0.0657836,-0.022404421,-0.09964714,-0.11666867,0.02424759,0.026035985,0.036408458,0.11344094,0.06462611,0.018772118,0.11526501,-0.07069134,-0.12606744,0.05281329,-0.058725424,-0.12577741,-0.11023158,0.037126824,0.038766414,0.010461217,0.025576731,0.0010544604,-0.035326995,-0.028517215,-0.09762653,0.010295053,0.033062696,-0.10484742,-0.011067958,0.028272739,-0.01009616,-0.042927485,-0.08600951,-0.09113398,-0.047596343,-0.046261296,0.0090602245,-0.0860253,-0.035288487,-0.104758345,0.043015677,0.06078727,-0.10210532,0.036598366,-0.056124654,-0.009311949,0.031498127,-0.0563149,0.0132023115,0.01373132,0.010727289,0.06253204,0.061596025,0.008166142,-0.120214455,-0.028742608,-0.018227493,-0.0726437,0.08504251,-0.025803046,0.125926,-0.029332075,0.084314086,0.11092278,-0.012840358,-0.036491822,-0.059297975,0.0012104787,-0.036067042,-0.0853928,-0.0054042386,0.048207257,-0.043500386,-0.11734147,0.11114442,-0.005234415,-0.054376658,0.015618887,-0.009096901,0.00895869,-0.0003207805,-0.031035189,-0.044706702,-0.032342106,-0.0035714912,-0.026089126,-0.07826963,-0.011398893,0.06703985,-0.07105919,0.10265777,0.0103989635,-0.076289095,0.02182922,0.053813215,-0.08046865,-0.03761652,0.032042895,0.0046421387,-0.068774626,0.043005455,-0.054337956,0.030895092,0.105080806,-0.05023107,-0.10185699,-0.030815354,0.0749504,-0.10411896,0.01809034,-0.025797833,0.044712428,0.026040424,0.039616477,0.014272609,-0.052211825,-0.056877512,0.067896344,0.0073715583,0.03987017,0.022961743,-0.061118096,-0.05522375,0.05434058,0.11915898,0.068644986,0.07496422,0.03256388,0.055160083,0.042098455,-0.08275805,-0.112815976,0.035896745,0.021001853,0.065956436,-0.03281605,-0.01938012,-0.03709418,-0.04027889,0.06645701,-0.002296469,0.10618758,0.034979384,-0.00087947596,0.03449799,-0.045492657,-0.0019207601,-0.08250759,0.031761803,-0.02037053,0.029800078,-0.026100663,-0.12585722,-0.0677844,0.06883229,-0.12267451,-0.08746887,0.024824714,-0.06552217,-0.014814984,-0.033421025,0.0077942205,0.029180726,0.02699264,0.023622531,0.041991796,-0.08407047,-0.06697562,0.031115266,-0.006813044,-0.01683679,0.07635389,-0.060742702,0.068146795,0.027703177,0.0070447885,0.07028719,0.02549101,-0.09848533,0.012641686,0.084168896,-0.039799962,0.052374594,-0.07145854,-0.04414426,0.07010003,0.0688274,0.006621755,0.05317601,-0.04255488,-0.0047080414,-0.0037749521,0.0042529847,-0.11558784,-0.07392311,-0.14780197,-0.020027041,-0.020359354,0.10633097,-0.007269267,-0.0256665,0.03950241,-0.16291465,-0.032383498,-0.038498856,-0.12607877,0.012826923,-0.025275007,0.12049849,0.06298485,0.17376848,-0.070992544,0.003889725,0.08110692,-0.07095377,0.13295951,-0.058643732,0.13348453,0.056741256,0.13596691,0.0018861983,-0.15997538,-0.115085386,0.044756446,0.10366965,-0.004834458,-0.106774524,-0.1512238,0.051362075,0.012683791,-0.0039631533,0.16959606,0.120541565,0.0720434,0.018087728,0.003132584,0.08112031,-0.037516683,0.00053494907,-0.096000165,0.057498045,0.038237914,-0.13004827,-0.06633882,0.025451154,0.045434907,-0.11638542,-0.07360125,-0.061258063,0.021049619,0.0037810141,-0.10540831,0.054010283,-0.091220036,-0.15499015,0.16800034,-0.08114774,0.010092749,0.012791358,0.0031163024,-0.0031633032,-0.013108871,0.17937751,0.10129893,0.02746118,-0.17826475,-0.13639647,-0.055264015,0.030002726,-0.17445926,0.04960433,-0.116139926,0.15346272,-0.009363766,0.045214854,-0.0010750336,0.14623585,-0.022638744,-0.074751146,-0.06274263,0.010999874,0.24385424,0.0032492622,-0.09037932,-0.0118856365,0.07192386,0.010220245,0.04288526,0.066665925,-0.03715818,-0.01591162,0.04307809,0.15000826,-0.0027951673,0.10056994,-0.07153988,0.16315915,-0.00018378346,0.12693842,0.09627929,-0.07323725,0.11198235,0.038910154,-0.18420944,0.1303295,-0.10244227,0.057813946,0.19515704,-0.04643976,0.09123656,-0.022815961,-0.14634787,0.06504566,-0.065419555,-0.050328504,-0.11147444,0.02328089,0.013095121,0.022947673,-0.087425455,-0.11025279,-0.09847186,0.09593684,-0.14833516,0.029619165,-0.15978204,-0.19497524,0.09432379,0.06831961,0.09377298,-0.26194417,-0.08226477,-0.06285638,0.007879801,-0.05516687,-0.119468756,0.117224984,0.028250974,-0.14061749,0.11388006,-0.068106815,-0.14828566,-0.052805196,-0.030805456,-0.11857616,0.01763451,-0.024831682,0.08551952,0.04078408,-0.0049506538,-0.05068491,-0.11800529,0.09105908,0.080483034,0.22080982,-0.04001453,-0.047526084,0.056058556,0.0062703346,-0.11859724,-0.004763379,0.11312875,-0.115215376,-0.0521231,-0.09089462,0.22946988,-0.02490603,-0.1364918,0.15519373,-0.054349285,0.050869495,-0.19623871,0.11215033,0.059373528,0.18193026,-0.12750025,-0.041491613,-0.058609765,0.071305834,-0.02764062,-0.114304565,0.07292731,-0.16792294,-0.072121404,0.24668017,-0.09364499,0.032525655,0.0010189179,-0.057113577,0.0126685165,-0.15831715,-0.05142496,0.004099554,0.030014887,0.07047928,0.07533399,-0.07554505,-0.13083355,-0.010643799,-0.08060601,0.1903004,-0.023624325,0.01788708,-0.08092199,0.048251092,-0.016891852,-0.2212335,-0.095770255,0.008507057,0.017149018,0.08378422,0.12962265,0.16180821,-0.00561102,-0.0052648913,-0.18720087,0.01584265,0.0007754939,0.07777332,-0.04822476,-0.024863552,0.034298807,-0.097330175,-0.1921131,0.0021644942,0.12310464,0.03446828,-0.06278007,-0.053886924,0.0828666,-0.10048658,-0.028195972,-0.010873615,0.018271519,0.070079476,-0.07630591,0.02855248,-0.056555707,0.041771088,0.09477949,-0.22887719,-0.010454214,0.16580783,-0.046827048,0.064985335,0.09423694,-0.1242266,-0.0039953617,-0.052632194,0.24634421,-0.05698749,-0.20717186,0.18515372,-0.1592161,-0.12550162,-0.13442485,0.08609872,-0.042953916,-0.02808567,0.036336936,-0.19538154,0.002402583,-0.12766825,0.04009069,0.031066395,0.0023044979,0.061681084,-0.104978964,-0.1034042,0.057641853,0.0033660857,-0.11991463,-0.011410184,-0.012911069,0.09560126,0.07724308,-0.085353404,-0.11057848,-0.0019789184,-0.014452312,-0.11681597,-0.27478635,0.08633698,-0.059330825,0.15413938,0.07581429,-0.06643547,-0.04064994,-0.03940048,-0.0981921,0.024141576,-0.017711053,0.015607522,0.041349936,-0.100099534,0.03212381,-0.012331718,0.002968135,0.11600842,0.2036713,0.035775263,-0.098507,-0.025028067,0.12910458,-0.094399296,-0.023734441,-0.143447,0.028468784,-0.07521667,-0.08560412,0.28436595,-0.1301112,0.00997941,-0.15207143,-0.032960266,0.20361558,0.23961902,0.080566056,-0.0435614,0.17512514,0.08613215,0.1157199,0.09810373,-0.14919735,0.05270358,-0.16869164,-0.053283628,-0.07798903,-0.1292435,-0.009768569,0.13079263,0.014718974,-0.036833268,-0.0021054351,0.11132976,-0.019915517,0.018912097,0.02968076,0.02905275,0.12333569,0.007087051,0.00749321,-0.14972997,0.010481731,-0.18062332,0.07575724,0.047589894,0.15527155,-0.21134587,-0.09340676,-0.0935298,0.16965802,0.07499334,0.09685494,0.02626576,0.014085154,-0.071920514,0.23719649,0.20443884,-0.09122044,-0.008875597,-0.21382758,0.097415425,-0.12732196,0.06733429,0.2095695,-0.05608892,-0.11061612,-0.08080947,0.06046966,-0.21243261,-0.026107637,-0.052823998,0.036543448,-0.1463611,0.102505974,0.0067707254,-0.106951915,-0.0024803828,0.031091915,-0.2267651,-0.017418576,-0.11984226,-0.12633173,-0.13426647,0.0826021,0.12553047,-0.1310703,-0.073639065,-0.09478336,0.09776738,-0.047286354,-0.07438762,0.037963666,0.0013819571,-0.10959638,-0.008992544,0.028853176,0.037166353,-0.13628839,-0.0359576,-0.2057979,-0.119252376,-0.122534536,0.20049624,0.08145522,0.14909779,0.031360514,0.12667356,0.14797053,-0.20738484,0.09330853,0.052641995,-0.23652428,0.12716357,-0.07525826,-0.04460412,-0.10754672,-0.08706389,-0.09026569,0.038923953,-0.06258388,-0.09106933,-0.031339888,0.02143129,0.006766433,0.065507054,0.028025702,0.15634066,-0.023410443,0.13566221,-0.10884463,0.14558181,0.06422162,-0.112749256,0.13205959,-0.010410075,0.072028585,0.10772485,-0.05564894,-0.15539935,0.07545953,0.09175828,-0.07930987,-0.103365615,0.19533114,-0.02145133,-0.044916898,0.12936993,0.033141818,-0.005070188,0.092451684,-0.1654881,-0.008689496,0.17166975,0.011877912,-0.1341135,0.11839642,-0.14507996,-0.0050329375,0.17063415,0.02996416,0.12584354,-0.20352219,-0.069111966,0.1267805,0.10369842,-0.123860404,0.056945518,-0.0025016754,-0.031811185,-0.07222703,0.07203234,0.096008174,-0.13223626,-0.023423553,0.040794533,-0.041787483,0.033964634,-0.077764094,-0.062289286,-0.05619984,-0.012676032,0.009170846,-0.02017664,-0.0072728894,0.15321554,0.00778492,0.11451683,-0.085901454,0.03570072,0.16719146,-0.23153259,0.006339689,0.17577001,0.00567873,-0.12211921,0.06533576,0.122389436,0.0044951565,0.0073616565,-0.039597075,0.12526727,-0.117675394,0.1015732,-0.035580207,0.048284017,-0.11165309,-0.008974562,0.0763115,-0.15191323,0.06965087,0.047424573,0.037676923,-0.07083685,0.03228114,-0.11596041,-0.08675522,-0.17374957,0.01085881,0.03683839,-0.2049772,0.08251042,-0.1692217,-0.046391856,0.008075989,0.1887761,0.081794284,0.13737513,0.13611056,0.13943087,0.079452395,-0.17652005,0.03179037,0.09844476,-0.16256836,-0.14163369,0.04173503,-0.27090392,0.076662794,0.07652303,0.0054469923,0.08294799,-0.047477216,-0.09810831,-0.0447506,-0.075118884,0.14633991,-0.04405084,0.13721563,0.038099445,-0.17400928,-0.016317677,0.14056084,-0.14993669,0.03289669,-0.029363226,-0.053799298,-0.13718313,0.02883331,-0.15845972,0.18350667,-0.082920425,-0.031673443,0.18737824,0.055320844,-0.17483465,-0.13377781,-0.017464412,0.08340723,-0.1275447,0.11326378,0.036990263,-0.041165326,-0.021134177,0.05766677,-0.11255924,0.06375233,-0.032364443,-0.06490039,0.037866123,-0.0870891,0.19224963,0.000571535,-0.031917233,-0.09969418,0.11103368,0.04824121,0.029964704,0.061479215,-0.08989307,0.0155057395,-0.057163198,-0.10863993,-0.18128298,0.11272332,0.016626,-0.09582189,0.08704644,-0.10443348,0.040959813,-0.014379872,-0.09253863,-0.012597306,-0.014108896,-0.03367373,-0.096115835,0.12491486,-0.0979873,-0.17772311,0.0013847966,0.04423559,0.035874944,-0.13661554,0.020023119,0.060714543,0.05565446,0.00906099,-0.097621605,0.020105226,-0.16960941,0.10760317,0.08107701,0.03049002,0.031210661,-0.04178874,0.078284696,-0.057446342,0.012801216,-0.03807881,0.10414813,0.063153714,0.038502283,0.031309593,0.030850435,-0.05699547,0.007531041,0.06930276,0.06303713,-0.057282303,0.090742,0.049059827,0.06612766,-0.061772827,0.017902985,-0.028379627,0.022731928,-0.064479865,-0.0056530694,0.009899275,0.09557522,-0.06212881,0.0016389786,0.18119128,-0.20781912,0.013105204,0.2567015,0.04927149,-0.03636738,-0.15617892,-0.08370511,-0.02011961,-0.10972541,-0.08502196,0.040158924,0.016331324,0.015453299,-0.09838436,-0.07017116,-0.020220734,-0.06920134,-0.15548754,-0.1014207,0.019279998,-0.103072315,0.05447392,-0.018645229,0.045340043,-0.09960007,-0.089614674,0.15802445,-0.120726846,-0.005436222,0.026078716,-0.016711509,0.096860215,0.10240376,-0.085622944,-0.013446386,0.11788167,0.07832691,-0.0040547596,-0.057448264,0.026040867,0.10804842,-0.040574655,0.100442044,0.1197677,-0.105707206,-0.077500395,0.17715332,-0.11227514,0.08048734,0.15301445,0.12625664,0.030698692,0.054765157,-0.12957953,-0.22751048,-0.024321735,-0.21774276,0.017282348,0.0749873,-0.117255785,0.10503092,0.10078475,-0.23100077,0.11691369,-0.08743495,0.018007288,0.13200653,-0.18502371,-0.107077904,-0.14040187,-0.016691325,-0.05451891,-0.064472534,-0.036846098,0.09508482,-0.056973625,-0.018944645,-0.0027831814,-0.014992026,0.03393111,0.09318652,-0.06995735,0.098257415,-0.058329877,-0.07107684,0.19090462,-0.092985325,0.006176737,-0.06933904,0.21880774,0.19955948,0.08341237,0.03552567,-0.011904385,0.0798683,-0.08375544,0.036744907,0.16323595,0.05837296,0.015996652,0.15235591,-0.12345374,-0.23334037,-0.13484779,0.067156896,0.0009281326,-0.072817035,0.10385103,0.18914926,-0.2122585,0.09556034,-0.034295358,-0.0013456466,0.101622,-0.051174745,0.07532892,-0.17509755,-0.04414644,-0.08446892,0.0690482,0.032580573,-0.013586524,-0.07331817,0.14832056,0.08715032,0.06671762,0.047363747,-0.02216734,0.02505716,-0.02946042,0.12542054,-0.1787216,0.11861359,-0.13110688,0.25782788,0.08489075,0.061025023,0.093603864,-0.009400087,0.040148832,-0.024053322,0.10262293,-0.055823445,0.021570874,0.0048314827,-0.047423247,0.0362773,0.010350529,0.0219912,-0.03192298,-0.071600094,0.11575164,0.090205155,-0.008231767,-0.019601868,-0.059735227,0.14969975,0.087835744,-0.02062687,-0.12736881,0.03333391,0.0050488813,-0.1152392,-0.017386775,0.052783117,-0.0077217533,-0.034282513,-0.059582785,-0.09897806,-0.011801119,-0.00857271,-0.07140865,0.085866705,0.00714683,-0.021944243,0.063433796,0.057468805,0.026224855,-0.012917297,0.049938787,0.054885704,-0.024451587,-0.13939923,0.09706993,-0.00022155097,-0.08005439,-0.013184635,0.013161231,-0.024674809,-0.011213237,0.08207967,0.050952327,-0.05503096,-0.036341798,0.004529471,-0.058104154,0.012906805,0.0302724,-0.023922557,0.10520414,-0.078582175,0.096616805,-0.16306397,0.0072428444,0.0012302677,0.015755601,0.0246777,-0.034822248,0.104157895,0.06840057,0.013559083,-0.11073315,-0.043999292,0.011546847,-0.03255714,-0.09921209,-0.02180301,0.047748152,-0.12038358,0.0008833122,0.114665106,-0.03824279,-0.04756099,-0.009206636,-0.10645472,0.0078727575,-0.089650266,0.0040628547,-0.09506072,-0.0013642316,0.11095049,-0.0139901005,-0.014528137,0.053099353,-0.02949402,0.06862214,-0.10338851,-0.080772676,-0.06700088,-0.0836141,0.103887156,0.061101757,-0.10350808,-0.028268099,-0.032454096,-0.049721494,0.15236764,0.019523982,-0.020416915,0.07064685,0.09440451,0.0218379,-0.061259814,-0.057998497,0.043117225,-0.04026549,-0.04887013,-0.046546455,0.055833507,-0.02559274,0.05759461,0.025585158,-0.03574351,-0.09895694,0.03662034,0.07074123,-0.10865884,-0.0771318,0.18089361,0.09112114,-0.015108842,-0.05800029,0.020137973,-0.050402664,0.1124152,-0.012925567,-0.029591858,0.060590893,0.0068500484,-0.050507106,0.018315008,0.031966045,-0.071408175,-0.0182657,-0.11184028,-0.114414826,0.023526365,-0.08786969,0.09064117,-0.0011337901,-0.06838418,0.033301614,0.08459526,0.026463397,0.00713191,-0.086163945,-0.0053347982,-0.0021118287,-0.11848255,0.07435844,-0.14296058,-0.042499453,-0.17802224,-0.0065039955,-0.03868345,0.024831813,-0.008658452,0.028332414,0.00038369154,0.028724499,-0.08968781,-0.03741953,0.016428182,0.0071813734,0.034236982,0.021172691,0.039780904,0.037649732,-0.02041632,-0.021909308,-0.022458842,-0.026312282,0.048043184,-0.06269886,-0.016715681,0.013514733,0.0045088055,0.047183555,0.08155642,0.04062501,-0.025428105,-0.09516896,-0.033415902,0.09933999,-0.0824152,-0.059473347,0.044968463,-0.03616024,0.008954751,-0.11824264,0.045499943,-0.081591986,-0.007910744,0.067774884,0.01723732,0.037458107,-0.06343323,0.09762126,0.04944406,-0.02555688,0.13070033,-0.06718273,0.03553601,0.10453665,0.030858204,-0.11624367,-0.047744818,-0.026093783,-0.0051732464,-0.040558387,-0.09002339,-0.01957156,-0.020930134,-0.025275493,-0.078722365,0.009303554,-0.059563506,-0.07663156,-0.08734013,0.0012168973,0.027600255,0.014243887,-0.109205715,0.007848703,0.061774958,0.09511456,0.019533407,-0.11801135,-0.074207164,-0.06788055,-0.10525174,0.07878021,-0.056159,0.10439711,0.026518852,0.1589645,-0.08283012,-0.08228273,0.03874083,-0.029092615,0.0941307,0.06730877,0.05604847,0.02189284,0.10911921,0.0047101504,0.09019215,0.01875961,0.06690667,-0.036298025,0.036713336,0.16396283,0.088368304,0.016646048,-0.13239495,0.06296342,0.09070389,0.030305848,0.06615265,-0.050869368,0.081380025,-0.009838176,-0.11668809,0.06063195,-0.04261775,0.015546292,-0.022888621,0.03581013,-0.06418097,0.08959067,0.033322327,-0.01631462,0.065412335,0.06733903,0.007789578,0.091431774,0.025553057,0.044658758,0.066169776,-0.06577221,0.006583746,0.059656817,-0.063018605,-0.034713343,0.044271488,-0.092337534,0.06241562,-0.026570546,0.005486348,-0.023922425,-0.11529205,0.089086294,0.021502454,0.0126811955,-0.006323909,-0.11683965,-0.16809405,-0.055536527,-0.07324812,-0.029883612,-0.064558,-0.03433407,-0.069792375,0.024661718,0.14160387,0.1831411,-0.013356844,-0.11160365,-0.011519263,0.0036311143,-0.056396864,0.010655345,-0.023942932,0.05496342,-0.0071396963,-0.021759454,0.040866125,-0.06554792,-0.028118612,-0.12449437,0.054620497,-0.009789224,0.073306076,0.01866554,0.032291036,-0.046562165,0.04144751,-0.115449235,0.13559777,0.06126663,0.017028403,-0.0063835825,-0.005793949,-0.06904608,-0.15260565,-0.031942677,0.020136656,0.018548818,-0.038183533,0.0042147334,0.10276255,0.101230234,-0.002858297,-0.052006003,-0.05013909,-0.10289459,-0.11132731,0.028585607,0.056906983,0.021869639,0.05795684,0.019042412,0.051672664,-0.04345503,-0.006033605,-0.12773421,-0.0021821677,-0.06691999,-0.016355395,0.105377115,0.08723614,-0.059907366,0.054843243,0.036939234,0.03655017,0.018263714,-0.0871706,0.053759914,0.009715641,0.046757367,-0.043316506,0.047069274,0.13605635,0.045147512,0.08023569,0.025131252,0.042293258,-0.03302129,0.0136015555,0.09863734,-0.023714643,0.032322776,0.044490736,0.07761286,-0.08989197,-0.046968516,0.12691818,0.07104137,-0.117575094,-0.07978708,0.16804138,-0.019786233,0.00012429562,0.0471579,-0.02565991,0.1263114,0.07068874,0.10181144,0.03314252,-0.0076950034,-0.038131066,-0.0255307,-0.0017715327,0.001011213,0.047218207,-0.034876402,-0.05317891,-0.025662083,0.003635708,0.03409569,-0.054141946,0.0156030115,-0.0952204,-0.1410158,0.038912836,-0.035387803,-0.0010216592,-0.045350417,-0.021570902,0.016420823,0.025287345,-0.02700518,0.061928682,0.04211051,-0.03589055,-0.14179586,-0.0054099234,-0.012709933,-0.029565725,0.00084404583,0.0479318,-0.10343376,0.099523135,0.005362144,-0.0653609,0.023093538,-0.004319991,0.023554597,-0.025318203,-0.0200423,-0.03610668,-0.0136921955,-0.09200112,0.056114346,-0.038186528,0.0069124256,-0.018580817,0.052049346,0.022363758,-0.019308783,-0.042755198,-0.035611864,-0.060185842,-0.06401402,0.09663092,0.035312913,-0.04555712,-0.00081203866,-0.020119423,-0.019432498,-0.03886587,-0.04357787,0.09246697,0.047162473,-0.039505187,0.077013694,-0.08463214,0.099523686,0.044246413,-0.01765603,0.050297547,0.011453421,0.016306736,-0.056281462,-0.06497356,0.014649113,0.06573142,0.026571613,-0.06361645,0.013394786,-0.0719997,-0.021692365,0.0052436497,0.067015685,-0.004661381,0.011350454,-0.0055309017,-0.04799896,0.010369318,-0.0255327,0.10143471,0.002399816,0.006822972,0.013174378,0.07257303,0.04641217,0.04027699,-0.01620921,-0.01894525,-0.032404386,0.0018099116,-0.052964468,-0.11486313,0.06291841,-0.093904145,0.010500396,-0.14311583,-0.0072521316,-0.16536824,-0.044414245,-0.07789442,-0.110421866,0.0891702,0.008921563,-0.06442369,0.0036922132,0.05568289,-0.0629905,0.08915822,-0.12724912,0.03891609,-0.04462073,-0.12687741,-0.028508091,-0.066071436,-0.03371177,-0.02248622,-0.01624643,-0.013771276,-0.079850495,-0.06266918,0.030735102,0.037879847,0.032517854,0.05105338,0.008185182,-0.03785375,0.034978095,-0.013207061,-0.09096188,-0.02922378,-0.010801767,-0.090370536,-0.037462898,-0.023636052,-0.0038096607,0.07384863,-0.033464245,0.029342217,-0.04571974,0.08279463,-0.09666769,-0.055622835,-0.007464423,0.05913301,0.060747903,0.1768478,-0.024526512,0.05242634,0.034530226,-0.04838523,-0.042138547,-0.017456565,-0.013160217,-0.023224972,-0.048172407,-0.045281522,-0.049806096,0.0050234827,-0.009287412,0.029563047,0.111121014,0.041346308,0.027546749,0.15583389,-0.06982666,-0.057070605,0.055097215,0.08046291,-0.042337246,-0.13742976,0.017244319,0.09774068,-0.057691608,-0.0003878034,-0.030235492,0.06310609,-0.093583025,-0.05820367,0.07607528,-0.024378546,-0.07139127,-0.00040207227,0.03940929,-0.060794458,-0.030051747,-0.16661872,0.0074082143,0.011030315,-0.09793835,0.02342675,-0.13330498,-0.048414126,-0.047481533,0.029641673,-0.073598556,0.06118172,0.0029191782,-0.007048743,-0.051095266,-0.039397817,0.017526066,0.016263796,0.09062142,-0.006830759,-0.016967943,0.042389423,-0.032047294,-0.08524104,-0.042297706,-0.062039305,-0.15775272,0.09904098,-0.060508467,0.061845127,-0.012399353,0.10577998,0.1519156,0.0049776556,-0.019529525,-0.015120321,0.09822277,-0.04499195,-0.027112281,0.097725175,-0.06796057,-0.055154756,-0.1098003,0.032228168,-0.027047945,0.045025434,-0.15999237,-0.020708138,-0.03264709,-0.029752368,0.06725337,0.039991096,-0.12848537,0.040416513,-0.044222128,-0.10922805,0.11984556,-0.051718373,-0.03140431,0.10828072,0.025610464,-0.055437006,-0.04278733,0.0066490714,-0.0809195,0.013903747,-0.036770727,0.050541196,-0.0041463817,0.08606122,-0.020744758,-0.047704197,0.011217152,0.032922488,-0.05109751,-0.029272031,0.055235505,0.007180788,-0.016916782,-0.015271439,0.029538587,0.010550404,-0.0010974117,0.027453255,0.058114447,-0.07537945,-0.07839498,0.12454254,-0.09620683,0.060094155,-0.02804189,-0.10524275,0.054710682,0.0919545,0.03507434,-0.01097573,-0.010456144,-0.013262724,0.12288714,-0.15085277,-0.07011813,0.07018023,-0.00048358532,0.104756445,0.04346011,-0.0004178194,-0.028662466,-0.047320988,0.05016142,-0.011548032,0.056410186,0.094770424,-0.07583917,0.054523118,0.058183327,0.003931204,-0.17893888,0.029176312,0.044306938,0.04349935,0.00485446,-0.060880654,-0.1125034,0.06259133,-0.09489551,0.0018760784,-0.050842673,-0.013267691,-0.018473698,-0.07609456,-0.042217515,-0.019935373,0.089443214,0.06965387,-0.009391106,-0.091887884,-0.01655082,-0.0845505,-0.010226611,-0.051883414,0.06327246,-0.019346658,0.1170617,0.025896996,0.03895267,0.048193272,0.05090169,-0.01002043,-0.039891437,0.017370576,-0.04436624,-0.036031645,-0.0372266,0.045685172,0.050518014,0.028493803,-0.01187267,0.011619958,-0.05035927,0.075889505,0.04063755,0.081364945,0.032722563,-0.0039293654,-0.13278553,-0.05762137,-0.05351231,0.00081213453,0.120058835,-0.011975443,0.042475726,-0.095257014,0.09961758,-0.10049006,-0.015522427,-0.14732893,-0.13393101,0.07190308,-0.068822,-0.04093675,0.027365051,0.12046766,-0.063567415,0.17129718,0.14300819,-0.112961575,0.07267543,-0.13974568,-0.032875217,0.15399817,-0.076165676,-0.072897606,0.019407647,-0.0013907625,0.12266921,-0.07435266,-0.025750631,-0.03868121,-0.026492087,0.07738012,-0.053872857,0.16810521,-0.068408675,-0.048612036,-0.046301007,-0.15056092,-0.0969889,0.09541634,0.08317694,0.005622523,0.004360758,-0.013004027,0.07814107,-0.0628654,-0.26747453,-0.010668155,0.0074682203,0.13191263,-0.13700289,-0.16768298,0.07651701,0.03632855,-0.097859286,0.0033155207,0.037869517,-0.0190281,-0.08443756,-0.029825807,0.09130547,-0.13249083,0.009133406,0.02341356,0.11219025,0.08689682,-0.07457123,0.082030006,0.0143903345,0.01211561,0.01829399,-0.0025335152,0.09993852,0.10977988,0.030151866,-0.028709335,0.050875865,0.01566,0.17902967,-0.1010184,-0.092458256,0.04235575,-0.035255488,0.038376898,0.06549275,0.12760064,0.03729512,-0.050749116,0.0019214376,0.10683655,-0.009588849,-0.1909251,0.0076605105,0.11728619,0.00060846633,0.08484992,-0.058395814,0.052332148,0.10253668,-0.034348506,0.077803105,-0.16908035,0.01563296,-0.06370674,-0.053873952,0.09374418,-0.1120305,0.07353113,0.12398188,0.11341395,0.076068744,0.0020119564,0.030362347,0.092307575,-0.08141907,0.1636743,0.028695375,0.0023096872,-0.07776865,-0.02451765,0.014689578,-0.081552215,0.078425586,0.23116522,0.08148422,-0.035397626,0.081628405,-0.048646063,0.029191924,0.027641535,0.08993209,-0.062039513,0.12168041,-0.026922831,0.026115742,-0.03649449,-0.10218745,0.16075103,0.039030112,-0.15579161,-0.010733962,0.2080031,0.18410422,-0.09082266,0.0027065151,-0.10103472,-0.19240569,0.034550592,-0.072239935,-0.045664933,0.0010463796,-0.073748074,-0.106591,0.07937571,-0.08436276,0.15114415,0.03774366,-0.054113727,-0.05140306,0.0148559045,-0.057742976,0.12509833,-0.122126274,-0.02606188,0.006340787,0.00035647574,0.14001866,0.025246186,0.21309642,0.23134004,0.011091261,0.14508615,0.1592022,0.13462402,-0.003374791,0.041254587,0.13618188,-0.06199329,-0.14175366,-0.047935743,0.0051661204,-0.045074526,-0.019036481,0.06436079,-0.030883782,0.052538328,0.13676721,-0.14802863,-0.015245018,0.1859065,0.08523427,0.07398164,0.02271256,0.082299985,0.008631037,0.020253211,-0.06909584,-0.011227946,-0.027989827,0.07558232,-0.023250185,-0.040892705,-0.030220296,0.0797931,0.0792886,0.07450137,0.021402767,0.09426302,0.012441621,-0.09592087,0.052341133,0.0024699392,0.1708371,0.001409043,-0.05438418,-0.091242544,-0.011374607,0.09486489,-0.13971707,-0.0077502243,0.08974496,-0.021017225,0.064162664,-0.014776496,-0.06657034,-0.13031234,0.14293756,-0.017466154,0.06260339,-0.012823914,0.021154402,0.109648146,-0.11842356,0.039054714,-0.09928906,-0.03073851,-0.01618696,0.083592765,0.12695329,0.0030828223,0.10198106,-0.05512547,-0.0025777763,0.057897847,-0.10711904,-0.12712687,-0.11768008,0.07956821,0.04908069,0.11531078,-0.06601666,-0.045326002,-0.08006022,0.043997813,-0.09375964,0.16291846,0.0047016814,0.04624387,-0.055850532,0.102993995,-0.06410368,0.014825526,-0.030193375,-0.07485185,-0.11681429,-0.066008136,-0.07483353,-0.110013545,0.1370503,0.08810958,0.104489304,-0.018924292,0.06559089,-0.14909144,0.038086455,0.019460496,-0.011311032,-0.06717174,0.024630614,-0.03235275,0.08755321,-0.035970423,0.054397497,0.07973393,-0.17669396,0.14310661,-0.06929125,0.17682537,0.065447025,-0.011910497,-0.07456985,-0.018921977,-0.028222036,0.051689662,-0.0845901,0.031615473,-0.122167766,0.07432332,-0.034487188,-0.08394056,0.0037627704,0.01798422,-0.008472937,-0.05727903,0.011000027,-0.09658486,0.031506576,-0.07036072,-0.096635185,0.028542148,-0.035692185,0.16864929,0.020910935,0.011371071,0.06607082,0.1042194,0.08232167,0.08407699,-0.075599596,-0.01530853,-0.07238277,-0.02911021,0.017647317,0.10417861,0.04860367,-0.2036132,-0.20268558,-0.0051353755,0.11799459,0.05528373,0.060098108,0.15791126,0.12080825,0.064115934,0.047751952,-0.050498035,0.07135052,0.10605999,0.16252105,-0.055148818,0.034821965,-0.06956157,-0.015126354,-0.08100635,0.080538265,0.066595204,-0.13889968,-0.03424372,0.008466361,-0.09707918,-0.14863172,0.055050246,0.004855083,-0.047280077,0.11967525,0.15434892,0.017596848,0.047926262,-0.12623139,-0.027617916,-0.13320608,-0.16960563,-0.033653367,-0.031975936,0.11516894,0.06966276,0.11680348,0.090199806,-0.056703437,0.060440935,-0.15796004,0.088688985,-0.09407265,-0.11216229,0.07696875,0.022548947,0.11914898,0.05029193,0.06376682,0.001974248,-0.044064667,-0.054993458,-0.0347071,-0.010981058,0.007171596,-0.14721678,0.096901745,0.11153198,-0.001968199,0.14857185,-0.07524544,-0.21825084,-0.0032341788,-0.036122512,-0.14705369,-0.010879374,-0.09742632,-0.020490069,0.078962654,-0.0055269157,-0.16118655,-0.024915228,-0.027307643,0.059319153,-0.048796616,0.012625531,0.0054685497,-0.14488713,-0.14379331,0.12597567,0.15418127,-0.07328052,-0.14773566,0.22290461,-0.007515868,-0.010790502,-0.1354789,0.058267444,-0.014163601,0.031672426,0.022437423,-0.034899704,-0.005100136,0.022236075,0.06171272,0.086854324,0.04083709,-0.04250227,0.13648435,-0.059834003,0.044775058,0.039739095,-0.009664224,0.012968512,0.21950041,0.009912654,-0.06649082,0.017013563,-0.0099040335,-0.060861684,0.013029569,0.0050081844,0.028902702,-0.11650292,0.112115175,0.11002055,0.05314335,-0.050666798,-0.05723894,0.037763894,0.015272724,0.03399511,0.10840677,-0.029596068,0.11016067,0.08027219,0.047634363,0.01823499,-0.094612904,0.031067766,0.0826196,0.020429155,0.060699068,0.12069018,-0.08681716,0.19612134,0.004298895,-0.034778733,-0.0056011328,0.021158189,0.055624317,0.049651988,-0.072800696,0.04703924,0.07976026,-0.14524926,0.011192266,-0.049230292,-0.012508808,0.016949445,-0.028863132,-0.053551763,0.08982803,-0.15695488,-0.1142165,0.07256328,0.0062649427,0.044747956,0.017773842,-0.019885486,-0.10046507,-0.12364215,-0.07862897,0.032503378,-0.0046995278,-0.10178295,-0.018228952,-0.043288056,-0.038708683,-0.10829839,-0.061621998,0.049820434,0.024401756,0.076878056,0.06145761,0.024115885,0.034243867,-0.04888573,0.0649015,-0.07392336,-0.01059979,-0.038477533,0.009633555,-0.011292738,0.031065956,-0.06832809,0.09512644,-0.05228285,-0.08939957,0.048329446,0.021751689,0.07413268,0.10905555,0.075322226,-0.04302974,0.020390036,-0.04731839,0.07642106,0.10444883,0.04994874,0.095953286,0.11308864,0.08181819,-0.0036359574,-0.012040486,0.14224355,-0.008799461,0.02409025,0.06935165,-0.041037437,0.04313824,-0.0049043624,0.077919886,0.089413956,0.15872696,-0.005657258,0.06644806,0.023364747,-0.039803233,0.07266781,-0.115877815,0.1780111,0.03605943,0.00051441946,-0.20086722,-0.10015306,-0.031648114,-0.049580354,-0.21208271,0.019855905,0.084487766,0.03693153,0.01895168,-0.0068422207,0.067281,0.10607974,0.20036978,-0.12193188,0.012654492,-0.07046836,0.10811384,-0.05136939,0.07498934,0.078913584,-0.0056144386,0.0024523959,-0.013441406,-0.1592529,0.16322,-0.1419875,-0.06286481,0.050844897,0.08361422,-0.021627566,-0.1115038,0.10255742,-0.004853151,0.12003777,0.115455076,-0.050839536,0.08805896,0.09817571,-0.11571512,0.051304292,-0.048183076,-0.18107414,-0.12038373,0.050444063,-0.12785296,-0.052175485,0.11525356,0.14555073,0.005974725,-0.060121577,0.029803721,0.03371111,-0.012918787,-0.0699292,0.1553264,0.11278662,0.00067956175,0.0679559,0.049771458,0.078810394,0.08721888,0.05638812,0.08123104,0.15054794,0.12817083,0.054448433,0.1881621,0.011799429,0.037277937,-0.08300089,0.13709342,-0.14111952,0.08490211,-0.0055034426,0.06707627,0.009089516,0.1381341,-0.12913667,-0.029223787,-0.031986773,-0.14342253,0.024680523,0.008334851,-0.010122399,0.09498138,0.03431949,0.12549056,-0.030071206,0.18943839,-0.19545828,0.15080935,-0.10028629,-0.040602535,0.049272735,-0.11724776,0.049635127,0.065752715,0.070882514,-0.08692038,0.11346784,-0.0010577156,0.06568951,0.0070392108,-0.044465847,0.122097276,0.04023204,0.0037350159,-0.033422075,-0.027705155,0.014917747,0.05782109,-0.014157706,-0.04606591,-0.112913355,0.08727142,-0.09410518,0.031229343,0.08195475,-0.08069119,0.026259603,0.024643866,-0.14086376,0.025762351,0.13287891,0.10419232,-0.04215309,0.018386029,0.00095499255,0.11231183,-0.07659049,0.18138576,-0.12698504,-0.060556825,-0.014245526,0.06140868,-0.080151655,0.09678557,-0.01939356,-0.13641311,0.07916436,-0.10611525,-0.092353836,-0.008564328,-0.024386693,-0.083187506,0.10283793,-0.0066611664,-0.0333449,0.088084064,-0.086024486,-0.03375272,-0.09352053,-0.032385442,0.15311003,-0.022195427,0.07000481,-0.10093558,-0.011927432,-0.024562076,-0.14570758,-0.104042925,0.120019935,0.034866042,-0.03906948,-0.09618147,-0.039614707,0.021539493,-0.03707299,-0.034266617,0.12654532,0.0522531,-0.0062665115,-0.11024054,-0.06343866,0.036592335,2.2191067e-05,0.11326903,0.045173034,0.17368011,-0.006054003,-0.05130429,-0.048433952,0.018287817,0.1805275,0.16620657,-0.05519944,0.012713166,-0.03693701,0.076206,0.1267696,-0.075684465,-0.06621944,0.08292474,-0.10628778,-0.087521024,-0.13748813,-0.15475973,0.15077879,0.041691802,0.019125821,0.0697252,0.042540688,0.0036491405,0.14145616,-0.06833598,0.02637625,0.10304932,-0.081265666,-0.06291363,-0.06063652,0.08563233,0.03572977,-0.10037075,-0.052240416,0.043129165,-0.08993888,0.013814768,-0.026116682,-0.0047546313,-0.035940185,0.06494761,-0.1056464,-0.07118049,-0.050338496,0.09916246,0.087106846,0.09098622,0.08462075,0.10233755,-0.15015148,0.020466194,-0.09002159,-0.002184758,0.098678954,0.13081102,-0.0073538334,0.13626197,0.15460984,-0.06370415,-0.08535972,-0.05830363,0.01557798,-0.0035987496,0.0019491493,0.048004985,-0.009651368,-0.030999122,-0.048488174,-0.0019973803,0.09278909,-0.16558954,0.033882715,-0.08792054,-0.15940185,0.015885979,0.09217556,0.027952403,0.034101464,0.01673293,-0.12269703,0.13720344,-0.10819527,-0.13478151,-0.037986275,0.04641756,-0.091577165,-0.0999098,0.06852745,0.06448121,0.12293547,-0.09631405,0.06400984,0.07498863,0.023135865,-0.04552375,-0.061023425,0.17960052,-0.1606721,-0.05140167,-0.0910103,-0.055888254,-0.05593898,-0.06201332,0.22224425,-0.015584464,0.04907683,-0.04059977,-0.18537404,0.071421586,0.22168195,-0.08281726,-0.08794346,0.13866048,0.12587045,-0.19693789,-0.10056568,0.14002292,-0.10357482,-0.0356609,0.0118964445,0.052611493,0.10318072,-0.031566508,-0.18138795,0.06405743,0.07460273,-0.16557465,-0.09795628,0.029596716,0.099356376,-0.16146739,0.04785915,0.1815998,-0.00803101,-0.020702288,-0.019281581,0.018364618,-0.121153265,-0.12838154,-0.126246,-0.19800544,0.080068745,-0.11194012,-0.07362115,0.11894921,0.10323842,-0.08228817,0.11554703,0.008257862,-0.027310252,0.108920164,0.0815506,0.071902014,-0.009050753,0.034439936,-0.12692526,0.03167579,0.095441684,-0.0024289414,0.079326235,-0.011919376,0.09436499,0.005231346,0.031243388,0.14166494,-0.2001504,0.11481308,-0.1369784,-0.121274374,0.10876191,-0.13329391,-0.12645072,-0.1831453,0.1895391,0.10350872,0.01418351,0.020280218,0.11342319,-0.058789846,0.100720935,0.07094012,0.10248645,-0.021537097,-0.05312374,0.034179408,0.038674485,-0.058042478,-0.10424502,-0.020112542,-0.11637796,0.061323907,-0.054267988,0.12261569,-0.001926614,0.20161662,-0.03568414,0.14135161,-0.0606904,0.018041966,-0.2610942,0.099621244,0.026536983,0.07282807,0.053708002,-0.12550083,-0.0057422034,0.116615735,0.18043828,0.041984517,0.0885474,0.019809157,-0.004862563,0.13821062,-0.091321036,-0.12676892,-0.0013161944,0.056916855,0.043687478,0.09109051,-0.11692127,-0.14126469,0.07035564,0.094213136,0.21361916,-0.14634028,-0.09886391,-0.027053889,-0.030070584,0.12303491,0.009404035,0.05419655,0.100044556,-0.21613568,0.025079237,0.124556616,-0.06392787,-0.031763148,-0.08245963,0.08139926,-0.01388605,0.041454177,0.09879599,-0.09401564,0.13600971,-0.18654966,0.11182198,0.1019346,0.04308003,-0.1198089,-0.15533568,-0.039880205,0.15610059,0.023868525,0.05675116,0.000813616,-0.061941326,0.09128743,0.17427494,0.026745807,-0.0016178071,0.22477932,-0.10703175,0.04532181,0.023184385,-0.11892672,-0.17249122,0.011946514,-0.08859493,-0.039471652,-0.13726316,-0.19208665,-0.065099806,-0.0034850573,0.032666706,0.16193905,0.03164136,0.08008056,-0.054705963,-0.14272043,0.052516606,-0.14917317,0.064720295,-0.12667494,0.05486433,0.043547586,0.091032855,-0.05852064,0.08392683,-0.034206077,0.02445399,-0.10834574,0.06575148,0.042405702,-0.17610912,0.07467951,0.16389672,-0.16497958,-0.12266768,-0.015744893,0.13256389,0.07323211,0.14879899,0.0637935,-0.0547308,-0.022286326,-0.044841167,-0.220873,-0.038248505,0.11344901,-0.05482397,0.13335326,-0.047935516,0.044278525,-0.12747157,0.042362165,-0.12360082,0.1906624,-0.035830654,0.019356579,0.010376812,0.08759069,-0.12396771,-0.12717557,0.1205567,-0.033326432,-0.117785834,-0.114074856,-0.026682789,0.049405463,-0.1565311,0.03892248,0.07044362,-0.060844854,-0.043093592,-0.059450068,-0.15561736,0.04154837,-0.10380098,0.11362943,0.14308311,0.058361977,-0.030165909,0.14612164,0.033624515,-0.1163294,-0.08825788,-0.01817021,-0.21456626,-0.0067694723,-0.050844047,0.083209686,-0.103533834,-0.09563219,0.10463372,0.14492576,0.046771325,0.1230386,0.005398195,0.09771984,0.011961526,0.042274643,-0.007933328,0.014166411,0.09350656,0.13986342,0.09615897,0.12354956,0.079837516,0.06734704,0.03353228,0.076390125,-0.043213185,-0.005095757,-0.1071367,0.16606386,-0.07861992,-0.100844,0.07086078,0.034070846,-0.023852056,0.06607783,-0.08407992,-0.09155423,-0.06192945,-0.14947501,0.09002718,0.03154469,0.13484332,-0.057512168,0.10663927,0.100689165,-0.120544374,-0.038035467,-0.15541443,-0.029770922,0.15592001,0.17515929,-0.0853586,0.0040755956,0.1504733,0.032383624,0.11031881,-0.0037771703,-0.16684373,-0.043861784,0.07187124,0.11780962,0.1742217,-0.07654895,0.039809268,0.023711706,-0.2241334,-0.18322217,0.027424095,0.030100238,0.17284682,0.024446437,-0.10519441,0.031135434,-0.15407465,-0.030291755,-0.10797303,-0.09964761,-0.09051274,-0.0227143,-0.05530635,-0.0040159817,0.14876682,-0.08443845,-0.051947903,-0.10144846,-0.08934605,-0.013897821,-0.018395856,-0.11309325,-0.13094705,-0.052986994,-0.079938516,0.03463265,0.10863421,0.21162078,0.1153173,0.15444264,0.046397753,-0.01341896,-0.13080812,0.09646728,0.02197277,-0.064566724,0.13100046,0.02752945,0.051885266,-0.056871317,0.042891856,0.012560155,0.085232176,0.019192485,-0.14277193,0.005674199,-0.09958083,0.03764359,-0.11530647,0.17996424,-0.12239421,-0.14147578,-0.062251687,-0.14308451,-0.0441753,0.05569191,-0.00688938,-0.111996904,0.08169159,0.059929457,0.08225485,-0.09368665,-0.16065711,-0.10004224,0.07887863,-0.10141547,-0.17158891,-0.04631595,-0.16693588,0.08838394,-0.035781346,-0.03257195,-0.05473057,-0.049004015,-0.07404092,0.00080512103,0.009384214,0.055215646,-0.20314899,-0.047211614,-0.05584718,-0.049487416,-0.00030384553,0.0862611,-0.14192262,0.16994916,0.09983762,0.09284432,-0.1241335,-0.0399278,0.15550436,-0.011563615,-0.11214341,0.11111474,0.12570447,-0.033307537,-0.13742535,-0.08291848,0.00554297,0.1652304,-0.16771741,0.033670403,-0.031992245,-0.06670356,0.08004515,-0.18308944,-0.02168886,-0.013270168,-0.0432022,-0.025016956,0.11142863,0.12171402,0.10704111,-0.07719291,-0.07140446,-0.0047498154,0.1415757,0.053164568,-0.11010859,0.18004686,0.004545553,-0.001950837,0.09054914,-0.029337313,-0.033083074,0.028181242,-0.029178774,0.116913855,0.025012476,0.08648387,-0.039067682,0.11597984,0.13029231,-0.07824371,-0.015850691,-0.13457742,0.122149386,-0.01023302,0.017633986,-0.010112009,0.05196672,0.008724999,0.040681306,0.03814881,-0.09574147,-0.1381914,0.11904331,-0.03345761,-0.04089521,0.00037452468,0.040634423,-0.20970689,0.050701812,-0.029398907,0.06457947,0.047587845,0.004752967,0.098393485,-0.1148676,0.13911298,0.025845673,-0.11401186,0.13902315,0.019062424,0.17693695,0.058133114,0.11142701,0.0924955,0.064399034,0.09887688,-0.039183356,-0.12437727,0.013598969,0.02805599,0.00573378,0.04243851,-0.057570472,-0.012517874,0.10891245,0.12081857,0.03791375,0.031983797,-0.0044348584,0.038759142,-0.05410332,-0.065537006,0.07148623,0.022269702,-0.036875404,-0.0037199906,-0.100407764,-0.09172062,0.017032327,-0.046917733,0.12603478,0.06458697,0.074767604,0.14081225,-0.08327423,0.08594374,0.19622894,0.046105992,-0.15596706,-0.008281683,-0.16915315,0.083011895,0.044149708,-0.018733434,-0.09735687,-0.09977034,0.062739454,0.02695123,0.0727417,-0.1666043,-0.122243896,0.21242622,-0.017969353,-0.01230693,0.11299568,-0.089239635,-0.08995057,0.013844066,0.09576054,0.17209046,-0.041331194,0.06558702,-0.13437773,-0.09701786,-0.14855798,-0.016205046,-0.053309876,-0.13593742,-0.031821586,0.09814893,-0.018372968,-0.0021947504,0.09106909,0.059040096,-0.048317097,-0.080737986,0.020498283,-0.022071738,-0.08104833,0.023505889,0.02262833,-0.03967424,-0.017665561,0.03490069,-0.11234659,-0.016562918,-0.024153695,0.046057962,-0.13149466,-0.04821465,0.10420086,-0.054785505,0.1244127,0.11664564,0.013364081,0.17847374,0.08803341,-0.10189008,-0.07632167,0.042124797,-0.05081791,-0.09081886,-0.116092294,0.18145402,-0.023993459,0.13745953,-0.001005324,0.10168259,-0.122716494,-0.13403793,-0.14850757,-0.045462616,0.11653574,-0.012044979,-0.05375701,-0.039280277,0.03977865,0.002776589,-0.072973825,-0.006225306,-0.15279989,-0.09643983,-0.090548426,-0.025956547,0.07231918,-0.09836299,0.06381744,0.013941505,-0.015957484,-0.08147438,0.15986626,0.09620168,-0.074128255,0.18233664,0.034916054,0.12112359,0.06788603,-0.12680033,-0.16976693,-0.21133155,-0.014434563,0.043345865,0.133806,-0.07245764,0.07376871,0.05118464,0.08365865,-0.077483624,0.02603195,-0.22810572,0.024658091,-0.008868815,0.03676144,0.114650235,0.063466996,-0.11543351,0.07312868,-0.004732946,0.042298883,-0.050272383,-0.14331798,-0.07308719,0.045794655,-0.15798177,-0.11214877,-0.014827831,-0.022652628,-0.03121727,0.11745836,0.06113719,-0.14111179,-0.040814623,-0.051044464,0.1283018,0.020745147,0.085252896,0.09683076,0.10037749,-0.065511644,-0.0037594133,-0.09919025,0.024965199,-0.013201344,0.16425095,-0.046803735,-0.062869705,0.072921306,0.0067599346,0.19968937,0.17362249,-0.05687471,-0.1942389,-0.09114581,-0.14970422,-0.023467164,0.13054585,-0.017326871,-0.031676404,0.008071843,0.008961106,0.04235958,0.021134458,-0.03270687,0.01942295,-0.0030352434,0.01904487,0.09341941,-0.16754869,0.011142915,-0.17093766,0.010663532,-0.02728646,0.071194045,0.10535874,-0.013459779,-0.0006231133,0.030105285,0.025037799,-0.07910134,0.19518831,-0.08781782,-0.061286423,-0.12512626,0.11038896,0.122434855,0.04552814,-0.04802538,-0.111538336,-0.180969,-0.08996167,0.086220644,0.17585781,0.1060898,0.002910401,-0.082913384,0.017598791,0.0024072188,0.13564593,-0.034636717,0.20172565,0.018487759,0.044267084,0.1839205,-0.12533434,0.042982932,0.07484638,0.10098046,0.03612301,0.03430261,-0.006654766,0.14822489,-0.24641633,-0.109590605,0.1163479,-0.06999301,-0.04159012,-0.029365571,-0.07613204,0.11113074,0.1039011,-0.02541823,0.029425252,-0.039236035,-0.0043669343,-0.022912325,-0.043028492,0.06685795,-0.0145124,0.13059637,-0.06993004,0.053464625,-0.0074896007,0.14327352,0.09952815,0.08935277,0.029478675,-0.09759166,0.14347778,0.19002351,-0.13343354,-0.12963818,0.03631179,-0.10930433,0.12056503,-0.19010139,0.09930431,0.1442976,0.11648921,-0.039593406,0.020188794,0.05408482,-0.13365765,-0.09131632,0.057350565,-0.12623218,-0.101055175,0.030412504,0.05003853,-0.10604756,0.114554256,0.011433223,0.05271045,-0.012725267,-0.2491239,0.12095615,-0.14424029,-0.006620248,-0.09324692,-0.08902621,-0.0664388,0.11370603,-0.13252205,0.012431698,0.11284357,0.09427421,-0.06664365,-0.14533487,0.094082095,-0.12543078,-0.049570844,0.034539435,-0.0022885585,0.038381092,0.00044192656,0.10588756,-0.10953479,-0.0948516,-0.009385793,-0.024924133,-0.010018249,0.20839648,-0.08835829,0.008863786,0.04533194,0.06470836,0.050556913,0.007078303,-0.075698584,0.020326845,0.078478426,0.1968203,-0.05412096,0.12625869,0.14986603,-0.1497995,-0.03402553,0.15374173,0.052481458,-0.19391367,-0.06592543,0.0008584005,0.17064023,0.18788968,-0.10778412,-0.06184326,-0.06280113,0.05656135,0.0149828,-0.17886579,0.00658437,0.062231697,-0.10109509,-0.043556634,-0.15176648,0.1132035,0.08552468,0.09846912,0.099794805,-0.05278735,-0.055906612,0.04919373,-0.015857734,0.20370947,-0.015825437,-0.14148206,-0.08610428,-0.09865138,0.080938935,-0.14158604,-0.07514011,0.0014572699,0.019069897,-0.1578913,0.004886981,0.032549344,-0.03226812,-0.12813428,0.031293545,-0.15013716,-0.00793935,0.070027545,0.11803112,0.006639978,-0.14080945,0.1789674,-0.06396745,-0.13264221,0.038587064,0.119544104,0.15912856,0.0032936502,0.11870083,-0.18690243,-0.012763053,0.07649225,0.07508761,-0.09484392,-0.066934675,0.045490272,-0.06501156,0.08560743,0.09205096,-0.014922955,0.18822609,0.12693171,0.008236868,-0.14052446,0.054386534,0.14628543,-0.13536993,0.06650927,0.011030277,-0.013225352,0.08137146,-0.03013019,0.0021696154,0.19155055,-0.03619073,0.064469725,0.06581787,0.059249695,-0.0710267,0.03743514,0.11133659,-0.075152904,-0.07897805,-0.12585634,0.040466454,-0.019801937,-0.09550725,-0.04480672,-0.082513385,-0.06480763,0.12417542,-0.072665416,-0.21148676,0.070697196,0.10506608,0.194645,-0.025271969,-0.07821023,-0.04703015,-0.0624241,-0.0924473,-0.06988545,-0.010640026,-0.034203134,-0.08579783,0.0033333593,0.059820153,-0.041476898,-0.037994307,0.15050095,0.0071099275,-0.027038269,0.114820994,0.039979734,0.025133226,-0.004024403,0.1922784,0.051704016,0.10072476,0.014590501,0.027251719,0.09645794,-0.11822757,-0.174784,0.05640281,-0.02914993,-0.033328053,0.018058194,-0.12618668,-0.07183429,0.032419037,0.07058013,0.13072409,0.0006070942,0.017343549,0.15441032,-0.1030753,-0.07207832,0.03023004,-0.066964395,-0.067005776,-0.017798595,0.07974971,0.07612716,0.12378014,-0.11091228,0.15254064,0.15374951,-0.026255142,-0.20500618,-0.08588499,0.05845462,0.058908056,0.06916249,-0.040475186,0.04977957,0.08019711,0.015178743,0.0741056,-0.025993636,-0.054704912,-0.088459305,-0.003628443,-0.059545044,-0.059714004,-0.09695364,-0.100480214,-0.06350381,-0.09633653,0.07337234,-0.04408681,-0.025588784,-0.047765516,0.012927387,0.06664863,0.03752306,-0.11621869,-0.24257898,-0.09047059,0.19752005,-0.08592748,-0.097932115,0.07951267,-0.016989006,0.1757004,0.08358025,-0.06022621,-0.0578983,-0.032247137,0.14307941,0.1041807,0.051688045,0.016332444,0.11471597,0.017145785,0.009803399,0.07304819,0.010670406,-0.18286975,-0.01525044,-0.009425738,0.02961662,-0.09645052,-0.0072454405,0.10799104,0.0693558,-0.027703125,0.13107246,0.058132198,-0.01606939,-0.008275703,-0.049758967,-0.0037183193,0.029263219,0.031947855,0.097176164,-0.0574146,0.015530119,0.12710957,-0.02604985,-0.0024712924,0.08362088,-0.033745784,0.041228496,0.010157358,-0.079064466,-0.045195173,0.00781988,0.02471635,-0.13123794,-0.19526955,0.048346844,0.1848237,0.027767148,0.011640218,-0.07404199,0.1952333,-0.15018535,0.018071363,-0.016377583,0.07287482,-0.019990578,0.11234453,-0.037589222,0.086168244,-0.097014315,0.15199234,0.014088469,-0.0069560874,0.0070502753,-0.089830354,0.08042014,0.10839364,-0.12679379,-0.056914303,-0.06618324,-0.06933341,-0.13095656,0.09917658,-0.00903339,0.0059104306,0.067041315,-0.09547984,0.014799038,0.035515726,-0.040463813,-0.1290594,0.05561272,0.10566466,0.026787113,0.10145422,0.21582402,-0.06953411,-0.090290904,-0.005356892,-0.09620565,0.054893833,-0.13913289,-0.1901831,0.061564613,0.19275142,-0.09162166,0.053339526,0.06997257,-0.026917364,-0.117682554,-0.050680403,0.08559061,-0.005604239,-0.0731754,0.0140567105,-0.053670723,-0.15979086,0.13023742,-0.0778075,-0.23869891,-0.013030136,-0.09640713,-0.13293013,-0.046200715,-0.033525243,0.043166466,0.13404453,0.0033369856,-0.00861737,0.12155847,0.05604349,-0.1277861,-0.09456319,-0.07743075,0.029315427,-0.06427324,-0.14698957,-0.06065348,0.104711175,-0.04277227,-0.121344455,0.041579865,0.10936246,0.11819658,-0.041867804,0.02961883,-0.09872343,0.13649431,-0.085186474,-0.02273692,0.13639978,-0.007488712,-0.07642027,0.02972223,0.057890743,0.023413375,0.1502267,-0.0275446,-0.0109713925,0.042506393,-0.08270634,0.022297446,0.15069126,-0.017724622,0.04054678,0.0027465217,0.06285654,0.02491446,0.046699177,-0.048951913,0.09186282,0.11511364,0.003355676,0.081835665,0.03610485,-0.09930104,-0.020787418,-0.033606876,-0.11426378,-0.012775238,-0.003006703,-0.06545264,0.10725938,0.054343022,-0.15187788,0.054271102,-0.09440423,0.055932112,-0.067182206,-0.12762545,-0.12294326,0.2160643,-0.009231671,0.1685355,0.026450248,-0.091370046,-0.03559971,0.009999995,-0.0095578255,0.13885379,0.042607017,0.054535948,0.11622792,-0.10145283,-0.055904523,0.12071656,0.049421612,0.09605159,0.14231975,0.12671454,-0.013839222,-0.103210144,0.003357661,0.10144262,0.0120284865,0.0627558,-0.14449559,-0.09114006,0.07469048,-0.08453778,0.010009388,-0.11597018,0.095170975,0.034533843,0.06941015,0.06829048,0.114726454,-0.04499849,0.020654272,0.13926554,0.07147033,0.08613099,0.06462578,-0.08928838,-0.049139313,0.17405748,0.050646227,-0.0312592,-0.06173199,-0.1020614,0.00064884097,-0.11797037,-0.004228161,0.014488336,-0.004020452,-0.02004717,-0.051109917,0.00817061,-0.09270217,0.03320073,0.11781246,-0.019615985,0.046344183,-0.04705859,0.09944927,-0.10557373,0.0056351447,0.0017759629,0.16853455,-0.011534936,0.056848284,-0.18288128,0.058181815,0.01711305,-0.10423655,0.051812813,0.1786328,-0.06268366,0.010456432,-0.09632331,0.08693909,-0.03375366,0.02548849,-0.00023330878,0.0018798929,-0.010862488,0.0789282,-0.0030337959,-0.02444313,0.03826646,-0.17093605,0.046138354,-0.040078834,-0.05342689,-0.13790353,0.04163178,-0.10446437,-0.08612935,-0.13755211,0.011018114,0.04806627,-0.058857854,0.019706655,-0.03404419,-0.0019183462,-0.003989695,0.14392915,-0.06650953,0.095536254,0.111403085,-0.061880615,0.07853477,0.05274137,-0.043703534,-0.074269995,-0.20959242,0.11623574,-0.12188965,-0.112993255,0.17983463,0.13585901,-0.025081487,-0.09996746,0.07227896,-0.031818006,0.15383792,0.14883037,-0.05305039,0.024820194,0.047868017,-0.06475446,-0.039224505,0.09827344,-0.2573688,0.02116721,0.090340756,-0.1232957,0.03834313,0.062654905,0.17063671,0.034923233,0.0045100856,0.20659637,-0.031325363,-0.13806026,0.07288124,0.0835491,0.07082434,-0.063972704,-0.0479728,-0.01784133,-0.027724287,0.065296605,0.015455822,0.04072215,0.15537405,0.16046315,-0.06774849,0.26896262,-0.011897685,0.035017453,0.042037442,0.16008262,-0.14682364,-0.029188197,0.014321391,0.026906881,0.038714442,0.13380148,-0.12925282,-0.037782427,-0.10369708,-0.1616662,0.048575222,0.026306303,0.040319998,0.040706303,0.08674951,0.07606689,0.06417568,0.1450765,-0.051162116,0.20417848,-0.09908334,0.0056815404,0.006853729,-0.04082768,0.006558882,0.042832986,-0.01568903,-0.051626254,0.053036373,0.062077798,0.06569208,0.063223146,-0.014768905,0.057479877,-0.13910496,0.0070984615,-0.09075003,0.092236884,-0.04229802,0.15777144,-0.072191685,0.0050254273,0.03724742,0.19236273,0.08310737,0.17923415,0.15680142,-0.0032305252,-0.13294673,0.12895826,-0.14322035,-0.010903751,0.1792535,0.021846414,-0.013449921,0.10271261,-0.10019964,0.1250977,-0.025408907,0.16020794,-0.17273368,-0.041287646,-0.02351096,-0.01438244,0.015573042,0.06952622,0.13545665,-0.013620946,-0.028369932,-0.025990704,-0.08855371,-0.07504024,-0.022650436,-0.06141654,-0.06036431,-0.124655046,0.0054543237,0.04588597,-0.029251482,0.0029501042,-0.040981434,-0.13903227,0.09393574,-0.07964986,-0.06191203,-0.0654943,-0.10642073,0.02518042,-0.16783504,-0.0547155,0.20533854,0.03491216,-0.015286252,-0.0068727797,-0.15586962,0.086150624,0.00153795,0.059614997,0.13974671,0.07901472,0.027297663,-0.07650109,-0.138379,0.013472516,-0.06999189,0.062384177,0.09792692,0.13742545,-0.045915954,0.06544378,-0.07358278,0.10684032,0.03529111,0.1088502,0.023871388,0.08763911,0.09780517,-0.0053179236,0.09837084,-0.10670625,-0.009886326,-0.0062580965,0.04071071,-0.0905927,-0.020667983,-0.05555853,-0.018845998,0.09570403,0.13941419,0.01649023,0.1292281,-0.045894247,0.13888027,-0.036753286,-0.072894655,0.030221991,0.006873939,-0.092940405,-0.09058196,-0.049905315,-0.019638482,-0.040964004,-0.11339624,0.11766063,-0.0860853,0.008595714,-0.18017395,-0.021512235,-0.06524004,0.018809784,-0.15448776,-0.07886765,-0.007573188,0.07797511,0.122800395,0.08059844,-0.04382364,0.04100504,-0.15328535,-0.04188217,0.026336841,-0.03215341,0.024687989,0.07818457,0.055419184,0.11096415
